tree
version=v4
num_class=1
num_tree_per_iteration=1
label_index=0
max_feature_idx=182
objective=lambdarank
feature_names=Column_0 Column_1 Column_2 Column_3 Column_4 Column_5 Column_6 Column_7 Column_8 Column_9 Column_10 Column_11 Column_12 Column_13 Column_14 Column_15 Column_16 Column_17 Column_18 Column_19 Column_20 Column_21 Column_22 Column_23 Column_24 Column_25 Column_26 Column_27 Column_28 Column_29 Column_30 Column_31 Column_32 Column_33 Column_34 Column_35 Column_36 Column_37 Column_38 Column_39 Column_40 Column_41 Column_42 Column_43 Column_44 Column_45 Column_46 Column_47 Column_48 Column_49 Column_50 Column_51 Column_52 Column_53 Column_54 Column_55 Column_56 Column_57 Column_58 Column_59 Column_60 Column_61 Column_62 Column_63 Column_64 Column_65 Column_66 Column_67 Column_68 Column_69 Column_70 Column_71 Column_72 Column_73 Column_74 Column_75 Column_76 Column_77 Column_78 Column_79 Column_80 Column_81 Column_82 Column_83 Column_84 Column_85 Column_86 Column_87 Column_88 Column_89 Column_90 Column_91 Column_92 Column_93 Column_94 Column_95 Column_96 Column_97 Column_98 Column_99 Column_100 Column_101 Column_102 Column_103 Column_104 Column_105 Column_106 Column_107 Column_108 Column_109 Column_110 Column_111 Column_112 Column_113 Column_114 Column_115 Column_116 Column_117 Column_118 Column_119 Column_120 Column_121 Column_122 Column_123 Column_124 Column_125 Column_126 Column_127 Column_128 Column_129 Column_130 Column_131 Column_132 Column_133 Column_134 Column_135 Column_136 Column_137 Column_138 Column_139 Column_140 Column_141 Column_142 Column_143 Column_144 Column_145 Column_146 Column_147 Column_148 Column_149 Column_150 Column_151 Column_152 Column_153 Column_154 Column_155 Column_156 Column_157 Column_158 Column_159 Column_160 Column_161 Column_162 Column_163 Column_164 Column_165 Column_166 Column_167 Column_168 Column_169 Column_170 Column_171 Column_172 Column_173 Column_174 Column_175 Column_176 Column_177 Column_178 Column_179 Column_180 Column_181 Column_182
feature_infos=[1:6] [0:8.9899997711181641] [0:85] none [0:9.880000114440918] [0:90] none [0:7.9000000953674316] [0:0.97000002861022949] [0:8.5399999618530273] [1:6] [-5:5] [0:76.819999694824219] none none [1.7999999523162842:55.400001525878906] [-2.2302701473236084:2.229327917098999] [1:6] [-2.2242162227630615:2.2327311038970947] [-2.2316751480102539:2.2360680103302002] [-2.2316751480102539:2.2360680103302002] [-2.2360680103302002:2.2360680103302002] [1:6] [-2.2286059856414795:2.2360680103302002] [1:6] [-8.1599998474121094:7.4200000762939453] [-7.8299999237060547:7.6500000953674316] [-90:90] [-70:71.425003051757812] [-6.4366664886474609:3.5283334255218506] [0:7.8000001907348633] [0.13520847260951996:0.19877235591411591] [1:6] [0:8.9899997711181641] [0:85] none [0:9.880000114440918] [0:90] none [0:7.8499999046325684] [0:0.99000000953674316] [0:8.1999998092651367] [1:6] [-5:5] [0:76.819999694824219] none none [1.7999999523162842:55.400001525878906] [-2.234015941619873:2.232410192489624] [1:6] [-2.2242162227630615:2.2296857833862305] [-2.2265846729278564:2.2360680103302002] [-2.2265846729278564:2.2360680103302002] [-2.2360680103302002:2.2360680103302002] [1:6] [-2.2286059856414795:2.2360680103302002] [1:6] [-7.4200000762939453:7.179999828338623] [-7.2800002098083496:7.690000057220459] [-90:90] [-70:71.425003051757812] [-6.0900001525878906:3.5533332824707031] [0:7.8299999237060547] [0.13520847260951996:0.19877235591411591] [1:6] [0:8.9899997711181641] [0:85] none [0:9.880000114440918] [0:90] none [0:7.820000171661377] [0:0.97000002861022949] [0:8.1999998092651367] [1:6] [-5:5] [0:76.819999694824219] none none [1.7999999523162842:55.400001525878906] [-2.234015941619873:2.229327917098999] [1:6] [-2.2242162227630615:2.2303993701934814] [-2.2316751480102539:2.2360680103302002] [-2.2316751480102539:2.2360680103302002] [-2.2360680103302002:2.2360680103302002] [1:6] [-2.2286059856414795:2.2360680103302002] [1:6] [-8.1599998474121094:7.4200000762939453] [-7.8299999237060547:7.6999998092651367] [-90:90] [-70:71.425003051757812] [-6.4366664886474609:3.5533332824707031] [0:7.8000001907348633] [0.13520476222038269:0.19877235591411591] [-8.1599998474121094:7.4800000190734863] [-7.6100001335144043:8.1599998474121094] [-7.5100002288818359:7.820000171661377] [-7.690000057220459:7.6500000953674316] [-7.8000001907348633:7.6700000762939453] [-7.6999998092651367:7.8299999237060547] [-90:90] [-90:90] [-90:90] [-70:71.425003051757812] [-70.235000610351562:70] [-71.425003051757812:71.425003051757812] [-0.056050717830657959:0.057387363165616989] [-0.055217824876308441:0.057359881699085236] [-0.05691869929432869:0.05691869929432869] [-5:5] [-5:5] [-5:5] [1.4333332777023315:8.4033336639404297] [0:3.463437557220459] [0:8.1599998474121094] [0:8.0900001525878906] [0:77.089996337890625] [0:42.426406860351562] [0:90] [0:66.669998168945312] [0:7.8000001907348633] [0:3.6467001438140869] [0:7.8299999237060547] [0:7.7699999809265137] [0:61.685001373291016] [0:31.925870895385742] [0:71.425003051757812] [0:55.055000305175781] [0.15171094238758087:0.18196502327919006] [1.658483779465314e-05:0.02393888495862484] [3.674301115097478e-05:0.057387363165616989] [0.13520476222038269:0.17819687724113464] [123:654] [1:6] [1:6] [1:6] [6:120] [1:24] none [0:3] [0:14] [-6:6] [45.113887786865234:62.551200866699219] [0.45513281226158142:0.54589509963989258] [-0.056050717830657959:0.057387363165616989] [0.15379968285560608:0.19877235591411591] [0:1] none none none none none none none none none none none none none none none none none none none none none none none none none none none none none none none none none none
tree_sizes=21427 21531 21536 21503 21496 21508 21523 21545 21475 21507 21502 21493 21489 21522 21546 21448 21478 21491 21452 21508 21478 21487 21467 21459 21470 21414 21449 21455 21544 21442 21517 21440 21470 21440 21470 21448 21493 21462 21444 21447 21420 21468 21479 21406 21467 21429 21376 21390 21488 21457 21421 21463 21479 21439 21458 21451

Tree=0
num_leaves=191
num_cat=0
split_feature=130 25 25 130 130 148 112 122 148 124 112 8 112 58 8 8 133 8 8 133 130 63 124 130 125 74 134 134 112 63 8 72 72 145 62 8 130 72 134 72 134 25 29 8 57 94 122 134 72 8 134 8 8 134 114 72 8 57 8 72 134 8 25 8 148 134 57 108 8 134 89 40 134 57 138 8 49 130 85 109 114 49 8 65 130 26 34 130 8 33 134 8 72 8 130 63 8 26 134 72 122 26 130 63 26 108 110 109 72 114 8 88 40 61 132 8 66 8 133 134 134 55 134 8 133 8 33 63 66 134 42 114 23 37 110 73 113 61 40 42 134 59 128 133 58 19 57 131 48 109 40 58 72 26 134 101 138 40 8 112 90 115 40 72 111 134 125 62 72 101 34 40 123 19 18 12 8 133 109 5 37 94 33 108 130 126 25 16 39 69
split_gain=33895.6 10172.4 3717.38 2886.39 1767.21 1495.61 1081.32 1050.88 759.638 703.417 636.381 587.961 498.966 462.193 413.01 411.541 372.534 359.524 348.621 345.704 301.417 257.004 233.31 220.916 220.189 205.406 200.639 182.175 167.238 157.215 155.793 147.313 147.229 147.055 145.957 144.968 143.809 137.31 132.543 129.928 129.856 129.428 128.431 125.353 123.739 114.832 114.432 113.48 109.584 124.938 106.149 105.225 101.367 99.6736 98.6092 97.7943 117.281 94.0511 92.4942 102.654 91.9076 90.8882 89.7289 89.5578 89.3221 86.4811 85.0171 84.5712 81.9067 81.6392 79.893 78.2476 77.6773 80.4147 76.9171 74.6098 72.511 70.2274 69.8768 67.8887 67.3735 62.7942 62.6927 61.7959 61.3296 61.2191 60.2962 59.0984 58.4121 58.099 57.0663 55.0437 59.7634 53.044 53.0363 52.9579 52.9414 52.7415 52.5778 52.9269 52.2778 64.7637 52.1144 51.6173 51.1938 50.2553 49.1134 48.8816 48.7538 48.6378 46.42 45.9949 45.7592 45.7191 45.6694 45.127 44.8879 44.3061 44.2643 44.142 44.0913 43.8066 43.7862 43.7142 43.5205 43.2515 43.1583 42.4225 41.4878 41.3649 59.7209 46.3018 41.3243 41.1837 41.1784 41.1554 40.9422 43.7204 40.7098 40.6386 55.5576 48.0459 40.3204 40.2621 39.5422 39.4048 39.1127 38.1425 37.9351 37.8518 37.34 37.2543 37.0946 36.9996 35.8122 35.3196 35.1081 34.9993 34.949 34.8412 34.7795 34.7675 34.6267 34.3694 34.2852 35.2709 41.1075 36.7606 34.1159 39.0397 33.9995 33.9225 33.6756 33.6575 33.4491 38.4846 33.2994 33.1924 43.2616 33.9179 36.5732 33.1912 33.151 33.6551 32.9565 33.5687 32.9309 32.6078 35.6298 33.6376
threshold=0.16779296100139621 -1.0000000180025095e-35 -1.0000000180025095e-35 0.17117998003959659 0.16563741117715838 1.0000000180025095e-35 -1.0000000180025095e-35 5.1066665649414071 1.0000000180025095e-35 0.33500000834465032 -1.0000000180025095e-35 0.18500000238418582 -1.0000000180025095e-35 6.6449999809265146 0.20499999821186068 0.18500000238418582 0.16315785050392154 0.21499999612569812 0.19500000029802325 0.1583116948604584 0.16342585533857348 0.15829096734523776 0.33500000834465032 0.1719394847750664 6.4449999332427987 5.5000000000000009 125.50000000000001 125.50000000000001 1.0000000180025095e-35 0.15706914663314822 0.10500000044703485 0.15500000119209292 0.15500000119209292 0.50746345520019542 6.6150000095367441 0.16499999910593036 0.17338638752698901 0.17500000447034839 125.50000000000001 0.16499999910593036 515.00000000000011 -1.0549999475479124 1.2724999785423281 0.11499999836087228 -0.1950000002980232 6.6749999523162851 6.6549999713897714 361.50000000000006 0.18500000238418582 0.15500000119209292 125.50000000000001 0.17500000447034839 0.13499999791383746 125.50000000000001 5.5216667652130136 0.21499999612569812 0.20499999821186068 -1.0000000180025095e-35 0.12499999627470972 0.15500000119209292 124.50000000000001 0.25499999523162847 2.185000061988831 0.35500000417232519 1.0000000180025095e-35 513.50000000000011 -0.014999999664723871 -0.020399348810315129 0.095000002533197417 123.50000000000001 -1.2849999666213987 0.22500000149011615 522.00000000000011 -0.24499999731779096 16.500000000000004 0.23499999940395358 3.5000000000000004 0.16930901259183886 -0.059356510639190667 0.0091219064779579657 5.2216665744781503 2.5000000000000004 0.074999999254941954 4.3350000381469735 0.16375936567783358 0.014999999664723875 32.085000991821296 0.17294298857450488 0.11499999836087228 5.1549999713897714 144.00000000000003 0.22500000149011615 0.18500000238418582 0.17500000447034839 0.1667413339018822 0.15544679015874865 0.2650000005960465 1.0000000180025095e-35 351.50000000000006 0.19500000029802325 6.5783333778381357 -0.03499999921768903 0.17541083693504336 0.16172793507575992 -0.024999999441206452 0.0036260469350963835 -0.011860357131808994 0.00023142925783758986 0.13499999791383746 4.8116667270660409 0.27500000596046453 1.5000000000000002 0.22500000149011615 0.0041666666511446246 0.015017990488559009 0.18500000238418582 54.954999923706062 0.10500000044703485 0.16277915984392169 563.50000000000011 152.50000000000003 -0.011662079486995934 464.00000000000006 0.12499999627470972 0.15380098670721057 0.23499999940395358 5.1349999904632577 0.16338266432285312 7.930000066757203 125.50000000000001 3.5000000000000004 5.1916666030883798 -0.37236958742141718 23.125000000000004 -0.016341412439942356 6.7950000762939462 -1.4999999999999998 0.027500000782310966 0.15500000119209292 5.5000000000000009 125.50000000000001 2.2549999952316289 2.1525000333786015 0.15559791773557666 0.014999999664723875 -0.40087546408176417 -0.23499999940395352 0.0087676113471388834 -0.99015438556671131 -0.0037761298008263107 0.085000000894069686 6.6849999427795419 0.12499999627470972 -0.014999999664723871 123.50000000000001 0.085000000894069686 11.000000000000002 0.10500000044703485 0.11499999836087228 1.0000000180025095e-35 0.10500000044703485 0.1748965606093407 0.25499999523162847 0.14500000327825549 -3.4999999999999996 129.00000000000003 6.9249999523162851 0.15500000119209292 0.12499999627470972 0.095000002533197417 42.745000839233406 0.085000000894069686 0.093391302973032012 1.0640591382980349 -0.09617298841476439 31.032500267028812 0.31499999761581426 0.16628859192132953 0.010187980718910696 35.094999313354499 41.07500076293946 6.6549999713897714 6.3750000000000009 -0.0070420359261333934 0.16643974184989932 35.825834274291999 0.10500000044703485 0.58026239275932323 6.6050000190734872 41.68499946594239
decision_type=2 2 2 2 2 2 2 2 2 2 2 2 2 2 2 2 2 2 2 2 2 2 2 2 2 2 2 2 2 2 2 2 2 2 2 2 2 2 2 2 2 2 2 2 2 2 2 2 2 2 2 2 2 2 2 2 2 2 2 2 2 2 2 2 2 2 2 2 2 2 2 2 2 2 2 2 2 2 2 2 2 2 2 2 2 2 2 2 2 2 2 2 2 2 2 2 2 2 2 2 2 2 2 2 2 2 2 2 2 2 2 2 2 2 2 2 2 2 2 2 2 2 2 2 2 2 2 2 2 2 2 2 2 2 2 2 2 2 2 2 2 2 2 2 2 2 2 2 2 2 2 2 2 2 2 2 2 2 2 2 2 2 2 2 2 2 2 2 2 2 2 2 2 2 2 2 2 2 2 2 2 2 2 2 2 2 2 2 2 2
left_child=2 6 13 5 20 12 23 -5 14 11 15 21 17 19 28 22 40 24 36 72 42 139 29 41 -3 34 68 78 38 136 84 43 79 71 88 122 53 66 52 107 55 115 -4 144 -28 64 -36 57 49 81 54 -50 170 89 128 58 -57 104 59 134 142 -41 65 69 82 114 -30 158 83 76 -27 129 73 -1 125 106 -34 -70 91 133 163 -18 -31 -26 -21 93 174 -71 146 116 -52 127 -93 -72 -84 -55 -62 117 186 -100 -86 -102 123 -92 -32 152 -29 -16 159 -66 -81 113 164 -80 -12 138 162 -46 -99 -90 -97 -78 -33 -68 -96 147 -38 -13 -35 131 -131 145 -77 -20 -8 -82 -6 -138 -2 140 141 -7 -19 -75 -14 -23 -22 -43 -141 -45 -88 -67 182 -76 -73 -94 -151 -154 -25 -103 -147 -95 168 -17 -111 166 167 -166 169 -10 -9 -108 -44 -59 -54 -176 -101 178 -152 180 -180 -145 -79 -184 -165 -186 -37 188 -113 -189
right_child=1 3 4 7 10 9 16 8 18 -11 62 27 31 -15 39 80 48 60 32 30 25 33 -24 67 26 70 44 75 37 45 47 35 63 50 46 98 126 -39 -40 61 -42 74 172 149 97 -47 -48 -49 51 -51 90 -53 86 95 -56 56 -58 173 -60 -61 96 -63 -64 -65 109 151 102 -69 77 87 85 154 -74 143 153 132 121 105 111 110 135 -83 94 -85 100 -87 150 -89 119 -91 103 92 155 161 124 120 -98 118 99 176 101 108 -104 -105 -106 -107 171 -109 -110 112 -112 187 -114 -115 -116 -117 -118 -119 -120 -121 -122 -123 -124 -125 -126 -127 -128 -129 -130 130 -132 -133 -134 -135 -136 -137 137 -139 -140 148 -142 -143 -144 181 -146 160 -148 -149 -150 156 177 -153 157 -155 -156 -157 -158 -159 -160 -161 -162 -163 -164 184 165 -167 -168 -169 -170 -171 -172 -173 -174 -175 175 -177 -178 -179 179 -181 -182 -183 183 -185 185 -187 -188 189 -190 -191
leaf_value=-0.061441806314276468 -0.026371759912250152 -0.068514849302461656 -0.056234955180460566 -0.069459448044184413 0.0074804991641382809 -0.043367653027993863 -0.052544032354062124 0.02272445312840438 0.022043607439660402 -0.068499276956669575 -0.018044254658527624 -0.014249422496161623 -0.001232893965222857 0.053974347922129545 -0.042885091584474663 -0.048445125086998865 -0.0089170491179795287 0.0058338488248640208 0.023608634456845086 -0.050451861322295566 -0.045562098123088285 -0.017840752193667767 -0.068914538774662665 0.016735115189743053 -0.051602709428068168 -0.038271244663153438 -0.0048127473397176932 -0.010632026192787386 -0.012444886986748732 0.016344419688800314 -0.032208558168235327 0.025516727849625147 0.029879050848511991 -0.038332589333920183 -0.067712677798266549 -0.063084505341683084 0.047439749140114243 0.039342900105425266 0.043413313507549595 0.020933560314893396 -0.055780198080679841 0.018732019034066353 0.054108628080585475 -0.048395820363354637 0.037075809721974155 0.039264986521673033 0.01718202275473707 -0.056823957615149079 0.016963480126215433 -0.044915584304760996 0.046399659992696851 -0.020463455558446007 -0.066531890363109386 -0.019463213438657909 0.037615083640192337 0.011133266588414055 -0.04295330955028244 -0.032042164707857534 -0.049827277326444659 0.0075575365787781002 -5.6679172823300237e-06 -0.010572767376941558 -0.0026165786755216408 -0.035685843222189616 0.00034661281344556118 -0.047262977418137425 0.022979860530748127 0.023667892824972017 -0.023040928472793456 0.031056788443335249 -0.00054144740748645389 -0.064678836611531745 -0.06545895164876582 -0.054433547121186657 0.0022437405527668359 -0.014458816733356914 -0.04938969355934314 -0.041106214805393074 -0.034946076978529556 0.022877758265101921 -0.00040792394223088173 -0.031937117620400357 -0.013205891772927539 0.024645735721409798 -0.06835936425354297 -0.033089894002136043 -0.062013988226457234 0.047175341037316541 -0.044688639774283778 0.042465998985170741 0.016273553988483784 -0.05565213752185915 0.0096461491833632132 0.018896825561037573 -0.052223013686845947 0.051245933942334787 -0.028636898627068221 -0.003085000136295164 -0.044465288855010825 -0.0093432088029896249 -0.0020504621615329162 -0.026733569016249913 0.042457028097591006 0.038759047553541912 -0.054322449617860126 -0.023378589949055836 -0.018340728534741439 -0.0016412225441445659 -0.012454840463183018 0.0049403737893075903 -0.049836902434818649 0.039632026281288014 -0.014279016058295894 0.031318900827574478 -0.044167429572966078 -0.041927263377745404 -0.061388507125285291 0.023258473694500483 0.020961932116728543 -0.061743854124531393 0.041172416115799838 0.0091273958130383033 -0.00098720124724409114 0.00012222080268195783 0.0045936179088989296 -0.035431657037888052 0.055549528495679013 0.025969499162989899 0.020849636344996699 0.037873178336588022 0.022132107786699502 0.026993599619047536 0.011566932309409566 -0.033313477583148503 -0.026869069340886193 -0.023286015638516334 -0.017555142296298995 -0.053289047814024285 0.00048210130291318371 -0.039379768191094955 0.022353083054696514 0.015400640569037907 -0.05171292473345062 -0.041891171221500198 -0.026104062988376614 0.019878275260991379 -0.0234784889126789 -0.0098897248546981169 0.0012551639963141385 -0.0043183438358240303 -0.046164879942900805 0.053107939340192714 -0.061483547988841071 -0.020439969077947467 0.0027260899520444208 -0.063622784409001085 -0.036286944700096198 0.019533332560228406 -0.022413249301256679 -0.051989174572989467 -0.061484037872693166 -0.030878933858210736 -0.023251784985090451 -0.040367041128904914 0.017231881739573084 0.027803009716200373 -0.042870403888414926 -0.062160547361793425 0.036927708668317481 -0.061845973513716922 0.042767065891864624 0.02637631403696605 -0.056560490022757905 -0.0046680001080449118 0.032236816600634835 -0.048110100376693388 -0.065839142543169957 0.025803799406580594 -0.064628973573992679 0.037804526658595454 0.032973395837026978 0.00096408162708854709 -0.061456702087756609 0.025100339162797716 -0.014798361720903057 -0.045047950757338841 0.0093165282042500693 -0.02111384552892286 -0.045864411911148005 0.031984522976818246
leaf_weight=1712.5542633228761 214.32919332497113 38.08494285173947 1268.9955538605718 106.03524382566684 47.201756706577726 33.815835932968184 129.03048260425567 159.66565123316832 188.8210557710845 94.080333880017861 311.42214328306727 40.845512051135302 225.00637318225927 46.595991030262667 87.876936198212206 105.68160208498011 368.22862916815211 17.008359339088202 20.260151733644307 181.17170834785793 175.076034255384 58.800047126831487 52.403190175726195 41.537543036538409 13.26546427188441 230.17057160587865 201.32175965695933 49.474873395985924 144.75151299485879 212.84396147281223 174.80934696702752 178.76699272458791 177.87406819313765 14.136191559256984 24.447864055284299 7.5508126104250541 1170.2062837597914 314.04886751365848 1627.1743947047798 347.65656035325082 814.6763942767866 280.17774818558246 16.126084877731049 221.32809249698767 415.13049271261843 131.99835156396148 83.890530871838564 1617.3127464852296 155.20939302993065 326.25761283363681 1511.0039209746174 223.56589026439178 15.851722709601743 13.62304637726629 907.15370841673575 101.45137150018127 93.85924940489349 249.61325004878745 679.02431097936642 77.58452928213228 243.16093805042328 164.72469269247085 104.27693577710306 20.502071502007311 314.69492037767486 517.46290415525436 227.46353315074521 431.5647260202677 208.47024312335998 474.99891867335828 344.12674155148852 10.052889825776218 2789.6509633404203 549.27937884736457 135.8160089237208 105.48522532575589 24.423695160076022 28.444377727340907 18.427717956714332 196.49419120397943 200.98705203447025 240.14031803396938 464.94442310837621 181.89619243401103 34.399769433715846 160.76870438142214 6.4313942976295939 705.57317267576582 805.48256299090281 1147.5282108911779 144.71577723338851 30.072048181435093 72.415379792451859 18.974173809154308 16.240357701739413 2128.2594680971233 116.55497885213117 135.76926482556155 108.90780308400281 170.9288256985601 124.93432866294461 141.12439813787933 87.089156308473321 1019.8572981098114 539.04153485926508 70.480902712326497 20.788327985152137 58.633320862340042 122.32000060603605 193.06377158372197 10.621357571100814 5.7435670979320994 56.24347908188065 37.154880967224017 111.95961855395581 136.00724929921853 5.9061543033458284 935.13360030615877 300.15894878571271 252.99231529328972 745.48845177875774 40.766850190237164 132.53457942558452 186.31450812431285 533.76902155786229 23.427261256292695 2986.1784799197485 141.79320723516867 605.51512543787248 699.23989126594097 520.60134089730855 370.72660496947356 250.95943433110369 59.921941485023126 197.03802418182022 184.49697431670211 137.92600716618472 60.539056366105797 101.68750153273868 39.180582859204151 193.63044992832874 32.89719341811724 109.50254540937021 337.41145265904197 119.50971206639952 134.88249847502448 232.44801707868464 70.933286518004024 94.638444774609525 58.72467710559431 19.044268070021644 3.9274899261072269 5.9809928270988157 248.4004725824052 86.756438160315156 8.2556762862950546 151.03312555738376 198.3959598056972 81.511495348531753 133.6509451669117 5.9813829062040886 140.99852767770062 13.977931299945338 140.14245705815847 260.75016610138118 438.09259449555248 15.098002259153871 6.5665857382118693 425.13409974169917 6.2823905339464536 316.6416371113155 757.32825679278176 3.4970316698891102 71.103989813185763 15.553813113365324 12.393712551333008 13.079350734595208 200.47922702971846 9.9521347726695257 29.589887623209506 7.6635781046934417 23.565962498614681 5.9596846783533683 28.929200062993914 269.36657844579895 53.715970715871663 97.236266621388495 105.94936846219935 96.791625616373494 16.18343005166389
leaf_count=236618 20920 3532 181489 8588 1788 656 15084 1086 1557 7178 40085 490 21209 6011 6291 6181 29591 106 318 23098 22034 857 5413 2270 259 20894 14166 3755 12197 10415 21197 14770 760 359 3749 1021 14890 16557 40122 13412 94177 16278 444 29361 13148 3373 5311 196931 11507 35080 24243 22051 275 1214 6010 9044 12960 34614 80892 6385 13884 8770 14099 720 12619 74302 14504 21235 2458 11810 23734 134 367372 84101 11543 6079 279 381 278 3404 12949 24554 34594 1325 5294 22068 99 10067 95705 6959 9012 419 562 717 1823 30791 8419 12243 14693 19362 11682 15031 3049 40694 73710 840 1213 2284 12141 13254 360 23 4062 216 16741 16678 112 37118 19818 40219 29279 244 15372 15377 29455 2929 25927 921 5493 18651 26929 3017 11267 2180 19963 15303 11491 7166 8270 4472 8611 331 1208 46948 13664 1252 26815 5725 7341 5387 294 439 122 25342 5371 129 18656 1489 7680 16278 159 11449 210 9859 3774 19474 431 218 2946 124 1559 27458 684 7207 74 172 2177 1292 200 159 46 2257 100 181 12742 3562 9611 1476 1449 97
internal_value=9.98791e-06 0.0209362 -0.0392761 0.0293261 -0.023032 0.0173584 -0.0241325 0.0399624 0.0407609 0.0262831 -0.0092817 0.0273719 0.00165626 -0.0552508 0.02784 -0.00276458 -0.0356524 0.00932826 0.0456989 -0.055834 -0.0411221 0.0322392 0.00371395 -0.00189942 0.0142055 -0.0339384 0.0153802 0.00941008 0.0327804 0.00505022 -0.047037 -0.0151524 0.0313079 0.0340119 -0.0415526 -0.003611 0.0485171 0.0203849 0.037686 0.002484 -0.044824 -0.0102786 -0.0548573 -0.025686 0.0211757 0.00754063 -0.00231537 -0.0510034 -0.0210195 -0.0274517 0.0376624 -0.00511911 0.0259038 0.0442771 0.0302576 -0.0378079 -0.0149191 -0.0418656 -0.0419212 -0.0285451 -0.0184055 0.0108005 -0.0334678 0.0358589 0.00586114 -0.036866 0.0111232 0.0163785 -0.000151033 0.03691 -0.0205182 0.025869 -0.061335 -0.0569294 -0.00143725 0.0172496 0.0183389 -0.00710375 -0.00677 0.00838964 -0.022726 -0.0180366 -0.000888189 0.0192646 -0.0327345 -0.014331 0.0105216 0.040717 -0.0444482 0.0377302 0.0418769 0.0051606 -0.0142366 -0.00830201 -0.00451375 0.0483183 -0.00933056 0.0241067 -0.0175995 -0.0251944 -0.0268985 -0.0240626 0.0179468 0.0359795 -0.0489517 0.0027464 0.0230117 -0.0264897 -0.0309656 0.0123104 0.018963 -0.019245 0.0161872 0.00913441 -0.0250267 -0.0250867 0.0291953 0.0275273 0.0134766 -0.0488103 0.0486455 -0.0131025 0.0142536 0.0127119 0.00283938 0.00983632 0.0532763 0.0169424 0.019449 0.027526 0.0311756 0.0196851 0.00384492 -0.0188178 -0.0371381 -0.0113877 -0.0216864 -0.0286342 -0.0177458 0.00483397 0.0128813 -0.0145231 -0.0439744 -0.0483914 -0.00990605 0.00605285 -0.0330408 0.0129354 -0.0107926 -0.0382513 0.0166466 -0.0464234 0.00968008 -0.012429 -0.00472819 0.0015754 -0.0273956 0.0169234 -0.00916111 -0.0391395 0.0160834 -0.0248996 0.0301179 -0.0303789 0.0180756 0.0215835 0.011878 0.0150954 0.0313519 0.0190919 0.0361015 0.0251618 0.0328576 -0.0260054 -0.0272522 -0.00368052 -0.013636 0.0187296 -0.0027041 0.0152701 -0.022485 -0.0390926 -0.0135864 0.00921954 -0.026177 -0.0199319 0.00364439 -0.0262812 -0.0407886 -0.0139014
internal_weight=50505.3 32952.9 17552.4 27781.5 8703.81 13073.6 5171.46 14707.9 14601.8 8335.33 4945.82 8241.25 4738.26 8848.54 4039 3896.77 3406.07 3253.65 10562.8 8801.94 3757.99 6483.59 2942.38 1765.39 2767.42 2469.38 2729.34 1757.67 3380.11 2889.97 3389.48 1484.61 1731.44 6089.42 1574.34 709.005 8831.41 959.668 2420.44 658.892 2092.66 1210.78 1288.62 775.602 1987.51 2644.31 108.338 2651.88 1313.4 934.627 4202.38 378.775 793.267 4675.02 1526.81 1277.99 195.311 1034.57 1082.68 403.653 486.227 512.381 1049.05 1444.14 2512.31 944.772 645.619 554.614 741.823 1423.64 895.039 1887.04 5412.46 2622.81 758.755 1184.04 243.065 546.661 573.632 287.298 954.391 608.369 1227.8 195.162 737.601 664.868 316.96 1180.57 1466 1787.65 2675.58 293.382 110.743 504.099 1014.95 2887.37 359.716 1786.19 397.703 292.916 556.429 522.03 500.867 1164.57 713.851 338.191 827.591 146.51 397.095 1284.51 207.116 280.251 969.815 55.5826 423.382 452.024 640.122 1350.26 435.928 1058.47 2873.75 65.1905 311.302 413.778 550.009 374.538 4156.38 182.639 619.651 1790.23 1219.84 570.391 356.445 80.1821 326.069 385.484 245.667 198.465 316.017 394.163 260.343 66.713 126.511 910.257 344.516 199.664 407.524 351.111 133.819 431.086 273.16 521.39 267.71 384.216 96.8093 80.6711 209.758 204.377 123.049 274.775 140.864 159.973 634.215 568.907 913.571 720.507 282.415 267.317 620.238 195.103 476.307 778.117 19.6231 320.717 43.7992 27.9475 184.008 266.729 66.2499 47.2056 17.6157 360.977 63.3333 34.8889 463.225 323.083 104.787 224.668 102.535 122.133
internal_count=3294812 1313398 1981414 813240 820924 522682 500158 290558 281970 226602 365612 219424 296080 1160490 137819 219946 361288 130797 144151 1154479 455312 163592 159350 138870 107180 272695 103648 55832 107062 153937 417183 165283 30142 142181 193833 77006 114009 61684 45378 30757 238505 107685 182617 88277 96493 133492 9060 333659 122783 89225 85811 33558 5256 73192 11862 144328 22004 136728 122324 41432 23617 22182 145666 23880 130119 131567 45127 31185 7155 23160 78862 56370 737296 369924 61817 49772 1283 5571 6060 6262 60596 54145 76287 1584 83524 57968 2611 21877 184773 11908 73949 2521 1110 35900 65872 61284 22303 82327 46864 36232 60426 55132 32930 49706 94907 3113 32426 8575 43450 53832 3764 3539 41213 494 56826 45868 4949 50266 32061 135924 60070 523 30142 29881 31278 24932 40817 1411 5852 50865 45580 5285 17346 2498 35047 28252 20445 18657 29190 21411 9598 987 1314 133306 34873 2268 48849 22003 11813 53404 2090 74741 2273 36885 5505 691 24043 1611 9950 31309 1411 12166 4837 32344 37151 23897 4423 3992 4627 1681 2645 28671 1128 41821 521 246 21539 1991 699 405 246 49205 662 281 26163 16304 10632 3045 1472 1573
is_linear=0
shrinkage=0.035


Tree=1
num_leaves=191
num_cat=0
split_feature=134 130 134 31 130 133 57 145 109 125 134 125 8 134 110 130 0 8 8 90 40 8 8 8 64 145 110 133 125 125 133 72 8 90 130 89 148 145 131 74 11 110 148 31 22 58 134 8 29 130 8 72 40 130 125 145 74 90 72 50 133 111 74 29 40 29 29 85 130 112 2 53 72 131 112 72 109 139 48 134 94 33 48 61 29 125 66 130 36 58 61 8 40 8 109 57 110 134 57 40 48 133 60 123 112 82 112 112 16 40 25 22 29 123 80 110 29 110 94 30 30 125 37 8 72 109 134 130 31 29 116 95 129 72 40 66 110 25 57 89 20 53 22 94 18 110 42 33 25 148 31 112 4 16 25 5 131 142 36 101 110 85 123 122 131 119 134 8 0 75 139 134 89 72 16 134 8 134 121 72 76 8 40 80 96 95 96 8 66 122
split_gain=27729.7 10204.9 4202.29 2371.45 1632.64 1397.95 1164.53 1066.46 920.786 818.883 727.449 724.436 677.696 628.329 665.076 441.034 453.371 377.148 344.485 318.092 312.335 303.274 292.607 291.875 291.099 273.098 269.984 267.021 256.202 255.916 241.158 234.789 214.835 213.331 211.833 205.91 205.438 265.621 258.48 201.279 192.89 191.382 188.183 178.963 177.277 165.381 164.324 162.268 154.356 151.491 150.276 147.389 146.337 136.921 130.478 129.728 127.822 124.629 122.194 121.802 121.312 119.17 116.391 113.878 112.752 110.517 110.036 110.026 108.303 107.314 106.995 105.112 104.287 103.611 103.472 102.946 147.792 100.918 99.2327 97.1458 96.096 95.273 94.4371 93.341 112.16 99.3496 91.3054 89.5838 89.0741 88.3306 87.6281 87.6229 87.2816 109.936 85.7556 85.4452 85.3726 84.9145 82.1939 82.0676 91.9122 81.6477 81.5608 80.3823 80.2108 85.2021 80.0016 78.7357 111.582 78.5894 79.4673 78.4493 78.1185 77.787 77.4339 77.2226 85.363 76.012 75.8521 102.208 75.2749 80.7645 73.9566 73.7879 73.7761 72.7095 75.2411 71.1913 70.838 70.2696 68.0155 67.1836 81.0122 67.0341 66.9672 107.618 66.9438 66.8955 66.7302 66.3245 70.2969 73.2191 66.6328 66.0348 65.9316 64.9901 64.7091 70.1807 63.4946 63.182 111.868 87.2129 78.2021 62.8305 64.1438 62.6687 62.4844 88.2043 62.0717 61.9701 61.4113 61.1581 60.682 60.6581 60.557 60.5088 60.386 60.2415 60.0313 59.9558 59.8151 59.7554 59.654 59.5104 59.4961 59.4512 59.2134 71.0464 58.9536 59.8208 58.6898 58.5969 58.4093 58.218 77.876 62.6962 58.9975 58.1564 58.0156 57.8421
threshold=232.50000000000003 0.16661036759614947 125.50000000000001 0.16390831023454669 0.16347464174032214 0.15354749560356143 -0.054999999701976769 0.5211797058582307 -0.0043133625295013181 6.4249999523162851 418.50000000000006 6.2950000762939462 0.12499999627470972 139.00000000000003 0.0022032650886103515 0.17440218478441241 3.5000000000000004 0.19500000029802325 0.16499999910593036 6.5200002193450937 0.14500000327825549 0.15500000119209292 0.13499999791383746 0.18500000238418582 3.5000000000000004 0.52015706896781932 -0.014720254112035034 0.16087046265602115 1.0000000180025095e-35 6.4449999332427987 0.14420953392982486 0.15500000119209292 0.13499999791383746 6.6949999332427987 0.17268849164247516 0.20499999821186068 1.0000000180025095e-35 0.51806476712226879 0.0029883906245231633 3.5000000000000004 1.0000000180025095e-35 0.01200442621484399 1.0000000180025095e-35 0.16298594325780871 3.5000000000000004 0.24499999731779101 139.00000000000003 0.12499999627470972 -0.049166666343808167 0.16172281652688983 0.20499999821186068 0.18500000238418582 0.20499999821186068 0.16998253762722018 6.5250000953674325 0.52783986926078807 5.5000000000000009 6.6449999809265146 0.12499999627470972 0.36963967978954321 0.16421721130609515 -2.4999999999999996 5.5000000000000009 -0.014166666660457848 0.38499999046325689 -0.044166667386889451 1.2724999785423281 1.5160016417503359 0.16652474552392962 1.0000000180025095e-35 20.525000572204593 0.49034851789474493 0.13499999791383746 0.0058596746530383834 -1.0000000180025095e-35 0.12499999627470972 0.0099968053400516527 5.5000000000000009 -0.86315777897834767 361.50000000000006 0.37500000000000006 5.1349999904632577 -0.18694069981575009 1.0541666150093081 0.044166667386889465 6.7950000762939462 45.479999542236335 0.16941265016794207 6.9449999332427987 0.024999999441206459 1.0691667199134829 0.14500000327825549 0.13499999791383746 0.18500000238418582 0.0055808590259402999 0.44499999284744268 -0.013335164170712231 163.50000000000003 0.56499999761581432 0.2650000005960465 0.28291089832782751 0.15967804193496707 -4.5924999713897696 0.11100540310144426 -4.4999999999999991 -0.093927778303623186 1.0000000180025095e-35 -1.4999999999999998 0.29737249016761785 0.10500000044703485 -0.57499998807907093 3.5000000000000004 1.2075000405311587 0.12525501474738124 -0.20855350047349927 -0.0049433375243097535 -0.027500000782310959 -0.015017744619399307 6.6250000000000009 0.054999999701976783 0.014999999664723875 6.5750000476837167 38.899999618530281 0.085000000894069686 0.13499999791383746 0.0017190053476952019 353.00000000000006 0.17067848891019824 0.16962639242410663 -0.0091666667722165567 1.9249999523162844 0.1707672402262688 22.917500495910648 0.064999999478459372 0.27500000596046453 32.899999618530281 0.0020829127170145516 -0.46500000357627863 1.2849999666213991 0.24499999731779101 0.75998869538307201 0.45508159697055822 2.5000000000000004 6.7149999141693124 -0.3028410524129867 -0.017496161162853237 4.5000000000000009 6.1050000190734872 2.054999947547913 1.0000000180025095e-35 0.17232154309749606 -1.4999999999999998 7.5650000572204599 -0.2669988870620727 0.24499999731779101 43.32500076293946 0.003266719053499401 3.5000000000000004 3.9450000524520878 0.085000000894069686 0.020075007341802124 0.88591033220291149 0.033495889976620681 6.6549999713897714 0.0067670957650989303 12.594193935394289 518.50000000000011 0.10500000044703485 4.5000000000000009 -1.0000000180025095e-35 6.5000000000000009 322.50000000000006 0.78499999642372142 0.20499999821186068 -0.32917968928813929 214.50000000000003 0.15500000119209292 149.00000000000003 30.309999465942386 0.28499999642372137 30.457499504089359 0.22500000149011615 0.2650000005960465 0.066986188292503371 0.28499999642372137 0.16500723361968997 -1.2250000238418577 0.15500000119209292 38.784999847412116 6.5183334350585946
decision_type=2 2 2 2 2 2 2 2 2 2 2 2 2 2 2 2 2 2 2 2 2 2 2 2 2 2 2 2 2 2 2 2 2 2 2 2 2 2 2 2 2 2 2 2 2 2 2 2 2 2 2 2 2 2 2 2 2 2 2 2 2 2 2 2 2 2 2 2 2 2 2 2 2 2 2 2 2 2 2 2 2 2 2 2 2 2 2 2 2 2 2 2 2 2 2 2 2 2 2 2 2 2 2 2 2 2 2 2 2 2 2 2 2 2 2 2 2 2 2 2 2 2 2 2 2 2 2 2 2 2 2 2 2 2 2 2 2 2 2 2 2 2 2 2 2 2 2 2 2 2 2 2 2 2 2 2 2 2 2 2 2 2 2 2 2 2 2 2 2 2 2 2 2 2 2 2 2 2 2 2 2 2 2 2 2 2 2 2 2 2
left_child=2 4 17 10 19 30 21 11 32 -8 26 -7 36 47 20 16 45 25 28 49 70 29 82 31 -19 39 -3 71 -10 -5 -4 115 73 40 63 57 37 83 114 189 48 -32 -27 -24 -18 53 134 52 171 -2 54 94 60 139 -28 103 168 148 67 183 -13 -49 77 89 75 -17 -21 104 -41 127 -15 130 117 98 -34 76 91 173 -46 138 125 -44 122 84 85 -11 107 -87 99 102 145 -63 -80 106 169 143 -72 -43 -6 -60 112 -56 -31 128 -29 -106 -94 108 -55 -61 -111 166 181 182 -38 -12 -117 -36 119 -77 121 -33 -16 -122 -54 133 -127 -40 -48 187 158 -116 -133 -65 -9 -136 -88 -64 -37 142 141 -141 -14 -79 -35 -53 -130 -148 -20 150 -67 -151 -153 -135 -155 -108 -156 -158 -22 -62 178 -134 -86 -26 188 -78 -39 -103 -51 -23 -142 -30 -169 -50 -59 -162 -98 180 179 -84 -178 -101 -70 -45 186 -186 -185 -58 -73 -1
right_child=1 3 5 6 8 7 9 46 18 12 23 13 15 14 22 65 44 24 35 66 27 51 43 -25 163 42 50 58 33 34 41 120 74 144 72 79 38 111 69 68 -42 97 81 59 78 -47 55 61 62 56 -52 90 124 86 101 -57 129 174 88 109 159 64 137 80 -66 149 -68 -69 113 -71 96 164 -74 -75 -76 118 165 95 92 -81 -82 -83 160 -85 162 87 136 -89 -90 -91 -92 -93 93 -95 -96 -97 176 -99 -100 100 -102 167 -104 -105 105 -107 155 -109 -110 110 -112 -113 -114 -115 131 116 -118 -119 -120 -121 123 -123 -124 -125 -126 126 -128 -129 146 -131 -132 132 161 153 135 -137 -138 -139 -140 140 170 -143 -144 -145 -146 -147 147 -149 -150 151 -152 152 -154 154 156 -157 157 -159 -160 -161 175 -163 -164 -165 -166 -167 -168 172 -170 -171 -172 -173 -174 -175 -176 -177 177 -179 -180 -181 -182 -183 -184 184 185 -187 -188 -189 -190 -191
leaf_value=-0.058027841618388247 -0.058993542869756936 -0.043108290874886518 -0.048072066933107033 -0.067785294314383238 -0.031586992561183219 -0.067311461691236044 -0.068255025579986986 0.031185514421979643 -0.067090125986581664 0.013195544919795887 -0.052000171105679061 0.025230475852201686 -0.026683384110077871 -0.012762253144664795 0.013777720730360531 0.028650372980351224 -0.019975415781293936 0.040949644185296626 -0.043396400316141469 -0.034073957204622377 -0.0021541500659564591 -0.0024156382361955248 -0.023167279587653855 -0.053992022319964597 -0.029718609419541221 0.053682000395990387 -0.067336301789172465 0.035015252663890613 -0.022102957795486915 -0.026529124942601436 -0.028357973284701667 -0.065513788574362658 -0.03756672295491615 -0.043178051506294328 -0.024056726083405616 -0.012929524854182457 -0.039187736205576855 0.018414489084909856 0.0059540301889266893 0.0013353530757265529 0.015618638513071397 0.0027557719015181142 0.038611171430646629 -0.0023614787773483942 -0.028387407436509797 0.052469980924461181 -0.0051567493132379377 -0.013235877374228319 -0.01846191204310825 -0.047371330332985101 -0.028581366710873215 -0.034411140217370899 -0.048927502324194232 -0.0236645003719647 -0.016147596714651397 0.029097924635258343 -0.014846838078533273 -0.06440417543188251 0.0024970561006294797 -0.0028572345906803303 0.016673763973376384 0.0070502283497414471 -0.029828795665763647 -0.059024508921040005 -0.067811546620186527 -0.0033127863835674116 0.013540143215915255 0.030154425333552906 0.038447408729059031 -0.0015057084075999158 -0.0084091701991275396 -0.040704507759901046 0.020756219068915269 -0.044245286231383213 -0.056897635148685441 0.01791989657681194 0.016038757025797833 -0.037396132848280791 -0.017099921266254394 -0.030262837031554097 0.012473464098271441 0.024658060831432033 0.019212241137194386 0.032275501303598603 -0.044068743845748395 -0.010457657031526556 -0.019028077593792762 0.00853770679076922 0.020011855727951316 -0.0163952561110941 0.021942926021722899 -0.022002994108640678 0.016191117517594129 -0.011660482803460994 -0.016101623084561176 -0.016315145687671406 0.011970478996485543 -0.024815139451646581 -0.001668589140697024 -0.050615698212687001 0.0053345488871762263 0.012426393041870671 0.0079832584540557808 -0.052631580600564089 0.0011449376647624169 -0.029754523592009613 0.00085587597069283316 0.0028012269946029217 0.018899614802856044 -0.0031105031788127187 0.01646203486039937 0.031074498914029209 0.057361081197517774 -0.061371233750334882 -0.024980024501750665 -0.01188024547119006 -0.04056415234794418 0.011098447081458936 0.032499222194931156 0.0079618581945048311 0.0092333363725424257 0.0076018093162679009 -0.010021087184413248 -0.028027320039033379 0.0023210615686755009 -0.027752682530064236 0.00011750866593046972 0.023285490472899687 0.020893659138525405 -0.045764288199914134 -0.0014278070075905364 -0.056300734613762927 0.011812292819182182 0.00011722405427112031 0.02767561735056457 -0.057471877867709915 0.0078480375438129343 -0.0084681191168486936 0.023509955241375252 0.00063248471490099029 0.029003454414330665 -0.022626860878042474 -0.00747716088740304 -0.0011706777241258014 0.045785034684111957 -0.016072146238611581 0.0012596778665603001 0.020557494402005966 -0.012703198103611009 0.026051820452746927 0.023795389169022702 -0.0057830256062736717 -0.061543023180848297 -0.038952874331149114 0.016221705938697546 -0.032974330404999766 -0.039769316191110439 0.0028541691628170989 -0.029818047985827632 -0.0053085413098258429 0.016991285586333706 -0.044415984767659109 -0.0051196964925676377 0.01184807666481197 -0.034837411267520567 -0.029048287320355557 -0.020351158357288651 -0.010414313987456399 -0.058254763913960249 -0.043109280479690662 -2.94718639443894e-05 0.0037806451780615347 0.009345629307519903 0.01415181770757894 0.032237454781551253 -0.015269077145294982 -0.040705166754641267 0.0085121175237811118 0.027320477122238555 -0.034560201771653448 -0.0036686945927957206 -0.013618433298763048 -0.01366212748496076 0.043343012161835115 0.027186398982354702 0.0041552254173461284 -0.01531439566835296 -0.042195052732580708 0.016032823329070734 0.049614879551213222
leaf_weight=5.4829057783354065 3776.9391327012563 340.32628179702442 288.59551390516572 91.881076044635847 415.8942427628208 145.89466840145178 209.4268277247902 3056.2394933197647 123.89520045870449 2275.3606183234951 494.01892478612717 3861.5810908378335 295.10465983208269 312.84508941229433 740.13643987779506 415.92837353679352 2629.534598251048 557.98845898360014 1654.0017763481592 133.73064597666962 150.91682529903483 47.037680621258914 225.71850281115621 1100.0190536756418 43.922510423697531 383.71786901005544 39.567804803140461 31.422210876597092 144.36789188138209 97.186899905034807 595.98712403618265 19.62015196820721 433.70070558285806 10.929732230957596 152.76153974817134 229.97052299871575 156.76952241593972 556.76406010810751 608.62646102707367 103.29151338082738 205.27961768163368 701.15427576616639 778.55172609142028 1347.5703731770045 256.31664301722776 73.776999834924936 162.7222878492903 206.13405555661302 407.94584071345162 1257.833354576258 413.05468728404958 317.71484688844066 43.78144631581381 81.846024637925439 466.85778968385421 1515.0655152540421 228.04406181536615 8.8289046275895071 2769.164995582425 352.12726141454186 2118.3046857094159 222.2241191836074 226.12528527504764 79.268840470700525 19.955442755948752 298.24578142020619 105.87227865157183 61.299684261204675 3304.3499767273315 971.61366411100607 343.03766645118594 33.418481405940838 380.14461226353887 620.29938275122549 1690.6898920274107 4188.6483141889912 832.37636348744854 1191.4053655408206 631.68683521205094 338.38297415804118 104.1712810122408 2666.8596942236181 2525.5628162694047 184.23691272758879 56.36366465955507 504.89144841895904 311.37202689994592 762.22537648759317 310.42750747932587 496.51931645249715 61.190622891066596 295.30778069258668 448.65970834856853 900.75247680325992 212.97562019934412 369.69038389727939 3278.2154008767102 169.16895648738137 154.37908727978356 116.69058197981212 162.52810602320824 388.32583318767138 581.78393549786415 19.390114011475816 146.99477712961379 423.80891650170088 744.23856604483444 1788.0043616867042 875.0642068044981 280.13813698763261 2695.4288010745659 965.80501385848038 11.391826110426335 8.9737359376158548 236.3521302199224 167.00255956826732 545.15583808254451 147.15550258161966 316.48433578398544 1811.2658762205392 73.976076319697313 196.69164752075449 203.28103566612117 518.31766078836517 150.29871972824913 202.30006925668567 285.10411860840395 556.26848456729203 2981.4444431803422 568.50687226047739 484.31051773764193 27.324614649638534 236.19891073321924 103.64991860301234 52.51395365037024 26.794283140916377 177.74147768574767 869.39963151304983 83.155823520268314 558.89430333714699 151.95146072295029 234.80996888567461 883.64615575736389 65.164421712746844 84.689927154395264 940.02343279006891 493.93102799076587 433.15765586704947 87.920516911079176 96.871951811248437 495.60333987732884 299.14538107765839 33.597272682469338 371.07089684274979 55.235933308489621 72.910168979084119 166.03534787823446 92.148455582326278 291.57944772578776 169.18731156829745 198.93325325165642 25.532301585422829 346.51672553294338 1139.4409944200888 468.59634206123883 37.390339920762926 53.292675398057327 590.13895791873801 1306.80472237512 834.95339943945874 201.45033462293213 440.83530507498654 273.10052346356679 81.666536424774677 40.697021259518806 106.93016197695397 66.70592101837974 664.45911801472539 1571.3288907578681 24.875836140243337 235.90635077655315 96.424963272060268 26.145142471650615 22.885938209015876 302.71949558367487 277.91120073769707 185.47126870451029 164.9282779393252 61.41892943973653 2756.6376628318685
leaf_count=639 373371 25992 25175 6122 32659 13805 15968 9856 11230 56342 42322 28416 12402 8507 11318 3172 93014 6175 137330 3784 5155 2061 13201 95660 848 1956 2783 263 8579 4837 36403 1353 35453 180 7271 14537 1773 8613 9218 4461 9333 19420 3040 26527 5646 610 4451 3135 28301 116440 27239 16431 692 2843 25469 8316 16519 269 37392 5811 8094 1529 16429 6135 465 8910 1001 508 29774 10708 9711 2783 6395 58685 171634 31440 6618 92924 23123 27797 2596 5354 27106 2512 3131 20302 6564 17265 3096 21781 1266 3787 6742 29249 8331 25663 41255 9074 10438 2615 2295 12549 17802 893 2511 7150 18133 30322 9654 8788 31685 11005 21 960 1995 10516 45092 3292 1378 17093 3287 8917 3997 34988 1441 7805 9466 3475 16766 53496 12290 234 959 4679 199 315 2660 45653 3234 13988 2225 7668 27823 1912 812 35131 4153 1992 5585 330 6168 1334 258 23867 1475 2537 8955 3069 12707 868 3415 213 11716 11475 18710 495 1592 28145 136385 57790 4986 22129 8973 3795 621 4087 1041 12028 14232 579 2556 2081 738 278 3025 2681 4569 14985 1779 16983
internal_value=3.75997e-05 -0.0189017 0.0165024 -0.00747833 -0.0405038 0.0117721 -0.00324371 0.0129741 -0.0312106 0.000486547 -0.0281812 0.010311 0.00115932 0.0106283 0.00685999 -0.00388279 -0.00634064 0.0351788 -0.0237069 -0.0527944 0.000560109 -0.0171438 0.012852 -0.0394809 0.0201261 0.0377892 -0.0141575 -0.00507064 -0.0176468 -0.0104136 -0.0188646 -0.031539 -0.046286 -0.0161385 -0.00880676 -0.0341687 0.00882346 0.0126422 0.00109182 0.0423304 -0.0173754 -0.0130918 0.0304225 0.00731911 -0.0133139 0.000695611 0.0239401 0.0163258 -0.0191628 -0.0540965 -0.00960431 -0.026634 0.0204999 8.25891e-07 -0.00513352 0.020344 -0.0488383 -0.0402978 -0.000486697 0.00858198 0.0214445 0.0129849 -0.0221748 -0.0133018 0.0136862 0.013079 -0.0130526 -0.0142381 0.0366608 0.0070818 0.00701727 -0.0177666 0.00859919 -0.0343346 -0.0529676 0.0139046 0.00526556 -0.0269708 -0.00757496 -0.0172841 -0.0198317 0.0278198 0.0187111 0.00797368 0.0068321 0.00882271 0.00465859 0.00096567 0.00214754 -0.00518772 -0.0187321 -0.00953277 -0.00566037 -0.00231914 -0.0361299 -0.0311661 0.00836827 -0.00261918 -0.0235045 0.00038532 -0.0146932 -0.00366958 0.00301522 0.0170963 -0.0187936 -0.0218037 0.00432997 0.00714152 0.0152405 0.0127684 0.0146184 0.0248647 -0.0291672 0.0377523 -0.0176519 -0.0413214 -0.0338611 -0.00681824 0.0158008 0.0149155 -0.0169183 0.000744973 0.00864372 -0.0233644 -0.00938423 -0.0223228 -0.0114731 0.0142421 0.0174391 -0.0378767 -0.0105014 -0.011173 0.000148312 -0.0284011 0.0303617 -0.00135627 -0.00926099 -0.0128973 -0.0032116 -0.00647426 -0.00048001 -0.00626223 -0.0123018 -0.0355208 0.0353241 -0.020725 0.0183811 0.0102879 -0.0418548 0.00776872 0.0136157 -0.00303654 -0.0115525 -0.0252622 -0.0291035 -0.00218979 -0.0173673 -0.024588 -0.0204079 0.0150459 0.0208538 0.00620184 -0.0106496 0.0102847 -0.0296825 0.0140736 0.015003 0.000990909 -0.0529341 -0.0409452 0.0124861 -0.00262323 -0.00415803 -0.0130042 0.0142246 0.00569691 0.0097257 0.00211084 0.0219768 0.0186764 -0.0119243 -0.0339979 0.0380346 0.00205841 0.00960441 0.0161867 -0.00872197 -0.0263916 -0.00411504 0.0493838
internal_weight=108932 50659.2 58272.9 33137.2 17522 46497.6 27511 44742.7 9979.32 21690.7 5626.17 36001.4 21481.3 35855.5 21582.6 12957.2 11317.8 11775.4 6664.35 7542.66 10521.6 5820.31 11061 3114.8 1741.35 10034 2511.37 5620.39 4221.4 3406.42 1754.91 2014.78 3314.96 4097.5 3314.54 2442.96 8524.14 5705.46 2818.69 6204.88 4001.88 1466.31 3829.13 5689.97 5684.1 5633.66 8741.26 14272.9 3796.6 7303.06 2171.05 2413.9 6343.15 5559.88 1757.99 5605.71 3526.12 1791.45 4130.15 5464.25 6149.07 7929.79 3211.4 2634.48 7723.65 1639.39 239.603 663.526 3442.76 2136.51 4901.17 1490.24 680.062 1190.57 2124.39 7703.7 1387.3 2115.87 3054.56 651.509 1458.98 3445.41 5371.05 4129.59 3945.36 3542.48 3234.03 1267.12 3466.63 1175.49 1318.93 517.532 2798.25 2166.56 1094.97 1626.26 4588.32 870.323 570.273 3156.2 387.035 1718.42 678.971 4090.65 602.226 570.804 1265.81 2744.91 956.91 3327.69 2975.57 1575.86 224.507 3339.47 682.177 1206.18 712.158 299.917 6316.4 5999.91 808.606 216.312 943.417 592.294 194.08 1354.81 487.404 1164.89 4071.26 961.479 926.807 525.408 289.056 867.409 3135.55 79.3082 489.114 1095.52 313.126 2325.86 1147.11 793.704 1178.75 1256.57 95.6197 1257.74 3908.53 927.089 1741.92 1223.46 793.849 429.615 332.743 788.141 684.491 817.149 313.42 258.184 442.496 2287.49 4427.63 261.731 402.88 1183.36 563.434 869.767 610.057 1251.57 2564.64 881.991 353.402 585.203 863.239 489.612 49.5259 305.863 4245.29 967.071 4121.77 2550.44 302.612 213.116 3330.5 2136.56 788.988 580.631 208.357 392.972 94.8374 2762.12
internal_count=3294812 2608387 686425 1127224 1481163 604022 753939 513950 765182 497382 373285 467009 481414 453204 347753 320361 300189 82403 456313 715981 186454 256557 161299 242135 18498 63905 131150 111356 266940 135547 90072 146475 308869 255710 129425 189373 161053 132478 28575 53555 254718 64897 10350 96565 178444 121745 46941 105451 245385 711196 105158 121010 39511 121135 77919 36571 337825 143805 57932 83364 37378 65940 214677 112467 62805 20172 4785 10432 35933 23401 75098 53424 16958 101782 207087 62340 12429 152595 85430 45568 68047 8394 64734 111268 108756 93909 52043 37567 47500 44420 52828 5316 79784 56661 68182 120499 66591 28494 43097 44404 7012 75136 22639 28255 9924 9661 27412 42819 12497 46284 40473 21210 4717 31472 5174 97930 55608 10563 49911 48533 48545 10270 15315 38275 2133 65451 17271 12693 27362 85000 30152 3401 1406 48180 10370 514 9224 62082 17771 69092 28867 21656 40225 94836 992 51562 22911 6145 142915 17000 15078 1922 1592 42045 37366 20670 13499 12024 17862 8962 49419 1172 14847 12323 23272 7113 10205 49667 252825 59851 7211 30708 37118 32096 890 7502 56880 15625 41917 27685 3597 4696 30512 37080 10553 5706 4847 31504 4562 17622
is_linear=0
shrinkage=0.035


Tree=2
num_leaves=191
num_cat=0
split_feature=145 31 25 145 133 10 145 8 10 133 0 0 124 125 42 63 125 117 89 113 8 25 8 8 8 61 42 8 122 145 48 72 40 145 90 72 40 8 124 110 122 31 26 8 124 109 26 22 145 42 29 26 33 89 42 110 63 72 8 48 48 110 61 29 26 94 72 131 95 26 10 109 74 53 26 74 8 8 8 0 0 26 25 40 8 8 109 21 8 1 72 61 36 33 21 93 36 40 82 4 33 110 131 8 63 30 53 0 29 8 75 4 85 40 21 66 42 53 133 145 123 111 94 4 53 63 89 68 8 8 40 111 29 7 66 21 145 62 145 107 145 147 40 138 111 110 101 89 48 4 8 1 31 74 145 40 93 21 31 40 131 76 64 8 89 19 121 50 125 139 138 26 53 26 65 29 108 133 111 120 116 10 4 29 105 116 110 34 36 64
split_gain=23550.3 7534.41 2811.53 2360.65 1358.79 1083.35 959.408 659.92 656.2 620.385 517.038 460.81 433.155 413.508 410.218 397.786 367.483 352.614 307.094 304.068 275.438 263.044 242.923 228.319 224.477 221.819 208.52 198.568 189.568 183.138 172.889 159.224 158.177 154.261 152.752 144.726 144.498 142.044 141.178 136.381 135.674 134.477 132.336 130.479 128.8 127.694 127.369 124.366 124.018 120.779 114.883 145.673 113.299 112.133 109.962 109.477 107.336 104.782 144.573 102.58 102.002 101.605 99.1035 113.582 99.0021 115.456 98.0462 106.325 97.4033 95.5002 94.0444 93.5764 88.7718 87.585 85.8123 85.6902 83.4244 82.7543 81.7985 80.8115 80.7461 80.2727 80.2597 80.1912 80.1114 79.2059 78.488 78.4062 78.1933 92.2764 77.5853 77.088 73.313 70.9821 70.5808 72.1177 69.2692 69.1122 68.3433 68.0131 67.2142 67.117 66.1951 65.8947 65.7877 65.584 65.46 65.0359 64.6973 64.6219 64.5782 64.2527 63.5592 63.5185 65.74 77.9841 62.9857 91.0051 62.8974 62.8487 62.8035 62.6425 62.4519 62.4113 61.7917 61.7883 61.2849 60.9083 67.2704 60.8602 60.8379 60.3961 60.1088 60.028 59.5055 59.4376 59.0177 58.7332 58.4109 57.7653 68.9642 57.6835 57.4214 57.3304 57.0065 56.9043 56.8783 56.545 57.7433 68.6799 55.9757 57.2893 55.9043 55.7921 67.3299 55.67 55.523 55.4395 54.9793 62.2629 61.7944 54.7603 54.6671 54.5571 54.466 54.3231 54.1152 54.1003 53.9683 54.1868 55.6071 55.7858 58.6905 65.0817 53.7003 53.5471 53.5983 53.2908 52.8226 52.6208 52.56 52.3742 52.3387 51.9687 51.8703 51.7001 54.2921 51.5912 51.5818 51.4595
threshold=0.50061076879501354 0.16897325217723849 -1.0000000180025095e-35 0.50994759798049938 0.15988706052303317 1.5000000000000002 0.49183316528797155 0.21499999612569812 1.5000000000000002 0.15703730285167697 4.5000000000000009 4.5000000000000009 0.31499999761581426 6.2950000762939462 4.5000000000000009 0.1678232625126839 6.4449999332427987 5.1749999523162851 0.024999999441206459 -1.0000000180025095e-35 0.11499999836087228 0.38499999046325689 0.17500000447034839 0.18500000238418582 0.31499999761581426 2.2841666936874394 3.5000000000000004 0.19500000029802325 6.558333396911622 0.51771172881126415 0.66925200819969188 0.18500000238418582 0.24499999731779101 0.52175077795982372 6.6649999618530282 0.15500000119209292 0.20499999821186068 0.2650000005960465 0.45000000298023229 -0.006532238330692052 6.5783333778381357 0.16589343547821048 0.014999999664723875 0.12499999627470972 0.28499999642372137 -0.0062712356448173514 0.044999999925494201 3.5000000000000004 0.48784980177879339 3.5000000000000004 1.1291666626930239 1.0000000180025095e-35 5.555000066757203 -1.2849999666213987 2.5000000000000004 -0.0050856794696301213 0.17036028206348422 0.12499999627470972 0.13499999791383746 -0.73063886165618885 0.01216282742097974 -0.0073199074249714604 -0.024166666902601715 1.0775000452995303 -0.024999999441206452 6.7750000953674325 0.28499999642372137 0.0063442480750381955 0.17655277997255328 -1.0000000180025095e-35 4.5000000000000009 -0.013728219550102947 5.5000000000000009 0.52855032682418834 0.044999999925494201 4.5000000000000009 0.25499999523162847 0.11499999836087228 0.24499999731779101 4.5000000000000009 3.5000000000000004 1.0000000180025095e-35 -0.024999999441206452 0.30500000715255743 0.11499999836087228 0.064999999478459372 -0.005239632446318864 0.68765506148338329 0.095000002533197417 7.5050001144409189 0.25499999523162847 2.2041666507720952 5.9649999141693124 6.1649999618530282 0.31051191687583929 1.2041667103767397 5.1150000095367441 0.16499999910593036 -0.66813814640045155 4.4049999713897714 4.5150001049041757 -0.0083044832572340948 0.0085457172244787234 0.17500000447034839 0.15256823599338534 0.095000002533197417 1.4691212773323061 3.5000000000000004 1.094166696071625 0.12499999627470972 -2.4999999999999996 4.3250000476837167 -1.9996222853660581 0.13499999791383746 0.64924922585487377 38.784999847412116 2.5000000000000004 0.78817561268806469 0.16385018080472949 0.52408921718597423 0.10110447183251382 -1.4999999999999998 6.6549999713897714 3.6550000905990605 1.0741047263145449 0.16020317375659945 0.94499999284744274 4.7950000762939462 0.31499999761581426 0.28499999642372137 0.19500000029802325 2.5000000000000004 -0.032500000670552247 7.0150001049041757 41.694999694824226 -1.022278308868408 0.49764974415302282 0.14500000327825549 0.49715846776962286 -0.30750000476837153 0.51702842116355907 0.16874817758798602 0.15500000119209292 105.00000000000001 -1.4999999999999998 -0.010959201958030461 0.17500000447034839 1.3049999475479128 0.47311782836914068 6.9049999713897714 0.19500000029802325 4.7449998855590829 0.16472035646438601 5.5000000000000009 0.48379766941070562 0.10500000044703485 1.2708333134651186 -1.4698153734207151 0.16792864352464679 0.13499999791383746 0.0093724303878843802 34.712499618530281 1.5000000000000002 0.25499999523162847 -2.754999995231628 0.49434630572795873 40.045000076293952 1.1190299987792971 6.3650000095367441 4.5000000000000009 13.500000000000002 6.7650001049041757 0.08372200652956964 -0.085000000894069658 2.0249999761581425 0.060833333060145385 0.01426609978079796 0.1684542000293732 -1.0000000180025095e-35 2.3249999284744267 0.76499998569488536 3.5000000000000004 4.6349999904632577 1.0675000548362734 -8.5475001335144025 0.84499999880790722 0.019660623744130138 45.340000152587898 5.1150000095367441 3.5000000000000004
decision_type=2 2 2 2 2 2 2 2 2 2 2 2 2 2 2 2 2 2 2 2 2 2 2 2 2 2 2 2 2 2 2 2 2 2 2 2 2 2 2 2 2 2 2 2 2 2 2 2 2 2 2 2 2 2 2 2 2 2 2 2 2 2 2 2 2 2 2 2 2 2 2 2 2 2 2 2 2 2 2 2 2 2 2 2 2 2 2 2 2 2 2 2 2 2 2 2 2 2 2 2 2 2 2 2 2 2 2 2 2 2 2 2 2 2 2 2 2 2 2 2 2 2 2 2 2 2 2 2 2 2 2 2 2 2 2 2 2 2 2 2 2 2 2 2 2 2 2 2 2 2 2 2 2 2 2 2 2 2 2 2 2 2 2 2 2 2 2 2 2 2 2 2 2 2 2 2 2 2 2 2 2 2 2 2 2 2 2 2 2 2
left_child=2 4 9 8 23 12 25 10 14 34 16 19 17 -7 27 45 -6 24 30 38 40 84 33 39 29 48 60 44 -23 49 94 123 59 69 77 43 62 71 42 166 -11 178 53 74 66 57 103 80 -4 54 51 70 104 102 164 82 106 -15 -59 -21 116 -28 185 88 79 150 83 -68 119 130 143 -33 108 147 145 -37 113 -1 112 167 92 -75 -20 91 121 -57 -71 97 -64 125 129 96 -41 181 100 98 -3 134 161 163 -18 -51 -8 184 -16 -84 132 -25 -50 -43 -70 -89 -63 -24 -115 -116 117 -19 -81 -31 158 -10 175 -9 -103 -90 -53 128 152 -55 -17 -87 -38 -112 -73 -35 -104 -134 -44 -119 -141 -110 -78 -42 -102 -12 -62 148 149 -47 151 -66 -39 -79 -155 -67 -111 -127 159 160 -49 -96 -144 -29 -5 -86 -2 -22 -61 -170 -171 172 -172 -174 -98 176 -54 -132 -13 -48 -126 -88 -36 -56 188 -30 -187 -162 -32 -114
right_child=1 3 6 5 7 13 11 31 21 20 35 41 -14 15 52 22 18 26 55 32 64 28 76 107 -26 -27 61 99 36 68 46 37 -34 135 182 75 56 127 -40 47 50 109 138 -45 -46 73 179 120 72 101 -52 126 122 90 183 85 -58 58 -60 168 146 78 63 -65 65 155 67 -69 110 86 -72 87 -74 81 -76 -77 142 153 -80 118 -82 -83 105 -85 165 131 93 111 89 -91 -92 -93 -94 -95 95 -97 174 -99 -100 -101 144 124 136 -105 -106 -107 -108 -109 141 156 133 -113 189 114 115 -117 -118 139 -120 -121 -122 -123 -124 -125 180 157 -128 -129 -130 -131 177 -133 137 -135 -136 -137 -138 -139 -140 140 -142 -143 162 -145 -146 -147 -148 -149 -150 -151 -152 -153 -154 154 -156 -157 -158 -159 -160 -161 187 -163 -164 -165 -166 -167 -168 -169 169 170 171 -173 173 -175 -176 -177 -178 -179 -180 -181 -182 -183 -184 -185 -186 186 -188 -189 -190 -191
leaf_value=-0.046165383725182155 -0.040914276501678309 0.010284095088183858 -0.050772858099613648 -0.0068841278369839668 -0.065355214003969639 -0.064946619743345674 -0.055899190677650361 -0.023264207827318115 -0.034884362737529817 -0.064450345655165622 -0.040889519021077916 -0.0084658664351258562 -0.05847406569428288 -0.037965517421284699 -0.037857056188267131 0.019411837410222021 -0.034731904448685826 0.019902083714755357 -0.026488124597982613 -0.025867657858556416 -0.029031333979870431 -0.064968032746479706 -0.0074216299096215212 -0.035017880955553596 -0.026961439980088021 0.020689556978665154 0.0057902274836805438 -0.0072880803488242149 -0.015267584943679262 0.021440302366632316 0.019894867161293659 -0.043639030998823887 -0.042163452781815221 0.030094280525756245 -0.040509427877983291 -0.01364453327227234 -0.003594002863593751 -0.047083575188234451 -0.064490033685485254 0.00063494244444640122 -0.0083400617371376991 -0.008306792079781404 -0.025959961772595637 -0.040659350272468114 -0.055770805321020203 -0.01021234586203097 -0.055097552697471408 -0.0046435825367657502 -0.045497983588032004 -0.001115086024596849 0.019752567922234832 -0.037665611332617796 0.0066087929742049906 0.0074125635485391408 0.022361814963194875 0.02256450825198782 0.0033607858587068732 0.015975880549090812 -0.022496608574461962 -0.06304952931628871 0.031038488036409899 -0.065520591474164419 0.0053893745450374671 0.024719822756023049 -0.035238539510520465 -0.057046340408372614 0.016527414904905866 -0.038512464584285887 -0.033966401425783103 -0.024497488922325311 -0.035181640222520856 -0.057397336733268342 -0.022559588756839926 0.00072016260195242366 -0.037741736485720823 0.016426155630333682 -0.049959442172200753 -0.058939508927751905 -0.005333289215862195 -0.052093863071143089 -0.041422345760392769 -0.025252137342556016 0.0052538712095357605 -0.046988374042553162 -0.036615385989744072 0.0079469178124653671 0.016782106158476532 -0.0023780489638316965 -0.02539324782282 -0.044136320602305067 -0.014079030596691735 0.050002774319505651 -0.033639516165659217 -1.0266150399083305e-05 -0.034397904273313719 0.039172156560736922 -0.041233524004350514 0.0043239984096387959 -0.034402330328084547 0.0032016166042929395 -0.024768123468102043 0.014327838585719156 -0.02222113830429942 -0.011560955518349021 -0.0086234794562267784 -0.020578830034891461 -0.057377118401425932 -0.053544323553314781 0.015927901239102749 -0.031087490967610192 0.015604386197903398 -0.047734980168052922 0.02599357591836093 0.011877143364818868 0.0053007166807987529 -0.028962458744296406 0.029816118785599435 0.0072127102992120004 0.017402529279453693 0.027837687504768432 -0.063864020468590549 -0.00081431071072656208 0.028792099762347197 -0.049684421361134663 -0.054827055472976428 0.010361851805035965 0.0018937712547839566 -0.047632302420437325 -0.05336098621154492 -0.041611682573283765 0.013096693507063568 -0.0076585932573604932 -0.029087547769148365 -0.030090320127448712 0.0023663980938962957 0.019288504959433479 0.0016663349700705935 0.0032819458936669045 -0.0067362887708966052 -0.069935523025600244 0.012196688122658771 -0.047718792165935157 -0.033796441708396435 0.034775286836775249 -0.0020628506978043097 -0.0063157352301180083 -0.031774779891031377 0.017960599001350771 0.022206332315147626 0.010344516690970123 -0.053109639939080237 -0.048112263213623656 0.0056280210459757731 -0.059409680801700532 -0.041424361086695512 -0.0047127701135985236 0.040402877526514329 -0.0071687115208391309 0.016431617699167452 -0.00066025557521617233 -0.013507614981059009 0.012973901929505439 0.00023193874827455595 -0.042645919744796139 0.015200441225922347 -0.016852116376382686 0.024581426458473055 -0.00068675724958497657 0.0050867664671040468 0.0033472951797099523 -0.0087057345224451615 0.040411368207133459 0.022450782098195461 -0.032849692780475948 0.017207251046195429 -0.03576623777766233 -0.0069382665168303539 -0.014448200946257614 -0.043895808528061651 -0.011702416888025221 0.0027261911013244694 0.0044609570573240238 0.0048914950651383965 0.043357087672823577 0.0080036985756104552 0.013306855093703412 -0.018997556899686234 -0.053237179680618481 -0.027744966965925631 0.017432242314392801
leaf_weight=1224.5758528434671 684.74401416594628 3265.1966472242493 986.04880823555868 141.8235634197481 106.70831097639166 89.371790950885043 40.170683021075092 151.19813280948438 84.797092138323933 97.219380564754829 65.830325864022598 56.249163515400141 82.531690671574324 178.59664323297329 101.3252254310064 2376.7408143124776 121.38048919267021 887.31312387576327 175.8068021775689 742.20054649107624 521.59911354468204 58.521633850876242 321.29260833351873 369.36118762742262 131.33877747133374 71.980792477494106 561.25386514677666 226.53775464347564 95.731428594794124 5802.1247799443081 37.92387159448117 97.553218399407342 316.26808351383079 907.7685545287095 54.578758326359093 1038.7825330644846 269.88120103045367 31.892184247612022 44.460848074173555 145.31813057337422 468.51325298205484 317.84936222690158 338.15131283469964 528.17167640896514 31.989062609849498 445.81186665245332 35.200426609022543 123.22093649581075 633.30240199319087 524.98741994041484 76.441004342632368 684.32184041815344 1062.6532365352614 2070.9792472828412 2753.9709046639036 418.87101173680276 356.32630327460356 202.25367462914437 290.56526732363272 21.849312448408455 7043.4502555457875 9.2254476696252805 718.81129858072381 174.33157080062665 745.07149660377763 30.475235665217042 81.136335603427142 89.781937046907842 34.561113521223888 86.988553378963843 165.87167082389351 44.447480011964217 497.38484425866045 430.06617592019029 193.81197740091011 129.94682375725824 37.323740478372201 3215.8992714653723 131.77777695003897 249.10746061382815 394.21812029974535 219.59468645311426 572.37242402497213 25.277610033517703 420.58090595633257 3240.4307321684901 1280.4265582209919 65.669728847919032 188.73641311819665 82.827178109204397 245.59149701613933 73.682254529558122 160.2167193973437 746.34507449332159 47.587253737030551 19.477898596785963 18.593117860029452 465.34512122732121 457.18704246578272 1097.6046958515653 171.09224754560273 2727.9238351082895 238.90741447859909 311.84067136922386 1256.8353711243253 151.6007886963198 51.931546235457063 663.67891668272205 42.118595805484802 437.51606017700396 1069.7072197152302 91.441075062379241 2402.6977549359435 1956.076587970485 330.11189006804489 107.10573603818193 643.63601027894765 84.146225477103144 16.630855180788785 2810.9094535708427 24.872836557449773 291.04192860075273 104.34385604341514 422.45069156191312 19.617735989857465 264.47603047150187 51.413788201985881 252.62394676695112 54.834339288296178 30.697243323083967 281.79732072795741 334.47560072143096 434.88317107362673 35.671672044321895 36.967736419755965 2030.3186868188204 268.26991891302168 81.220417102333158 454.20888543361798 32.653921761550009 19.631174761801958 28.619331483496353 67.849083289271221 40.288340617669746 640.96464374358766 473.42786588286981 17.070738061331213 433.28184000519104 155.3811653793091 358.40701134270057 1035.4385409667157 1032.3776625967585 99.463146765483543 471.49413133901544 585.44596020737663 123.48952560313046 13.042967536137438 1322.7234708317555 95.683490643859841 292.00009308522567 67.887685616966337 77.416324370424263 366.39288907998707 69.437353750457987 3495.4203741715755 290.68574526940938 15.279975928366182 98.154235757421702 278.79038616106845 213.26754556025844 373.81563328043558 19.520830996916629 27.700714582577348 331.5710000905674 4564.5953513901914 46.414961734320968 538.29329541430343 122.90839190012775 698.77928615733981 741.75012700085063 404.27458443003707 632.3943993432913 70.486119291628711 152.93517827009782 1432.2947484520264 1081.1832485885825 66.989019182976335 99.833238399354741 98.92431960743852 1355.0848373646149
leaf_count=127669 56406 36379 119940 1327 9048 7692 2748 9149 4782 8470 5492 4378 6584 11717 6880 28129 7775 3117 10569 53870 41949 5174 8463 26177 2654 836 7644 3992 3017 30363 851 7182 23400 6015 1930 50942 7521 2538 4206 5866 28264 18848 24455 44884 2848 12557 2105 6348 72350 12171 1689 59657 16388 61004 18461 5690 7732 4721 13942 2192 23478 165 17484 2263 66696 2319 722 2250 344 2605 15280 3170 37420 9205 13737 3926 1966 353660 1333 26676 32487 7216 11655 841 24250 61749 13938 2681 10181 3716 9200 160 9264 14348 2481 211 794 15014 28752 16395 10284 27332 14377 13224 36740 4648 3010 61904 1137 34451 6892 5745 14658 26816 5919 2591 3213 360 778 10265 2052 10141 1279 34495 469 5384 3152 16928 3646 1837 2577 11765 17695 392 1383 21292 7942 1880 19270 308 81 1815 2251 1293 24341 21912 154 5867 2065 6673 100735 96756 3141 50666 51518 4139 127 39142 2134 13281 3783 2287 7307 2055 19554 13538 516 5630 12838 8707 20922 146 946 22478 38493 1604 13742 1707 76902 29156 5181 12561 1129 473 39097 23670 2692 7583 4303 10311
internal_value=6.79673e-05 0.00839389 -0.0331554 0.0136332 -0.0127295 0.0177783 -0.0195426 -0.00788661 0.00319228 -0.0452644 -0.00482139 -0.0135726 0.0212449 0.00977334 0.00779601 0.0102419 -0.00102545 0.0214439 -0.000264114 -0.00924168 -0.0368212 -0.00600188 0.0130526 -0.0334703 0.0185246 -0.0395577 0.0258929 0.0113931 -0.00275442 0.0188249 -0.00721463 -0.0275166 -0.0191747 0.0161528 -0.0534215 -0.0191768 -0.00204267 -0.0204389 -0.00304937 -0.0268314 -0.0245114 -0.0307753 -0.00229416 -0.027398 0.0134805 -0.00182478 -0.00181128 -0.0205135 -0.0415479 0.0155479 -0.0218655 -0.0241323 -0.00324262 0.00117562 0.0184006 0.00569128 -0.0127208 -0.0150572 -0.00670359 -0.0155389 0.0290411 0.0197277 0.00115022 -0.00255528 -0.0418764 -0.0449524 0.0137591 -0.0124191 0.0222574 0.0127043 -0.0123603 -0.0116515 -0.0339464 0.00252824 -0.0178071 -0.0102906 0.00481257 -0.0542921 0.021732 -0.031537 -0.030956 -0.00807642 -0.00533305 0.0143235 -0.0216656 0.00817602 0.00806941 -0.00717114 -0.00440777 -0.00819811 0.00450331 0.0145241 -0.0173731 0.00914247 -0.0165632 -0.0259091 0.0141857 -0.000892323 -0.0281402 -0.000814356 -0.0105202 0.010467 -0.0130776 0.00311271 -0.0108267 -0.000169854 -0.0195584 -0.0469542 -0.0419537 -0.0204285 0.0126256 -0.0288957 0.0226802 0.00717347 0.00913538 -0.00312635 0.0212301 0.0158112 -0.0476988 0.0235307 -0.0101007 -0.00856364 0.00263887 -0.0427659 0.0123966 -0.0065019 -0.0348997 -0.0364334 -0.0210904 0.00668012 0.017276 0.00648496 -0.0170016 0.0141075 -0.0304805 0.022635 -0.00959976 -0.0239929 -0.0149604 -0.0107427 -0.0393458 -0.0100436 -0.00876348 -0.0048734 -0.00686845 -0.0105939 0.0308828 0.00747746 0.00273124 -0.00104765 -0.0465687 -0.0427351 -0.0073643 -0.0566117 -0.049488 -0.0153241 -0.0289461 -0.00424273 -0.00805472 -0.0120939 -0.0235298 -0.00515009 -0.00513325 -0.0156817 0.0143375 -0.0285689 -0.0394557 -0.0245517 -0.00947223 -0.00849042 -0.0124121 -0.016879 -0.0184493 -0.0285406 0.0169626 0.000968089 0.00205152 0.00471504 -0.0412704 -0.0137254 -3.15137e-05 0.0127131 -0.0150393 0.0234786 0.00603437 0.00934573 0.0114086 -0.0373069 -0.0144912 0.0229111
internal_weight=104292 83393.8 20898.2 66820.3 16573.5 47830.9 9839.31 13437.2 18989.4 11058.9 11623.3 7579.86 33375.7 14455.2 12653.7 14365.8 9193.31 33293.2 9086.6 6056.42 5436.41 6335.68 11651.8 3136.32 20105.3 2259.45 13187.9 9543.83 5248.57 19973.9 4193.04 1813.89 2324.98 8465.69 5622.48 2429.97 5190.05 1240.24 3731.44 2103.28 1584.07 1523.44 3686.98 1261.24 8150.25 2713.96 2657.93 1403.25 2187.47 10221 1486.85 1410.41 3109.87 2894.62 6544.15 4893.56 1194.24 671.416 492.819 2008.72 8727.9 4460.04 3995.81 2751.91 3852.34 2966.85 8118.26 170.918 9752.97 5527.6 674.673 801.424 1201.43 2042.54 733.07 1168.73 3186.15 5497.42 3898.79 885.492 699.753 649.661 899.78 7947.34 1087.11 3993.78 2746.15 703.871 2577.57 1858.76 2347.27 7922.07 305.535 2659.17 1535.11 601.669 7848.39 546.76 582.191 1393.58 933.437 3676.8 547.348 1880.98 1358.16 723.973 837.916 1033.04 704.04 768.408 1139.94 157.111 3767.01 2714.59 2393.29 437.218 1667.38 1023.74 265.738 8613.03 703.498 375.839 1751.71 573.649 3151.82 1775.94 735.736 438.814 186.19 2101.68 2781.45 3574.91 785.985 1105.38 81.4152 2938.09 507.177 516.104 792.36 136.431 52.2851 70.7379 471.566 508.802 812.057 539.258 7060.52 1392.88 959.6 804.219 2812.89 1777.45 131.355 4272.84 1056.94 153.965 450.559 1587.2 678.625 582.942 290.942 125.004 434.242 295.975 3637.24 711.267 700.024 619.753 1266.52 1244.67 965.876 752.608 733.087 359.272 4583.19 1647.36 1600.95 404.706 755.028 776.951 423.892 1912.82 125.065 2906.91 1569.14 1243.9 1148.17 167.721 136.848 3757.78
internal_count=3294812 1586015 1708797 832258 753757 447424 658742 525956 384834 1050055 420884 425244 207284 240140 181562 232448 279991 200700 270943 290538 463483 203272 158485 227801 135878 233498 64822 104929 150561 133224 164867 105072 145499 103172 586572 140893 145387 61428 145039 139720 117805 134706 140833 86025 82487 73963 88736 82798 232662 84968 109335 107646 76633 97108 39815 106076 37838 30380 18663 122099 30711 34111 107549 78170 345678 270645 79639 2972 48256 75865 44837 35175 112722 43583 41141 54868 55313 583513 26467 75033 47617 16421 26872 76667 52711 79204 43452 27993 75907 58423 72041 75826 15130 40847 76131 33731 75666 19567 33520 22442 42400 45153 25067 57475 43620 16303 30106 88081 75302 53426 7628 8426 25134 43789 35326 8510 7079 3866 27454 40628 35181 14923 33013 43644 32982 54707 62809 26253 9325 62841 32413 73514 27096 7284 4553 27307 22319 19575 43725 749 389 2952 11524 29557 34625 27404 23632 27162 21295 19230 264187 163452 5679 455844 102184 6458 34578 44526 33129 30995 17714 4768 9558 6047 20881 37788 56922 47579 68229 66037 53199 44492 44346 23424 39287 31734 30130 4284 81280 31261 5650 26499 3059 18934 44251 29379 26362 11366 5154 24969
is_linear=0
shrinkage=0.035


Tree=3
num_leaves=191
num_cat=0
split_feature=130 31 25 10 133 63 130 130 112 42 133 112 125 130 8 72 124 8 25 8 63 61 122 8 112 138 89 124 63 138 58 31 114 72 8 40 124 124 40 8 40 8 72 8 122 124 26 58 26 8 40 61 133 8 72 133 40 8 7 8 8 85 61 135 40 124 130 74 42 10 138 89 93 8 16 89 133 63 29 89 26 113 8 25 142 8 116 113 74 8 117 48 53 16 8 93 125 29 110 93 30 135 50 8 135 2 72 130 48 138 29 102 1 40 101 4 58 147 100 117 122 130 130 100 65 114 40 8 132 129 72 40 8 122 29 138 130 41 26 109 109 28 85 117 98 48 40 129 88 40 28 58 82 82 113 4 20 109 10 95 33 107 110 142 107 8 133 133 107 129 112 144 27 61 85 72 110 100 26 62 26 93 130 124 40 2 92 110 8 130
split_gain=20088 6282.68 2244.01 1700.78 1099.61 799.581 795.693 762.06 610.285 575.782 533.46 457.588 443.646 356.083 327.535 281.07 272.325 257.845 254.154 232.769 215.513 209.922 202.79 199.42 194.666 177.705 224.955 170.33 162.63 162.527 161.897 151.378 148.872 148.049 136.855 135.679 127.22 124.99 123.854 120.476 118.058 112.529 163.653 112.229 111.113 109.672 104.888 103.398 101.638 101.066 100.09 100.011 99.0718 99.063 97.1543 96.5857 95.6467 95.3289 132.321 94.6627 92.8928 92.2826 91.9108 91.7115 88.7926 88.7302 88.6367 87.5876 85.0551 86.1151 82.0595 81.9802 80.7432 93.6921 79.5449 79.0274 78.4331 77.9325 77.8703 80.2588 76.4891 73.7459 72.7801 72.6195 71.7177 70.7314 70.3282 70.0795 69.4057 69.0124 68.7999 68.3243 68.0934 66.999 66.491 68.4353 66.1838 65.5874 65.3271 65.2912 69.0583 64.9968 64.9416 64.2846 64.0859 63.644 63.5587 63.3696 63.3358 63.0517 62.7871 62.5708 62.5501 62.4874 61.5104 60.5332 60.4987 60.1976 59.8456 59.7568 59.7318 59.7225 59.5828 59.4917 59.4602 58.8346 58.6601 57.921 57.6195 57.5514 57.4516 56.6432 56.4251 56.3305 55.6174 55.4001 54.7663 54.6863 54.6311 54.6219 54.5142 54.4925 54.3721 60.0076 54.3681 54.3586 54.2707 80.9037 54.1265 55.1172 56.1434 54.392 54.0723 53.8998 60.4151 53.5188 54.0965 53.4592 53.3574 53.3385 53.2773 53.2767 53.1445 52.8596 53.7977 52.6463 52.3033 52.2783 52.0717 51.9583 51.8142 51.4913 51.4641 51.4373 50.5401 50.4998 50.4098 52.0155 50.302 50.1623 58.7614 50.1244 49.8277 49.6053 49.4943 49.443 49.3734 49.0949 49.0642 49.0359
threshold=0.16678338497877124 0.16801349818706515 -1.0000000180025095e-35 1.5000000000000002 0.15988706052303317 0.1678232625126839 0.17175471037626269 0.16394466906785968 -1.0000000180025095e-35 4.5000000000000009 0.15729135274887088 -1.0000000180025095e-35 6.4749999046325692 0.17245279997587207 0.17500000447034839 0.15500000119209292 0.33500000834465032 0.16499999910593036 0.56499999761581432 0.11499999836087228 0.16198766231536868 1.1324999928474428 5.1066665649414071 0.23499999940395358 -1.0000000180025095e-35 7.0000000000000009 0.024999999441206459 0.45000000298023229 0.15544679015874865 19.000000000000004 6.6449999809265146 0.17354466766119006 5.8483333587646493 0.17500000447034839 0.14500000327825549 0.16499999910593036 0.2950000017881394 0.18500000238418582 0.19500000029802325 0.10500000044703485 0.15500000119209292 0.18500000238418582 0.15500000119209292 0.15500000119209292 6.5783333778381357 0.30500000715255743 -0.03499999921768903 6.6449999809265146 -0.024999999441206452 0.10500000044703485 0.10500000044703485 1.1491666436195376 0.1614969149231911 0.24499999731779101 0.13499999791383746 0.16654913872480395 0.2950000017881394 0.10500000044703485 6.8350000381469735 0.11499999836087228 0.20499999821186068 1.0512670874595644 1.0541666150093081 3.5000000000000004 0.23499999940395358 0.25499999523162847 0.16261659562587741 5.5000000000000009 3.5000000000000004 3.5000000000000004 7.0000000000000009 1.5149999856948855 1.0591666102409365 0.24499999731779101 -0.32917968928813929 0.88499999046325695 0.16076548397541049 0.1648463308811188 -0.007500000298023223 -0.11499999836087225 0.095000002533197417 3.5000000000000004 0.15500000119209292 2.185000061988831 3.5000000000000004 0.19500000029802325 2.9050000905990605 1.0000000180025095e-35 3.5000000000000004 0.13499999791383746 6.2449998855590829 0.55272021889686596 -0.10092957690358161 -0.31663513183593744 0.30500000715255743 0.020833333022892479 7.0250000953674325 1.0591666102409365 -0.0037278963718563314 1.0758333802223208 0.12499999627470972 2.5000000000000004 0.82411429286003124 0.19500000029802325 5.5000000000000009 34.57500076293946 0.16499999910593036 0.16826298087835315 -1.1097360849380491 27.000000000000004 0.024166666902601722 0.42499999701976782 4.805000066757203 0.2650000005960465 0.054999999701976783 4.0850000381469735 0.034999999217689044 0.18021965026855472 0.014999999664723875 6.2750000953674325 6.5783333778381357 0.16179477423429492 0.1663516312837601 0.024999999441206459 5.3350000381469735 7.0183334350585946 0.19500000029802325 0.064999999478459372 0.028099923394620422 35.077501296997077 0.21499999612569812 0.11499999836087228 0.25499999523162847 6.6250000000000009 1.0508332848548891 19.000000000000004 0.17268849164247516 6.7950000762939462 -0.014999999664723871 0.0080295358784496802 0.011571075301617386 -1.6175000071525572 0.56327956914901745 4.8350000381469735 -0.024999999441206452 1.284288823604584 0.21499999612569812 32.942499160766609 4.5000000000000009 0.30500000715255743 5.3875000476837167 -0.085000000894069658 0.057245595380663879 -1.0650609731674192 1.5000000000000002 6.2449998855590829 1.5406383872032168 0.0059977928176522264 4.5000000000000009 0.15327903628349307 5.8350000381469735 17.377499580383304 -0.018327143974602219 4.5000000000000009 -11.782499790191649 0.23499999940395358 0.16371107846498492 0.16512811928987506 13.687500000000002 35.077501296997077 -1.0000000180025095e-35 56.214284896850593 10.465000152587892 0.057500001043081291 -1.1718479394912718 0.32500000298023229 0.00022720371634932238 0.064999999478459372 -0.024999999441206452 0.14500000327825549 1.0000000180025095e-35 0.10750000178813936 0.16417387127876285 0.2950000017881394 0.12499999627470972 28.960000038146976 0.34250000119209295 -0.011860357131808994 0.085000000894069686 0.17234283685684207
decision_type=2 2 2 2 2 2 2 2 2 2 2 2 2 2 2 2 2 2 2 2 2 2 2 2 2 2 2 2 2 2 2 2 2 2 2 2 2 2 2 2 2 2 2 2 2 2 2 2 2 2 2 2 2 2 2 2 2 2 2 2 2 2 2 2 2 2 2 2 2 2 2 2 2 2 2 2 2 2 2 2 2 2 2 2 2 2 2 2 2 2 2 2 2 2 2 2 2 2 2 2 2 2 2 2 2 2 2 2 2 2 2 2 2 2 2 2 2 2 2 2 2 2 2 2 2 2 2 2 2 2 2 2 2 2 2 2 2 2 2 2 2 2 2 2 2 2 2 2 2 2 2 2 2 2 2 2 2 2 2 2 2 2 2 2 2 2 2 2 2 2 2 2 2 2 2 2 2 2 2 2 2 2 2 2 2 2 2 2 2 2
left_child=2 4 10 6 24 18 9 21 29 16 30 27 -7 25 15 49 17 35 52 44 64 66 -8 32 103 89 43 28 97 55 85 63 56 -16 68 61 38 -23 71 120 174 42 127 116 -12 57 158 48 104 65 -19 94 131 130 -40 59 70 -17 152 -6 81 99 76 -15 133 84 -4 -68 109 74 114 90 73 92 -70 82 -48 -34 79 -54 -61 126 101 153 98 121 112 115 91 -14 128 -37 110 168 95 123 -55 -9 172 100 106 167 -51 160 -21 -74 173 -95 -89 -30 181 -102 -65 175 -24 -56 -27 -118 -58 187 -13 -1 129 -36 -108 132 161 -26 136 -76 166 -5 148 -11 135 -79 141 -128 -104 -72 -137 171 189 -144 -49 -80 147 -75 149 -28 -151 -150 -59 154 -41 156 -63 -32 -46 -45 -2 183 -73 164 -161 -143 -35 -31 -62 -101 -123 184 -10 -3 -25 -94 -175 -178 -100 180 -122 -52 -50 -22 -20 -42 -85 -77 -162 -141
right_child=1 3 7 5 8 12 22 11 14 20 19 39 13 31 33 45 -18 50 36 47 60 37 23 40 41 26 125 -29 34 75 157 -33 77 53 51 88 -38 -39 54 83 185 -43 -44 159 46 -47 62 144 182 102 72 -53 78 96 87 -57 118 58 -60 80 93 155 -64 86 -66 -67 67 -69 69 -71 139 162 105 146 122 119 -78 134 145 -81 -82 -83 -84 186 -86 -87 -88 108 -90 -91 -92 -93 113 107 -96 -97 -98 -99 178 169 111 -103 138 -105 -106 -107 124 -109 -110 -111 -112 -113 -114 -115 -116 -117 117 -119 -120 -121 179 170 -124 -125 -126 -127 137 -129 -130 -131 -132 -133 -134 -135 -136 140 -138 -139 -140 142 -142 165 143 -145 -146 -147 -148 -149 151 150 -152 -153 -154 -155 -156 -157 -158 -159 -160 163 188 -163 -164 -165 -166 -167 -168 -169 -170 -171 -172 -173 -174 176 -176 -177 177 -179 -180 -181 -182 -183 -184 -185 -186 -187 -188 -189 -190 -191
leaf_value=-0.054702388453985056 0.0023933046747306621 0.022832630088915829 -0.050009085377813844 -0.011277685408247737 0.010912681982134262 -0.061392932647114339 -0.061969161658944089 -0.03321615523065416 -0.035080919829064153 -0.055637274290117285 -0.06213434472693749 -0.062549427149007103 0.02673587781381314 0.013173562860883862 -0.042625417534521655 0.015332434007568015 -0.062178796759725562 -0.017372890568079537 -0.0061934913024030867 -0.026481952505564725 0.010585382300964379 0.011560358977616677 0.02651913658591027 0.017161575604820369 -0.019219622427275342 0.0031937122677132084 0.013299507926394276 -0.062827301737429814 0.010736087460605994 -0.04532328441314163 -0.033266171226370253 0.018588213778134993 0.016138845435204566 -0.040118628208516673 -0.0023292121976503993 0.010765159786569303 -0.059134260094243128 -0.06297359642928077 -0.038396252633810017 -0.043365601249181443 -0.0051194124957278757 -0.051346664310565684 -0.017693518322854023 -0.037563178845726762 0.0029966799922287188 -0.063540197437709514 -0.038694255700872739 -0.044058631949216838 -0.0500265454329629 -0.0331125603327291 0.017609040351233798 0.022500800937802934 -0.029478772751019951 -0.04101889791086797 -0.065001355355927992 0.016987525319049249 -0.0013888461501162378 -0.0086151613429062603 -0.019898355157210872 -0.0015798814486230246 -0.033842225933435478 0.0031462162520615178 0.0068132480641222033 -0.028187630465070973 -0.028676707639445041 -0.062975753765927858 -0.043511235271111066 -0.022932404940960997 0.002945104153587918 0.016230140254746468 0.012800189061576569 -0.024360745787017937 -0.0028809685464276 -0.032883140721764292 -0.027971230818738448 -0.032222861928452771 -0.017817639724061793 0.02627341788995494 -0.02503106217906079 0.0032189430234965764 -0.033245060487519851 0.027994357115283343 -0.02668721921865844 -0.00089710105552502411 0.0069957705175867505 -0.058084791123094878 -0.066459099616703973 -0.046989495677254342 0.0059194791631578094 0.0083920270802422987 -0.029191400770704815 0.027316897527476586 0.0075908800881654267 -0.04031277474920298 -0.049487370633064534 -0.022074667859147339 0.021800311584450064 0.016999157367427749 0.011755721617671817 0.034111277245919572 -0.0054177267050452577 2.9936174623661166e-05 -0.00080422724702343905 -0.03814046826830169 -0.057770969774826132 0.035068148716876101 0.00726763307069489 0.0049518436363675464 -0.010874740827573118 -0.0053664047774481709 5.7031343243885974e-05 0.018845153706195533 0.0037505599645427435 -0.016752500835098608 0.01132190808984119 0.0070026091758155599 -0.019187036547374671 0.027496040233535475 -0.06813197733816076 -0.056235722356554621 -0.0021250147639783495 -0.038317897660328962 -0.0019979043782585061 -0.018332746275261047 0.020319584758478882 -0.019170077328236071 0.0069836038012530991 -0.047404566830520446 -0.046643645806812087 0.012256315118139708 -0.0061211244583801432 -0.036259134054139851 -0.012142445571518858 -0.0051438784075368534 0.040859890106302865 0.004910771431282092 0.015920142789934897 -0.017651021705177388 -0.024954733100047422 0.012039609288134421 0.022915754275096314 0.0035124646924681938 0.0097718420800519835 0.023994934418617692 0.018182550543286897 0.025874380881940006 0.0023710718912041571 0.012278234004044701 0.028113745888505081 -0.068214299139457105 0.015857811849978087 0.0010165116518700528 0.010763660935674522 -0.042117360114989032 -0.011515822033873763 0.018479201642600643 0.028132056377984393 0.011222256599464004 -0.031218405982203792 -0.04708172572864977 0.0024799908775066343 -0.035567657947494474 0.012407625600347343 0.0033902893595311504 -0.011282533109333562 -0.039567787883138174 -0.013101022616074067 -0.0055653524819560922 0.028122375362672373 -0.043665117026652697 -0.050111791968600772 -0.001283142197690078 0.0011563498727487234 -0.0027674638126941572 -0.036405031186181359 -0.040725869423869576 0.023428031080883878 -0.064669095660392042 -0.0143759870415945 0.015608846503964114 -0.031676659054994165 -0.041545325367349138 -0.039930511499166051 -0.059501840885654939 -0.034880783267780144 0.014142937763688071 -0.048707887017145179 0.0017464611808541569 -0.026784182901383822 0.023113828991404076
leaf_weight=1469.7046560845338 177.70814221200999 5712.6672715675086 852.03029556735419 150.51978556578979 850.81199729361106 110.8188977567479 35.638774898368865 376.29297661175951 228.78052103193477 26.825105119147338 84.402143160346895 27.547330348053947 511.34156119287945 1685.5617768187076 660.82681494008284 412.03901678847615 56.38553869840689 185.68394149735104 146.21154328342527 694.17123003932647 1978.168167091324 148.61576978105586 2291.2823442001827 26.938674004282802 104.91141840117052 2032.5668254363118 2401.613776608021 69.359653564170003 903.25895446632057 82.809828888159245 71.487438034499064 4294.8497828573454 1172.3579012348782 158.44561688276008 770.24151693412568 899.45074312924407 47.112663325620815 32.994305520085618 142.09643893106841 124.70677498425357 198.20832550525665 694.26893884432502 484.15932880027685 87.645590445026755 270.95371356769465 32.314824236789718 525.53350230539218 23.931015824666247 1163.5601486442611 711.45221448520897 1671.6848249852192 93.461713403696194 113.88669986324385 331.1243420044193 14.070202954811974 631.98996569542214 102.93174045486376 263.66979935043491 423.79066592664458 1406.8135605504503 136.83292886940762 889.87944383523427 91.57299022260122 80.565056739840657 251.76955910713878 38.155674491310492 594.38160408777185 448.16449616570026 339.60573105735239 163.74359867465682 2380.8361232676543 50.137516242917627 70.269016022095457 150.06000663992018 456.06177484663203 54.251735315192491 384.1367548527196 7454.6151257625315 463.75512646429706 463.16561457200442 99.320472263148986 220.95085600786842 396.58433075807989 117.16240474418737 250.44377876992803 1761.002874054946 18.304848638363183 64.88159916177392 1785.5853741284227 495.95719915279187 106.00360236340202 463.92909754067659 1984.8723719876725 41.28767903149128 63.408447004971094 685.63516038865782 21.380676221800968 34.273428532993421 134.01282231439836 491.08432485256344 252.29742269415874 420.35315740085207 174.73655909858644 168.37043487187475 90.936650555115193 232.13757703639567 795.15512203658 378.81364012381528 648.51955519372132 443.50740613718517 318.96981036779471 267.46157129784115 977.02727924450301 145.38683439267334 382.89615441672504 373.89129168889485 271.33710804861039 37.899835163028911 18.810676218010485 22.933035798370838 178.28773116273805 805.21526739397086 211.4175358004868 451.00471432227641 928.92965981503949 93.603121107211336 233.26347295637242 675.74672887218185 31.82032264652662 47.646207956364378 427.30234027781989 437.68001203087624 150.31384710851125 1385.5399639803218 291.18303455226123 299.95982158952393 241.91222704085521 208.1224334781291 334.55069934437051 579.7185799125582 662.41459723236039 1321.4686872670427 1228.1471603664104 517.17339032189921 55.589666498359293 26.538432158296928 508.81790872709826 71.10024806461297 98.657077135285363 19.898075244622305 17.845324871363118 1038.835950544104 528.76046426594257 861.9943856569007 176.72424983629026 750.88051046314649 119.81791951274499 60.367447861353867 69.469856374780647 53.297881114529446 89.142746057012118 30.941472746897489 893.58374227769673 305.52437767991796 1099.5611382960342 34.885135502787307 198.85204377805348 79.314185216790065 18.250146543141454 10.077790599316357 1122.0486769871786 382.91710947360843 60.523807260324247 196.65312861208804 99.271120108198375 26.06377439876087 254.59247938613407 7.7195756272412828 272.19387226295657 75.834831234184094 152.91827610740438 16.98346086172387 1307.380887288251 11.657946840161456 148.92625502636656 911.92427720199339 33.419458023738116 977.58267870068084 325.12651128892321 3287.9056060055736
leaf_count=177646 7615 37603 117110 8648 15256 9817 3276 30317 16551 2047 8009 2661 5676 24441 59216 10703 5734 4006 4935 58809 28944 3614 7445 246 8022 48333 37533 7091 23534 4866 2681 38654 8628 13241 34456 8377 4425 2829 7609 13269 2428 71526 33829 4720 13619 2578 50574 794 124398 55763 15398 1304 6661 25331 757 8179 1086 10908 21321 39391 3147 8693 2119 3133 11156 3361 73257 36718 12720 5978 15320 2744 800 4201 26621 3189 29460 25283 26405 17425 4933 2456 22173 7392 11046 208583 826 4185 19703 8505 4769 2147 21826 1428 5089 38656 746 747 4536 1957 2643 14515 8271 13485 11364 1169 8237 5195 21210 20828 4079 2030 20889 2687 1791 8765 10255 506 426 1101 13266 76747 7191 27085 6233 2862 3788 65625 2037 1693 19590 30328 4962 45424 710 2190 4346 4754 21756 4904 3541 36215 8397 2231 808 640 7489 987 1111 591 179 19759 17148 94112 13821 5564 771 697 7010 2520 3820 861 16300 7960 36908 1738 9886 2794 187 133 137844 11768 2931 2220 1599 580 1901 174 13917 3323 15017 346 127442 1092 6870 6119 3549 25566 19671 15897
internal_value=8.51538e-05 0.00761957 -0.0323457 0.0119184 -0.0142872 0.00395528 0.0157483 -0.019579 -0.00922878 0.0113693 -0.04369 -0.013951 0.00814114 0.0086329 -0.0171049 -0.0113597 0.0140989 0.0143254 -0.00659051 -0.0351776 0.000685651 -0.0381546 0.0205747 0.0207114 -0.0341552 0.00390022 0.00209253 -0.00865866 -0.00790293 -0.000346495 -0.0513456 0.0144773 0.0215281 -0.0294451 -0.00602711 0.0168557 -0.0023949 -0.00218792 -0.0018034 -0.0294019 0.0070493 -0.0399913 -0.0337284 -0.00383401 -0.0233171 -0.000482367 -0.0208383 -0.040241 -0.0412038 -0.019548 0.00782359 -0.0127348 -0.018363 -0.0217592 -0.011236 0.00484617 0.0186814 0.000798608 -0.00413066 0.0015852 0.00591941 0.0187391 -0.0265412 0.00807957 -0.00955864 -0.0111854 -0.041599 -0.034691 -0.000627771 -0.00732616 0.0190337 0.00169093 0.00872682 0.00763894 -0.0109944 -0.00797746 -0.0299038 0.0246348 -0.0119895 -0.00326311 -0.00368571 0.00865561 -0.0151343 -0.0346859 -0.00904307 -0.0523249 9.35459e-05 -0.00770489 0.0104656 0.0177196 -0.00172821 0.0164114 0.00966645 -0.00683561 -0.0144155 -0.0132281 -0.037163 -0.0289951 -0.0148224 0.0201858 0.0194506 -0.00723966 -0.0262765 -0.0190894 -0.0301634 0.02626 0.0202643 0.0004309 -0.0142107 0.00543199 0.0143048 0.00707406 0.00129646 0.00534344 0.0243478 0.00425835 0.000997427 -0.0134038 -0.0120932 -0.00132617 -0.013387 -0.0493254 -0.0176125 -0.00824886 0.0143071 0.00812311 0.00691093 -0.0436426 -0.000456497 -0.0241492 -0.0148056 -0.0298934 0.00881298 -0.00613509 0.0257769 0.025251 0.000204537 -0.00463908 -0.0166864 0.0172534 0.0173144 -0.00166887 0.01914 0.0139965 -0.000778838 -0.0222344 -0.00392199 -0.0183645 0.00969662 0.0126364 -0.028915 0.00338635 0.00431124 -0.0376466 -0.0247783 0.0114055 0.00613287 -0.0129399 -0.00403725 -0.0111502 -0.0136238 0.00943545 0.0104334 -0.00954188 -0.0129706 0.00238049 -0.0251499 -0.0260065 -0.0264321 0.0324767 -0.0452031 -0.0097649 -0.0275116 0.0219262 -0.0249217 0.00694783 0.0106194 0.02064 -0.00574434 -0.00993933 -0.0158178 0.0169937 -0.0447001 0.0101501 -0.0207301 0.010701 -0.0117209 -6.14613e-05 -0.0204902 0.0214572
internal_weight=100707 81721.8 18985.2 68316.2 13405.6 22187 46129.2 8933.7 10686.1 24187 10051.5 6857.51 15883 15772.2 5663.36 3865.42 19264.6 19208.2 6303.98 4761.64 4922.42 2076.19 21942.2 21906.6 2719.43 8715.9 7708.6 5108.92 5039.56 5022.76 5289.83 7056.31 20670.2 1797.93 4628.99 13826.2 4648.44 181.61 4601.33 1748.6 1236.34 1959.09 1264.82 3887.83 1426.07 1660.57 1341.67 3335.57 3256.05 2204.85 5382.03 2063.75 1655.55 1137.11 1243.46 2988.94 10789.7 1628.26 1216.22 2356.95 3258.29 10677.2 1001.24 2761.46 1664.13 984.11 1894.58 1042.55 2565.24 1218.47 10668 3357.87 5196.35 4893.94 1054.73 2033.83 909.67 9880.53 1067.35 577.052 1506.13 2683.1 979.062 1314.01 945.955 5157.97 1075.9 1101.36 3148.97 1007.3 2414.14 1363.38 4163.96 575.184 1970.29 1906.88 352.505 410.566 695.511 8916.64 8415.48 582.477 1220.74 760.348 785.108 302.407 7895.72 420.101 713.401 1346.77 2007.64 519.759 1057.59 2156.32 2674.18 387.961 2341.8 309.237 121.742 1054.77 434.588 3396.97 715.126 1221.25 1724.08 3820.77 2462.15 780.658 2308.14 503.708 784.6 588.2 3727.16 1412.37 8708.17 8416.99 2276.32 441.386 509.287 7993.78 962.374 2034.41 5612.94 1745.32 79.5207 490.294 729.978 221.16 3576.85 2439.36 37.7434 1137.49 792.43 1163.43 301.431 1760.58 1009.7 131.855 340.424 1546.03 591.977 2020.77 943.721 1458.38 1152.86 1356.35 357.298 162.124 155.083 501.162 1927.26 678.055 289.304 6171.63 126.21 2010.94 458.965 262.312 406.207 407.041 331.206 1688.67 2470.94 1989.83 295.138 1110.13 150.582 1031.83 414.269 3867.62
internal_count=3294812 1612960 1681852 918604 694356 518920 399684 643248 470763 288167 1038604 409720 290140 280323 328800 200790 177688 171954 228780 434406 110479 233528 111517 108241 223593 192380 178199 243310 236219 141963 604198 87943 97849 128010 205155 108386 138673 6443 134248 166410 10392 179002 107476 111202 110791 62658 102782 323615 322013 138132 63568 106590 90107 68794 42526 67759 57497 60080 49377 59580 51852 78159 82153 49289 58627 52342 227085 109975 98565 54203 55985 91722 59562 57593 48225 74204 80034 40352 51131 24086 44324 41895 44348 132143 48981 600820 24848 34917 30227 14181 72678 10524 44916 9957 105286 100197 26077 31064 37935 63131 61041 22175 85790 44591 70173 1969 56368 6623 25395 44362 19823 4673 24022 25093 9236 9522 59094 10761 1512 29856 34267 392237 35505 61541 14470 66997 39439 73647 67909 28314 42717 38976 64135 47471 31724 31014 65872 8542 30027 46749 5731 61526 31429 10628 1602 27045 12677 5188 59173 38303 770 20870 28056 121202 27090 15028 9464 3378 20629 52108 31106 30897 19044 47388 39428 37953 23127 7660 3334 2090 214591 23573 19482 41898 1845 22406 4295 2075 18453 31606 28283 15744 251840 30036 11805 8547 10941 28755 23491 20801
is_linear=0
shrinkage=0.035


Tree=4
num_leaves=191
num_cat=0
split_feature=130 31 130 130 112 112 112 133 10 125 32 42 8 58 25 8 8 8 57 72 130 8 72 124 124 74 133 125 8 31 34 114 0 133 31 8 111 8 133 148 110 8 21 125 72 58 8 72 8 58 93 8 0 109 72 112 57 111 16 110 26 16 29 130 8 57 124 8 57 110 8 0 117 21 36 26 109 89 29 97 29 10 57 89 31 8 52 111 131 31 80 72 98 124 8 42 72 31 72 53 130 25 72 57 57 125 110 74 72 133 18 60 74 53 21 72 85 124 8 21 2 58 29 8 110 130 11 139 28 102 8 21 8 74 129 52 39 8 95 93 16 85 8 139 142 94 21 8 93 43 30 58 139 139 132 2 93 68 110 12 116 92 31 87 27 91 130 27 89 27 52 34 53 139 111 1 68 99 71 131 44 133 124 66 91 72 29 22 94 121
split_gain=17430.7 5655.72 1622.01 1575.99 1293.13 822.716 743.61 689.93 510.387 448.023 402.204 387.091 286.416 268.588 256.388 248.805 242.376 241.266 237.77 237.274 205.721 199.789 220.479 197.077 190.891 186.356 176.098 170.926 168.317 161.791 160.032 156.148 153.074 147.398 136.763 133.536 132.853 132.516 128.515 123.325 122.919 121.268 120.288 119.861 104.174 102.46 102.177 99.777 95.5119 94.0585 93.7595 93.5768 90.5572 90.4316 90.1772 89.902 88.6521 84.4597 84.0294 81.2265 80.1914 79.5866 79.5384 77.9647 77.9601 77.4725 76.8798 75.7436 74.5801 74.1132 73.8929 73.755 72.7967 71.9637 71.8141 71.5484 70.5692 69.3209 68.8897 68.0818 67.922 67.7717 67.3612 76.9768 66.7293 73.3289 66.3032 63.633 65.3083 63.4316 62.2979 61.9943 86.4416 61.8363 61.5721 76.0732 61.2719 61.0262 60.7114 60.6383 59.968 59.8846 59.4663 59.0191 59.0075 58.2724 57.7489 57.1938 57.0684 56.8004 56.6345 56.4835 56.2417 56.1708 55.7197 55.6773 55.6171 56.1876 55.4314 55.4071 54.087 54.0558 53.663 52.6363 52.1402 51.4071 54.4118 53.5806 51.2255 50.9473 50.5913 50.5846 50.5834 49.8489 58.6651 49.7506 49.4419 50.9282 49.0927 49.0706 48.6542 48.44 49.7475 48.4319 48.3589 48.1368 50.6294 48.0628 47.9569 48.2848 47.8861 47.591 47.3501 49.7366 47.1299 46.9842 46.8393 46.5659 46.3912 46.3819 46.0885 52.851 45.9814 45.8688 45.7983 45.6481 45.5683 50.629 45.2761 45.1527 44.8779 54.0931 44.7311 44.5851 44.3704 57.6591 45.6137 44.2232 44.1517 67.4114 44.0563 43.5938 43.461 43.4057 51.7352 43.37 43.3569 47.6783 43.2843 43.2495
threshold=0.16648297011852267 0.16888538748025897 0.16394466906785968 0.16969339549541476 -1.0000000180025095e-35 -1.0000000180025095e-35 -1.0000000180025095e-35 0.16112095117568973 1.5000000000000002 6.2950000762939462 3.5000000000000004 3.5000000000000004 0.16499999910593036 6.6449999809265146 -1.0000000180025095e-35 0.22500000149011615 0.10500000044703485 0.12499999627470972 -0.29500000178813929 0.15500000119209292 0.16261659562587741 0.18500000238418582 0.14500000327825549 0.43500000238418585 0.38499999046325689 4.5000000000000009 0.16296575218439105 6.4849998950958261 0.2950000017881394 0.17647846043109897 33.805000305175788 5.4383332729339608 4.5000000000000009 0.16438204795122149 0.1604946777224541 0.18500000238418582 -2.4999999999999996 0.074999999254941954 0.1595757678151131 1.0000000180025095e-35 -0.0084712281823158247 0.21499999612569812 0.49154520034790045 6.4949998855590829 0.11499999836087228 6.6649999618530282 0.12499999627470972 0.22500000149011615 0.23499999940395358 0.034999999217689044 1.2075000405311587 0.36500000953674322 4.5000000000000009 0.00011694211207213813 0.24499999731779101 -1.4999999999999998 -0.054999999701976769 -2.4999999999999996 1.6438308358192446 -0.017908282577991482 1.0000000180025095e-35 0.56754708290100109 -0.060833333060145371 0.1730856075882912 0.17500000447034839 1.5549999475479128 0.25499999523162847 0.31499999761581426 -1.7549999952316282 0.02053205389529467 0.18500000238418582 3.5000000000000004 4.305000066757203 -1.089779734611511 5.4949998855590829 0.034999999217689044 -0.012424745131283997 0.24499999731779101 2.2866667509078984 0.064999999478459372 1.2441666722297671 1.5000000000000002 -1.0000000180025095e-35 0.62500000000000011 0.17558191716670993 0.13499999791383746 0.13247422873973849 -1.4999999999999998 0.0087113617919385451 0.17177168279886249 0.1648456156253815 0.14500000327825549 1.4950000047683718 0.25499999523162847 0.19500000029802325 3.5000000000000004 0.31499999761581426 0.18081193417310717 0.20499999821186068 0.67303752899169933 0.17338638752698901 -0.25499999523162836 0.16499999910593036 0.024999999441206459 -0.40500000119209284 6.555000066757203 -0.0090121179819107038 5.5000000000000009 0.15500000119209292 0.15186649560928348 0.61554753780365001 -6.6024999618530265 3.5000000000000004 1.0741047263145449 0.98359599709510814 0.12499999627470972 0.87033677101135265 0.2650000005960465 0.24499999731779101 0.060802491381764419 27.005000114440922 6.6549999713897714 1.0591666102409365 0.10500000044703485 0.022419446147978309 0.16840920597314837 1.0000000180025095e-35 6.5000000000000009 -10.262500286102293 -23.26500034332275 0.34499999880790716 0.68765506148338329 0.11499999836087228 3.5000000000000004 18.942500114440922 -1.0768276453018186 7.0750000476837167 0.27500000596046453 0.16143932193517688 1.0925000309944155 1.3199564814567568 0.48078575730323797 0.13499999791383746 6.5000000000000009 2.5000000000000004 6.8750000000000009 -0.46190825104713434 0.054999999701976783 1.2708333134651186 -2.4999999999999996 6.6349999904632577 6.7149999141693124 8.5000000000000018 15.500000000000002 0.018243279308080677 56.014999389648445 0.12749999761581424 7.3450000286102304 0.001275052141863853 27.677499771118168 2.2949999570846562 12.377500057220461 0.17422882467508319 1.9370667934417727 12.904999732971193 -0.18500000238418576 0.173917330801487 2.5349999666213994 -0.76499998569488514 -6.2249999046325675 -0.074048221111297594 56.710000991821296 -1.833277106285095 6.5000000000000009 1.5000000000000002 3.6950000524520878 6.0350000858306894 -0.014999999664723871 6.6949999332427987 0.001273028727155179 43.607500076293952 0.16271451860666278 0.064999999478459372 52.754999160766609 -12.345000267028807 0.085000000894069686 -0.030833332799375054 4.5000000000000009 0.15500000119209292 21.064999580383304
decision_type=2 2 2 2 2 2 2 2 2 2 2 2 2 2 2 2 2 2 2 2 2 2 2 2 2 2 2 2 2 2 2 2 2 2 2 2 2 2 2 2 2 2 2 2 2 2 2 2 2 2 2 2 2 2 2 2 2 2 2 2 2 2 2 2 2 2 2 2 2 2 2 2 2 2 2 2 2 2 2 2 2 2 2 2 2 2 2 2 2 2 2 2 2 2 2 2 2 2 2 2 2 2 2 2 2 2 2 2 2 2 2 2 2 2 2 2 2 2 2 2 2 2 2 2 2 2 2 2 2 2 2 2 2 2 2 2 2 2 2 2 2 2 2 2 2 2 2 2 2 2 2 2 2 2 2 2 2 2 2 2 2 2 2 2 2 2 2 2 2 2 2 2 2 2 2 2 2 2 2 2 2 2 2 2 2 2 2 2 2 2
left_child=2 4 13 8 12 14 9 21 10 -5 48 15 24 20 45 25 53 27 57 65 107 22 123 29 33 31 124 -9 40 37 59 89 68 75 -18 43 50 140 -39 70 133 54 104 -20 -17 60 113 103 66 73 61 97 169 115 71 69 -35 -10 99 -12 64 74 -45 135 87 -19 72 77 -22 100 116 106 96 -40 -16 -2 -43 120 138 162 125 139 -62 -84 85 -33 -47 164 -89 132 -56 92 -51 148 95 -49 112 98 -46 101 122 -59 -71 -36 -29 -55 -21 -1 183 -41 -65 -37 -3 -42 118 -7 117 -38 -93 -118 -28 -54 -27 -6 131 126 127 -64 -103 -58 -113 -14 -11 -13 -135 -48 137 -78 -15 -70 -8 142 157 -83 -74 146 -137 -44 149 -32 155 -129 -73 -154 163 172 -30 -77 170 -156 161 -110 -75 -151 -4 -142 167 -31 -107 -24 171 -86 -91 -143 175 -134 -177 -57 -148 -180 -115 -99 -50 184 -79 -149 187 -101 -162 -111
right_child=1 3 5 6 7 16 23 17 18 11 30 28 26 78 36 44 34 19 35 41 32 -23 52 -25 -26 55 67 42 156 166 93 84 -34 56 47 111 39 38 49 109 46 76 147 62 51 86 63 94 182 91 -52 -53 121 105 90 177 129 58 -60 -61 82 -63 80 110 -66 -67 -68 -69 81 102 -72 152 144 79 -76 141 136 108 -80 -81 -82 143 83 -85 158 -87 -88 88 -90 150 -92 114 -94 -95 -96 -97 -98 181 -100 186 -102 128 -104 -105 -106 168 -108 -109 160 189 -112 130 -114 180 -116 -117 119 -119 -120 -121 -122 -123 -124 -125 -126 -127 -128 151 -130 -131 -132 -133 174 134 -136 145 -138 -139 -140 -141 165 173 -144 -145 -146 -147 178 185 -150 154 -152 -153 153 -155 159 -157 -158 -159 -160 -161 188 -163 -164 -165 -166 -167 -168 -169 -170 -171 -172 -173 -174 -175 -176 176 -178 -179 179 -181 -182 -183 -184 -185 -186 -187 -188 -189 -190 -191
