tree
version=v4
num_class=1
num_tree_per_iteration=1
label_index=0
max_feature_idx=182
objective=lambdarank
feature_names=Column_0 Column_1 Column_2 Column_3 Column_4 Column_5 Column_6 Column_7 Column_8 Column_9 Column_10 Column_11 Column_12 Column_13 Column_14 Column_15 Column_16 Column_17 Column_18 Column_19 Column_20 Column_21 Column_22 Column_23 Column_24 Column_25 Column_26 Column_27 Column_28 Column_29 Column_30 Column_31 Column_32 Column_33 Column_34 Column_35 Column_36 Column_37 Column_38 Column_39 Column_40 Column_41 Column_42 Column_43 Column_44 Column_45 Column_46 Column_47 Column_48 Column_49 Column_50 Column_51 Column_52 Column_53 Column_54 Column_55 Column_56 Column_57 Column_58 Column_59 Column_60 Column_61 Column_62 Column_63 Column_64 Column_65 Column_66 Column_67 Column_68 Column_69 Column_70 Column_71 Column_72 Column_73 Column_74 Column_75 Column_76 Column_77 Column_78 Column_79 Column_80 Column_81 Column_82 Column_83 Column_84 Column_85 Column_86 Column_87 Column_88 Column_89 Column_90 Column_91 Column_92 Column_93 Column_94 Column_95 Column_96 Column_97 Column_98 Column_99 Column_100 Column_101 Column_102 Column_103 Column_104 Column_105 Column_106 Column_107 Column_108 Column_109 Column_110 Column_111 Column_112 Column_113 Column_114 Column_115 Column_116 Column_117 Column_118 Column_119 Column_120 Column_121 Column_122 Column_123 Column_124 Column_125 Column_126 Column_127 Column_128 Column_129 Column_130 Column_131 Column_132 Column_133 Column_134 Column_135 Column_136 Column_137 Column_138 Column_139 Column_140 Column_141 Column_142 Column_143 Column_144 Column_145 Column_146 Column_147 Column_148 Column_149 Column_150 Column_151 Column_152 Column_153 Column_154 Column_155 Column_156 Column_157 Column_158 Column_159 Column_160 Column_161 Column_162 Column_163 Column_164 Column_165 Column_166 Column_167 Column_168 Column_169 Column_170 Column_171 Column_172 Column_173 Column_174 Column_175 Column_176 Column_177 Column_178 Column_179 Column_180 Column_181 Column_182
feature_infos=[1:6] [0:8.880000114440918] [0:85] none [0:9.880000114440918] [0:90] none [0:7.8499999046325684] [0:0.97000002861022949] [0:8.5399999618530273] [1:6] [-5:5] [0:76.819999694824219] none none [1.7999999523162842:55.400001525878906] [-2.234015941619873:2.229327917098999] [1:6] [-2.228743314743042:2.2327311038970947] [-2.2265846729278564:2.2360680103302002] [-2.2265846729278564:2.2360680103302002] [-2.2360680103302002:2.2360680103302002] [1:6] [-2.2286059856414795:2.2360680103302002] [1:6] [-7.820000171661377:7.380000114440918] [-7.8299999237060547:7.690000057220459] [-90:90] [-70:71.425003051757812] [-6.4366664886474609:6.4083333015441895] [0:7.8299999237060547] [0.13520096242427826:0.19877235591411591] [1:6] [0:8.880000114440918] [0:85] none [0:9.880000114440918] [0:90] none [0:7.9000000953674316] [0:0.99000000953674316] [0:8.1999998092651367] [1:6] [-5:5] [0:75.644996643066406] none none [1.7999999523162842:55.400001525878906] [-2.2302701473236084:2.232410192489624] [1:6] [-2.2237255573272705:2.2296857833862305] [-2.2265846729278564:2.2360680103302002] [-2.2265846729278564:2.2360680103302002] [-2.2360680103302002:2.2360680103302002] [1:6] [-2.2269186973571777:2.2360680103302002] [1:6] [-7.2399997711181641:7.380000114440918] [-7.320000171661377:7.6999998092651367] [-90:90] [-70:68.69000244140625] [-6.0833334922790527:3.5233333110809326] [0:7.8299999237060547] [0.13520476222038269:0.19969405233860016] [1:6] [0:8.880000114440918] [0:85] none [0:9.880000114440918] [0:90] none [0:7.9000000953674316] [0:0.99000000953674316] [0:8.0200004577636719] [1:6] [-5:5] [0:76.819999694824219] none none [1.7999999523162842:55.400001525878906] [-2.234015941619873:2.232410192489624] [1:6] [-2.228743314743042:2.2327311038970947] [-2.2316751480102539:2.2360680103302002] [-2.2316751480102539:2.2360680103302002] [-2.2360680103302002:2.2360680103302002] [1:6] [-2.2286059856414795:2.2360680103302002] [1:6] [-8.1599998474121094:7.4200000762939453] [-7.8299999237060547:7.6999998092651367] [-90:90] [-70:71.425003051757812] [-6.4366664886474609:6.4083333015441895] [0:7.8299999237060547] [0.13428187370300293:0.19969405233860016] [-7.820000171661377:7.5100002288818359] [-7.5500001907348633:7.6100001335144043] [-7.6500000953674316:8.1599998474121094] [-7.8000001907348633:7.690000057220459] [-7.7699999809265137:7.8000001907348633] [-7.690000057220459:7.7699999809265137] [-90:90] [-90:90] [-90:90] [-70:70] [-67.724998474121094:70] [-68.69000244140625:68.69000244140625] [-0.057387363165616989:0.056210756301879883] [-0.05691869929432869:0.056210756301879883] [-0.05691869929432869:0.05691869929432869] [-5:5] [-5:5] [-5:5] [1.0900000333786011:8.443333625793457] [0.0047140452079474926:3.463437557220459] [0.0099999997764825821:8.1599998474121094] [0:8.1599998474121094] [0:76.753334045410156] [0:42.426406860351562] [0:90] [0:68.75] [0:7.8000001907348633] [0:3.6699047088623047] [0:7.8000001907348633] [0:7.7699999809265137] [0:66.111663818359375] [0:31.925870895385742] [0:70] [0:60] [0.15196625888347626:0.18104562163352966] [1.0626804396451917e-05:0.023517845198512077] [2.60085998888826e-05:0.057387363165616989] [0.13428187370300293:0.17823085188865662] [123:654] [1:6] [1:6] [1:6] [6:120] [1:24] none [0:3] [0:14] [-6:6] [45.113887786865234:62.551200866699219] [0.45589876174926758:0.54313689470291138] [-0.057387363165616989:0.056210756301879883] [0.1525329202413559:0.19969405233860016] [0:1] none none none none none none none none none none none none none none none none none none none none none none none none none none none none none none none none none none
tree_sizes=14296 14296 14259 14287 14299 14313 14300 14277 14275 14277 14282 14299 14278 14294 14282 14235 14262 14303 14276 14258 14296 14245 14243 14259 14275 14266 14305 14230 14274 14265 14221 14265 14218 14248 14220 14315 14227 14258 14219 14245 14226 14266 14268 14280 14255 14256 14197 14230 14236 14192 14203 14265 14224 14220 14231 14276 14232 14225 14223 14202 14301 14236 14137 14190 14201 14216 14210 14222 14244 14215 14224 14221 14203 14200 14251 14258 14189 14193 14198 14184 14190 14267 14210 14220 14219 14182 14228 14207 14204 14141 14232 14219 14227 14151 14207 14160 14196 14227 14198 14247 14189 14193 14181 14161 14185 14223 14245 14246 14218 14222 14254 14190 14298 14226 14259 14239 14176 14213 14216 14230 14232 14258 14296 14278 14240 14233 14253 14184 14155 14242 14233 14269 14253 14236 14269 14125 14211 14264 14197 14145 14200 14209 14119 14226 14143 14154 14225 14226 14182 14152 14253 14202 14181 14166 14183 14168 14216 14224 14119

Tree=0
num_leaves=127
num_cat=0
split_feature=145 31 25 112 125 130 130 8 133 112 8 110 8 8 58 133 109 93 148 133 110 124 130 123 72 8 74 8 110 57 57 8 72 125 111 131 145 8 72 32 61 8 8 72 25 72 134 31 110 8 72 57 72 134 134 57 57 132 58 134 42 130 148 117 57 148 134 8 29 134 63 57 125 147 134 121 72 8 51 134 139 17 72 145 125 123 89 23 72 111 8 76 85 62 72 53 72 8 31 65 130 8 51 105 8 8 131 36 48 10 62 110 117 109 134 147 98 62 80 108 93 131 121 87 120 53
split_gain=20375.3 5950.36 2510.91 1309.57 1106.72 1090.45 838.981 550.021 438.191 438.016 307.858 277.302 276.506 266.509 244.402 207.246 181.144 176.259 163.387 162.993 156.982 153.646 153.333 143.834 128.491 122.907 118.515 115.56 111.476 104.808 91.9703 90.4673 93.4565 88.6091 82.6077 82.5372 81.2907 80.1572 109.957 75.791 70.6708 70.5755 68.247 67.6798 65.5823 65.5228 72.5192 64.7899 61.97 61.0865 59.9631 59.9495 59.6268 59.617 58.9312 60.0756 57.0385 54.949 54.8215 54.0031 53.9611 52.1345 51.709 51.5622 51.5517 50.0282 48.1917 45.5432 45.1409 44.8734 44.5467 41.7545 41.3353 41.0861 40.6782 40.3046 39.4515 43.5074 42.4271 39.2466 42.8591 39.1121 52.879 38.9756 36.7598 36.4197 35.9974 35.6193 34.614 34.5859 33.8361 33.743 33.6178 33.6016 33.5916 33.3432 33.2757 37.5244 33.2107 32.7119 32.6482 35.2458 32.4733 34.1947 32.4331 32.2826 32.2699 32.265 32.1925 32.1907 31.9325 31.7186 31.5844 31.5573 31.5242 31.5132 31.4021 31.3497 31.1165 30.7132 30.4411 30.425 30.1274 30.0166 29.9942 29.7988
threshold=0.50413715839385997 0.17105031013488772 -1.0000000180025095e-35 -1.0000000180025095e-35 6.3150000572204599 0.16561971604824069 0.17192494124174121 0.16499999910593036 0.16313485056161883 -1.0000000180025095e-35 0.19500000029802325 -0.012979773804545401 0.19500000029802325 0.17500000447034839 6.6449999809265146 0.15893124043941501 -0.00087515590712428082 1.0791667103767397 1.0000000180025095e-35 0.16501428931951526 -0.014209513552486895 0.2950000017881394 0.16307650506496432 0.078173078596591963 0.14500000327825549 0.23499999940395358 5.5000000000000009 0.12499999627470972 -0.0078830411657690985 -0.064999999478459344 -0.76499998569488514 0.19500000029802325 0.14500000327825549 6.4449999332427987 -1.4999999999999998 0.011104537174105646 0.50717741250991832 0.18500000238418582 0.17500000447034839 2.5000000000000004 1.0791667103767397 0.23499999940395358 0.31499999761581426 0.20499999821186068 0.86500000953674328 0.19500000029802325 125.50000000000001 0.16831924766302112 -0.012397526297718285 0.16499999910593036 0.14500000327825549 -0.41499999165534968 0.16499999910593036 125.50000000000001 518.50000000000011 -0.55500000715255726 -0.24499999731779096 0.021157609298825267 1.0000000180025095e-35 518.50000000000011 4.5000000000000009 0.17335470020771029 1.0000000180025095e-35 3.1149998903274541 -0.38499999046325678 1.0000000180025095e-35 341.50000000000006 0.11499999836087228 -0.029166666790843006 522.00000000000011 0.1614535450935364 -1.0000000180025095e-35 6.5250000953674325 0.17605058848857882 123.50000000000001 31.685000419616703 0.12499999627470972 0.095000002533197417 -0.56492871046066273 125.50000000000001 4.5000000000000009 1.5000000000000002 0.095000002533197417 0.51120883226394664 6.5850000381469735 0.078598711639642729 -3.3049999475479122 -1.4656951427459715 0.20499999821186068 -1.0000000180025095e-35 0.27500000596046453 41.522500991821296 1.1548941135406496 6.7049999237060556 0.11499999836087228 0.71879157423973095 0.24499999731779101 0.10500000044703485 0.16848829388618472 3.9450000524520878 0.16676993668079379 0.064999999478459372 -0.84829849004745472 -1.2874999642372129 0.095000002533197417 0.11499999836087228 0.0063969031907618054 5.9949998855590829 0.53885328769683849 3.5000000000000004 0.12499999627470972 -0.016345066018402573 2.5849999189376835 0.011961706448346378 133.00000000000003 0.18365600705146792 -0.37499999999999994 0.11499999836087228 0.59065437316894542 -0.0079000690020620806 -0.012500000186264513 0.008618251886218788 29.979999542236332 1.2598399519920351 11.75500011444092 -1.3206315040588377
decision_type=2 2 2 2 2 2 2 2 2 2 2 2 2 2 2 2 2 2 2 2 2 2 2 2 2 2 2 2 2 2 2 2 2 2 2 2 2 2 2 2 2 2 2 2 2 2 2 2 2 2 2 2 2 2 2 2 2 2 2 2 2 2 2 2 2 2 2 2 2 2 2 2 2 2 2 2 2 2 2 2 2 2 2 2 2 2 2 2 2 2 2 2 2 2 2 2 2 2 2 2 2 2 2 2 2 2 2 2 2 2 2 2 2 2 2 2 2 2 2 2 2 2 2 2 2 2
left_child=2 3 14 10 -3 17 7 11 37 13 19 76 16 21 15 54 30 22 51 35 -9 28 -4 -19 -14 34 67 58 75 43 50 32 47 -21 94 72 -20 38 59 61 62 52 48 -10 -11 46 87 -31 91 86 -8 104 -12 63 55 -1 -35 -54 68 64 -55 111 73 -38 -5 -15 71 -24 84 121 -62 -29 -2 100 116 -7 78 -78 -6 80 -58 109 -83 92 -17 93 -28 -27 -39 -34 -48 113 -47 106 -22 -85 97 -91 -74 107 101 -30 103 -64 -13 -40 117 -84 -101 -36 -71 -18 -104 -26 123 -53 -50 -67 -70 -63 -108 -46 -73 -43 -80 -125
right_child=1 4 5 8 6 9 12 20 29 44 41 18 24 65 -16 27 39 23 36 33 25 -23 26 -25 42 45 49 66 40 31 -32 -33 89 56 81 -37 53 88 105 -41 -42 114 -44 -45 69 83 90 -49 74 -51 -52 115 57 60 -56 -57 79 -59 -60 -61 70 119 102 -65 -66 85 -68 -69 118 110 -72 122 98 -75 -76 -77 77 -79 124 -81 -82 82 99 95 -86 -87 -88 -89 -90 96 -92 -93 -94 -95 -96 -97 -98 -99 -100 108 -102 -103 112 -105 -106 -107 120 -109 -110 -111 -112 -113 -114 -115 -116 -117 -118 -119 -120 -121 -122 -123 -124 125 -126 -127
leaf_value=-0.052584844737229144 -0.053682774352143109 -0.059501540532810253 -0.049744650120875325 -0.043089688129851145 -0.043639962526467076 -0.022853070343618651 -0.02828606368006097 -0.021955334499634535 -0.032308486826213331 -0.037582361674959645 -0.028346938085991015 0.01609768448971672 -0.0038965929170232741 -0.024079253410441048 0.043265874500826515 -0.053877639863349938 -0.029211378879245666 0.016657745377826244 0.023745111273580272 -0.055299639326073263 0.0041203409446504595 -0.058190457312843502 -0.027317042930360372 -0.055760489786849186 -0.024289084629894923 0.015091433292793993 -0.051955777676067766 -0.042921993435852963 0.021052791981971092 -0.020788755612371045 0.029080069184617956 -0.023982435273659196 0.023505116884739722 -0.02978019549316685 0.02190654172291507 -0.020782828911606505 -0.020320419983990607 -0.052945491815238312 0.0097600177357082731 0.045667105473916732 0.035369432949952533 -0.058558460737716284 -0.0073039424386734317 0.00053311598016005297 -0.0018104105510065548 0.0015584755001014936 0.0079685975138332598 0.0036210116547409307 -0.01161055918959716 -0.033411534164564487 0.018831612054164844 0.021097593296098466 0.010748668860726519 0.040456166397462828 -0.055746422982577863 -0.040968314492644833 -0.024623719333309091 -0.032710023366167212 -0.037120168444022286 -0.047503682194848802 0.0066001269077796696 0.024387200546978759 -0.046154099241324027 0.03003534558600959 -0.021167450899390226 0.0075628976853273355 -0.048745370569828736 -0.042272400495810124 -0.034563952575630344 -0.035522929159751172 0.032645709576018117 -0.034371847205627186 0.0027596098689476917 -0.020717147985771244 0.034041742850193034 0.0046786760235727485 0.0320654353117985 -0.0011321418895479051 0.0084284468186062583 0.026956907634061132 0.017007818124879649 -0.040374182088700861 -0.037699196495988546 0.02276998866595047 0.0064999204636279201 -0.055667162286448295 -0.010239396645166274 -0.054849661189385862 -0.034577690301450581 0.022942876426217555 -0.029405837499190873 0.039211278484286162 -0.041902047320228918 0.027898370933198424 0.024881675208381738 -0.016417106412642168 0.030334430618385786 -0.0082185891998131748 0.016365184834558167 0.0026381860007120279 0.0092137210560710846 -0.0093929820417063391 -0.014905493463077239 0.0036535080583923424 -0.021748818922881767 -0.018065844562199177 -0.0020721510986568457 0.01293944120151074 0.019063894198508478 -0.0024250769083958837 -0.0049046795067707082 0.033071482665028233 0.015920613993659707 0.035082678907870389 -0.019998505858315363 -0.032808831454132374 0.023484139184045627 -0.043771807538040081 -0.009409898767408895 0.042608017411911482 -0.024189641719811774 -0.044033939249646929 -0.0046168225499465532 0.034615443266065353 -0.027525048574737362 -0.0508578694349687
leaf_weight=1004.7858679595374 8.972732258087488 125.38941407851235 592.99973219147068 160.0608638325939 29.680060530197807 154.44523376892903 45.332322996095172 124.54315561369003 283.24985420287703 362.07894046217552 66.966567130555632 33.079944009223254 133.29100495457533 394.77256033889716 26.008672219060827 9.2901493204990384 6.6424273434095076 100.15631417212717 763.3237081397383 12.403226767142767 77.981643466133391 33.815426266068243 264.69434198048839 31.649096651293803 37.975041332218098 7.1363615076988927 18.895270467590308 220.693012755175 39.320522935784538 255.50686200722703 406.19431536427874 212.25526172977698 109.25416042577126 17.526885883955401 280.65204366741818 110.80041201764834 17.878477758960798 291.7648480085918 50.929500039492268 2463.5195006241847 80.85923630851903 42.703284154878929 47.821110731980298 70.213421472552 133.19830726674991 167.90476043355011 79.537202356965281 157.51014116036822 28.951870411634445 205.41427935684624 50.121598229176016 680.60208951593086 170.9671567017358 1578.531608153382 1795.8043949301355 719.22638105203805 24.317502098623663 29.882318962670979 324.52533755582408 255.95221872162074 73.040058916507405 93.787776980258059 12.556235114490844 1130.3175889789127 254.22612684253545 115.26662951718026 831.51165549969301 675.44956555684621 140.41433711170976 142.89752003690228 329.71974455587042 66.636964154109592 434.53980231085734 71.876491989460192 737.69592544279294 68.472888007148867 50.998427300233743 111.47017001791392 64.919716814882122 709.68530061804631 185.95248367986642 21.529968594550155 27.05593857911299 142.31398598717351 75.810211783478735 13.540124547696903 325.42163155127491 44.68627590755932 150.06458594591822 43.356736101573915 28.881405563064618 14.111965423042419 16.691158819681732 22.101996180281276 774.87486075381457 21.801338623045012 33.592862638528459 159.92722764625796 257.07648462374345 276.16991981132014 343.13310582678241 224.95489561249269 30.490479404485086 144.95123731308558 49.705667486021412 135.04454290612193 90.399388427467784 18.203286828953424 175.65501287355437 58.73786086999462 39.704086178448051 966.42781678328174 653.17440911836457 9.189966243633533 148.62811595134553 9.0050827011145866 99.3199607077986 10.788475531444417 66.353229998698225 1515.0260064322792 148.43573568451393 16.404842794101569 57.090730864234501 6.8537926068529487 29.551833948935382 5.8911726376973075
leaf_count=138048 1346 10390 86342 18330 2944 13197 4073 9558 29261 50060 5580 1700 4370 28275 3669 1487 154 6151 22483 1279 3155 3548 31415 4593 2680 46 2207 31136 1768 26960 12393 24552 7363 1939 6750 9961 361 36043 4708 38985 1911 760 1696 6138 16462 6283 3620 12259 226 20164 2659 26013 7868 33599 235140 102553 316 2945 37950 30155 4907 3557 1006 8088 25510 3842 103267 87492 17231 22228 12302 10251 29399 5925 15860 4031 1741 7478 3285 28723 1298 676 1240 3160 6181 1226 27773 690 19089 3347 2004 261 1229 483 25387 1030 2575 16002 10014 6065 17194 16170 2028 6781 4163 15261 4296 494 2979 5721 4533 13792 24572 133 14993 982 440 761 6301 13201 9200 3332 5949 23 2421 109
internal_value=0.000214905 0.0190267 -0.0324577 -0.00960622 0.0289042 -0.0183466 0.0297032 0.0226701 -0.0239777 -0.00753746 0.00727526 0.0283377 0.0374084 -0.00198135 -0.0471548 -0.0476061 0.0401451 -0.0346731 0.030097 0.0130409 0.0106906 0.00423845 -0.0368012 -0.000997651 0.0236851 0.0125326 -0.0316175 -0.0392388 0.00542857 -0.0118237 0.0228657 -0.00671625 -0.00185954 0.0214697 0.0163809 0.0031555 0.0326007 -0.0363619 -0.0309207 0.0418577 0.00819799 -0.01422 0.0274587 -0.0257931 -0.0287336 -0.000404239 -0.0162304 -0.0114862 0.0292607 -0.0204794 -0.00357535 0.0174487 -0.00404882 0.0347514 -0.0518536 -0.0477669 0.0225464 0.00413802 -0.0286144 -0.0365812 0.0379324 0.0382055 0.00672872 0.0292316 -0.0297278 -0.0165033 -0.0447762 -0.0380985 -0.0190522 -0.0189963 0.0279578 -0.0350717 0.00696993 0.000565091 0.0313214 -0.0143997 -0.000292735 0.00940254 -0.012978 0.0235778 0.0120852 0.00978491 0.00458056 0.00688529 -0.000605673 -0.00898752 -0.0126812 -0.0450581 -0.0468059 0.00961876 -0.00213784 5.43174e-05 -0.00255966 -0.00720729 0.0229939 0.0174782 0.00312948 -0.00147796 0.00783751 0.00661083 0.00311833 -0.00478948 0.011696 -0.000564275 -0.00657846 -0.0104182 -0.00941233 -0.017428 0.0090586 0.0176919 -0.0289447 0.0326137 0.0145217 -0.0121702 -0.0274685 0.0203428 0.0155113 0.00283585 -0.0265904 0.0415635 -0.0158742 -0.00672202 -0.0208134 -0.0467296 -0.00295732 -0.00550077
internal_weight=29833.5 18933.1 10900.5 4856.08 14077 5562.32 13951.6 7296.18 2622.91 3347.64 2233.17 4951.82 6655.41 2653.36 5338.15 5312.14 5547.05 2214.68 4665.2 1761.27 2344.36 1858.05 2082.87 131.805 1108.36 2219.81 1489.88 1792.33 1824.23 1324.87 501.648 971.403 759.148 949.885 1710.86 811.389 3892.81 1298.04 856.213 5045.4 1601.32 471.892 975.066 353.463 694.284 508.952 160.241 413.017 927.245 549.731 95.4539 772.393 267.816 3129.49 3519.82 1724.01 937.482 200.849 616.393 670.239 1981.29 2581.88 1520.46 1148.2 414.287 795.305 1175.93 940.144 291.868 332.205 402.76 344.421 700.589 679.285 865.968 222.918 286.62 162.469 124.152 919.955 210.27 858.004 518.614 348.711 85.1004 400.532 344.317 51.8226 441.829 346.131 108.419 61.277 184.596 386.992 852.857 164.115 236.877 203.284 691.616 497.084 607.409 264.275 841.172 157.507 82.7856 185.974 364.89 45.2592 451.825 339.39 182.602 973.07 683.665 47.165 204.076 689.607 128.272 126.055 206.768 1608.81 238.835 149.603 123.728 55.4482 94.4716 12.745
internal_count=1939659 731530 1208129 394106 337424 508966 327034 212554 277553 242829 116553 132467 114480 146214 699163 695494 88814 266137 114598 84275 80087 98131 255393 10744 25666 70529 169051 219753 94583 128457 19125 93058 68506 33555 52467 50720 81740 149096 93964 69689 77355 32278 21296 35399 96615 18062 6360 39219 19600 50144 6732 32858 16393 59257 475741 240601 32276 10813 69150 73995 50808 30704 75444 8449 43840 48083 150603 118907 31200 46555 17209 47336 40759 41057 16526 17228 17869 9219 8650 30337 1614 23925 11454 11702 7668 19808 29980 736 55132 29287 5624 3074 7512 18582 28542 4190 21924 19349 39413 10778 35132 17938 34387 7787 5863 19969 18099 1734 9044 12471 26761 13946 26600 2813 15885 26995 666 4603 23532 16758 13496 19794 16200 892 5706 132
is_linear=0
shrinkage=0.03


Tree=1
num_leaves=127
num_cat=0
split_feature=134 130 134 31 130 63 125 57 112 130 130 134 8 125 8 8 8 72 40 8 134 42 33 108 57 74 133 49 111 8 145 61 31 74 145 112 145 25 145 72 29 132 26 63 40 72 133 125 26 130 133 30 61 109 31 113 21 125 22 113 40 134 100 133 93 138 57 40 48 80 95 145 29 29 109 8 8 42 26 93 16 48 112 147 89 69 83 96 129 28 57 114 18 64 31 66 82 95 68 72 63 85 89 21 145 126 93 72 104 93 62 26 8 47 89 95 109 30 61 93 93 133 53 100 116 37
split_gain=17146.3 6559.15 3371.37 1687.09 961.41 794.301 722.172 685.875 568.435 529.384 469.573 446.87 441.063 395.052 360.978 342.928 291.17 289.548 282.688 223.406 201.968 201.182 281.87 231.019 178.911 176.293 173.101 166.304 160.334 158.29 145.257 140.999 140.967 128.536 141.549 127.736 136.925 126.999 126.676 125.11 124.408 124.01 122.216 120.685 117.069 113.045 105.982 104.404 102.126 101.762 101.545 99.1131 114.791 98.5972 97.9891 96.5797 95.6451 93.8816 92.5142 91.6297 91.4446 91.0948 90.6679 88.059 87.8754 87.3547 86.8946 86.6377 85.1715 80.0247 78.2514 102.118 78.2365 96.3152 85.2348 77.8219 76.7838 75.025 74.4515 74.1915 73.7348 73.3234 72.8737 116.505 71.7028 70.547 68.4938 67.4167 75.3142 67.2595 67.1924 67.0795 66.6202 65.7613 65.2366 64.9991 64.4126 64.2067 64.17 63.3645 83.6421 63.0432 61.7174 61.6104 61.4927 61.0507 61.0088 60.4139 60.3482 60.2575 59.9215 59.9202 59.4281 59.3054 58.4811 58.2735 69.3412 68.3536 85.8635 75.6473 66.9127 87.5844 61.0082 58.1823 59.2825 58.164
threshold=223.50000000000003 0.16659535467624667 125.50000000000001 0.16380991786718371 0.16330505907535556 0.15718364715576175 6.4049999713897714 -0.095000002533197389 -1.0000000180025095e-35 0.17470248043537143 0.17434149235486987 512.50000000000011 0.19500000029802325 6.3150000572204599 0.12499999627470972 0.15500000119209292 0.10500000044703485 0.13499999791383746 0.23499999940395358 0.13499999791383746 353.00000000000006 3.5000000000000004 5.5050001144409189 -0.017015267163515087 -0.39499999582767481 3.5000000000000004 0.14895161986351016 3.5000000000000004 -1.4999999999999998 0.17500000447034839 0.48375144600868231 1.0958333611488345 0.16363888978958133 3.5000000000000004 0.51098746061325084 1.0000000180025095e-35 0.50935471057891857 0.044999999925494201 0.50995421409606945 0.17500000447034839 -0.025833333842456337 0.0036611873656511311 6.7149999141693124 0.16757462918758395 0.17500000447034839 0.19500000029802325 0.15967295318841937 6.5350000858306894 -0.014999999664723871 0.17300441861152652 0.15368644148111346 0.024999999441206459 0.13750000298023227 0.002954211202450097 0.1712806969881058 1.0000000180025095e-35 0.45453605055809027 6.5250000953674325 4.5000000000000009 -1.4999999999999998 0.14500000327825549 139.00000000000003 -0.03499999921768903 0.15962271392345431 0.13916666805744174 16.500000000000004 0.20499999821186068 0.19500000029802325 -1.0294438004493711 0.21209786087274554 0.16401478648185733 0.50753256678581249 -0.039166666567325585 1.1274999976158144 0.00013219008542364466 0.064999999478459372 0.18500000238418582 4.5000000000000009 6.6849999427795419 0.065833333879709258 1.0236644148826601 0.5504136085510255 -4.4999999999999991 0.19009398669004443 -1.9850000143051145 22.894999504089359 1.5669217109680178 -1.3949999809265134 26.01249980926514 0.20749999582767489 -1.5950000286102293 4.741666555404664 0.58417171239852916 2.5000000000000004 0.16746962070465091 38.954999923706062 0.33894364535808569 0.14631506055593493 7.055000066757203 0.14500000327825549 0.17039370536804202 -1.3628993034362791 2.6750000715255742 0.75711476802825939 0.5151038169860841 28.154167175292972 1.150833308696747 0.2650000005960465 7.9949998855590829 -0.057500001043081277 0.085000000894069686 6.7349998950958261 0.30500000715255743 11.250000000000002 -0.40500000119209284 0.17258410155773166 -0.00074367941124364723 0.064999999478459372 -0.027500000782310959 1.219166696071625 -0.0058333333581686011 0.15908680111169818 1.8020395040512087 -0.13499999791383741 2.054999947547913 29.894999504089359
decision_type=2 2 2 2 2 2 2 2 2 2 2 2 2 2 2 2 2 2 2 2 2 2 2 2 2 2 2 2 2 2 2 2 2 2 2 2 2 2 2 2 2 2 2 2 2 2 2 2 2 2 2 2 2 2 2 2 2 2 2 2 2 2 2 2 2 2 2 2 2 2 2 2 2 2 2 2 2 2 2 2 2 2 2 2 2 2 2 2 2 2 2 2 2 2 2 2 2 2 2 2 2 2 2 2 2 2 2 2 2 2 2 2 2 2 2 2 2 2 2 2 2 2 2 2 2 2
left_child=2 4 12 11 30 26 -5 15 19 13 14 24 33 -7 35 17 57 55 21 28 31 23 115 63 -3 -14 -4 49 78 46 -2 38 -18 -1 -35 36 -9 -21 91 123 65 87 53 60 77 90 -26 -30 -19 -20 80 -52 82 -32 75 -8 -12 -10 84 -40 -11 -41 76 -15 70 -22 107 114 -56 108 71 97 -59 74 -74 -37 95 -28 -6 94 -25 -57 -53 -84 -49 -27 -69 88 -24 -58 -17 -16 109 -45 104 -13 -48 -43 -93 100 -96 -61 -64 -77 -42 -89 -44 -34 -50 -91 -101 -39 -67 -72 -47 117 -117 118 -23 -119 122 -122 -120 -29 -125 -68
right_child=1 3 5 6 8 9 7 10 16 43 56 62 25 18 20 45 32 48 27 37 40 22 41 50 29 85 44 39 47 -31 42 -33 66 34 -36 54 -38 111 59 61 79 64 106 93 -46 67 96 58 69 -51 51 52 -54 -55 68 81 89 72 -60 101 -62 -63 102 -65 -66 112 125 86 -70 -71 113 -73 73 -75 -76 103 -78 -79 -80 -81 -82 -83 83 -85 -86 -87 -88 105 -90 92 -92 98 -94 -95 99 -97 -98 -99 -100 110 -102 -103 -104 -105 -106 -107 -108 -109 -110 -111 -112 -113 -114 -115 -116 116 -118 119 120 -121 121 -123 -124 124 -126 -127
leaf_value=0.04281635510476315 -0.052221296505824542 -0.034660563655330531 -0.045109932110298276 -0.058454360419116294 -0.026020079290605184 -0.057028153513286189 -0.00091305200118255527 0.0028806929050849165 -0.057100602775285558 0.021353617442835409 0.020265145229227389 -0.0014875951769078041 0.033849072176509745 -0.032916063035549809 -0.028286698334980067 -0.049080381719611134 -0.047442082693006607 0.015799582748692642 0.0016764122093034317 -0.033458362560975154 -0.015570364729471648 0.016455229587769175 -0.057107389103035401 -0.014934884652411388 -0.020275665422977533 -0.02236169989353412 0.013056334249767152 0.018808583497257059 -0.056389594705695913 -0.024769665189686863 -0.047123056472061886 0.02940709559969194 -0.041098306532485827 0.023185802278568066 0.03754506771903221 0.022092208195513847 0.017515985074467909 -0.018454464162745089 0.012356926155690185 0.0089349255869681683 -0.028692715563232375 -0.054297652526503731 -0.040637280275549789 0.019394501852716847 -0.022699912363346234 -0.036228318134311051 -0.0099009761489332517 -0.043988004009623716 -0.037680861580742811 0.020441220831693207 0.01825068849195426 0.019572727105682374 0.026126392790013626 -0.03459582872580292 -0.038621382479970434 -0.025449286946134277 -0.011848245328164713 0.0039610286386584917 0.010821455925054801 -0.021392877534689818 -0.0032962425085292938 -0.013047730826548093 -0.043173605042242831 -6.0990447185693176e-05 0.028503791203646458 0.0048920300080034238 -0.041550989032901657 -0.028663389403027921 -0.0029503423161623072 0.0029279732956147011 0.0092457175857388919 0.020537276865385486 -0.035055344327236261 0.024966826475848924 -0.0083150935365795126 0.006933907889031591 -0.04679263153028549 -0.0099966476779657434 0.031459866461605986 0.0015803686002702779 0.01314744786264032 0.0069094640598185474 0.010275508436929391 -0.03402605012471948 -0.0052266063841197915 0.011530744461369806 0.0087672341739942743 0.018164155469659538 0.010522642967075202 0.026899387390667578 -0.027432101550897842 -0.0039996718472058729 0.020800762373333882 0.029266935047694967 -0.039028462136364579 -0.031695476269618578 0.008130909263776534 0.0083796136047194127 -0.033382988476377565 -0.0057977342548541019 -0.011622595123946549 0.0012423191697495787 -0.0037753142082278166 -0.013284785749827093 -0.0044562134839892771 -0.054210275973648983 0.018537420732387747 -0.012088552313537866 0.0053105753615586811 -0.056503559041073993 -0.023120197390705286 0.029608801988756105 -0.055294938983395145 -0.019697547106936174 0.0031294513556908558 0.0072162366785668139 -0.016206878963264174 -0.0069527246046960133 0.010217362591799633 0.036510964523372276 -0.022353905280810042 0.0012152798332807611 -0.032468482394641715 -0.049724476899028085 -0.013661902262689355 -0.0096662451912399149
leaf_weight=2445.4546067654155 1844.0521245282143 361.14175622363109 147.15815768344328 201.22997369151562 476.49445395485964 78.25216425745748 250.98436001571827 1040.5333273919532 53.687625955790281 293.27301710029133 1312.2346648598323 137.9421589851263 381.63432905508671 107.79804995103041 131.12768959684763 166.88697334076278 1437.2149263509782 474.00649503513705 986.40944827685598 910.7673395628226 280.95105863449862 495.76503691694234 16.368973152013496 177.43419473117683 277.36232248495799 58.962494490318932 207.44105882977601 18.319524592836387 30.430470569990575 516.60664654546417 1442.5945401069475 144.07642142684199 631.66640873160213 864.33821798174176 2240.1308410308557 251.45953337056562 1288.7145946528763 776.04146229045 736.24086762103252 285.10482779680751 458.69892763806274 13.998232781072145 22.625798855326138 982.9178748105187 385.22744702605996 38.567405952140689 284.3370796032832 45.969435840845108 87.38829635316506 352.55362790147774 4837.1147233113297 799.86076154909097 506.77349185582716 963.97523587418254 62.574187143240124 675.66307415778283 157.11462256347295 137.62449389288668 370.14747062174138 121.25050911994185 250.18560093967244 415.74826792278327 1081.2013322184212 226.36024426843505 302.49339266808238 804.04781999415718 68.902116425335407 361.28807466628496 1163.6733519677073 482.18311649083626 2852.3023975288379 1521.6674773665145 292.26195122906938 36.304826730396599 170.9192204978317 743.84670188522432 98.208940588636324 324.34892207174562 20.317236795206554 271.62642526131822 158.21802053821739 68.924378689844161 4630.4665339378989 53.068085545906797 512.53208356746472 709.48481850023381 49.484982328023762 12.847271717153488 99.940606980817392 11.614326732233168 608.96421259862836 1130.629398102581 184.06539055379108 1643.01346938184 161.44287163030822 119.29675227391999 474.11001424991991 769.44140898750629 70.18248078157194 1075.8405724002514 266.35117254185025 1174.3696205677697 37.389419558923692 164.80888693407178 119.40393880958436 46.54936792771332 45.611993627855554 73.439052719506435 43.516158794984221 19.90760387876071 215.34326348931063 23.154068801086396 14.038311605341731 64.198167389258742 239.24663567083189 171.87518120463938 331.85869302274659 744.12203620036598 791.11501302692341 36.868358299601823 172.58412659529131 775.90358300454682 30.339404690777883 111.36545828916132 66.595087726716883 200.71191205526702
leaf_count=12583 179100 25811 13047 14899 31663 8203 8640 23556 4625 1015 13061 6819 3575 7106 5473 12483 138527 10702 15414 71423 8036 5977 360 9389 16370 901 3409 188 2474 32853 138441 1388 55020 12372 12720 6942 14139 50720 9870 3249 26051 1449 664 2972 16429 2153 13820 3804 4607 1778 34607 9353 2700 80754 681 35529 3323 7565 14011 2683 1490 9367 89589 7243 1783 19483 6584 16170 15552 15145 27169 11578 27414 743 10828 24250 8610 13532 176 7135 2973 2327 42150 333 26274 6398 1220 81 893 181 33178 30050 1544 8621 6926 8611 16300 18272 2620 25832 7588 18024 2140 7714 4656 692 624 4692 1262 1042 6953 360 870 566 7062 3824 3719 14771 10721 155 6809 10590 876 3139 1435 13274
internal_value=0.000320734 -0.0157006 0.0150718 -0.005881 -0.034908 0.0103902 -0.00209411 -0.00142822 -0.0273949 0.0114212 0.00164082 -0.0252403 0.0341393 0.00984018 -0.000459648 -0.0131727 -0.0365221 -0.00534443 0.0100705 -0.01844 -0.00469692 0.0111627 0.00786699 0.0138131 -0.0156616 0.0172041 -0.0150066 -6.27327e-05 -0.00978997 -0.0112204 -0.0458033 0.000448951 -0.0414431 0.0376444 0.0335569 0.0059871 0.0109834 -0.0257931 -0.000798847 -0.0100528 -0.0096181 0.0119996 -0.0410007 0.0229173 -0.0101286 -0.0242924 -0.00444249 -0.00261345 0.00535662 0.00663106 0.0145491 0.0150529 0.0124676 -0.0421229 0.00110659 -0.0170259 0.0164579 -0.0193006 -0.000789293 0.00391317 0.0100151 -0.00410099 -0.0376541 -0.0107354 0.0127895 -0.0011666 -0.0325551 -0.0154011 -0.00480303 -0.00272501 0.0118733 0.0160067 -0.0160261 -0.0215361 -0.0252335 0.00735444 -0.0243172 -0.000990864 -0.0236049 -0.0132311 -0.00168893 -0.0224447 0.0112001 0.00976574 -0.00849528 0.00890062 -0.0241366 -0.0127493 0.0005734 0.0030267 -0.0321497 -0.00798677 0.0138857 0.0255815 -0.0149838 -0.0155769 0.00136278 0.0071881 -0.00574585 -0.0120358 -0.022039 -0.000888545 -0.0418639 0.00325284 -0.0237083 -0.0384647 -0.00134352 -0.0381025 -0.0234347 -0.0257991 -0.00870475 -0.017023 0.00378932 0.00860106 -0.00243395 0.00123019 -0.00821045 0.00279425 0.00543257 -0.00485302 0.00233585 -0.00308917 0.00859961 -0.0311609 -0.0363979 -0.0179492
internal_weight=65294.8 31299.5 33995.3 20712.1 10587.4 27295.2 17324.5 17123.3 6268.59 26231.1 13576.2 3387.6 6700.01 23061.7 11891.2 3547.1 3102.73 2082.67 22983.4 3165.85 7175.62 20747.3 9250.24 11497.1 1913.56 1150.08 1064.18 2236.1 1455.89 1552.42 4318.86 3507.88 2411.93 5549.92 3104.47 4715.61 2329.25 1709.96 3363.8 897.133 3667.74 5699.81 2474.81 3169.39 917.017 1464.44 1035.81 959.079 1087.09 1338.96 11162.9 10827.3 5990.17 2406.57 2386.36 995.572 1684.94 690.798 928.649 2031.86 543.459 700.853 1474.04 334.158 5524.1 1099.04 974.719 688.587 1226.25 613.088 5221.61 2305.11 637.11 499.486 463.181 1160.12 355.448 531.79 496.812 2568.71 335.652 744.587 5483.4 4683.53 558.502 768.447 410.773 175.706 116.31 372.702 775.851 1331.94 215.587 2625.93 2297.08 257.239 758.447 783.44 1200.81 1718.98 427.794 1295.62 1118.59 908.656 578.103 59.3966 68.2378 705.105 130.904 31.5219 1291.18 799.196 818.086 2916.5 277.814 3550.43 503.734 3046.7 2265.71 780.99 1769.94 948.488 821.454 196.28 177.961 269.614
internal_count=1939659 1551683 387976 681923 869760 339427 461000 446101 470177 293010 295623 220923 48549 278912 276472 150478 269272 78212 270709 200905 183638 236139 120285 115854 105154 10874 46417 34570 78402 79343 399583 70108 218097 37675 25092 92834 37695 122503 68720 17378 113530 62843 220483 14098 33370 72266 46490 46563 31716 17192 101505 89143 54536 219195 55139 46496 19151 51175 44089 30577 2505 12616 115769 14349 60817 28389 79570 26605 16233 21014 59034 31299 46550 38985 38242 38906 24040 16941 31839 85141 12362 37856 51836 42483 30078 7299 17390 2026 1253 6090 45661 38143 2767 11593 78006 15430 30120 19721 32670 47299 14514 20707 91729 31964 30707 773 1288 59712 5869 1223 32785 51080 20353 27735 9215 57442 7543 49899 34973 14926 28996 17399 11597 4762 4574 19858
is_linear=0
shrinkage=0.03


Tree=2
num_leaves=127
num_cat=0
split_feature=130 134 25 31 145 57 130 134 133 134 125 112 130 8 8 8 109 8 57 134 31 25 122 61 63 29 8 134 134 8 93 134 63 8 21 130 134 72 57 123 29 30 57 8 124 36 123 72 124 130 8 133 110 40 40 74 130 133 125 123 26 131 66 27 89 133 145 26 8 94 61 25 72 21 40 4 2 130 65 72 8 8 40 12 85 114 40 48 40 72 21 12 51 18 133 102 25 115 2 76 130 71 134 40 110 85 2 90 5 40 8 60 68 29 34 53 139 37 21 95 8 107 8 40 8 85
split_gain=15044.6 4986.23 1815.26 1741.79 1004.79 576.265 534.405 529.347 430.26 429.662 373.448 364.395 319.692 251.663 238.17 199.563 186.586 185.93 180.181 178.535 176.157 173.415 173.113 158.208 156.502 154.758 152.795 148.715 232.833 143.869 142.192 134.824 133.73 128.068 123.447 119.094 109.159 109.017 108.252 103.559 104.673 114.553 102.938 100.564 99.3668 99.2577 95.38 93.1777 92.8888 92.5293 92.1249 90.2137 88.9103 87.8586 87.1026 86.9362 89.6956 83.3513 82.8041 80.7268 78.7041 76.3716 75.3192 74.7248 74.4331 74.0527 87.5949 73.8402 71.0703 81.4594 70.8369 68.8978 68.7283 67.7291 67.3422 66.9823 66.4201 66.2476 65.9296 65.8941 65.7503 65.6258 65.1379 64.9691 64.9578 66.4077 63.5607 74.5813 62.4449 62.4437 62.2341 62.1872 61.9818 66.5172 61.4986 61.2947 60.9808 59.6404 58.4665 58.3247 58.1981 73.9274 57.6898 57.4934 57.2014 56.296 62.1673 56.0463 55.644 55.5833 55.4621 54.9803 56.984 54.9357 54.4504 53.5214 53.335 71.2743 54.4736 55.635 52.9483 52.6712 52.4802 64.5406 52.2859 52.2689
threshold=0.16694341599941256 214.50000000000003 -1.0000000180025095e-35 0.1657967492938042 0.51338031888008129 -0.24499999731779096 0.16392793506383899 144.00000000000003 0.15755573660135272 418.50000000000006 6.4049999713897714 -1.0000000180025095e-35 0.17062446475028994 0.15500000119209292 0.13499999791383746 0.18500000238418582 0.0039666923694312581 0.15500000119209292 -0.39499999582767481 149.00000000000003 0.17405394464731219 0.22500000149011615 6.5083334445953378 1.1025000214576723 0.16007708758115771 -0.027500000782310959 0.19500000029802325 125.50000000000001 142.50000000000003 0.18500000238418582 0.12916666269302371 125.50000000000001 0.15685345232486728 0.11499999836087228 -0.45076897740364069 0.17203437536954883 142.50000000000003 0.12499999627470972 1.0349999666213991 0.087685484439134612 -0.027500000782310959 6.6749999523162851 0.30500000715255743 0.11499999836087228 0.21499999612569812 5.6649999618530282 0.11580634117126466 0.15500000119209292 0.27500000596046453 0.17512644082307818 0.13499999791383746 0.15572058409452441 0.0010109209106303754 0.22500000149011615 0.27500000596046453 5.5000000000000009 0.16243797540664676 0.16151997447013858 6.5050001144409189 0.077387612313032164 0.044999999925494201 0.0098694502376019972 28.775000572204593 1.3650000095367434 0.99500000476837169 0.16256636381149295 0.50841751694679271 -0.024999999441206452 0.095000002533197417 6.7449998855590829 1.1975000500679018 -1.7549999952316282 0.11499999836087228 -0.8848242163658141 0.14500000327825549 5.4349999427795419 56.784999847412116 0.17378882318735125 3.6250000000000004 0.38499999046325689 0.17500000447034839 0.24499999731779101 0.085000000894069686 35.827501296997077 1.1864236593246462 6.055000066757203 0.15500000119209292 0.64357548952102672 0.14500000327825549 0.17500000447034839 0.68463224172592174 36.137498855590827 1.3298950195312502 0.8977530598640443 0.16009631752967837 18.015000343322757 2.1650000810623173 0.75022956728935253 25.500000000000004 30.947500228881839 0.17203437536954883 6.8250000476837167 518.50000000000011 0.17500000447034839 -0.017185071483254429 0.90126308798789989 57.844999313354499 -0.12499999627470969 36.565000534057624 0.27500000596046453 0.085000000894069686 -5.3474998474121085 7.4549999237060556 -0.052500000223517411 38.649999618530281 0.51961883902549755 10.500000000000002 28.010000228881839 1.0004805326461794 0.17075325548648837 0.18500000238418582 -4.3524999618530265 0.20499999821186068 0.12499999627470972 0.085000000894069686 0.78985324501991283
decision_type=2 2 2 2 2 2 2 2 2 2 2 2 2 2 2 2 2 2 2 2 2 2 2 2 2 2 2 2 2 2 2 2 2 2 2 2 2 2 2 2 2 2 2 2 2 2 2 2 2 2 2 2 2 2 2 2 2 2 2 2 2 2 2 2 2 2 2 2 2 2 2 2 2 2 2 2 2 2 2 2 2 2 2 2 2 2 2 2 2 2 2 2 2 2 2 2 2 2 2 2 2 2 2 2 2 2 2 2 2 2 2 2 2 2 2 2 2 2 2 2 2 2 2 2 2 2
left_child=2 4 8 9 7 21 23 15 43 18 -7 19 30 22 39 31 37 25 -3 98 29 35 -6 55 104 44 48 49 -29 60 34 45 -21 62 76 80 72 108 63 40 -10 64 67 -1 75 105 51 -27 71 52 -26 -33 53 115 58 -4 -57 68 -34 -25 102 -37 -13 92 -42 -19 -67 -16 -23 -70 73 -20 -18 91 -17 -11 78 82 -12 -76 89 113 -74 -31 107 -86 -30 95 -28 -5 -90 -60 -36 -94 -66 100 -35 -91 121 -75 101 -88 -14 -40 -9 106 110 -47 -15 -106 -2 -80 -113 -22 -95 125 -62 -118 -119 -120 -58 -8 -38 -124 -78 -24
right_child=1 3 6 5 13 10 11 24 14 17 12 33 20 16 42 74 36 65 26 32 81 57 27 59 50 47 88 28 86 83 -32 46 54 96 38 61 122 -39 103 -41 41 -43 -44 -45 -46 84 -48 -49 -50 -51 -52 -53 -54 -55 -56 56 120 -59 70 -61 116 -63 -64 -65 94 66 -68 -69 69 -71 -72 -73 77 99 79 -77 124 -79 111 -81 -82 -83 -84 -85 85 -87 87 -89 90 97 -92 -93 93 114 -96 -97 -98 -99 -100 -101 -102 -103 -104 -105 109 -107 -108 -109 -110 -111 -112 112 -114 -115 -116 -117 117 118 119 -121 -122 -123 123 -125 -126 -127
leaf_value=-0.036832979339184876 0.019703274115103284 -0.030839361757265545 -0.042834619944053957 -0.028493863846158936 -0.054721637741779135 -0.055826007396441557 0.0082558209535170176 -0.032086160437639559 -0.0050280998151756131 0.010756886488594339 -0.018899136194497564 0.0010726416443945384 0.011634155181710281 -0.038120145539345889 -0.028588729402825409 -0.011560607173765039 0.0058723708488015473 -0.043128746109965525 -0.016310743684006531 -0.029567981720656319 0.021702568078606609 0.0047067410597165819 0.018888315033152539 0.0076557950121206699 0.0085095147512944183 -0.035220038224095369 -0.049810273205541912 0.032231843086838012 0.023601726883420642 -0.013349846936055032 0.018390452062350175 0.0020800523890164469 -0.054878639188316487 -0.035985875824669812 -0.019505237762637156 0.00030429448778748389 0.016333610871291454 0.008424194662444668 0.0073092330841382685 -0.055730033228956664 -0.030233096113847367 0.010914755484832374 -0.021358206844827889 -0.048580948960593215 -0.055511541675945332 -0.038500540886753323 -0.053266157637242316 -0.013870388463916177 -0.055613148631799857 0.028405933054279069 -0.0006120574202497026 0.02116859029730507 0.021420795104197889 -0.040101918315865119 -0.037169099354626201 -0.042134210725315355 -0.010499145001872377 0.0027536155811592059 0.0073918467992769177 -0.053918535979503357 0.0065744752244574333 -0.029650868383528265 -0.025653390919303628 -0.0041531482456737059 -0.044206142352362997 -0.045875497281106369 -0.01503460226053371 -0.044902756993640991 -0.022447777409249386 0.031206240793151416 0.026988511587640988 -1.6638608186092876e-05 -0.040937231617558724 -0.020671534534204537 0.0074835691394927271 -0.021389389402186744 0.010465660612579471 0.028216375618223669 -0.0084622371128933536 -0.056551521728934663 -0.041623922922772054 -0.0037803028951239673 0.019750504620648379 0.0036853653667855094 -0.026373062176869723 0.013734275394119512 0.0046166376684494961 0.022287890334065669 -0.011483743978761098 0.004766090620839652 -0.041042211845745594 -0.01601331933872031 -0.022659488461366849 0.020938703579430184 0.02447616079068865 -0.05550470943566585 -0.0095885583065232448 -0.039063604473959922 0.0067455782074384704 -0.0071657837388432316 0.013299294916437212 -0.051284689588241998 -0.0054185836598759311 -0.0094326965520461041 -0.0056690845237565802 -0.0054257863292913279 -0.055882532093536927 0.020142432469228113 0.0024894823567697317 -0.045242226021615123 0.0058648483912724569 0.0076781747173992384 -0.031791646122755604 0.012249207572011955 -0.0333543931566384 0.0013337079059381896 -0.03804265032866927 0.0048407637544679227 -0.05740972433969628 -0.006086755530762801 -0.039212316989192225 -0.018493234834610749 -0.026349999040543071 0.0082739826301588201 -0.032172561747610046 0.001117221056901432
leaf_weight=877.49950700521003 357.62764801620506 351.48528411681764 731.46164116519503 373.61853270139545 24.347518927650526 92.666004686616361 102.49262818065472 106.25081421225332 354.90881880023517 218.55855570023414 106.68260804004967 196.86996118468232 1928.0012118748855 71.859129352378659 333.02492777979933 204.58771538105793 231.42580072185956 756.27668510889634 279.31037006946281 320.92412779876031 709.51909640443046 153.24852474499494 768.75144258979708 117.22675797599368 1902.3866112342803 512.4125107631553 68.963411281234585 3270.1753779726569 2297.5410543722101 530.45130699500442 312.4989539134549 237.2887953708414 31.663779317867011 707.17651341785677 851.46626141876914 297.61251332028769 1061.9452833870891 1072.2234277236275 601.94865663710516 71.80000931606628 741.37618003389798 75.01968701579608 287.07070145895705 2876.0453662021318 28.490737925283611 13.919385959394274 15.083847080823032 290.67131261120085 29.450159289874136 733.48550984729081 2090.0487626376562 3808.5449269365054 1490.4717187944334 28.983671583235264 92.165386313339695 210.8835203864146 257.64926525054034 668.79346022417303 399.56161788024474 21.866537692025304 375.76253115816507 102.05027222610079 181.72443339880556 891.34698756423313 15.261665998026727 131.11880416492932 227.98720695392694 1113.2896447079256 399.97291440144181 26.292752698762342 53.672775976127014 1402.407506931806 15.127188380109144 407.02694189245813 1391.0847221311415 78.430180617375299 36.878552955808118 1251.3873592023738 234.28354373702314 13.616041008150203 217.69679727870971 190.47298648045398 1831.8034715318354 323.58563214342576 57.518759972648695 100.74966746335849 67.738534947158769 507.79938281618524 269.65414128627162 116.78749159374274 83.903797997860238 136.13047518243548 77.553220627713017 105.7226193388924 41.125018747756258 13.333158933324738 89.963241684017703 35.628866700688377 856.91262422618456 987.60043838463025 345.75990994612221 29.903708047233522 195.92943839600775 265.01062681421172 522.52020188851748 297.67972117080353 12.17469801334664 1251.07175714802 51.64342905045487 33.102202532812953 963.71611526049674 1780.5475779367844 32.544544839998707 2566.2991913910955 18.731020177947357 324.89236712642014 63.888187354896218 211.63218783785123 27.88746287045069 56.871993255103007 74.222752902889624 183.39304484648164 51.980328168487176 565.61380479787476 82.090013158973306 185.31026723934337
leaf_count=82486 1699 25936 83503 23687 1906 8640 2542 6482 18873 8483 4225 11410 29908 1701 28662 3821 1837 67549 13718 22938 5322 4918 2097 2803 28560 41728 5983 15796 17221 16493 4588 4654 3079 70250 32566 10466 8456 10971 14756 6487 61770 1910 23906 290992 2083 201 1328 16043 2214 1477 38200 33078 4818 188 6284 24385 16211 20504 14104 2050 7460 5748 16520 27783 1626 11585 11917 104746 20746 442 420 49305 285 23123 16560 4790 659 4422 6976 354 16414 2871 9647 7360 613 447 1044 3258 13772 3810 6311 6803 3268 1727 1424 374 6648 1902 20279 47410 3424 915 5204 8330 15556 2389 144 5408 753 1648 6059 37965 1306 25590 808 1301 2327 4203 1217 1521 7044 6975 907 5225 2904 741
internal_value=0.000444028 0.00797988 -0.0283446 -0.0036828 0.0157587 0.00130425 -0.0165496 0.00966489 -0.0390474 -0.0195638 0.0038541 -0.0117231 0.00429843 0.0207614 -0.0306202 0.014023 0.0160004 -0.0290793 -0.0109626 -0.0069493 0.00844477 -0.0121985 0.0236874 -0.0327399 0.00149357 -0.0204577 -0.00767395 0.0238828 0.0265687 0.00390248 -0.00121763 0.0161808 -0.011549 -0.0262037 -0.00242666 -0.0206349 0.0185421 0.00534349 -0.00662874 -0.0208783 -0.0187939 -0.0243761 -0.0379055 -0.0458459 -0.00298418 0.0114103 0.0197645 -0.0275233 -0.00367654 0.0189083 0.00373464 0.0200506 0.0164085 0.0106825 -0.00879142 -0.0360539 -0.0268481 -0.00445838 -0.00747459 -0.00231853 0.00712916 -0.00739191 -0.0117817 -0.0105575 -0.027708 -0.0377739 -0.0263999 -0.0411707 -0.012777 -0.019066 -0.00668926 -0.00273273 0.0216901 -0.00764072 0.00447652 0.00221419 0.00277071 0.0228684 0.00398015 0.00682094 -0.0277279 0.0133083 0.0192299 -0.00689511 0.0171995 -0.000896982 0.0208825 0.0143844 -0.0238091 -0.0219033 -0.0186028 0.00141976 -0.0159644 -0.00100223 0.00538789 0.0055612 -0.0330262 -0.00564783 0.00282524 -0.0111216 0.00752498 -0.0128195 0.0100578 0.00218316 -0.0120053 0.00634987 0.00898288 0.0194649 -0.0212313 -0.00810916 0.00962462 0.00518243 0.00695091 0.0143037 0.0125426 0.0118661 -0.00131997 -0.00955738 -0.00329993 -0.0234805 -0.0170283 -0.00889765 0.01229 0.00531709 -0.0189533 0.0154445
internal_weight=62410.6 49463.6 12947 19791.1 29672.5 15062 6160.59 13379 6786.42 4729.12 12670.3 4747.28 12577.6 16293.5 3032.88 8724.66 6205.01 2243.95 2485.17 3571.54 7180.3 2391.7 10088.5 1413.31 4654.31 1128.56 2133.69 10064.1 6532.25 3714.01 5397.31 7115.38 2428.75 1175.73 5084.81 1143.39 5009.28 1195.73 2811.78 1299.49 1227.69 872.783 1733.39 3753.54 325.479 3054.46 4060.92 803.084 1711.17 3531.89 3992.44 4045.83 2798.41 1307.94 2107.82 1274.22 542.756 1248.31 2015.66 139.093 2859.97 399.663 378.594 1944.82 797.763 1115.38 359.106 1446.31 579.514 426.266 1983.99 1681.72 3329.74 1930.32 1609.29 296.989 2273.03 3098.32 2154.06 1404.7 743.732 3466.29 1846.93 854.037 1423.26 158.268 3262.08 964.535 422.521 526.035 353.558 535.692 1053.47 202.007 56.3867 456.735 797.14 152.416 1142.8 1394.63 443.402 97.6422 2123.93 866.959 661.873 1631.2 1333.52 1264.99 123.503 555.622 1321.34 2047.38 1813.09 3275.82 124.454 1278.95 736.042 360.28 296.392 84.7595 331.872 285.886 1679.54 617.594 118.969 954.062
internal_count=1939659 921996 1017663 656031 265965 374614 394781 167201 622882 281417 265977 258785 257337 98764 249404 76755 44204 164178 117239 153957 109476 108637 54560 135996 90446 73127 91303 52654 42032 75693 147861 56020 124161 104828 143273 62027 30779 13425 89238 92090 85603 66730 157314 373478 15356 16960 39060 57771 65237 10622 66760 37732 9145 4327 101223 131143 47640 46610 94939 4853 51840 16214 27930 66152 64820 91051 23502 133408 26106 21188 91860 63023 16191 91440 20735 13273 54035 14354 50472 16914 45813 33783 9932 23853 6669 1060 26236 9015 26066 29399 20083 20907 38369 5803 3050 5757 76898 5712 29796 70533 5383 1959 35112 23086 23686 10291 7902 5609 2454 17204 7758 46247 39271 30912 2535 4139 16728 9268 6941 2738 23255 9517 14588 6132 3563 2838
is_linear=0
shrinkage=0.03


Tree=3
num_leaves=127
num_cat=0
split_feature=130 134 25 109 145 145 134 130 133 8 112 125 125 133 130 8 125 8 25 123 8 8 25 8 72 90 61 130 134 132 40 125 16 112 8 74 25 131 93 65 1 72 62 72 26 40 21 25 61 72 8 58 125 109 111 74 130 8 2 131 8 108 113 100 8 8 89 8 131 72 89 8 145 40 142 95 21 10 114 39 4 128 21 61 43 66 8 134 89 0 25 71 8 147 83 21 85 8 48 118 50 123 112 131 104 131 130 22 119 36 40 130 134 72 87 61 80 123 48 127 40 108 105 40 55 147
split_gain=12531.6 3884.74 1392.04 1310.77 828.677 756.816 450.909 410.237 369.237 338.318 286.975 235.281 234.391 232.411 219.432 216.013 209.453 196.043 176.995 176.706 174.103 168.791 143.834 137.968 141.26 130.084 126.594 125.411 125.338 117.395 114.898 112.869 110.218 109.979 109.828 103.896 98.8929 96.208 96.0453 94.1245 94.036 95.1393 93.7221 93.2838 89.9305 89.9048 89.0427 100.062 91.9114 88.9047 84.8879 79.5072 76.5586 72.4701 72.3654 72.0864 78.4364 71.8023 71.784 71.1146 69.2395 68.8899 68.1817 67.8343 67.437 66.8521 66.7664 66.2749 66.2394 65.2754 64.8519 64.7068 64.2279 63.3255 63.0779 62.344 75.9166 62.2997 61.1635 60.3764 60.1444 59.5625 59.4928 59.2537 59.0222 58.5455 58.4774 57.5282 59.4364 56.4491 70.1558 55.2844 54.6065 54.292 54.995 54.2262 54.1263 53.9549 53.7197 53.5956 53.4391 52.4388 54.2091 51.7531 51.7076 51.5346 50.5089 55.0111 50.4916 83.2788 50.4828 50.2608 49.9473 49.4629 49.3195 48.8477 48.8062 48.7695 48.7397 48.6395 48.5552 51.8919 49.5333 49.0164 58.9868 48.3306
threshold=0.16676993668079379 235.50000000000003 -1.0000000180025095e-35 -0.012849105987697838 0.51849859952926647 0.50995421409606945 139.00000000000003 0.16392793506383899 0.15883236378431323 0.16499999910593036 -1.0000000180025095e-35 6.3150000572204599 6.4749999046325692 0.15962271392345431 0.16940855979919436 0.14500000327825549 6.4549999237060556 0.10500000044703485 -0.014999999664723871 0.1684568449854851 0.2650000005960465 0.20499999821186068 -0.29500000178813929 0.15500000119209292 0.15500000119209292 6.6349999904632577 1.1341666579246523 0.17268568277359012 149.00000000000003 0.018180232495069507 0.2650000005960465 6.4649999141693124 0.33678470551967626 1.0000000180025095e-35 0.20499999821186068 5.5000000000000009 -0.35500000417232508 0.008455512113869192 0.1108333319425583 4.8250000476837167 4.5350000858306894 0.31499999761581426 6.6849999427795419 0.18500000238418582 -0.024999999441206452 0.22500000149011615 -0.61996218562126149 0.44499999284744268 -0.032500000670552247 0.17500000447034839 0.14500000327825549 6.6649999618530282 6.5850000381469735 -0.00202256953343749 -2.4999999999999996 5.5000000000000009 0.16182640939950946 0.15500000119209292 33.445001602172859 0.008563287556171419 0.22500000149011615 -0.0071061991620808831 -1.4999999999999998 -0.024999999441206452 0.32500000298023229 0.25499999523162847 -1.4950000047683714 0.30500000715255743 0.01161268260329962 0.19500000029802325 1.0000000180025095e-35 0.15500000119209292 0.50803723931312572 0.30500000715255743 3.5000000000000004 0.16274115443229678 1.4394205808639529 3.5000000000000004 4.5216667652130136 6.6449999809265146 5.305000066757203 18.607500076293949 -0.85345762968063343 -0.027500000782310959 1.0000000180025095e-35 61.565000534057624 0.2650000005960465 418.50000000000006 0.62500000000000011 3.5000000000000004 1.4249999523162844 6.9349999427795419 0.21499999612569812 0.1862071976065636 -0.92681294679641713 0.96060311794281017 0.74205055832862865 0.19500000029802325 -0.68867754936218251 31.011667251586918 1.2313724160194399 0.045214865356683738 -2.4999999999999996 0.011524541303515436 8.7349996566772479 0.0084004625678062456 0.16799414902925494 2.5000000000000004 2.3743326663970952 5.3849999904632577 0.19500000029802325 0.16054945439100268 563.50000000000011 0.18500000238418582 -0.12997800111770627 0.10249999910593034 -0.90278419852256764 0.080484613776206984 1.3086393475532534 1.3298161625862124 0.2650000005960465 0.0097751989960670489 -22.822500228881832 0.12499999627470972 -0.73727941513061512 0.17403048276901248
decision_type=2 2 2 2 2 2 2 2 2 2 2 2 2 2 2 2 2 2 2 2 2 2 2 2 2 2 2 2 2 2 2 2 2 2 2 2 2 2 2 2 2 2 2 2 2 2 2 2 2 2 2 2 2 2 2 2 2 2 2 2 2 2 2 2 2 2 2 2 2 2 2 2 2 2 2 2 2 2 2 2 2 2 2 2 2 2 2 2 2 2 2 2 2 2 2 2 2 2 2 2 2 2 2 2 2 2 2 2 2 2 2 2 2 2 2 2 2 2 2 2 2 2 2 2 2 2
left_child=2 4 8 13 6 9 19 26 25 16 28 -8 -7 -3 29 27 -5 52 51 21 36 30 -6 24 -15 50 55 53 92 75 40 -24 86 116 58 42 59 57 45 61 81 62 46 -35 112 80 54 74 91 -25 111 70 -10 -14 -18 -4 -57 -30 117 -16 -51 -12 115 93 72 119 -27 89 -37 -22 -11 85 -23 -66 -48 -13 97 104 -63 -65 106 -2 -43 -32 105 -38 95 88 -46 -20 100 -49 -9 94 -36 96 -17 -77 -28 -99 -91 -59 -103 -81 -39 110 -31 -108 109 -55 -64 -1 -19 -112 -111 -42 -34 -33 -82 -45 122 -122 -73 124 -124 -83
right_child=1 3 7 5 22 12 11 10 17 18 39 14 15 23 20 32 35 44 67 -21 69 64 31 49 -26 66 98 -29 37 38 83 34 33 43 63 68 71 77 -40 -41 41 82 -44 65 87 -47 47 48 -50 60 -52 -53 -54 108 -56 56 -58 101 -60 -61 -62 78 84 79 73 -67 -68 -69 -70 -71 -72 120 -74 -75 -76 76 -78 -79 -80 103 118 125 -84 -85 -86 -87 -88 -89 -90 90 -92 -93 -94 -95 -96 -97 -98 99 -100 -101 -102 102 -104 -105 -106 -107 107 -109 -110 114 113 -113 -114 -115 -116 -117 -118 -119 -120 -121 121 -123 123 -125 -126 -127
leaf_value=-0.048439828590232499 0.010186806939720327 -0.037578556220278704 -0.040862453923157807 -0.054560033167584572 0.0019595914505366545 -0.051638107064075948 -0.054380879212068849 0.0042718958403489037 -0.053330711819789732 -0.03988612066556356 -0.0426632064757069 0.011430047900154002 -0.0025313011278841799 -0.019768526742114958 0.0061023281419938964 0.00031442947948660387 -0.021821529080696334 -0.016704439058410413 -0.005835592858976486 -0.055036315104955581 -0.058198278801726809 -0.0041341591206693418 -0.053247502594476713 -0.041116993333382812 0.0070441888442782461 0.021028152863030794 -0.02701133002941989 0.015475289280069133 -0.0023387889480938891 -0.041623910205732785 0.014032546175656385 0.017424611209279583 -0.018599210165363991 -0.0099258456582782817 -0.01565934936728983 0.010265451499316267 0.01334280643849942 -0.032561054438912183 0.01810018261635615 -0.035051285888833369 0.013745993539792068 0.010140239306575484 0.015739751469384618 -0.015554362129454016 -0.033892679085198503 -0.032862355501771079 -0.023131333962861322 0.011899283615345395 -0.010540798583128369 -0.0066271623281270297 -0.047461225563510324 0.033714664248950844 -0.0088113070358789795 -0.023971739656080172 0.0023628229187860378 -0.046095477077219948 -0.018877491571378562 -0.010872816383251376 0.023651555643799706 -0.017337538153655262 -0.036541541411488423 -0.03352821507436405 0.019451282290931297 -0.045417067961424432 -0.059463029522252145 -0.015393627823467577 -0.035231289752418758 -0.042504626482334974 -0.021851464839444869 -0.011222279020594084 -0.01831082772649863 -0.055222002801114334 0.010111327817108703 0.00082743369383730828 -0.0052323530680638526 0.0041605894875844209 -0.034482266258855525 -0.0034251904038060219 -0.00549930715671828 0.0088689355890602083 -0.0054862324029702828 -0.044391689184461909 -0.046162897654831857 -0.025525896612874792 0.0040470016703740962 -0.032909864662371086 -0.036741868604267681 -0.043910204559822065 -0.0039722482294254763 -0.031351414073363393 -0.0068189667555953164 -0.024102327578988912 -0.017004044598265173 0.029677740997449034 0.016534917221063438 -0.027693534089977875 -0.022110366902537312 0.0064492760243858678 0.013648370023645188 -0.020628224983868307 -0.0047937139725900517 -0.01233855479225221 -0.051498687819924088 -0.038441870417698434 -0.0090570975414220618 0.025119129011455826 -0.049723030060322186 -0.0034886607302381592 0.010664131026378931 -0.013231580499624281 -0.014273544416050242 -0.03524379513227572 -0.053748632619297437 0.014689087113547805 0.01806574713461161 0.027856565593441813 0.01088653913005296 -0.020454722292256044 0.02186929140662941 0.008698376458494389 0.0062183659412464237 -0.03145005435572136 -0.032074436445069202 0.010046351304163139 0.0029143103792045539 0.0015790998171431876
leaf_weight=347.78134756255895 1246.323791812174 914.66151247196831 669.93567961500958 71.895537668373436 373.46262890961953 65.135940474458039 58.019161276519299 839.67627288785297 36.444293050095439 444.66624739207327 75.702685590833426 646.99911338603124 757.06434154137969 450.07355102093425 286.68400446418673 477.25572346919216 123.18449031491764 346.6200865743449 715.03731344232801 32.314994770102203 30.989374651573598 401.72634880850092 17.479990548919886 276.72644418943673 289.98784965707455 41.924682519864291 46.761980452341959 1860.9378441878362 927.61687974655069 70.31524356699083 53.134002083446831 1667.5822090450674 51.947389321401715 795.78505188948475 54.03021820448339 629.79754420602694 3859.8404414295219 351.43967184470966 113.28838883060962 506.33773335791193 3869.0790056232363 32.494798818603158 177.45988680236042 80.588336428860202 473.87114589172415 143.4673086500261 627.50647495128214 327.11301367497072 754.43001363403164 193.52310330350883 2365.1874076030217 15.327573321294038 506.60083214496262 106.36379967117682 1076.6178380866768 127.64653687854297 383.46055932110175 431.33308587712236 6914.3093817213085 194.71280753333122 108.57782902813051 88.801311155548319 2480.7684487358201 19.463450646260753 26.955510262399912 142.97876609384548 33.032258424442261 65.587727788137272 62.636006959946826 165.51289227395318 179.09212490089703 10.197182693984358 972.13727105339058 35.42380065494217 248.41304091585334 1321.1937592597678 53.15830342983827 131.04032468912192 323.32183278957382 537.1786104044877 634.66187794168945 31.525259289424866 33.369659544434398 91.23539520567283 201.79226600378752 23.831555325072259 67.862523527815938 577.92267858190462 68.945166825549677 326.68878877768293 306.06093650776893 42.487870622659102 123.65079301246442 268.8885727096349 364.51293371524662 103.30933908186853 120.45269833202474 105.20044164964929 74.39846813888289 172.31870038318448 86.967432765755802 62.593399147037417 66.03228731721174 20.649845192674547 112.47524984553456 1528.5888032072689 26.897207393776625 138.63604079536162 1565.3161482510623 64.489981016609818 79.419868146535009 1184.4323784853332 35.639249290339649 154.9864666601643 146.32490752870217 234.84988363320008 1121.6334429841954 30.291605515405536 63.558709361823276 847.31161949154921 71.042091876268387 59.735626967158169 50.854897484416142 1722.5101482903119 263.59754832228646 55.556054481305182
leaf_count=40695 8964 82308 84332 6849 7550 5870 5614 22389 3480 36144 9181 10946 24740 28875 6443 16538 5355 27087 26416 2530 1786 6318 1334 23714 9837 867 2049 24355 42627 4772 431 8200 1383 25624 611 15032 41654 24812 1605 56718 30514 315 3156 2113 44789 7016 38878 9430 31952 9993 266591 117 32284 2528 34850 17431 30575 25813 28663 8518 8475 9087 10829 307 804 4495 1590 4678 3424 3560 12155 317 8288 369 12844 26504 2142 6744 22625 4288 18771 420 590 1442 1949 611 4513 60534 4962 22876 12990 1995 4678 1107 2288 6013 5609 2488 1609 5987 4427 3671 6355 368 5981 7847 1708 4232 24547 1593 689 122571 4358 854 2117 1158 15651 265 1100 13935 1092 1883 1208 21097 3982 452
internal_value=0.000513969 0.00709527 -0.0278735 -0.00455205 0.0132203 -0.00128844 0.00991577 -0.0167215 -0.0377676 -0.00915984 -0.0119952 0.00534562 0.00461504 -0.0259551 0.00568996 0.00506251 -0.00415275 -0.0273843 -0.0188448 0.0139811 0.00885135 0.0141795 0.0202501 -0.0178696 -0.00926278 -0.0431068 -0.0313618 0.00951169 -0.0074212 -0.000415448 0.0155489 0.0209399 -0.000194547 0.00237159 0.0210769 -0.00324832 0.0096881 -0.0115588 -0.0080575 -0.0259843 0.0159348 0.017083 -0.00541933 -0.00215148 -0.0329663 -0.0108246 -0.00659831 -0.010473 -0.00453915 -0.0288337 -0.0438596 -0.032063 -0.0118971 0.00530184 -0.000133807 -0.0343556 -0.0257576 -0.00746905 0.0222905 -0.00338857 -0.0174736 -0.0165147 0.0173604 0.0127991 0.0045501 0.00362683 -0.00386237 -0.0131947 0.00732858 -0.018903 -0.0337355 0.0107275 0.0059437 -0.0257053 -0.0180703 0.00354365 0.000447865 -0.0217497 -0.0116126 0.00519707 -0.00740505 0.00850694 -0.0186042 -0.0109497 0.0199403 0.0130498 -0.0103351 -0.0372628 -0.0301122 -0.0118241 -0.0177532 0.00769872 0.00152305 0.0191619 0.0123444 -0.00772584 -0.00422908 0.00163202 -0.00211237 -0.0103668 -0.0258002 -0.0159431 -0.0327074 0.00704655 -0.0269008 0.0206942 -0.0204717 -0.0112727 0.00845328 -0.00244736 0.0181936 -0.0382706 -0.0202972 0.00484448 0.00846021 0.0145608 0.0095641 0.0167354 -0.00296407 0.00657431 0.00658092 -0.0110728 0.007715 0.00805849 -0.00281848 -0.0153443
internal_weight=60366.7 49006 11360.6 16889.3 32116.8 14655.7 21848.9 5342.22 6018.4 6280.97 4040.02 10287.2 8374.76 2233.55 10229.2 8309.62 4141.54 2046.04 2139.43 11561.7 6739.51 11529.4 10267.8 1318.89 740.061 3972.36 1302.2 4500.5 3045.86 3489.7 10093.1 9894.39 3809.12 3040.24 9876.91 4069.65 6543.01 2082.53 1190.82 994.164 9948.75 8615.35 3377.21 1866.66 1503 1077.54 3199.75 1999.95 1124.03 578.827 3897.4 639.086 543.045 2639.56 1199.8 1181.04 511.107 1487.58 8612.18 481.397 302.101 487.826 8549.48 1264.72 1436.24 1070.88 74.9569 1500.34 692.434 196.502 623.758 6061.61 1373.86 62.3793 875.92 2298.87 1651.87 594.955 412.123 577.292 934.069 1333.41 65.8645 144.369 4445.56 3883.67 768.88 1120.74 542.816 1434.75 719.717 369.601 963.327 687.432 418.543 701.018 597.708 1598.71 121.16 277.519 413.656 559.959 128.626 557.828 463.915 4243.76 235.848 165.533 1882.49 317.179 2715.17 1532.21 382.259 234.406 210.815 4103.93 1173.58 1697.87 698.221 927.9 2177.94 130.778 2047.16 2036.96 314.452 87.0813
internal_count=1939659 953174 986485 628394 324780 465192 269799 376677 609808 283568 240681 185036 181624 163202 179422 175754 163765 177494 119803 84763 92151 82233 54981 80894 38712 432314 135996 79880 143070 87271 66454 47431 95874 63201 46097 156916 86805 116003 39204 97611 64581 54745 138460 46167 141730 37599 135304 95099 43377 42182 429857 48416 35764 55525 40205 132338 48006 78466 37128 14961 18468 40893 53840 8969 15779 20543 2457 71387 18456 5346 48299 71844 14606 1173 51722 48067 37121 37537 31712 4963 30583 9836 905 1873 22168 42265 32673 110285 49751 66709 40293 11425 27067 4006 2899 28160 22147 34979 3658 8475 27303 35839 10026 4656 30793 20219 10712 5940 30785 6238 12372 163266 31445 1543 3710 31672 17034 8465 19871 16048 29579 2975 26604 26287 5190 872
is_linear=0
shrinkage=0.03


Tree=4
num_leaves=127
num_cat=0
split_feature=145 31 25 134 134 130 25 130 133 114 8 8 110 8 125 130 124 113 125 40 31 16 110 110 72 0 8 110 111 40 61 82 130 123 8 134 29 124 110 25 8 48 133 134 8 58 90 131 130 8 57 110 124 61 130 145 8 85 8 89 89 61 31 26 145 147 134 72 113 28 40 57 100 89 62 124 29 40 106 21 105 113 134 123 114 90 10 40 26 72 26 85 98 92 48 72 26 19 43 23 92 31 60 5 57 133 123 2 29 85 71 144 94 57 131 114 114 31 103 109 142 65 30 124 87 83
split_gain=11003.6 3055.06 1703.64 932.93 732.571 465.213 443.368 417.955 358.765 246.399 244.448 233.348 225.9 193.793 185.152 184.133 183.388 178.935 157.833 157.543 153.442 144.945 134.287 132.626 130.764 128.321 121.112 121.097 116.769 114.725 102.617 100.666 96.9564 91.2698 91.1753 90.4811 88.8302 88.4184 87.8711 86.9497 85.7078 83.4532 84.6967 83.2862 83.0922 83.0012 102.657 81.3018 80.6478 79.9837 77.7437 76.578 76.0854 75.8556 73.3997 71.5581 69.301 68.6885 68.6553 68.0862 67.6885 67.0974 65.9843 65.6246 65.2021 65.1608 64.8426 63.4239 63.3569 62.9441 62.0105 61.536 61.2843 68.9032 60.0141 59.6801 59.437 59.2783 58.8094 58.658 58.5191 57.8752 57.3858 69.6368 61.4108 57.0905 57.8325 56.8348 56.6265 56.5809 56.0049 55.8465 55.1078 54.9935 54.9124 52.3432 52.3243 50.5013 49.7314 68.7755 49.2458 49.2189 48.6933 48.548 48.1747 49.2885 48.1703 47.8305 47.5389 47.3762 47.2681 47.239 46.46 57.9564 57.0132 48.1686 48.1575 45.6599 45.6445 53.5403 45.4909 45.0559 49.5439 44.5474 43.9749 56.0254
threshold=0.50179705023765575 0.16938780248165133 -1.0000000180025095e-35 144.00000000000003 518.50000000000011 0.16561971604824069 -1.0549999475479124 0.17103888094425204 0.15755573660135272 5.8650000095367441 0.21499999612569812 0.13499999791383746 -0.015599190723150967 0.18500000238418582 6.3150000572204599 0.16259050369262698 0.43500000238418585 -1.0000000180025095e-35 6.4449999332427987 0.19500000029802325 0.16313882172107699 0.32546131312847143 -0.006122537422925233 -0.0057974406518042079 0.18500000238418582 4.5000000000000009 0.16499999910593036 -0.011880374047905205 1.5000000000000002 0.16499999910593036 0.085833333432674422 -0.81190544366836537 0.17512644082307818 0.087685484439134612 0.21499999612569812 333.50000000000006 -0.029166666790843006 0.37500000000000006 0.028824492357671264 1.5149999856948855 0.11499999836087228 0.59737062454223644 0.15989138931035998 333.50000000000006 0.20499999821186068 1.0000000180025095e-35 0.22500000149011615 0.0099339755252003687 0.17378882318735125 0.10500000044703485 -1.0000000180025095e-35 0.024631931446492675 0.25499999523162847 1.1558333039283755 0.17025955021381381 0.50803723931312572 0.18500000238418582 -0.37965096533298487 0.13499999791383746 -3.3049999475479122 -1.6050000190734861 2.3008333444595341 0.16524408757686618 0.014999999664723875 0.51721522212028515 0.17691860347986224 133.00000000000003 0.27500000596046453 -1.0000000180025095e-35 -0.75749999284744252 0.32500000298023229 -1.3650000095367429 -0.03499999921768903 2.7549999952316289 6.7750000953674325 0.27500000596046453 -0.027500000782310959 0.10500000044703485 17.407500267028812 0.74489876627922069 11.44749975204468 -4.4999999999999991 348.50000000000006 0.019702114164829258 6.9716665744781503 6.6250000000000009 3.5000000000000004 0.14500000327825549 6.805000066757203 0.13499999791383746 0.064999999478459372 1.7652574181556704 0.024999999441206459 -1.3475000262260435 1.9749115109443667 0.14500000327825549 -0.024999999441206452 1.3431659340858462 1.0000000180025095e-35 0.67948156595230114 -2.3374999761581416 0.16642303019762042 -5.2424998283386222 32.694999694824226 -0.074999999254941926 0.15482939779758456 0.028479344211518768 40.065000534057624 0.025833333842456344 -0.11387018114328383 6.7650001049041757 49.595720291137702 0.054999999701976783 0.40500000119209295 0.0031777941621840004 5.5183334350585946 6.9149999618530282 0.17478321492671969 12.295000076293947 0.021915446966886524 5.5000000000000009 7.3650000095367441 0.085000000894069686 0.19500000029802325 -0.78114908933639515 -0.5616893172264098
decision_type=2 2 2 2 2 2 2 2 2 2 2 2 2 2 2 2 2 2 2 2 2 2 2 2 2 2 2 2 2 2 2 2 2 2 2 2 2 2 2 2 2 2 2 2 2 2 2 2 2 2 2 2 2 2 2 2 2 2 2 2 2 2 2 2 2 2 2 2 2 2 2 2 2 2 2 2 2 2 2 2 2 2 2 2 2 2 2 2 2 2 2 2 2 2 2 2 2 2 2 2 2 2 2 2 2 2 2 2 2 2 2 2 2 2 2 2 2 2 2 2 2 2 2 2 2 2
left_child=2 4 8 9 6 15 13 12 40 21 18 33 58 41 -14 74 19 28 -8 26 72 34 61 24 66 30 32 95 67 38 59 57 35 45 47 104 -37 54 44 108 88 -2 -43 68 82 76 71 94 56 -25 96 107 -32 55 70 81 -11 -19 111 -24 -51 -17 -27 -61 -15 -29 -20 75 110 -57 -23 -47 93 -74 -4 -7 -10 106 80 97 -36 -31 -16 109 118 86 -52 -58 -1 120 123 -71 -48 -6 -3 -21 -13 -62 -50 -100 -46 -81 -78 -102 -9 -106 -33 -28 -30 -84 -12 -5 113 115 -115 -67 -114 -97 119 -85 -22 -107 -123 -44 125 -89
right_child=1 3 5 7 20 17 10 16 11 48 43 50 14 64 29 22 -18 31 23 27 89 37 25 49 -26 62 51 65 39 53 52 77 -34 -35 78 36 -38 -39 -40 -41 -42 42 90 -45 100 46 92 -49 98 60 85 -53 -54 -55 -56 69 87 -59 -60 63 79 -63 -64 -65 -66 112 -68 -69 -70 91 -72 -73 73 -75 -76 -77 102 -79 -80 101 -82 -83 83 84 -86 -87 -88 124 -90 -91 -92 -93 -94 -95 -96 117 -98 -99 99 -101 103 -103 -104 -105 105 121 -108 -109 -110 -111 -112 -113 116 114 -116 -117 -118 -119 -120 -121 -122 122 -124 -125 -126 -127
leaf_value=-0.035039264923702969 -0.023022817129840653 0.0097781731198142569 -0.041596194196816538 -0.05356701795391592 0.0013479090310246503 0.0047824692678728343 -0.053109700367405255 0.0093719218049486998 0.0052369450939254072 0.019064765313157775 -0.020498291292191561 -0.028151429648016372 -0.052741366703052635 -0.038796108574854889 0.0095222913454280182 -0.033577178906418481 -0.052453463278070191 -0.022507315558615744 0.011476427419730007 -0.047126717402728044 -0.03290050291793898 0.010661961448943592 -0.046833239325462531 0.011714244896654567 0.009675713206126901 -0.040352555510932614 -0.00048065709651645239 -0.0029750161849341544 -0.016028938556388435 0.012950248427438785 0.014042106870145872 -0.029770274234048641 0.022533690715623021 -0.052744343882934787 -0.0042540622131549159 0.015940751058269965 4.120214311210082e-05 -0.051713331381313649 -0.040251925989088284 0.0038242810243018944 -0.045426019194339223 -0.020448090290011236 0.0041962116774671007 -0.032434241197726428 0.004494060235290513 -0.045901304688173147 -0.051982413382352648 -0.036400471553693158 0.024954534987157766 -0.030498927685987592 -0.017144143340563377 -0.036423038960984228 -0.051793783571937861 0.024398811232654579 0.01720997887642748 -0.010011579874737896 -0.015506892895774869 0.0025465673920969513 -0.033701157623897256 -0.0078272562647786134 0.0035451281396189993 0.026491423217412897 -0.017771900316266409 -0.023803034019040076 -0.015706723163254468 -0.017059275289645265 -0.017322351930028818 -0.01917667139682467 -0.02854374543535711 0.0056737141492794558 -0.055670016107617994 -0.022018885077300598 -0.04395653635541831 0.0091520878305246332 -0.0062591550988946474 -0.051855812100718303 -0.043863588699243304 -0.025615314811632969 0.034644040836620461 -0.015646342376386596 -0.058119719526549055 -0.0095653353588382468 -0.0017021010123673291 0.0095202364108594052 -0.042554047029636936 0.027213473013360901 -0.038075225847209876 0.0052778502014081624 0.017800194011126643 -0.012764698019813645 -0.018349599435709484 -0.042280256200714565 0.035344665912247213 -0.033344587370684721 0.031144150910850224 -0.03174091359933575 -0.043822764966207337 0.017107309741767891 -0.058101608794662925 0.019997700645326272 -0.0080758367275015567 0.0020296470540708952 -0.010974648610560659 -0.043451240246903833 -0.039820022050611407 0.018450941735319724 0.004786996159800121 0.010201262770964082 -0.042354421035486652 -0.031909293915425886 0.0055237118817213233 -0.0045299925884492009 0.013972784950912674 -0.023308954669468255 0.019937060364185102 0.0034043037112360397 -0.055380030024062499 -3.7463367298199326e-05 -0.014325135018529949 -0.054025129238596405 0.0066988477477180411 -0.056624869001072609 0.025030228814247733 -0.051122313632998052 0.015751515573739126 -0.047482303592773563
leaf_weight=744.01064488338307 365.6315085751703 3418.5458927350119 482.15535672334954 18.492858241777867 62.54263336583972 1585.7797180804191 44.995540572097525 855.32604128366802 196.81789918593131 4755.929952054983 88.590764165855944 260.84438515151851 53.921577054075897 377.98189313767944 2820.8272604785743 545.61779470811598 40.853175081312656 134.4692305449862 78.469192932127044 40.879444595891982 261.00723050825763 1749.6593071412062 53.101266766432673 1182.7768818273908 295.17974732257426 224.4516592787113 564.26191678177565 544.11947244172916 229.75744401873089 110.84324718720745 194.85059276805259 50.993969221366569 1156.3645098146517 64.684075404889882 445.48637773701921 515.58134049072396 816.50197787187062 16.662135063670576 36.032228679396212 160.31467318919022 2454.3730640215799 275.58640957740135 587.63127237133449 220.49239543639123 117.85176367056556 126.31185828894377 6.9463248874526462 32.656904341652989 2373.064257889986 54.17557568103075 242.50262905447744 36.974700324935839 16.19138137740083 94.474874753737822 5684.7528322756989 326.64855658903252 75.564374120905995 359.60248712962493 193.57510667294264 827.69636995659675 1850.3570470506093 16.505682071205229 248.35441470099613 321.77260366594419 158.6934214530047 146.37839410989545 623.79149299906567 110.86588358785957 113.36320128524676 1195.958696075133 11.786563432309775 438.27528624259867 525.22883968811948 22.520976237952709 48.158116624690592 15.91987761761993 45.537580789066851 646.20374511973932 32.5738754584454 243.14644659124315 17.950990956509486 1266.3419621041976 105.80273315869272 762.90700356592424 22.875535438302904 16.909312238916755 239.18605658365414 95.744127485202625 18.064392179250717 595.17771952610929 135.04440238466486 21.260866736527532 35.97837645933032 117.75290579372086 111.20148641103879 58.501948381075636 832.95299303089269 284.611326898681 14.655405045021324 27.86224985588342 94.473539929138497 337.07375823578332 330.42232986609451 55.205370930721983 12.397497797850518 2344.9382122447714 119.27654883498326 1133.7043958685827 85.12181016150862 83.18157926434651 209.1438953417819 195.83852399769239 947.89904101775028 30.244485097471625 228.86434061126783 346.6720167233143 8.1181529383175057 131.28847400122322 86.491612405050546 11.128049436490981 28.521785772405565 14.212147763231771 11.081876177340744 12.396741179749368 502.14007649058476 21.283506776206195
leaf_count=83951 26201 24801 67857 1511 3660 42437 4603 11529 8714 24618 3986 25122 5658 31776 51822 59790 4052 8676 622 2296 20982 18383 4895 24681 7538 29716 10702 7728 16380 2144 5006 4266 8790 6842 6012 6671 16973 1439 2086 7776 297355 17689 18578 16844 2860 13336 242 996 6883 3023 20560 1263 1682 792 29536 8418 1203 15231 14310 48883 46818 232 19633 26644 8276 2639 34291 4316 6911 21409 435 37807 58192 1296 1799 1560 5092 46793 207 11748 418 41228 3120 18159 1148 248 27532 782 358 31428 6619 726 248 10871 331 2937 93069 5516 173 92 2883 8625 25207 2785 381 19029 6416 16236 8159 3924 6237 8998 8352 483 1792 3709 147 3157 2927 563 1361 310 75 952 3177 297
internal_value=0.000566951 0.00733004 -0.0243653 0.0111644 -0.00819071 -0.0136673 -0.00426294 0.00617541 -0.0358067 0.015708 -1.93885e-05 -0.028008 0.000910181 -0.0167354 0.00213121 -0.0223788 0.0102212 -0.00624427 0.00220492 0.0104843 -0.026536 0.0129104 -0.0188911 0.00271901 -0.00705008 -0.0150388 0.0126626 0.00393475 -0.000989788 0.00254913 -0.0104971 -0.0150061 0.0147667 -0.0182494 0.00834247 0.0127962 0.0062047 0.0153927 0.00575605 -0.0141319 -0.0426745 -0.0107557 -0.00629647 -0.0175895 0.00616478 -0.0163134 -0.0240344 0.0100203 0.0198029 0.00518645 -0.0356194 0.00571135 0.00875651 -0.00191344 0.0155502 -0.00277354 0.0177708 -0.00429786 -0.0207853 -0.013883 0.00239417 -0.0317641 -0.0285603 -0.0123188 -0.0320161 0.0060578 -0.0140884 0.00266119 -0.00956093 0.00165951 0.0101851 -0.027439 -0.0367426 -0.0417548 -0.0384107 0.00418564 -0.00809126 -0.0214691 -0.00369745 0.00306257 -0.00646763 -0.0077429 0.00727703 0.0013649 0.00490617 -0.0256855 -0.0276012 0.00889347 -0.0337611 -0.0181013 -0.000966225 0.00479963 0.0202829 -0.0213525 0.0104608 -0.0167188 -0.0401174 0.00536166 0.0243779 -0.00756993 -0.00997687 -0.00538665 -0.015072 -0.0213449 0.0155043 0.0176996 -0.00565837 0.00665153 -0.0232666 -0.0151116 -0.00225178 -0.00900404 0.00893691 0.00334717 0.0148074 -0.00268715 0.0133235 -0.00994076 0.00621922 0.00853427 -0.0289796 0.0180184 -0.0211445 0.00296517 0.0118964 -0.00461308
internal_weight=58729.7 46198.7 12531 37046.8 9151.89 6477.16 7539.13 17659.3 6053.82 19387.5 5626.17 2837.37 7674.13 1912.97 7266.23 2978.86 9985.16 3498.31 4994.58 9944.31 1612.75 11521.3 2448.54 4949.58 997.44 1886.42 7461.34 2482.97 2187.76 7212.3 1413.61 1310.55 5726.4 1244.97 4058.42 4570.04 1332.08 7462.86 4196.78 475.194 3216.45 1376.29 1010.66 631.59 4160.74 1180.29 607.512 3562.4 7866.24 3952.14 1592.4 1734.94 211.042 3015.53 7446.2 2921.05 5450.66 494.072 407.906 1202.57 2769.36 562.123 472.806 1149.47 536.675 2252.3 702.261 1712.57 411.098 1543.87 1761.45 564.587 728.045 547.75 530.313 1601.7 572.778 816.474 496.011 2715.19 463.437 1377.19 3893.21 1072.39 883.402 498.598 481.689 694.732 762.075 884.707 735.072 1217.22 42.9247 180.296 3529.75 230.67 1093.8 2134.97 2415.58 42.5177 267.531 580.22 375.96 149.679 3237.96 2382.63 170.271 1697.97 314.879 188.984 297.735 214.331 1708.18 752.159 259.109 493.05 956.017 189.79 860.527 774.035 289.529 2370.23 25.294 600.028 619.168 117.028
internal_count=1939659 865829 1073830 446505 419324 428147 291534 326722 645683 119783 181443 264019 197471 110091 172652 266137 129251 162010 147465 125199 127790 82558 196481 142862 42451 136459 91959 33240 80628 166994 87110 81382 63758 97488 32765 54968 23644 49793 92277 32315 381664 70039 43838 33978 90191 90646 51633 26128 37225 100411 166531 28201 6688 74717 48354 73925 30077 23907 24819 80422 75730 60022 49349 75527 40052 24850 34913 48313 17134 30553 18818 51143 74019 59488 69656 43997 39013 57475 6637 72707 6430 43372 81663 29841 22797 48340 48092 5459 84309 53771 26149 22135 490 14531 25132 8390 118191 52334 7148 265 8528 20373 30299 5668 31324 19795 10682 26938 24539 7044 10223 10509 17122 8623 2275 6348 8499 6094 21649 18722 22343 19414 385 19530 4256 1079
is_linear=0
shrinkage=0.03


Tree=5
num_leaves=127
num_cat=0
split_feature=130 134 31 130 57 130 109 145 134 122 31 125 8 8 8 134 8 26 125 8 72 8 40 72 124 93 131 25 89 122 72 26 8 8 25 63 130 26 72 145 125 79 40 8 16 63 72 57 8 109 8 18 8 34 134 1 8 39 112 21 63 142 134 134 63 85 65 85 54 40 95 91 61 8 26 95 58 18 31 34 63 130 128 37 128 132 130 19 112 138 22 61 54 138 72 61 101 89 145 93 103 121 147 25 116 102 126 63 112 57 87 132 61 126 19 112 125 11 4 128 119 30 132 72 26 130
split_gain=9374.89 3255.21 1251.79 798.773 581.645 513.639 477.571 365.568 266.149 255.137 245.224 218.81 195.968 195.838 183.481 182.025 181.565 174.253 159.594 155.973 147.118 134.352 129.651 154.416 125.143 148.905 121.264 118.05 112.692 112.433 111.471 108.454 107.962 106.829 102.255 98.8406 96.6041 92.3624 88.8215 87.6843 87.303 84.8953 82.9458 80.7523 83.7157 79.7573 79.7489 77.2658 75.7696 73.5799 73.2929 73.3474 73.1545 79.1154 68.5424 73.0807 65.9084 68.559 64.0216 63.8799 62.1343 61.3786 68.6377 61.2215 61.2456 58.1156 58.0542 58.0521 60.2232 57.5707 56.4952 55.8308 54.6084 54.4036 54.3617 53.8969 53.679 53.6609 52.9218 52.0384 51.9675 51.7435 51.4086 51.2059 53.076 50.0871 49.8801 48.5092 48.4936 48.0827 48.0633 47.7616 47.3972 47.2838 47.0891 47.0448 46.9108 51.1909 66.9206 49.4817 48.7876 54.156 46.8758 51.4092 49.8455 47.6462 46.6965 60.0815 46.4295 46.4035 46.2596 45.8198 45.6601 45.4742 47.5036 45.077 46.0292 44.7723 44.5533 44.3365 44.3166 44.3085 44.2293 44.1606 43.9957 52.4699
threshold=0.1663337051868439 223.50000000000003 0.16388809680938723 0.16343764215707782 -0.054999999701976769 0.16978444904088977 0.00026388507103547459 0.51649281382560741 414.00000000000006 4.7866666316986093 0.17628953605890277 6.5250000953674325 0.15500000119209292 0.13499999791383746 0.21499999612569812 238.50000000000003 0.095000002533197417 6.6150000095367441 6.4649999141693124 0.17500000447034839 0.15500000119209292 0.15500000119209292 0.21499999612569812 0.17500000447034839 0.2950000017881394 1.090833365917206 0.014981304295361044 -0.44499999284744257 -1.1549999713897703 6.5983333587646493 0.18500000238418582 -0.074999999254941926 0.25499999523162847 0.12499999627470972 -1.0349999666213987 0.1638758257031441 0.17356482893228534 1.0000000180025095e-35 0.12499999627470972 0.48375144600868231 6.5050001144409189 3.6499999761581425 0.20499999821186068 0.20499999821186068 0.75513455271720897 0.16059168428182605 0.12499999627470972 -0.24499999731779096 0.20499999821186068 0.00038825340743642306 0.19500000029802325 1.2092704176902773 0.064999999478459372 40.944999694824226 152.50000000000003 5.9649999141693124 0.17500000447034839 6.6949999332427987 1.0000000180025095e-35 0.71240642666816723 0.16420520097017291 3.5000000000000004 353.00000000000006 153.50000000000003 0.15986308455467227 0.48732307553291326 5.7049999237060556 -0.76214849948883046 2.5000000000000004 0.34499999880790716 0.16449426859617236 -19.994999885559078 2.2741667032241826 0.23499999940395358 0.014999999664723875 0.1604251563549042 -1.0000000180025095e-35 -1.5607597827911375 0.1688363999128342 28.960000038146976 0.1629595682024956 0.16866961866617206 3.7625000476837163 33.034999847412116 15.167500019073488 0.017178270034492019 0.16866961866617206 1.8538099527359011 1.5000000000000002 7.0000000000000009 1.5000000000000002 -1.0000000180025095e-35 1.5000000000000002 105.00000000000001 0.10500000044703485 1.1558333039283755 -0.014999999664723871 -1.2549999952316282 0.50803723931312572 -0.034166667610406869 13.875000000000002 22.814999580383304 0.17154312133789065 -0.18500000238418576 0.75499999523162853 -1.4450000524520872 26.41250038146973 0.17541695386171344 -2.4999999999999996 -0.5349999964237212 1.5483661890029909 0.019958494231104854 -0.054166667163372033 34.04083442687989 -1.1187629103660581 1.5000000000000002 6.8250000476837167 1.0000000180025095e-35 1.5649999976158144 11.747499942779543 16.702221870422367 6.7249999046325692 0.02185237500816584 0.074999999254941954 0.024999999441206459 0.16883174329996112
decision_type=2 2 2 2 2 2 2 2 2 2 2 2 2 2 2 2 2 2 2 2 2 2 2 2 2 2 2 2 2 2 2 2 2 2 2 2 2 2 2 2 2 2 2 2 2 2 2 2 2 2 2 2 2 2 2 2 2 2 2 2 2 2 2 2 2 2 2 2 2 2 2 2 2 2 2 2 2 2 2 2 2 2 2 2 2 2 2 2 2 2 2 2 2 2 2 2 2 2 2 2 2 2 2 2 2 2 2 2 2 2 2 2 2 2 2 2 2 2 2 2 2 2 2 2 2 2
left_child=3 5 8 17 16 14 15 11 34 -7 13 -6 31 -11 18 -5 29 39 -2 24 47 30 32 70 25 28 42 -14 93 -4 124 88 36 94 60 -25 63 45 78 -1 -9 86 54 74 -45 -30 66 -18 122 -41 76 -52 110 58 55 56 67 -58 -54 61 -3 62 -43 92 -65 -37 -31 118 79 80 -24 -67 117 -62 -42 -50 -22 -16 -15 -69 -44 -53 -72 109 111 -56 -29 90 -13 -60 -70 -46 -12 -8 -17 -19 97 98 -79 -98 -101 -102 104 -104 -55 -106 107 -76 -21 -84 -33 -85 -77 -114 -115 -78 -117 -51 -20 -34 -63 -92 -40 -81 125 -10
right_child=1 2 4 6 7 9 19 40 21 10 22 12 27 38 77 33 20 95 26 108 50 -23 23 35 -26 -27 -28 41 37 46 -32 52 119 -35 -36 65 -38 -39 48 49 43 59 69 44 91 -47 -48 -49 75 72 51 81 53 102 85 -57 57 -59 89 -61 73 120 -64 64 -66 71 -68 68 87 -71 82 -73 -74 -75 106 112 115 96 -80 123 -82 -83 83 84 -86 -87 -88 -89 -90 -91 121 -93 -94 -95 -96 -97 99 -99 -100 100 101 -103 103 -105 105 -107 -108 -109 -110 -111 -112 -113 113 114 -116 116 -118 -119 -120 -121 -122 -123 -124 -125 -126 -127
leaf_value=-0.046650630118725771 -0.052813904179257583 -0.044558033193058295 -0.051973946671710666 -0.0034400125477238889 -0.048558111342521235 -0.052536194651912831 -0.023431093280451044 -0.050901392958011674 -0.032674581937886388 0.0138564990209847 0.010015637733246034 0.017227518442830915 -0.028929571101609829 -0.036409873715272788 -0.051482154530267221 -0.035156510001863893 -0.030235956523624138 -0.030951598545149204 -0.015413350263470085 -0.016424818949939576 0.0027687287465754428 -0.039901102076340074 0.007340009432417677 -0.0019880276365088086 -0.05262527334065261 0.016836494916830404 -0.021228003079239163 -0.0058965310031022979 -0.014715221184614283 0.0063195613001658527 -0.0010362450404429973 0.011754493605498038 0.00038159191896711131 -0.040124781220486766 -0.0039780999173578283 0.02011010290521505 0.020145546945210507 -0.017001740069165709 0.0094650283183190468 -0.042848959003204498 0.013954913120495216 -0.0033644860636707066 -0.0096474806866039837 -0.01779973641095162 0.014120208229766333 0.0042847437627633496 0.014356031644724411 -0.0073678497349536883 -0.05567975303937274 -0.033488862883024745 -0.029007679856542186 -0.030708694160366808 0.0070967603448012472 -0.045093808073498443 0.0073876443516100974 0.014606602741916648 -0.050613133696113685 -0.0012401848443954579 0.012633041468618461 -0.019186157538655133 -0.014169315634304363 0.0023225044088062731 -0.018135128894210061 -0.013985619387063693 0.010504683055820269 -0.056385399764916605 -0.017541719590996173 -0.016692755414067832 -0.0097509056477494103 -0.054876714976300305 -0.047059944949818341 0.0089178295034083189 0.019492933959834841 -0.04459494780256807 -0.057009741635819275 -0.023928443664027021 -0.021241714027297378 -0.045406884683621071 -0.0057058803477709023 -0.039015443799727413 0.0048811821151296293 0.0057405836698757881 -0.011690532766824201 0.015768885376222494 -0.056226238462204328 -0.0032062824308204656 0.013672620552250834 -0.043373321925924774 -0.0021542224985633294 -0.0069811623659259796 0.010594841867757568 -0.0081288285112004078 0.016899155947005601 0.01020911654576046 -0.018238996351806116 0.012197287911192128 -0.0006045049630317332 0.0051522372876767839 0.017491639799192046 -0.027721505543420209 -0.044446193905596891 0.028434279449369219 -0.01698512423474649 -0.0017784520111870984 0.0071944661433671906 -0.030766899706847737 0.0076547200218703105 -0.00027428504056874935 -0.029715865427884586 -0.054494178307767718 -0.035039017676865118 -0.026994472502844251 -0.006981934720010392 -0.034321667800720733 0.011310598517370209 0.0027225936503110335 -0.024947767444529284 -0.003783566482490259 0.019259883721980026 -0.038900033042463998 -0.054417524273635241 0.035732368209488601 -0.012875363334136126 0.0071707475412134212 -0.037123589183969644 -0.0089786834690511307
leaf_weight=1351.1881703448016 39.958147497382015 87.556250982219353 34.335738813970238 179.21758836600929 90.141639842186123 51.526159122237004 615.90794151066802 20.881223557051271 169.83560388931073 2958.8351352760219 1057.9734467153903 538.55521282274276 220.87174069671892 58.982739371014759 24.538796998560429 247.08545435010456 784.55561593011953 32.014919387875125 34.748808627482504 415.87658949173056 371.28831527382135 814.42807587608695 164.80613698367961 329.91450430685654 59.234849107218906 186.54861741047353 137.60362783586606 203.68567073624581 276.22850971110165 170.68224036984611 171.42693629674613 543.68143066426273 149.81457713292912 1272.3028888318222 604.70925140625332 1026.602482004324 5304.4720221848693 493.31612290162593 1669.3356993873604 945.14504025410861 2089.9885620287387 600.59944863826968 328.9750490472652 184.55818922363687 258.62766034796368 702.05279347137548 301.06543328601401 161.4358538268134 16.005664233234711 1021.9652292171959 314.9916428461438 47.838578719412908 1104.5113591863774 54.552579668117687 1018.5485934219323 1999.1424749228172 26.462288421578705 326.09437455330044 132.60945363203064 417.64242338226177 507.07576205173973 635.91161832562648 536.66153277480043 101.09580876515247 922.33486212324351 11.105488419067113 196.16838953597471 163.35114180110395 96.938669389346614 16.435973110608757 37.248797588050365 443.83073542593047 18.053400554228574 58.585649441927671 21.718549288110808 73.768859423929825 253.38832888635807 42.895229315385222 326.85334774991497 18.908669576980174 673.46749177342281 123.11619426636025 71.943342652870342 109.98222193378024 12.028785646427421 661.53163609583862 273.29992683231831 14.334784468170254 147.46411177120171 709.54807861638255 978.34322488098405 129.49553554062732 6350.0644132567104 39.374960514716804 383.32768733077683 72.047930193599313 152.38865441968665 323.43229719996452 22.553973849629983 221.17996405786835 11.972308590775354 30.376693818019703 251.61021152231842 966.68525907304138 63.34784847823903 54.465611204272136 1215.3610754875699 64.918583805439994 568.31609692564234 33.08838236425072 18.722229840466753 27.307311740703881 341.83868333394639 20.929246433312073 323.6134846820496 223.23600337211974 70.29497106350027 48.322959190234542 534.29284265590832 30.213776219403371 11.632693600840865 66.858128901105374 82.801197738270275 288.62998481583782 283.9743536306778 168.58384992915671
leaf_count=182885 3852 9724 3060 12076 9030 4877 48185 1992 17814 22806 7704 8314 14272 2605 1168 28251 59544 1505 532 27603 13599 90208 1638 4741 6012 3332 6442 8307 19387 6787 10067 12132 1768 162911 32084 5692 19672 40013 14258 128896 23914 16872 10019 7823 3304 32678 8519 7607 779 117381 23130 3363 22031 3524 19855 19690 725 4785 2952 21855 32799 19468 26328 3320 9867 180 12185 3055 1485 914 773 3055 378 6011 799 1734 13481 2200 4667 362 10283 3753 1190 791 284 22060 4986 346 4253 27584 10562 2293 37832 2168 37717 1336 3960 6972 359 7410 460 390 11339 27512 2139 3150 20868 1429 52857 547 835 632 5557 516 3787 8838 4131 4470 4589 608 646 226 2797 2963 30068 11546
internal_value=-6.96416e-05 0.00519672 -0.00511623 -0.0282898 -0.00156007 0.0111342 -0.0210948 0.00151516 -0.0232406 0.0135184 0.0136752 -0.00235368 -0.00179051 0.00842078 0.00474687 -0.0323829 -0.013206 -0.0394963 0.00624215 -0.0140855 -0.0172041 -0.0313258 0.0155812 0.00892066 -0.00991133 -0.00879409 0.00656922 -0.00789272 -0.0110504 0.000175196 -0.022485 0.00206912 0.0166657 -0.0351043 -0.0128846 0.0128493 0.0169683 -0.0064317 0.00289779 -0.0406716 0.00886901 -0.00614733 0.00710029 0.00919733 -0.00121612 -0.00108659 0.00293422 -0.0263485 0.00494529 -0.0366763 -0.0110269 -0.0204406 0.000132069 -0.00155474 0.00839827 0.0103112 0.00693669 -0.00508719 0.00234793 -0.00863237 -0.0211064 -0.00615176 -0.010347 0.014967 0.00807128 0.0161544 -0.00644478 0.00886951 0.00597609 -0.000831529 -0.00665923 0.00719695 -0.0312787 -0.0173989 0.0109562 -0.00285236 -0.00602478 -0.00862742 -0.0104893 -0.00305867 0.000105408 -0.00456091 -0.0145796 -0.00964558 0.00164561 0.00321507 0.00531494 0.00965689 0.0130599 -0.00387775 0.0103624 0.0066874 0.015918 -0.0213927 -0.0249196 -0.00121716 -0.00725476 0.000231876 -0.0237497 -0.0142457 -0.0220904 0.00721133 -0.00701768 -0.00493285 -0.0216227 -0.0104412 0.00613327 -0.0150194 -0.0241251 -0.0255901 0.010132 0.00710773 -0.0016644 0.000755399 0.00843868 -0.0119941 -0.00395594 -0.0321553 0.017114 -0.00637285 0.00121625 0.0122383 0.00840083 0.00420407 -0.0283768 -0.0209405
internal_weight=56770.1 47842.6 17480.3 8927.53 14614.1 30362.3 5438.79 11561.7 2866.18 22108.3 22056.8 7576.2 7486.06 5872.96 8253.96 2081.93 3052.4 3488.74 7424.63 3356.86 2350.15 1608.25 16183.8 2267.86 2372.66 2313.43 7384.67 2900.31 2126.88 702.252 793.821 4585.75 13916 1902.72 1257.93 1811.45 13735.9 1471.6 2914.13 3384.67 3985.55 2679.43 7247.06 3964.67 572.681 978.281 667.916 945.991 2528.29 2033.49 1404.15 485.946 3899.73 3337.33 6228.19 4548.11 2548.96 352.557 1946.67 2202.45 653.218 1784.81 1137.26 8431.47 1023.43 1481.54 366.851 2196.41 1627.36 1018.88 456.405 454.936 1088.34 565.661 3391.99 776.156 918.208 829.338 385.836 470.89 1002.44 170.955 291.599 254.35 149.318 1680.08 476.986 1156.47 686.019 842.158 1142.14 388.123 7408.04 655.283 630.413 104.063 804.799 388.882 65.4492 415.918 263.529 42.349 1390.66 1218.3 172.366 117.813 1302 86.6371 984.193 105.032 562.404 137.29 760.15 686.381 344.543 546.919 293.531 1070.29 569.042 180.028 647.544 1045.2 1752.14 307.539 622.394 338.419
internal_count=1938651 1028610 718269 910041 477948 310341 473190 309951 240321 164677 159800 247529 238499 59506 145664 240955 167997 436851 122745 232235 137446 159703 100294 19523 151775 145763 118893 112734 142431 30551 69495 125765 80771 228879 80618 13668 78395 92078 36700 434010 62422 98462 112451 60430 13420 52065 27491 67151 29428 251125 70295 30246 113198 100231 91235 49320 29630 5510 52567 85169 48534 63314 43200 58723 13187 8927 18972 24120 18999 21216 5855 3235 122229 38810 47010 12373 40049 22919 7272 6380 20302 7116 4217 3444 1707 41915 13293 12619 12567 30536 12273 5597 45536 50353 65968 2841 21751 9531 2559 12220 8260 850 47664 38851 8813 5289 23096 2228 80460 1737 12967 1423 11594 9860 4303 26450 12969 121851 5121 2376 20114 10788 17055 3325 59428 29360
is_linear=0
shrinkage=0.03


Tree=6
num_leaves=127
num_cat=0
split_feature=130 134 25 130 145 145 112 8 133 122 125 114 130 134 134 8 124 8 134 8 90 125 110 8 8 112 48 110 72 8 145 72 16 26 139 93 62 72 138 112 8 123 29 138 11 112 134 40 26 93 133 8 40 63 145 89 127 116 110 21 63 57 112 72 132 57 0 8 18 66 147 25 40 25 62 53 83 122 134 19 130 107 118 63 18 21 72 66 80 139 4 23 82 25 53 97 120 23 117 100 63 89 21 8 5 36 40 72 63 57 113 25 36 63 8 12 80 27 93 82 26 60 98 26 44 125
split_gain=8456.37 2860.25 1128.28 692.874 470.382 398.809 398.249 367.334 250.494 229.31 195.399 189.57 163.278 160.936 159.918 154.408 147.19 148.436 143.967 143.327 136.891 123.851 123.629 120.557 115.361 115.156 113.547 107.176 104.496 103.657 98.794 90.4754 86.545 85.5291 88.9287 80.5592 88.0867 79.3869 78.8333 77.2514 76.5836 74.8551 104.645 80.898 92.4376 74.2845 73.8732 73.7423 71.8157 71.8057 71.2227 70.9562 80.5051 70.3376 70.294 68.8986 68.1056 67.5872 65.9566 65.6288 61.7205 60.7248 59.9386 59.9068 68.2655 59.8806 59.5712 58.7488 58.5731 58.5186 56.7721 56.5595 55.8315 55.6182 55.5288 84.5695 56.8093 55.0045 54.1873 54.0992 53.0277 53.0191 52.3021 51.4367 56.4649 53.945 51.0136 92.6594 62.3364 63.2846 49.5848 49.2739 49.0956 48.9139 50.5984 47.8613 52.1556 50.7013 47.6657 47.4075 47.3226 51.2466 70.7013 47.213 47.1912 46.7053 46.5998 63.2575 46.878 66.8834 47.6508 46.5978 46.4687 46.0863 45.3915 48.807 44.8465 58.9171 44.3221 48.5461 44.5373 43.9079 43.696 43.6455 43.2972 43.0739
threshold=0.1662467643618584 223.50000000000003 -0.14500000327825543 0.16330505907535556 0.5082269310951234 0.50895720720291149 -1.0000000180025095e-35 0.20499999821186068 0.16015408933162692 4.7866666316986093 6.5150001049041757 5.7083332538604745 0.17405784875154498 149.00000000000003 139.00000000000003 0.14500000327825549 0.2950000017881394 0.10500000044703485 134.50000000000003 0.095000002533197417 6.5250000953674325 6.4649999141693124 -0.001147333125118166 0.12499999627470972 0.16499999910593036 1.0000000180025095e-35 0.77572140097618114 -0.011880374047905205 0.10500000044703485 0.28499999642372137 0.51764211058616649 0.19500000029802325 0.43924167752265936 -0.064999999478459344 4.5000000000000009 1.0625000000000002 0.054999999701976783 0.15500000119209292 7.0000000000000009 -1.0000000180025095e-35 0.11499999836087228 0.13068196177482608 1.090833365917206 105.00000000000001 1.0000000180025095e-35 1.0000000180025095e-35 523.50000000000011 0.21499999612569812 0.014999999664723875 1.150833308696747 0.15572058409452441 0.20499999821186068 0.2650000005960465 0.18050096184015277 0.48375144600868231 0.18500000238418582 0.97768718004226696 0.79500001668930065 -0.0066197803243994704 0.91139388084411632 0.16682999581098559 -0.03499999921768903 1.5000000000000002 0.16499999910593036 0.018879811279475692 -2.2350000143051143 2.5000000000000004 0.074999999254941954 -0.84860837459564198 27.474999427795414 0.18834402412176135 -1.3749999999999998 0.22500000149011615 2.1650000810623173 6.7149999141693124 -0.32418210804462427 -1.3420158028602598 6.5983333587646493 353.00000000000006 1.2502462863922121 0.1757139936089516 4.3875000476837167 35.014999389648445 0.16303817927837375 0.92527028918266307 1.3168991804122927 0.18500000238418582 34.514999389648445 -0.26739348471164698 16.500000000000004 4.6549999713897714 1.4628475904464724 1.3927335143089297 0.50499999523162853 1.5377131104469302 2.245000004768372 16.435000419616703 0.57337391376495372 5.0750000476837167 -0.03499999921768903 0.18115475028753283 0.044999999925494201 1.0989337563514712 0.16499999910593036 23.10000038146973 7.6749999523162851 0.24499999731779101 0.18500000238418582 0.1664373576641083 0.18500000238418582 -1.4999999999999998 0.70499998331069957 6.6749999523162851 0.16028036922216418 0.10500000044703485 27.342499732971195 0.45700673758983618 -10.034999847412108 -0.017500000074505802 1.3202823996543886 0.044999999925494201 11.117499828338625 0.76499998569488536 -0.024999999441206452 29.667500495910648 6.4849998950958261
decision_type=2 2 2 2 2 2 2 2 2 2 2 2 2 2 2 2 2 2 2 2 2 2 2 2 2 2 2 2 2 2 2 2 2 2 2 2 2 2 2 2 2 2 2 2 2 2 2 2 2 2 2 2 2 2 2 2 2 2 2 2 2 2 2 2 2 2 2 2 2 2 2 2 2 2 2 2 2 2 2 2 2 2 2 2 2 2 2 2 2 2 2 2 2 2 2 2 2 2 2 2 2 2 2 2 2 2 2 2 2 2 2 2 2 2 2 2 2 2 2 2 2 2 2 2 2 2
left_child=3 5 7 20 16 14 13 8 37 -7 -6 29 19 50 15 70 17 47 106 -12 54 -10 98 63 41 51 31 -19 69 30 35 45 123 -29 55 36 61 39 -30 -3 -28 42 43 44 48 60 57 -4 65 71 -5 52 66 77 -1 122 -31 -36 -38 72 -23 -11 82 67 -65 -15 -21 81 -61 -27 125 -20 -42 78 75 76 -59 -24 -25 -54 113 -8 -56 84 -79 -85 87 114 89 95 -17 -60 -58 -90 -95 96 97 124 -16 -48 101 -32 -103 -84 -92 -47 108 -108 109 -13 -110 -26 -63 -73 -40 -116 -53 -118 120 121 -77 -120 -35 -9 -88 -2
right_child=1 2 4 6 10 9 23 32 21 11 12 18 -14 24 22 90 -18 27 49 25 -22 26 53 73 111 28 40 33 38 56 100 -33 -34 34 46 -37 58 -39 86 -41 59 -43 -44 -45 -46 105 99 -49 -50 -51 -52 116 79 -55 62 -57 92 74 91 68 -62 112 -64 64 -66 -67 -68 -69 -70 -71 -72 80 -74 -75 -76 118 -78 83 -80 -81 -82 -83 103 85 -86 -87 88 -89 93 -91 104 -93 -94 94 -96 -97 -98 -99 -100 -101 -102 102 -104 -105 -106 -107 107 -109 110 -111 -112 -113 -114 -115 115 -117 117 -119 119 -121 -122 -123 -124 -125 -126 -127
