tree
version=v4
num_class=1
num_tree_per_iteration=1
label_index=0
max_feature_idx=182
objective=lambdarank
feature_names=Column_0 Column_1 Column_2 Column_3 Column_4 Column_5 Column_6 Column_7 Column_8 Column_9 Column_10 Column_11 Column_12 Column_13 Column_14 Column_15 Column_16 Column_17 Column_18 Column_19 Column_20 Column_21 Column_22 Column_23 Column_24 Column_25 Column_26 Column_27 Column_28 Column_29 Column_30 Column_31 Column_32 Column_33 Column_34 Column_35 Column_36 Column_37 Column_38 Column_39 Column_40 Column_41 Column_42 Column_43 Column_44 Column_45 Column_46 Column_47 Column_48 Column_49 Column_50 Column_51 Column_52 Column_53 Column_54 Column_55 Column_56 Column_57 Column_58 Column_59 Column_60 Column_61 Column_62 Column_63 Column_64 Column_65 Column_66 Column_67 Column_68 Column_69 Column_70 Column_71 Column_72 Column_73 Column_74 Column_75 Column_76 Column_77 Column_78 Column_79 Column_80 Column_81 Column_82 Column_83 Column_84 Column_85 Column_86 Column_87 Column_88 Column_89 Column_90 Column_91 Column_92 Column_93 Column_94 Column_95 Column_96 Column_97 Column_98 Column_99 Column_100 Column_101 Column_102 Column_103 Column_104 Column_105 Column_106 Column_107 Column_108 Column_109 Column_110 Column_111 Column_112 Column_113 Column_114 Column_115 Column_116 Column_117 Column_118 Column_119 Column_120 Column_121 Column_122 Column_123 Column_124 Column_125 Column_126 Column_127 Column_128 Column_129 Column_130 Column_131 Column_132 Column_133 Column_134 Column_135 Column_136 Column_137 Column_138 Column_139 Column_140 Column_141 Column_142 Column_143 Column_144 Column_145 Column_146 Column_147 Column_148 Column_149 Column_150 Column_151 Column_152 Column_153 Column_154 Column_155 Column_156 Column_157 Column_158 Column_159 Column_160 Column_161 Column_162 Column_163 Column_164 Column_165 Column_166 Column_167 Column_168 Column_169 Column_170 Column_171 Column_172 Column_173 Column_174 Column_175 Column_176 Column_177 Column_178 Column_179 Column_180 Column_181 Column_182
feature_infos=[1:6] [0:8.880000114440918] [0:85] none [0:9.880000114440918] [0:90] none [0:7.8499999046325684] [0:0.97000002861022949] [0:8.5399999618530273] [1:6] [-5:5] [0:76.819999694824219] none none [1.7999999523162842:55.400001525878906] [-2.234015941619873:2.229327917098999] [1:6] [-2.228743314743042:2.2327311038970947] [-2.2265846729278564:2.2360680103302002] [-2.2265846729278564:2.2360680103302002] [-2.2360680103302002:2.2360680103302002] [1:6] [-2.2286059856414795:2.2360680103302002] [1:6] [-7.820000171661377:7.380000114440918] [-7.8299999237060547:7.690000057220459] [-90:90] [-70:71.425003051757812] [-6.4366664886474609:6.4083333015441895] [0:7.8299999237060547] [0.13520096242427826:0.19877235591411591] [1:6] [0:8.880000114440918] [0:85] none [0:9.880000114440918] [0:90] none [0:7.9000000953674316] [0:0.99000000953674316] [0:8.1999998092651367] [1:6] [-5:5] [0:75.644996643066406] none none [1.7999999523162842:55.400001525878906] [-2.2302701473236084:2.232410192489624] [1:6] [-2.2237255573272705:2.2296857833862305] [-2.2265846729278564:2.2360680103302002] [-2.2265846729278564:2.2360680103302002] [-2.2360680103302002:2.2360680103302002] [1:6] [-2.2269186973571777:2.2360680103302002] [1:6] [-7.2399997711181641:7.380000114440918] [-7.320000171661377:7.6999998092651367] [-90:90] [-70:68.69000244140625] [-6.0833334922790527:3.5233333110809326] [0:7.8299999237060547] [0.13520476222038269:0.19969405233860016] [1:6] [0:8.880000114440918] [0:85] none [0:9.880000114440918] [0:90] none [0:7.9000000953674316] [0:0.99000000953674316] [0:8.0200004577636719] [1:6] [-5:5] [0:76.819999694824219] none none [1.7999999523162842:55.400001525878906] [-2.234015941619873:2.232410192489624] [1:6] [-2.228743314743042:2.2327311038970947] [-2.2316751480102539:2.2360680103302002] [-2.2316751480102539:2.2360680103302002] [-2.2360680103302002:2.2360680103302002] [1:6] [-2.2286059856414795:2.2360680103302002] [1:6] [-8.1599998474121094:7.4200000762939453] [-7.8299999237060547:7.6999998092651367] [-90:90] [-70:71.425003051757812] [-6.4366664886474609:6.4083333015441895] [0:7.8299999237060547] [0.13428187370300293:0.19969405233860016] [-7.820000171661377:7.5100002288818359] [-7.5500001907348633:7.6100001335144043] [-7.6500000953674316:8.1599998474121094] [-7.8000001907348633:7.690000057220459] [-7.7699999809265137:7.8000001907348633] [-7.690000057220459:7.7699999809265137] [-90:90] [-90:90] [-90:90] [-70:70] [-67.724998474121094:70] [-68.69000244140625:68.69000244140625] [-0.057387363165616989:0.056210756301879883] [-0.05691869929432869:0.056210756301879883] [-0.05691869929432869:0.05691869929432869] [-5:5] [-5:5] [-5:5] [1.0900000333786011:8.443333625793457] [0.0047140452079474926:3.463437557220459] [0.0099999997764825821:8.1599998474121094] [0:8.1599998474121094] [0:76.753334045410156] [0:42.426406860351562] [0:90] [0:68.75] [0:7.8000001907348633] [0:3.6699047088623047] [0:7.8000001907348633] [0:7.7699999809265137] [0:66.111663818359375] [0:31.925870895385742] [0:70] [0:60] [0.15196625888347626:0.18104562163352966] [1.0626804396451917e-05:0.023517845198512077] [2.60085998888826e-05:0.057387363165616989] [0.13428187370300293:0.17823085188865662] [123:654] [1:6] [1:6] [1:6] [6:120] [1:24] none [0:3] [0:14] [-6:6] [45.113887786865234:62.551200866699219] [0.45589876174926758:0.54313689470291138] [-0.057387363165616989:0.056210756301879883] [0.1525329202413559:0.19969405233860016] [0:1] none none none none none none none none none none none none none none none none none none none none none none none none none none none none none none none none none none
tree_sizes=14294 14399 14349 14361 14379 14366 14367 14411 14359 14406 14410 14417 14404 14381 14367 14406 14414 14409 14380 14411 14375 14354 14348 14421 14372 14371 14354 14403 14420 14365 14307 14394 14400 14362 14417 14407 14342 14320 14347

Tree=0
num_leaves=127
num_cat=0
split_feature=134 133 133 16 16 148 124 2 57 133 133 57 49 133 57 2 133 58 40 124 133 49 134 109 57 134 34 109 134 134 124 134 10 148 16 147 148 40 134 16 133 16 40 147 16 57 109 133 124 42 147 58 29 124 134 58 95 40 48 32 147 133 48 133 133 134 10 148 133 133 40 57 58 133 109 147 124 133 124 29 1 131 147 48 133 29 147 48 16 124 32 18 57 58 132 48 147 57 48 93 147 134 134 61 115 32 115 82 82 124 16 40 22 134 95 40 48 106 134 82 124 82 16 57 147 82
split_gain=33984.9 7030.52 3746.41 2791.29 2105.15 1302.6 1139.81 1116.54 921.638 895.907 793.86 601.404 570.877 470.331 469.322 468.883 440.178 381.893 362.281 343.097 334.92 318.565 305.409 292.868 285.449 274.252 263.281 258.213 248.795 195.021 172.718 158.896 156.938 156.188 152.444 145.558 144.264 143.37 140.316 137.221 137.05 132.066 122.126 113.438 108.264 107.536 104.056 102.436 98.6939 98.2778 96.3684 94.2011 89.8056 89.7481 89.4399 84.8412 82.9306 82.2752 79.6753 78.6555 78.0444 79.7267 76.4322 76.3516 76.2857 73.805 73.372 73.2928 71.2419 70.6214 69.2337 68.5244 67.8098 67.4386 66.8268 66.3598 66.3088 65.993 65.0213 64.9143 63.6518 63.0558 61.8775 61.303 60.7124 60.2541 59.2828 58.3576 56.8797 56.6104 56.1155 54.4388 54.1491 54.0662 53.9442 50.9994 50.9753 50.6862 49.6836 50.3945 49.283 49.1453 84.2478 48.6325 48.4728 48.4725 47.7055 47.6931 47.4978 47.3485 47.2291 47.1949 47.0866 46.709 46.2306 45.7377 45.5455 45.0746 44.7907 44.6289 43.7233 42.3098 41.6391 46.0328 41.5396 41.282
threshold=234.50000000000003 0.16299369931221011 0.15834183245897296 0.15675411373376849 1.0364371538162234 1.0000000180025095e-35 0.64500001072883617 37.090000152587898 -0.014999999664723871 0.15914266556501391 0.16548634320497516 -0.014999999664723871 3.5000000000000004 0.16744478046894076 -1.0000000180025095e-35 23.935000419616703 0.15138531476259234 6.6449999809265146 0.20499999821186068 0.33500000834465032 0.15356714278459552 3.5000000000000004 522.00000000000011 0.0040944253560155639 -1.0000000180025095e-35 125.50000000000001 31.935000419616703 0.012330450117588045 418.50000000000006 361.50000000000006 0.2950000017881394 125.50000000000001 1.5000000000000002 1.0000000180025095e-35 0.70649066567420971 0.17264329642057422 1.0000000180025095e-35 0.24499999731779101 125.50000000000001 1.137071490287781 0.16770030558109286 0.37178663909435278 0.17500000447034839 0.16993229091167453 0.30364927649497991 -1.264999985694885 0.0027078523999080066 0.15783855319023135 0.2950000017881394 5.5000000000000009 0.18104164302349093 6.555000066757203 -0.017500000074505802 0.25499999523162847 523.50000000000011 6.6050000190734872 0.16182491928339007 0.22500000149011615 0.90118664503097545 2.5000000000000004 0.17114771902561191 0.15919765084981921 1.3086393475532534 0.14546038210392001 0.15466573834419253 361.50000000000006 5.5000000000000009 1.0000000180025095e-35 0.1633679196238518 0.15344992280006411 0.22500000149011615 1.185000002384186 6.6050000190734872 0.16263692080974582 0.021915446966886524 0.17277428507804873 0.46500000357627874 0.16241764277219775 0.33500000834465032 -0.015833333600312468 5.1749999523162851 0.0078914361074566858 0.17200590670108798 -0.34766493737697596 0.16208222508430484 -0.01916666608303785 0.17375367134809497 1.2416492104530337 0.69412636756896984 0.25499999523162847 1.5000000000000002 0.3967654556035996 1.5950000286102297 6.6849999427795419 0.01592577621340752 0.88915973901748668 0.1828073933720589 0.70499998331069957 1.6508056521415713 1.2125000357627871 0.1770916357636452 152.50000000000003 125.50000000000001 1.1624999642372134 1.4066824913024905 2.5000000000000004 1.3930462598800661 1.5832619667053225 0.98459774255752575 0.23499999940395358 1.0236644148826601 0.15500000119209292 4.5000000000000009 464.00000000000006 0.16627539694309237 0.22500000149011615 0.60847052931785595 -0.12249999865889548 139.00000000000003 -1.4605820775032041 0.24499999731779101 -0.025765309110283848 0.75513455271720897 1.2450000047683718 0.17605058848857882 -0.49247638881206507
decision_type=2 2 2 2 2 2 2 2 2 2 2 2 2 2 2 2 2 2 2 2 2 2 2 2 2 2 2 2 2 2 2 2 2 2 2 2 2 2 2 2 2 2 2 2 2 2 2 2 2 2 2 2 2 2 2 2 2 2 2 2 2 2 2 2 2 2 2 2 2 2 2 2 2 2 2 2 2 2 2 2 2 2 2 2 2 2 2 2 2 2 2 2 2 2 2 2 2 2 2 2 2 2 2 2 2 2 2 2 2 2 2 2 2 2 2 2 2 2 2 2 2 2 2 2 2 2
left_child=2 4 7 10 9 8 12 20 40 17 15 33 36 28 51 38 63 22 34 25 58 48 24 29 111 42 56 66 41 -16 32 73 57 55 45 -22 -5 39 98 89 72 71 80 -40 64 -14 79 119 74 120 115 54 113 65 85 60 108 86 103 88 -6 -62 118 -9 -26 -15 -13 -60 101 -35 109 -10 75 -20 -18 -3 81 -52 100 -30 -12 116 -27 -65 96 -11 105 114 97 -23 -34 -67 -25 -54 -84 -59 -33 -37 99 107 -7 102 -36 -1 125 117 -46 -4 -17 -58 -85 -2 -66 -31 -44 -38 -45 -28 -61 -29 -41 -47 -24 -124 -121 -99
right_child=1 5 3 6 11 78 -8 16 13 14 19 27 18 53 23 26 21 -19 31 -21 35 37 122 92 44 82 30 47 46 52 -32 84 90 69 68 59 50 -39 43 49 -42 -43 87 76 106 121 -48 -49 -50 -51 77 -53 93 -55 -56 -57 70 95 67 62 61 -63 -64 83 112 91 -68 -69 -70 -71 -72 -73 -74 -75 -76 -77 -78 -79 -80 -81 -82 -83 94 110 -86 -87 -88 -89 -90 -91 -92 -93 -94 -95 -96 -97 -98 104 -100 -101 -102 -103 -104 -105 -106 -107 -108 -109 -110 -111 -112 -113 -114 -115 -116 -117 -118 -119 -120 124 -122 -123 123 -125 -126 -127
leaf_value=-0.04282699251341348 -0.044475624929563244 -0.036620381862066682 -0.026370500302610733 0.028662494920656624 -0.04605930830564376 0.026047243651137909 -0.057869486527100521 -0.036188051672571948 -0.0093579265499220392 -0.029105807874995275 0.014696652887366733 -0.0065185907887346057 0.0053875385869248324 0.025113076503913787 -0.015421876301162016 -0.032616384338924533 0.01318938349361925 0.042215944618980358 -0.01098121760524378 -0.058637967572306014 -0.030877340441454071 -0.00038129489349640941 -0.054881883051267538 -0.0096506843368056854 -0.047498922779491137 0.018262253547082694 -0.0081745793115524414 -0.016503572794087155 -0.0092056592086635167 -0.0084527553054602952 -0.057749044511121637 0.00061959525705507169 0.0069403262488548847 -0.032872418934136463 0.024964296903109608 -0.027262198475363677 0.037539108226254413 -0.024263390222099956 -0.02351223267493999 0.023881159025930049 -0.0022364321439852799 0.013326870786324255 -0.048518775692415084 0.00030086337441536412 -0.015196610592238488 0.017829371965294768 0.00070675420822194541 0.024610579002278671 -0.055366254520404307 -0.0090739465282186332 0.037358738256411769 0.040807044722742977 -0.041188867100565144 -0.052034968059267862 -0.050267330110735732 0.047856961199869708 0.0057359421132986421 -0.014323063857829534 -0.032908121185038539 0.0080226313487495992 -0.03495074987187595 -0.015560365256823817 0.024124059676964554 -0.025340966927812379 -0.037052014484630552 -0.002721747538035022 -0.032077136638073989 0.0079956845071289719 0.038949268895356846 0.0010582104077953511 -0.019823066405375466 0.010565682739608371 0.048292230839390861 0.010233114992975283 0.030174800013495817 -0.023461285482487729 -0.056306923554546952 0.045314083785533248 -0.052394931340279179 -0.02537436684313225 0.029738214006343022 -0.016301319279625595 0.033194050519836406 -0.015365507052555226 0.02919470091883156 -0.041761344818372931 0.026578233879224894 0.021218749469253329 0.011331106674694971 -0.056234729259502153 -0.018400524939302242 0.015747033266635829 0.01355074136563296 0.043559366695724286 -0.00367610196924705 0.017216498584748892 0.024261139365225805 0.0079435372644295395 0.011267703595630089 0.028657584818542279 0.040162869587422614 0.019118303946335454 0.037779288383022989 0.0051075126528399017 -0.048761382868106926 0.021659486677862719 -0.037780225848991211 0.0042486164555720846 0.029094834985856386 -0.054692878142573641 0.01707152181855769 -0.052507722485511346 -0.021609810176172924 -0.03054707307352339 -0.00085255195415788433 0.025784049891268378 0.014418412550819005 0.01602707068664963 -0.010776877258236832 -0.010602176417375094 -0.051187845753378404 0.029675831089830865 -0.044935115889177063 0.0042841464197808463 0.016377943005995498 -0.045583380014907179
leaf_weight=548.92261632738519 1251.0679402171518 626.91147972045292 490.83197020529769 1089.0842597557348 277.30762025955482 493.21194137212296 121.52943337630131 149.70407240171335 682.59532477844914 501.94504157821939 754.85829199035652 337.09486095317698 257.84300548236934 566.8573234728392 644.30372720565356 103.12232990720076 276.47141983557958 41.34006043188856 238.75769180757925 45.254405342362588 252.51726433786098 689.83306529719266 4045.4169324813411 537.13050660701992 488.85660622861178 327.21746399032418 119.0079618350137 86.570346949141822 339.55057853646576 128.27277087816037 26.988114519044757 168.5771596673294 258.04859768264578 71.447287247283384 813.29757639556192 249.26190634508384 2812.905031422677 141.98140458003036 180.13644933555042 514.12801991825108 200.47789610727341 607.70646335798665 18.237480621784925 482.12673012426239 339.8967894785892 378.97677953526727 280.83886548317969 386.81819643110794 12.595912912656784 103.0866723836225 1352.6341886896116 11.645629943857783 938.53911578562111 16.1899073865643 804.74963526334614 11.154879650159272 681.98869301518425 92.686004432034679 102.27380485273898 185.51209174224641 499.25983327429276 313.99452189121803 110.30116974230623 125.98547510569915 621.2091059936065 199.07875865744427 144.10098908073269 63.075791594426846 1629.1311669647985 231.1033927124663 120.71781708646449 200.03670433844673 9.322321998930418 307.2000407888554 886.45144236736814 794.22634457767708 16.058948259131284 3445.0761014556629 7.2839488792087641 666.06174621777609 384.87117303814739 126.5395637085021 1881.9419524545665 72.327566884428961 451.34136252079043 1138.9131413345167 1151.2020760922751 112.42081972025335 63.575103253446287 15.731864543602567 111.92132292280439 509.98595081362873 107.83988374267938 6.0224415650591245 36.062476888939273 89.900893035111949 159.57484459443367 113.01198429288343 42.980415125843138 16.317102721659467 425.47051023837412 297.48206112292246 1106.48126487626 19.408642729773419 18.652758657000959 457.03515204257565 112.73615502998291 50.017799765570089 11.752884945890399 10.870841049531007 88.921929048519814 1587.1881495736307 258.1890907506895 270.06867054570466 385.4001454373356 346.09745656829909 358.31342830468202 162.77553686688771 292.46510917248088 71.917477048264118 6.1492166656244072 1027.5139104854607 187.58657434163615 18.503824001178145 173.03464315265592 13.628351402003316
leaf_count=44434 170139 73599 5972 31845 36352 34039 7963 13636 70605 57768 5726 37624 6763 33805 83429 5232 10817 7311 2972 2281 15866 31221 541731 54656 78903 10337 1630 11247 35648 13528 2051 9032 17141 13017 6633 12344 38880 8840 11311 14543 15466 46086 297 23019 40267 9880 25456 25404 925 8330 21896 1625 127974 3327 97561 1089 20038 3681 6390 5472 62532 31133 3356 10534 89155 18143 18280 2412 22377 24526 4741 21101 624 2773 19482 80352 1528 31715 1903 81770 2400 10886 39067 4207 13858 143400 20995 739 1213 1217 9331 34319 10662 670 2462 2051 5148 1245 329 67 18252 15162 21283 819 344 15293 17889 384 227 756 3260 226475 31424 33464 3518 6447 12919 1542 22245 8760 560 19219 24901 1919 13960 412
internal_value=2.88359e-05 -0.0272216 0.0210086 0.0257756 -0.0376247 -0.00108516 0.033321 -0.00238968 -0.00644839 -0.0422189 0.0125146 -0.0128415 0.0340226 0.00118977 -0.032154 0.00476756 0.00898798 -0.0479365 0.0274694 0.0226424 -0.0196465 0.0135949 -0.0483598 -0.0233338 -0.0430238 0.0236009 0.0112805 0.00275637 -0.00576713 -0.029033 0.0163991 0.0133693 0.0172429 -0.02616 0.0308572 -0.0104773 0.0389711 0.00428211 -0.00778073 0.00735009 -0.0254951 0.00257434 0.0143214 -0.00169428 -0.033708 0.023237 -0.0154274 0.0141427 0.0252317 0.0175946 0.0403779 -0.0415876 -0.0355448 0.0161356 -0.0419977 -0.0314005 -0.00233421 0.0204543 -0.0358394 -0.0055267 -0.032257 -0.0274962 0.00172875 -0.0188753 -0.0379249 0.017043 -0.0142293 -0.0173323 0.0341468 -0.00702651 0.00104289 -0.00483227 -0.0287489 0.000947084 0.0261541 -0.02929 0.00232052 0.0430801 0.0318966 -0.0199325 0.0198002 0.00335443 0.0304334 -0.00974741 0.0220537 -0.0379119 0.0223113 0.00220061 -0.0148333 -0.00170872 -0.000746502 0.0105609 -0.00575176 -0.0405999 0.0324977 0.00119902 0.012164 -0.0190748 -0.0195497 -0.0219483 0.0326245 0.0306009 0.0323677 -0.0411787 -0.00491785 0.0156317 -0.020899 -0.0235307 -0.0260802 0.00470604 0.00249855 -0.0489852 -0.0325513 -0.0234788 -0.00312824 0.0362608 0.00633329 0.00580242 -0.00347265 0.00188265 0.0228917 0.0265009 -0.0541952 -0.0405021 0.00843353 0.00184776
internal_weight=53498.1 23271 30227.1 25111.1 16645.2 6625.81 16003.5 5115.97 5699.84 14041.4 9107.6 2603.8 15882 4068.9 5089.43 5161.34 3083.37 8951.99 6836.18 3946.26 2032.61 2646.43 8910.65 2632.18 4659.14 3901.01 3398.02 1199.54 2776.79 1987.21 2469.57 1325.45 2442.58 1404.27 5510.73 1298.93 9045.8 1470.91 1763.32 1328.93 1630.94 1490.34 1655.79 1163.18 1820.89 1664.33 1286.45 718.341 1175.52 623.364 7956.71 2457.25 1342.9 1292.11 2445.61 1101.72 928.453 2072.61 733.681 1046.41 1090.56 813.254 588.278 436.939 1368.25 1275.92 481.196 165.35 3846.39 302.551 813.577 882.632 1430.46 545.958 1162.92 1421.14 983.039 4797.71 925.966 1005.61 1139.73 966.98 2245.22 287.235 779.493 1640.86 1890.02 516.058 458.13 705.565 369.97 709.065 644.97 944.562 1918 182.587 328.152 394.555 600.147 557.167 918.682 2217.26 1919.78 568.331 145.293 738.819 452.633 540.85 114.875 692.86 161.249 2838.26 879.398 398.341 403.638 3159 840.44 281.783 477.977 331.522 520.277 1406.49 4251.51 206.09 244.952 126.64
internal_count=3489191 2733270 755921 511797 2138775 594495 273846 244124 540301 1854851 237951 283924 265883 370260 624737 171124 127572 1230114 135100 66827 116552 95935 1222803 324383 654252 64546 104709 115275 280666 259065 73715 33783 71664 168649 101317 62497 130783 64711 66415 55871 170041 137792 12680 59663 257638 35862 142874 59371 31224 23433 98938 300354 175636 89594 298729 131106 30994 45192 54055 46631 130017 93665 31073 31637 199482 86267 55904 8802 65455 37543 25535 91706 154575 5745 30299 153951 48352 53611 54194 117418 8126 46824 51866 18001 28038 201168 39460 4554 15558 32438 26472 52462 65318 128644 41529 5732 14180 14345 6752 6423 52291 43078 27916 45253 2001 18465 58156 6356 5459 20794 7467 396614 120579 46992 3815 45327 35938 3172 27717 33967 15103 29099 568551 26820 22720 1657
is_linear=0
shrinkage=0.03


Tree=1
num_leaves=127
num_cat=0
split_feature=134 31 48 42 134 42 123 80 31 31 134 48 111 108 108 147 147 31 89 80 65 132 89 89 123 31 108 80 123 112 147 16 131 49 147 30 147 138 122 40 89 48 48 134 147 97 2 116 65 89 148 99 48 16 93 112 30 134 48 31 89 89 59 16 40 122 132 147 93 98 138 89 147 138 108 82 113 48 30 123 43 80 48 147 62 62 122 148 93 139 93 122 111 108 110 89 40 112 66 80 60 10 47 31 16 48 122 80 132 110 97 148 116 66 16 99 60 148 11 108 123 100 16 147 54 113
split_gain=26908.2 11931.7 3001.63 2609.79 1743.65 1739.12 1582.45 1236.58 881.395 862.867 835.565 657.649 651.227 561.786 551.541 543.567 499.997 486.863 486.283 382.82 374.863 373.786 342.998 331.567 325.709 319.95 318.228 309.178 275.538 256.37 243.14 238.82 232.003 228.941 222.32 221.842 251.019 211.028 205.902 203.46 199.652 196.397 194.928 189.445 186.878 182.736 172.67 161.974 158.763 157.392 150.013 144.756 139.918 164.567 139.883 131.055 126.613 125.348 124.183 123.973 122.641 120.683 117.484 117.438 121.469 112.794 110.008 166.631 108.726 104.018 102.135 101.93 104.276 100.633 99.5416 98.6245 97.1317 96.2229 95.3216 120.806 94.248 92.2611 92.2053 91.3405 90.9166 93.4669 114.072 90.5987 89.715 89.5557 87.5482 129.975 86.1136 86.0687 85.8364 85.2617 85.2322 83.8856 80.7429 89.5713 98.2274 79.3113 79.2232 78.9038 78.5172 111.424 78.1841 77.7417 77.3661 77.2915 76.968 75.5632 74.2885 72.5287 71.0284 70.9202 70.6322 102.675 81.072 70.4026 83.8392 69.6331 69.6264 69.489 68.5333 79.8772
threshold=153.50000000000003 0.16388809680938723 0.036357024684548385 3.5000000000000004 422.00000000000006 1.5000000000000002 3.0477725267410283 -0.9321484863758086 0.16901873052120212 0.17262550443410876 125.50000000000001 0.57282909750938427 -1.4999999999999998 1.0000000180025095e-35 0.013641551602631809 0.17799732834100726 0.17735639959573749 0.15929270535707477 -0.024999999441206452 0.036542063578963287 2.1250000000000004 0.028779348358511928 0.064999999478459372 0.90500000119209301 3.0477725267410283 0.17350663989782336 -0.0066359140910208217 -0.18105646222829816 0.13068196177482608 -1.0000000180025095e-35 0.18142773211002353 1.5626636743545534 0.0078914361074566858 2.5000000000000004 0.17528779804706576 6.6549999713897714 0.17041110247373584 19.000000000000004 4.7866666316986093 0.22500000149011615 1.8750000000000002 1.019538998603821 0.12707196921110156 215.50000000000003 0.17409865558147433 -0.1950000002980232 27.964999198913578 2.3850001096725468 6.1849999427795419 -0.044999999925494187 1.0000000180025095e-35 0.044999999925494201 1.177279055118561 1.1839659810066225 0.11749999970197679 -2.4999999999999996 1.0000000180025095e-35 325.50000000000006 -0.97772797942161549 0.16061294823884967 2.3649998903274541 -1.4350000023841856 -0.64499998092651356 0.74346089363098156 0.17500000447034839 6.5916666984558114 0.0082946680486202257 0.17206475883722308 1.0208333134651186 -0.73500001430511464 22.000000000000004 1.1749999523162844 0.17316731810569766 9.0000000000000018 0.018172802403569225 0.12360719591379167 1.5000000000000002 1.7428407073020937 6.8150000572204599 0.092796053737401976 1.0000000180025095e-35 0.16560107469558719 -0.22227005660533902 0.18265365064144137 0.28499999642372137 1.0000000180025095e-35 6.7716667652130136 1.0000000180025095e-35 0.19249999523162845 10.500000000000002 1.1191666722297671 6.6649999618530282 -1.4999999999999998 0.018172802403569225 -0.0026019100332632657 1.2649999856948855 0.064999999478459372 -1.4999999999999998 19.409999847412113 -0.20622142404317853 -0.25249999761581415 1.5000000000000002 35.100000858306892 0.18551370501518252 0.80418735742568981 1.0746534466743471 6.558333396911622 -0.012168837711215017 0.037801329046487815 0.019511505961418155 1.3149999976158144 1.0000000180025095e-35 2.4050000905990605 25.500000000000004 1.2329315543174746 -0.03499999921768903 1.5524999499320986 1.0000000180025095e-35 1.0000000180025095e-35 0.013391557615250351 0.052808988839387901 -0.03499999921768903 1.0496557354927065 0.1763647869229317 1.5000000000000002 2.5000000000000004
decision_type=2 2 2 2 2 2 2 2 2 2 2 2 2 2 2 2 2 2 2 2 2 2 2 2 2 2 2 2 2 2 2 2 2 2 2 2 2 2 2 2 2 2 2 2 2 2 2 2 2 2 2 2 2 2 2 2 2 2 2 2 2 2 2 2 2 2 2 2 2 2 2 2 2 2 2 2 2 2 2 2 2 2 2 2 2 2 2 2 2 2 2 2 2 2 2 2 2 2 2 2 2 2 2 2 2 2 2 2 2 2 2 2 2 2 2 2 2 2 2 2 2 2 2 2 2 2
left_child=3 4 5 10 12 29 7 20 23 14 38 30 42 25 18 124 46 -6 78 52 87 24 37 26 27 71 51 54 32 34 48 83 56 44 43 36 77 47 -1 84 62 60 -2 63 -15 -40 66 69 74 -44 73 61 53 109 76 75 111 107 108 -24 90 -9 -35 64 -3 -21 67 -12 89 -14 -38 72 -10 -31 -5 -47 116 -22 -7 -80 103 122 -67 -23 85 -29 -87 -4 94 -28 102 -92 -78 -16 -48 -58 -88 -64 -46 100 -100 112 -19 119 -72 -106 -45 -36 -32 -18 -102 -20 -25 -107 -52 -71 118 -118 -11 -17 -121 -94 -60 -69 125 -13
right_child=1 2 6 11 17 9 -8 8 13 21 16 15 22 33 93 80 19 41 28 65 35 31 59 101 -26 -27 68 39 -30 50 58 -33 -34 40 57 -37 70 -39 45 -41 -42 -43 49 106 98 55 88 -49 -50 -51 114 -53 -54 -55 -56 -57 95 -59 81 -61 -62 -63 97 -65 -66 82 -68 123 -70 115 104 -73 -74 -75 -76 -77 92 -79 79 -81 -82 -83 -84 -85 -86 86 96 -89 -90 -91 91 -93 121 -95 -96 -97 -98 -99 99 -101 110 -103 -104 -105 105 113 -108 -109 -110 -111 -112 -113 -114 -115 -116 -117 117 -119 -120 120 -122 -123 -124 -125 -126 -127
leaf_value=-0.055851746048231538 -0.044546491871643328 0.0045123030191489086 -0.037554344468033907 -0.0049941636562427696 -0.048727470055908301 -0.03395195339638598 -0.05849075927324375 -0.015684190437744799 -0.007726456973132869 -0.021394510801482865 0.017551207627321746 -0.0022979301900660602 -0.036241145435592717 -0.0016322020053094991 -0.036215719798649952 0.021800249972269817 0.0087256764302994661 -0.04273566623494697 0.0031805346371017056 -0.036066755142771183 -0.027620083055857624 -0.046213459855547381 -0.014604835741000997 -0.046796017010264215 -0.058643158508755629 0.025154105245866979 -0.0098482935963837333 0.01072095024561549 -0.058640164713250391 0.0084502684243299171 -0.0021904563575341953 -0.0058079276597486715 -0.029824620512149656 -0.0099013588249776529 0.0032515035349848787 0.019527424953124879 -0.0020100340728971891 -0.032677477310296146 0.033951488893259288 -0.018233783077084793 0.016921125473933058 -0.0235015310998203 -0.040466575014028956 -0.056219616975773067 0.020782789674206392 0.019786786121675708 0.021164029263073553 -0.030719894842726338 0.0041183732031070701 -0.017774494762342666 -0.03103848194245646 -0.010433437665274794 0.025603620292824723 0.018897749164469652 0.011749623622668955 0.029995660067245369 -0.017199481015498889 -0.0054312974041842849 -0.0077708786268794643 0.0032276152420750276 -0.0064478559914275275 0.0060299301255183745 0.0073014955924734877 -0.019250898369049089 -0.01978776226008707 0.021682493677474178 0.012080764805194179 -0.0096225493509992186 0.010821442302787266 0.0050902511507079614 -0.018818477037347434 0.022461200083210668 0.010542481152401906 -0.0097689246813263322 -0.023900609332648357 0.028252693699969619 -0.033321675621456222 0.015751811199939628 0.015041762180686126 -0.056077387098500943 0.001278624893470186 0.015332770299308672 0.029437850608702423 -0.026093564862180424 0.022205234450095906 0.0049155699093321112 0.015419870796928374 -0.010362041961656125 0.032559333915031199 -0.021134875362021698 -0.056944057877705984 0.0009068198646237707 0.0023359999889984717 -0.051729729939454579 0.011006089570962264 -0.0042111707192344344 -0.010589418453503606 -0.0039061276740884956 -0.0075083018943995867 0.012252349585879471 -0.0078342028699618215 0.011448953534530985 -0.029007593063594482 0.030854772939265657 -0.012055717137422324 0.016652700886527552 0.0052441939099696321 0.016769789250743419 -0.050941967476562225 -0.019059323814150417 0.014986375667937181 -0.034182847564736232 0.0016926242691381371 -0.026293302636383489 -0.013438681043835683 -0.011811933711435197 -0.024697268714856696 0.0026693470469439473 0.029820101490342039 0.010719143421127725 -0.047232994495529909 -0.025944434884283673 0.0078919825312783222 0.015003438973600762 0.0065520963755863028 -0.046782501066255693
leaf_weight=25.347013167804107 1117.3984116920037 606.13320910232142 519.56897174590267 2643.3007400636561 5229.3741683773696 2414.2293905795668 393.98141224845313 258.85643406689633 307.83887569746003 698.00238750438439 337.40143340267241 339.80022254236974 128.82133917196188 1356.7539031479973 700.26795849809423 2652.5791453856509 1970.985340232146 2666.1106123654172 635.57359086943325 24.771880940301344 723.42901751201134 400.70811292354483 584.06529352511279 39.292516698827967 114.35147690575104 2175.0891886813915 1184.8514553500572 542.5337391521316 131.04046776134055 461.97719584347215 616.53941983456025 333.79818819148932 730.57302350644022 1425.1358813669067 549.4641541771125 253.71113736380357 2283.8159519418841 1027.2981635217438 3664.1965872583096 609.83463606558507 508.41078851441853 1011.3506469333079 460.75100741756614 17.858626603381708 651.65256996685639 3377.1432049489813 1075.7426421142882 485.62216446979437 2037.3315483836923 690.10395800194237 275.39635640091728 936.58767325844383 1115.3140318318037 2512.8443532099482 148.73216717055766 4255.4244165343698 1960.2078257685062 422.2983676099102 300.98275395901874 875.38855498511111 103.99670123064425 2026.8641860081116 1056.235679140198 723.52223802974913 265.32860547141172 2038.0314334017457 1114.5028123448719 891.09023791062646 143.96209742617793 286.78538078867132 769.15223173436243 584.60331547347596 3149.7062965158257 663.26411623891909 276.1646164720878 1977.4198357135756 544.56224082724657 48.445248194388114 76.486931485356763 28.746395278489217 192.11051633802708 1522.1991827916354 4410.9672851578798 425.15842766687274 166.38509530178271 969.49139827373438 123.01755294133909 141.52929947304074 253.34733913210221 1368.1008377901744 50.526086082914844 108.26554609299637 138.84287270379718 625.20170577208046 2486.1416964018717 594.11233265529154 1326.7146092612529 1391.7083148252568 505.81570311833639 2981.398852295184 172.9273157477146 1303.9988515756559 453.65610019210726 858.33784992899746 762.60530733515043 233.78266411996447 1497.9593219633098 1270.6669711788418 29.777660795720294 93.43571260466706 565.68545187462587 51.750113976886496 96.053565928130411 40.706399921211414 835.42019869782962 999.13511491048848 173.87150302901864 418.03405947389547 28.077896584756672 196.23179768398404 24.352684199344367 177.885797675699 1655.516995655722 115.61762143066153 2618.1572865439812 39.721383080584928
leaf_count=2442 98339 7426 41911 46290 503705 186233 25329 10457 10080 28976 5847 3432 9535 31192 57491 16380 18964 245319 31729 1216 50657 36937 37591 1681 6747 23689 56238 12021 8287 11955 10913 10358 49801 35081 7833 4081 56249 74417 28564 24055 6437 75183 36519 1262 5659 28985 7905 30059 25375 43096 2433 35470 7050 18275 2873 17267 122756 6608 4929 38750 7589 57760 15139 4946 4253 15702 19054 4058 3623 11147 41491 8263 58403 30940 10869 8877 24915 1255 2048 2203 1404 12134 17668 20431 2207 25788 2667 6344 1568 74877 4146 4293 3732 62513 20962 31171 43804 27913 7329 30047 2533 42754 39127 3745 28358 5099 39153 8756 1970 4412 5233 1394 1877 1685 5537 49703 10730 9114 449 1224 351 6927 15790 372 22422 604
internal_value=1.84753e-05 -0.0118909 -0.00501805 0.0173596 -0.0343666 -0.0132241 0.00116517 0.00195147 0.0049295 -0.0190516 0.0223401 0.00748069 -0.0225537 0.00871549 -0.0259008 0.0144465 0.0182038 -0.0425328 -0.0223582 0.0217518 -0.0105179 -0.0116318 -0.0157988 -0.00373067 -0.00869576 0.0158765 -0.00687115 -0.00774418 -0.0159803 -0.00148352 0.00217069 -0.0272558 -0.0145578 0.00452016 0.00207981 -0.00776629 -0.0091949 -0.02172 0.028073 -0.00239683 -0.000734417 -0.0351503 -0.0356048 -0.00310996 0.00821314 0.0282377 0.0113208 -0.015781 -0.00230664 -0.0268892 -0.0100128 -0.000505698 0.0160703 0.0137417 -0.0163242 0.0260554 -0.011108 0.00927881 0.00755083 -0.00391189 -0.0386242 0.00356372 -0.00305657 -0.0103248 -0.00289695 0.0267439 0.00511624 -0.000661034 -0.0144725 -0.0106329 -0.00622926 0.0108785 0.00891329 -0.00228536 -0.0067912 0.0229185 -0.0182461 -0.0248772 -0.0327338 -0.00470248 0.021794 0.00979435 0.0269912 -0.0359034 0.000694488 -0.000520014 -0.00304553 -0.0317619 0.015316 -0.0159037 -0.0396417 -0.0177232 -0.0260857 -0.0435692 0.0140799 -0.0141825 -0.00837122 0.000929505 0.0109522 0.00943096 0.00266467 0.00917809 -0.0407503 0.0228488 -0.0115583 -0.00615806 0.00448149 0.0126945 -0.00451644 0.00745806 0.0096361 0.000317431 -0.0126022 0.0102006 -0.0178288 -0.00803906 -0.0131048 -0.0053926 -0.0193716 0.0204461 0.00412336 -0.0135695 0.00547818 -0.00677926 0.00482439 -0.00707235
internal_weight=117261 69518.4 53239.7 47742.8 16278.6 22877.5 30362.3 29968.3 24191.5 15288.2 31739.7 16003.1 6655.37 16833 7948.19 6921.29 18440.2 9623.28 6622.72 12166.4 5776.75 7340 4387.12 7358.57 6180.34 6217.24 5919.22 6065.99 4103.26 7589.29 9081.81 1159.66 3972.22 10615.7 5353.23 5115.65 4861.94 2927.66 13299.5 3737.98 4381.49 4393.91 2268.25 3110.8 6234.23 13274.2 6273.84 1900.36 4956.8 1150.85 2236.06 3222.31 5692.58 4577.27 2328.01 9609.99 3241.64 2242.43 4125.02 1459.45 3382.56 2285.72 3873.08 1594.98 871.462 6473.77 2458.61 1344.11 2696.91 1414.74 4090.06 4042.15 3457.55 1125.24 2919.47 5354.56 2179.28 771.874 2519.46 105.233 3923.61 3478.7 6449 825.867 3128.14 2961.76 2419.22 661.098 3815.23 2552.95 3278.56 158.792 861.291 1325.47 3561.88 2554.32 1449.73 2447.94 4877.48 4225.83 1244.43 1439.34 3119.77 3731.5 1806.25 1037.09 1515.82 1820.13 646.317 2064.42 738.613 687.324 135.346 274.489 1110.82 1285.92 1317.99 591.906 726.08 2873.16 220.584 316.729 1956.5 1006.71 2997.68 379.522
internal_count=3489191 3082171 1773653 407020 1308518 959459 814194 788865 551735 828357 229188 177832 429156 266998 555626 49562 143053 879362 435622 83287 237130 272731 251202 284737 205005 100435 238425 198258 245138 131102 128270 67726 236851 166563 80237 188875 184794 174861 86135 110542 84570 375657 177954 57040 81993 83693 59766 100444 82534 79615 50865 103687 48701 41651 87716 55129 187050 23197 45736 76341 300474 68217 78133 16625 11679 34586 29331 10277 134738 70385 132882 76746 68483 42895 57159 37862 84843 51912 190484 4251 23104 32853 33370 57368 86487 84280 72259 48255 30435 131115 292885 8439 35574 120004 28867 153927 46471 43052 50801 45142 15095 46312 284446 21700 76633 35142 40415 16589 12883 23376 7766 33123 3558 6784 7970 60850 49269 19844 29425 17955 1575 10659 20719 4430 26458 4036
is_linear=0
shrinkage=0.03


Tree=2
num_leaves=127
num_cat=0
split_feature=25 134 32 8 134 124 8 10 10 111 48 122 8 8 21 48 74 8 8 48 111 109 16 89 16 10 124 95 26 8 8 111 95 122 10 48 26 48 8 134 10 8 21 124 16 80 26 26 48 16 122 8 95 114 134 8 116 138 8 25 21 90 26 8 95 49 25 8 48 62 48 95 90 90 53 18 8 95 114 95 16 48 25 25 18 80 16 2 53 95 108 95 16 89 32 32 89 80 109 18 25 21 29 25 80 16 29 8 8 29 114 21 93 61 21 94 53 10 2 21 32 122 95 18 95 16
split_gain=24514 7239.54 3206.41 1953.09 1744.18 1270.94 1247.62 1085.13 903.056 856.415 1038.88 761.324 683.361 638.534 511.18 486.716 474.74 464.05 437.029 401.586 341.125 331.637 312.759 307.94 303.973 285.455 283.558 274.804 269.718 255.443 243.285 219.394 218.767 206.906 206.687 200.268 196.088 194.382 189.927 187.943 183.031 179.781 171.356 164.837 164.071 160.38 154.605 152.178 151.474 148.992 145.538 142.413 141.97 139.654 139.216 134.961 134.421 131.061 123.129 120.658 119.858 119.457 118.531 116.75 116.103 114.785 113.05 111.338 110.67 110.26 109.4 107.997 107.324 107.001 105.849 103.657 101.02 96.7437 96.1296 95.3684 94.1344 91.4424 90.9786 90.4687 90.1839 89.779 89.191 87.8293 87.2173 87.3079 87.0054 86.7665 86.0541 86.0489 84.2121 84.1033 83.0478 81.0422 80.6743 80.2249 79.7467 78.5018 77.7235 77.5266 77.4647 75.5691 73.8988 73.5807 73.4277 73.1599 72.5542 72.223 71.0681 81.4923 94.453 69.3632 68.7823 68.4022 68.2216 67.5813 67.4885 67.1768 66.4622 66.1886 74.3231 66.0844
threshold=-1.0000000180025095e-35 152.50000000000003 1.5000000000000002 0.19500000029802325 522.00000000000011 0.43500000238418585 0.21499999612569812 4.5000000000000009 5.5000000000000009 -1.4999999999999998 -0.96099218726158131 4.7866666316986093 0.15500000119209292 0.12499999627470972 -0.58127829432487477 0.19545794278383258 4.5000000000000009 0.11499999836087228 0.28499999642372137 0.71660342812538158 -3.4999999999999996 0.0074257475789636382 0.33678470551967626 -0.54500001668930043 1.1675401926040652 3.5000000000000004 0.31499999761581426 0.1543906778097153 1.0000000180025095e-35 0.12499999627470972 0.18500000238418582 -2.4999999999999996 0.16033330559730533 4.7866666316986093 5.5000000000000009 0.51697453856468212 6.5800001621246347 0.2749317735433579 0.31499999761581426 363.00000000000006 5.5000000000000009 0.15500000119209292 0.47918431460857397 0.2950000017881394 -0.28170993924140925 -0.071417137980461107 -1.0000000180025095e-35 -0.014999999664723871 -0.091066960245370851 0.17898910492658618 6.6283333301544198 0.14500000327825549 0.1543906778097153 5.4783332347869882 162.50000000000003 0.33500000834465032 4.0250000953674325 19.000000000000004 0.23499999940395358 1.3949999809265139 -0.30689823627471918 6.6949999332427987 -0.03499999921768903 0.23499999940395358 0.15778990089893344 2.5000000000000004 0.48499999940395361 0.095000002533197417 -1.3688004612922666 6.6849999427795419 -0.65975782275199879 0.15904222428798678 6.6849999427795419 6.5250000953674325 0.53092890977859508 0.99785783886909496 0.19500000029802325 0.14398181438446048 4.9049999713897714 0.1564457789063454 1.3910858631134035 0.71660342812538158 -0.65500000119209278 1.4249999523162844 0.64666706323623668 0.77928787469863903 -0.51086968183517445 23.104999542236332 0.48438830673694616 0.16033330559730533 -0.010744117200374602 0.16910509765148166 -0.057272763922810548 -2.4350000619888301 1.5000000000000002 5.5000000000000009 -0.31499999761581415 -0.05922309681773185 0.002954211202450097 0.97041037678718578 0.32500000298023229 -0.63477522134780873 1.057499945163727 -0.40500000119209284 0.41043142974376684 -1.2155820131301878 -0.057500001043081277 0.054999999701976783 0.20499999821186068 -0.027500000782310959 5.6083333492279062 1.264689087867737 1.0791667103767397 -0.037499999627470963 -1.2988284826278684 6.7149999141693124 0.30185230076313024 1.5000000000000002 36.929998397827156 1.2303755283355715 4.5000000000000009 6.5783333778381357 0.16871463507413867 0.14361967891454699 0.15989265590906146 0.75513455271720897
decision_type=2 2 2 2 2 2 2 2 2 2 2 2 2 2 2 2 2 2 2 2 2 2 2 2 2 2 2 2 2 2 2 2 2 2 2 2 2 2 2 2 2 2 2 2 2 2 2 2 2 2 2 2 2 2 2 2 2 2 2 2 2 2 2 2 2 2 2 2 2 2 2 2 2 2 2 2 2 2 2 2 2 2 2 2 2 2 2 2 2 2 2 2 2 2 2 2 2 2 2 2 2 2 2 2 2 2 2 2 2 2 2 2 2 2 2 2 2 2 2 2 2 2 2 2 2 2
left_child=2 3 8 11 5 6 9 12 13 10 56 -2 15 26 41 31 20 33 22 28 70 51 58 36 34 32 52 77 45 66 40 -4 -15 -6 48 62 93 85 42 71 65 64 57 47 -27 74 50 -25 -19 63 -33 81 -1 -23 119 -20 95 125 -5 -41 -54 -42 -14 101 -11 91 123 -39 -35 120 -13 -31 76 82 -12 -73 96 -18 -59 -24 -40 -22 -48 -26 117 102 -53 -43 89 -85 -69 -9 -47 -17 -66 110 -37 -50 -44 106 -70 -34 118 -78 -68 -62 -10 -107 111 -93 -3 -46 113 -56 -115 116 -94 -64 -29 -21 -30 -81 -116 -16 -125 -8
right_child=1 4 7 18 17 -7 38 30 99 14 19 16 35 25 29 23 27 24 55 54 21 53 79 43 83 44 -28 37 69 39 -32 46 49 68 -36 72 -38 67 80 59 61 87 98 -45 108 92 73 -49 97 -51 -52 86 60 -55 112 -57 -58 78 -60 -61 105 -63 84 -65 94 -67 104 90 100 -71 -72 75 -74 -75 -76 -77 103 -79 -80 121 -82 -83 -84 88 -86 -87 -88 -89 -90 -91 -92 109 115 -95 -96 -97 -98 -99 -100 -101 -102 -103 -104 -105 -106 107 -108 -109 -110 -111 -112 -113 -114 114 122 -117 -118 -119 -120 -121 -122 -123 -124 124 -126 -127
leaf_value=-0.02483402271591742 -0.057183947761308154 -0.021169168212331512 -0.043476501958142316 0.00093106427520439866 -0.056275196223208916 -0.056607665070362079 -0.0087393975257416268 -0.032283633667084637 -0.01513716074114866 0.0024651579487988216 -0.002402078455543986 -0.0066321036715533957 -0.0277606766176757 -0.024432876722333973 -0.01066833352508419 -0.045678281221007852 -0.029413074680230047 -0.037330756422038383 -0.011266649300163351 0.01450886846732561 0.016761457672974371 0.020972440977485848 -0.0089537752978468225 0.008587351743993896 -0.021652836178084341 -0.032352928323292465 -0.056281399876766842 -0.00083145547892435334 -0.0079761604090268622 -0.010485279533237713 -0.050696709327845986 -0.054063488634866666 0.0062263660892788418 -0.031276583356462925 -0.041987610750048726 -0.032148633672789834 0.032860661084899226 0.025137482452331349 -0.04017048914915862 -0.012843558288211565 -0.047147810528259157 -0.036457149321961181 -0.032222524457698833 -0.056282770119900689 -0.0054675829588473517 -0.0066839347688381146 -0.037776668420693493 -0.0095090141645105611 -0.026117259523394956 0.0075419660940604771 -0.011146240646385849 0.0026529172668950675 0.016028332532368895 0.02681137918227551 0.010870387547095236 -0.038446652860605494 -0.045216536757743259 -0.028781922360718401 -0.012787831839638695 0.0017179391481529193 -0.017139070122810948 0.021557141419152864 0.014637256174181254 -0.028589681338722264 0.023634894243665477 -0.037683197477220098 0.0084574495443920025 -0.028892339043451763 -0.017001147399461 0.014954248045278652 0.012228850287858896 0.00079547701347160193 0.022767586711242287 0.013830566932581315 -0.016799589327141345 0.01139634938947574 -0.040394735372933553 0.0014933760305082758 -0.010147133940261821 -0.054121878056662402 -0.0053020324620249243 0.024985844705830536 -0.022120738843221334 -0.027282508831166244 -0.027993536662371751 0.016042206472074941 0.014950752003537942 0.0080842239140707251 -0.021198497383953036 0.0015433024018023311 0.016709990615503718 0.010302107412258038 0.0096404284535217318 -0.023293790331045974 0.015125972599883427 -0.028703417334630416 -0.013831212593099149 -0.0094171717888712793 -0.014821657151312962 0.0040813086990784189 0.0028721473681070815 -0.010307482915785796 0.028957492759319182 -0.020624200454428206 0.017624792409938087 0.022285836765950556 -0.045794161787220365 0.0018426818635657472 -0.026903201424962404 -0.020563851169309401 -0.0028059134025056297 -0.043185251056292069 0.022741053465824914 0.010961804576464241 -0.0082485645194674447 0.029521968844526885 -0.0010753599641984894 -0.044876254398811467 0.0095646012132802986 -0.011909876573684995 -0.023893445213636844 0.011047454947635713 0.0031732897705502913 -0.015213920206150778 0.0097334762489119375 0.0036001075670721036
leaf_weight=119.7903271659743 118.06601496390067 505.70960475038737 719.28327337780502 1766.5850497580832 64.095024498994462 340.47528998902999 675.30236477789003 404.72746931249276 80.853069405071437 396.48611860082019 1371.3937463574111 336.96787794749252 616.2051136221271 539.11235275445506 312.86417758697644 191.21075013768859 102.29299878049642 462.02716408926062 597.50378306023777 1974.1543763151858 3278.5081668522907 5915.4214941278333 232.64372575341258 652.01749532122631 663.01024755672552 846.09724077733699 64.587651987327263 724.41161771258339 346.14021292026155 410.65004583157133 2404.6002250763122 76.901559468125924 376.13034961372614 106.08026820770465 782.05216355505399 383.03354781062808 49.97597571532242 1848.7077524201013 317.83215000270866 1302.6017966382205 1559.1836630114121 39.686470587970689 406.52566774643492 52.824878468178213 591.94263286760543 573.07308684510645 906.88077822653577 1161.987809502054 466.0035000910284 766.67711224977393 837.74826037324965 776.69374029664323 1060.3005705820397 9938.2920966924867 778.72568204044364 226.89447007840499 230.3760547854472 308.69784779229667 881.79050860973075 842.63441768544726 154.50577850535046 22.517733378335834 16.9959490026813 225.91594711854123 2144.32851394522 1399.3134349683532 2143.5795785813825 37.074069829890504 208.47437783959322 91.831758330808952 1529.8567838808522 1759.1387251882115 36.551830035285093 46.823853270732798 690.99242935248185 1572.3638184097363 718.86773556715343 773.88906989980023 1293.9515189523809 13.302061377326025 89.862235767534003 1952.5565828159451 540.02413232531399 108.52085919701494 350.07827789452858 2184.0857169369701 1683.1266059665941 1931.3235249575227 306.76739390438888 690.9667290514335 4237.6855250631925 96.947426597122103 1278.0936762966448 838.31284461542964 2069.6037244792096 638.44994284398854 539.5247740841005 600.47963043348864 593.66885972511955 34.482836388750002 1370.6314494406106 820.09344883216545 155.56053262413479 243.04743286059238 1358.8004113474162 187.61765131575521 670.35090386029333 995.26047222490888 276.64296200103126 234.53271107759792 314.63880337553564 48.605157518293709 162.3017242916394 523.69509113428649 1086.5968440828146 109.25351860560477 930.73532954324037 2431.0594105301425 2620.6345928900409 90.321557201212272 793.91157584136818 3753.7171839821385 791.4774890888948 127.59311483800411 653.39526629541069 923.42173062288202
leaf_count=7660 8891 30752 63802 22794 5775 29438 19754 34457 5988 15198 43140 10644 48121 27474 14758 16204 6383 44960 8811 18994 21456 41722 5627 24541 41187 60012 4913 15383 12031 17923 245240 6008 9776 11051 94497 27783 443 10880 15886 60377 172632 2053 20737 3977 20958 17982 74094 59415 31199 13009 52613 7257 24827 39821 13583 4712 22829 20176 14121 21572 9721 574 457 10599 24611 126837 51823 696 16606 1552 16508 41177 566 771 27466 22519 55359 18941 39408 801 2232 7949 37086 5756 23059 17117 10135 40008 15164 22534 29588 4260 23896 54569 42591 48185 28146 24212 21278 1671 60655 31666 957 13095 21709 4124 71148 32085 12899 17380 11533 3052 1482 8290 29816 872 22172 215479 28748 1413 45324 28052 14173 6000 16323 16015
internal_value=2.50406e-05 0.00760862 -0.0259033 0.0158281 -0.00152242 0.00098836 0.00155104 -0.0330411 -0.00997821 0.00376003 -0.00195228 0.0185709 -0.0275684 -0.00658544 0.00820599 -0.0206799 0.0188073 -0.0167238 0.00180023 0.00125092 0.0211741 0.022153 0.00435624 -0.0119224 -0.0222655 -0.013419 0.00530025 0.0140642 -0.00396912 0.00409099 -0.0432342 -0.0289223 -0.00733233 -0.00379203 -0.0294319 -0.0354046 -0.0246696 0.015267 -0.0129897 -4.63769e-05 -0.0383937 0.0147587 -0.0110862 -0.00454034 -0.0228244 -0.000843245 -0.0245581 -0.00300174 -0.0229827 -0.00310981 -0.014813 0.0170351 0.00690308 0.0246344 0.00722235 -0.0187884 -0.0239252 -0.00769404 -0.00363868 -0.00712437 0.00849964 -0.0461548 -0.0397745 -0.00885557 0.0180011 -0.032625 0.00939013 0.0189772 -0.00176189 -0.0165253 0.00882105 0.00401119 -0.0276195 -0.0305093 -0.00723315 0.00580157 -0.02861 -0.00214091 -0.0137541 0.00965041 -0.0325241 0.0198361 -0.0319548 -0.0128935 -0.0424082 0.0112672 0.0110716 0.00716783 -0.00762633 -0.0023949 0.0163071 -0.0229688 0.00371484 -0.0274944 0.0194612 -0.0205321 -0.0214662 -0.0167348 -0.0219223 -0.0404712 0.000237467 -0.00510536 0.00828344 -0.035429 0.0120189 0.002521 -0.042523 0.00510381 -0.0140054 -0.0115237 -0.0141417 -0.00839715 0.00343646 0.00244356 -0.000290809 0.00628868 0.00512531 -0.044456 0.00731273 0.0133464 -0.0190745 0.0108022 -0.00343433 0.000967005 0.00563964 -0.00161244
internal_weight=112202 86812 25390.1 45686.3 41125.8 35296.7 34956.2 17531.2 7858.97 30346.9 13281.9 38213.8 11409.4 7073.28 17065 6073.99 38095.8 5829.11 7472.44 11592.7 25411.4 23544.6 6648.04 2946.33 4079.83 4491.22 2582.06 12684.3 6185.43 10483.6 6121.82 3127.66 2727.93 1749.28 2310.56 5335.36 1079.5 11808.2 4609.26 5887.39 3717.22 6581.43 4201.57 1866.83 1763.29 4953.54 2408.38 1814.01 1528.51 2188.82 914.65 7690.89 2517.47 15853.7 5407.27 824.398 1689.17 3201.37 2648.38 2145.24 2397.68 1581.7 3414.34 1422.14 4610.42 2135.52 4596.23 6123.47 1685.19 1231.88 1866.82 3742.15 1921.03 1493.73 2062.39 3331.5 1884.47 876.182 1602.65 3999.66 407.694 5231.06 1446.9 1769.27 2798.13 5684.69 2459.82 1971.01 1106.25 799.488 4274.76 736.208 2891.16 1029.52 4213.93 1458.8 922.558 1066.48 1000.19 785.687 1579.11 1196.22 3500.61 961.915 3502.38 1337.38 751.204 1182.88 917.191 331.48 820.348 640.548 3342.8 3180.5 2401.77 2318.08 2208.83 2448.06 3345.05 2064.48 1140.05 3767.02 1878.07 1093.85 780.988 1598.72
internal_count=3489191 1730641 1758550 377994 1352647 979051 949613 1406968 351582 794127 395485 293076 805588 272775 398642 393523 284185 373596 84918 282186 155492 128340 71395 159149 279509 189445 83330 128693 194435 274181 601380 234374 92524 94087 194868 412065 71216 103369 155486 163568 356140 124461 137368 87933 96921 135528 170572 83956 100371 65050 58621 46797 78417 81543 87751 13523 113299 95353 36915 81949 70757 173206 287116 52041 82400 182934 110613 41164 88312 58907 27152 81619 124949 111951 70606 63696 124383 25324 59584 34480 18118 29405 111180 84641 238995 62205 17392 42061 43454 28290 30284 56097 64922 70773 67202 90470 55929 55411 42015 78807 77261 41442 45088 68454 73532 45930 77136 36209 36909 21640 42285 24010 67344 65862 52279 46940 46068 215936 44131 20407 57355 28853 43989 37081 22323 35769
is_linear=0
shrinkage=0.03


Tree=3
num_leaves=127
num_cat=0
split_feature=145 31 145 145 31 109 8 57 8 134 124 8 124 134 145 8 31 72 8 109 134 8 134 134 124 8 72 72 134 124 72 8 94 72 124 134 63 8 138 8 95 89 124 8 145 8 72 94 57 94 89 72 57 72 72 72 85 72 95 145 74 72 80 34 94 31 94 21 124 22 8 89 34 134 21 101 134 21 21 8 124 8 31 72 8 72 8 74 89 109 101 8 8 89 95 2 63 94 21 63 109 8 124 100 63 21 31 109 63 21 95 95 72 42 101 2 145 108 8 80 8 63 57 72 72 89
split_gain=24674.7 7426.07 2116.19 2033.9 1770.99 1160.76 1114.72 951.177 721.789 689.84 587.053 556.184 503.31 485.18 434.13 407.803 390.449 357.165 338.775 314.524 309.995 309.713 266.595 249.978 241.913 241.268 237.665 227.622 216.244 214.267 213.189 210.859 206.149 205.47 197.863 194.897 192.512 192.072 185.779 175.047 172.194 166.018 161.868 161.141 151.863 151.336 229.201 150.113 141.074 138.572 130.483 130.085 130.066 129.722 122.228 118.107 116.696 115.366 111.706 106.819 104.835 99.8193 113.839 103.691 97.6864 95.8013 94.933 91.1571 89.9714 88.9939 87.7621 86.8412 86.0529 85.8819 85.1737 84.9327 82.4977 82.3457 81.7758 81.337 80.8911 88.398 80.5013 79.9917 78.692 76.898 97.7668 76.5858 76.2607 74.2274 73.6913 73.3803 73.3681 83.7731 72.8656 70.099 77.791 69.6253 69.1831 68.145 67.9816 67.2047 65.9271 65.2683 64.999 64.2328 64.0704 63.881 63.7668 62.6176 61.8387 87.1065 61.3451 90.725 60.8435 60.0242 59.5531 58.2327 58.1159 57.5723 57.8777 57.2115 56.662 56.181 55.6011 55.5992
threshold=0.49978540837764746 0.17116679996252063 0.48922953009605413 0.50995421409606945 0.16388809680938723 0.00013219008542364466 0.16499999910593036 -0.38499999046325678 0.19500000029802325 152.50000000000003 6.5150001049041757 0.18500000238418582 0.48499999940395361 149.00000000000003 0.52006408572196972 0.10500000044703485 0.17705376446247104 0.18500000238418582 0.17500000447034839 -0.017328603193163868 358.50000000000006 0.12499999627470972 153.50000000000003 358.50000000000006 0.37500000000000006 0.23499999940395358 0.17500000447034839 0.16499999910593036 415.50000000000006 0.39499999582767492 0.16499999910593036 0.18500000238418582 0.35500000417232519 0.15500000119209292 0.21499999612569812 512.50000000000011 0.15940837562084201 0.25499999523162847 105.00000000000001 0.2650000005960465 0.17679992318153384 -0.21499999612569806 0.28499999642372137 0.10500000044703485 0.51764211058616649 0.19500000029802325 0.18500000238418582 6.6250000000000009 -0.25499999523162836 6.7449998855590829 -0.13499999791383741 0.13499999791383746 -0.18500000238418576 0.085000000894069686 0.13499999791383746 0.13499999791383746 0.67659848928451549 0.25499999523162847 0.15942385792732242 0.4826436191797257 5.5000000000000009 0.28499999642372137 1.3943774104118349 24.795000076293949 0.20499999821186068 0.17509892582893374 6.5350000858306894 -0.45076897740364069 0.23499999940395358 4.5000000000000009 0.23499999940395358 1.325000047683716 27.510000228881839 214.50000000000003 -0.80868652462959278 0.11499999836087228 348.50000000000006 0.45824596285820013 0.72078537940979015 0.12499999627470972 0.28499999642372137 0.11499999836087228 0.16100732237100604 0.13499999791383746 0.27500000596046453 0.19500000029802325 0.19500000029802325 3.5000000000000004 -0.085000000894069658 0.0043593000154942283 -0.13499999791383741 0.38499999046325689 0.074999999254941954 0.085000000894069686 0.17381679266691211 42.905000686645515 0.1718634366989136 6.8650000095367441 -0.20934130251407621 0.16098965704441073 -0.015751812607049939 0.25499999523162847 0.2950000017881394 -0.03499999921768903 0.16500006616115573 0.71240642666816723 0.16061294823884967 0.0018358990200795235 0.16483850777149203 0.92860719561576854 0.15532733500003817 0.16345340013504031 0.10500000044703485 1.5000000000000002 0.024999999441206459 31.920000076293949 0.51805788278579723 -0.0080590713769197447 0.36500000953674322 0.69033521413803112 0.085000000894069686 0.16354049742221835 -3.5349999666213985 0.10500000044703485 0.19500000029802325 -1.2949999570846555
decision_type=2 2 2 2 2 2 2 2 2 2 2 2 2 2 2 2 2 2 2 2 2 2 2 2 2 2 2 2 2 2 2 2 2 2 2 2 2 2 2 2 2 2 2 2 2 2 2 2 2 2 2 2 2 2 2 2 2 2 2 2 2 2 2 2 2 2 2 2 2 2 2 2 2 2 2 2 2 2 2 2 2 2 2 2 2 2 2 2 2 2 2 2 2 2 2 2 2 2 2 2 2 2 2 2 2 2 2 2 2 2 2 2 2 2 2 2 2 2 2 2 2 2 2 2 2 2
left_child=2 4 32 9 11 20 10 45 12 18 14 17 15 57 22 73 33 19 42 -2 48 29 66 53 31 44 87 107 77 38 84 36 59 75 56 68 122 99 49 50 79 47 61 55 123 46 103 101 74 52 114 -42 -15 117 -46 -22 106 72 -55 -1 -61 63 -63 -3 88 -16 67 -5 92 -54 -20 -50 109 -9 -4 112 97 100 -52 -24 81 -19 -45 108 121 -84 -87 94 -38 -43 -49 116 -21 -94 -10 105 -97 110 -29 -35 -13 -23 -57 -6 -67 -60 -34 -25 -75 -7 -33 -112 113 -8 -28 -69 -32 -17 -41 120 -110 -27 -11 -18 -47 -109
right_child=1 3 5 6 7 13 16 8 26 24 -12 28 -14 21 65 23 25 80 70 35 43 41 40 27 -26 30 39 98 -30 -31 91 76 34 37 -36 -37 64 -39 -40 118 51 89 -44 82 54 124 -48 90 71 -51 78 -53 69 58 -56 102 -58 -59 95 60 -62 62 -64 -65 -66 104 -68 115 -70 -71 -72 -73 -74 83 -76 -77 -78 -79 -80 -81 -82 -83 85 -85 -86 86 -88 -89 -90 -91 -92 -93 93 -95 -96 96 -98 -99 -100 -101 -102 -103 -104 -105 -106 -107 -108 125 119 -111 111 -113 -114 -115 -116 -117 -118 -119 -120 -121 -122 -123 -124 -125 -126 -127
leaf_value=-0.050314093047093722 -0.033853620263465327 0.0055750870426729314 -0.016243552850504134 0.02034641901161972 -0.011782512041033718 -0.005373218452747997 0.0067649841079044535 0.016698194820493187 -0.02630567099290114 -0.04449474139065597 -0.052861608638563894 -0.034083280725963283 -0.055134641158935814 -0.023484474010236525 0.017075751033984291 0.0026824290406553776 -0.0055827162447103819 0.020738895623497327 0.0021377228700957336 0.0075106217475797597 -0.035580630796969707 -0.029877908527595486 0.01519908241818625 -0.019863880170878121 -0.054933236323607457 -0.058880221429146784 -0.02457833083746 0.0090796293796137472 -0.044341956696993694 -0.054954473579640679 0.00064820526750729204 -0.038489735175495587 -0.043340885724968234 -0.025903077613391903 -0.054757035849215492 -0.026853706421624768 -0.0028162591040597519 -0.010493277510598465 0.013508036633711688 -0.019166208542384988 -0.027074522881234308 -0.026221444708664877 -0.054620618911966498 -0.047571534029289569 0.0064170229825817179 -0.04840825474477245 0.0043332362710479522 -0.049394717785294751 -0.022421134527705815 0.014716933298163282 0.0047321730130423624 0.0082264018657531475 -0.015430604568010922 -0.015285765190671437 0.020235591491090266 -0.003151964811525191 0.016763677838726128 -0.024946837995281017 0.0083932345527731531 -0.045564853959644769 -0.034639957334897595 -0.025461022246094814 0.041090414992308852 0.014540021004619919 0.017535847684680732 0.017273082944102805 0.030920672727452816 0.0085922420647848007 -0.050378928896328092 0.00038734740365732839 -0.011552502353160162 -0.0028600285318699384 0.0062864304798461047 -0.018169186770430761 -0.038801647643950402 -0.05242532843434361 -0.022140761484539119 -0.036347004464795857 -0.014755777853078135 0.0076916782959286067 -0.053493602915647261 -0.0017843652979384495 -0.042021685160313002 0.014814104768538684 -0.052501753635616273 -0.0082464814096126389 -0.040119910673505059 -0.017178008331883984 0.0051314905052830531 -0.012440588457544807 0.0014731451364209361 -0.046652001296303841 -0.016247908260935782 -0.00060652993518552024 -0.052801483621679426 -0.013069246776388052 0.0049486018622422537 0.029011962588990206 -0.0049990626854787071 0.0087656027519797813 -0.010989318185810844 -0.046700608991055416 -0.053037994132494194 -0.027872248725625961 0.025502512856229325 -0.00043974225899054463 -0.013439172247279798 -0.025402257371466397 0.0061062875200250787 -0.041475745383438747 0.0010761031828701261 -0.01536246269369178 -0.0038909806951845315 -0.033512139343349116 0.00023104219569533243 0.016698221007431655 0.012377575384215781 -0.019891487111318384 -0.05403417156718876 0.012457880927074337 -0.0084611116917676435 -0.0075916516963641361 -0.010418140290233099 0.010746454393305549 -0.026470916498113749 -0.0024354113104256706
leaf_weight=2350.0160574943293 962.88417706836481 1452.104567725095 202.77302461559884 7271.1682951149996 306.21083833056036 601.46804590173997 72.131280468776822 1510.9440002228366 321.39434587419964 45.32502127205953 101.41932417103089 157.12103924527764 132.43396521289833 931.77487944858149 1740.6188940363936 154.91388018545695 200.99564801470842 211.93333556968719 1874.7047518854961 279.45458287186921 439.18184446357191 2262.2596948569408 3399.2007355178939 992.42916294292081 79.567966609960422 21.114379490958527 307.25145766383503 613.68436425563414 994.64923639676999 100.02624404942617 670.91885746526532 59.973130934638903 94.448033510008827 50.871998269110918 150.77738609956577 673.53631817700807 2053.5000165792881 581.82207206671592 262.32078144862317 523.90776080358773 179.11141346651129 536.41590252122842 31.717101527145132 1529.1853046214674 678.28858800977468 223.1485844203271 330.20370122941677 28.651213927892968 640.10530420555733 150.76620214385912 1149.081552402582 195.47326230653562 764.53927287366241 249.23073321103584 3892.8549102966208 204.4802436940372 84.444714515819214 179.44139397738036 3777.0249889109982 2486.0831403604243 1194.5792953167111 116.22400854574516 27.846969720441848 5852.9035015030531 364.45203646610025 966.05726014904212 546.24971405556425 1008.443303383654 42.024511449504644 549.45801544701681 542.51753962610383 300.7883981494233 918.53161204908974 106.32216227171011 616.32048802322242 38.352902403450571 493.45090871164575 315.12143852969166 232.03836427791975 2111.1216323953122 21.515982085838914 593.97673518350348 813.44775967067108 986.38777236826718 59.820160817005672 165.989986749948 182.25542040728033 504.26314848812763 2304.8312058502343 1035.0129787621554 187.99706895719282 21.871246840106323 709.58857787610032 545.0455153028015 134.43458939879201 367.77636452030856 518.24410515662748 43.937860751990229 641.31153935636394 3190.1066746973665 427.08997910749167 240.11086946597788 26.04113366920501 908.63063239690382 9191.5828480662312 920.79561935702804 205.09069937514141 119.17550692602526 765.96786251489539 45.680140651063994 558.22081519849598 602.03903209138662 879.63733970280737 162.49489600374363 124.69920801289845 4577.3918898195261 930.2887122919783 302.47662006807514 46.467876427690499 688.13217687071301 359.93504835246131 177.10176248499192 918.66537442430854 3133.4171080031665 205.36961147666443 453.56733647198416
leaf_count=266433 81993 21020 15019 41130 17338 17469 1110 13553 16140 3640 8911 12879 12402 65775 18232 3579 2806 8983 24962 10118 47258 170723 44955 52581 7200 674 13915 18353 102972 8940 7861 2930 7054 2606 13459 61059 59614 11116 11177 20748 8835 43596 2601 191668 5040 19654 17186 2280 47823 2492 26676 6129 45956 9481 20733 17862 1383 7202 61205 287139 111915 2386 83 53060 4770 8411 1910 7286 3226 24361 10407 16369 20679 6232 59838 1774 22108 24609 9325 32805 1909 35125 86348 23024 1331 13506 19367 18033 49703 58519 4686 503 39514 23486 8908 11305 10002 349 28564 37882 22032 22854 2642 63744 39612 19302 8515 6470 22292 2146 12639 20776 14582 3790 4065 27537 6121 7821 3029 14415 12960 1825 41152 29361 15439 16824
internal_value=2.91056e-05 0.00690445 -0.0296403 0.0123523 -0.00697571 -0.0230129 0.0156554 -0.00250236 -0.000213549 0.00362085 0.0188616 -0.021279 0.00284428 -0.0163975 0.0190967 0.00341611 0.00885889 -0.0149828 0.00882527 -0.0195086 -0.0343686 -0.0199031 0.0163143 -0.000210822 -0.00322559 0.0123375 -0.012705 -0.00763123 -0.0346926 -0.0120525 0.00267746 -0.00266521 -0.0436804 0.00201483 -0.0257354 -0.0133551 0.000141784 0.00536289 -0.0104174 -0.00762102 0.010987 -0.0249466 0.0119798 -0.0397161 0.014635 -0.0222112 -0.0178119 -0.0294375 -0.0241396 -0.013042 -0.0030542 -0.00867225 -0.0149126 0.00311614 0.0181876 -0.0264645 -0.0142191 -0.00223189 0.00432347 -0.0452666 -0.0420303 0.0122711 -0.0123823 0.0127594 0.00263663 0.0236051 0.0186521 0.0181282 -0.00757137 -0.00881866 -0.000937156 -0.0161806 0.000383796 0.010895 -0.0332475 -0.00908184 -0.0117439 -0.0239798 0.00144758 0.0123253 0.0025879 0.00415331 -0.0430019 0.00787272 -0.0225966 -0.0369485 -0.0250033 -0.0253018 0.0013863 -0.0171604 -0.00543626 0.00670882 -0.0063647 -0.00946117 -0.0342249 0.00520183 -0.00253331 -0.00766892 0.00188468 0.00821268 -0.0172531 -0.0315113 -0.0090051 -0.0238322 0.0247219 0.00666156 -0.0229904 -0.0152596 0.00429987 -0.00798627 -0.00901484 -0.00745689 -0.0075416 -0.0211408 -0.0174252 0.0152371 0.00746822 -0.0122502 -0.0221017 0.00562774 0.00144326 -0.0133382 -0.0120679 0.00975987 -0.0379878 -0.00725549
internal_weight=108864 88383.7 20480.5 63471.9 24911.8 13915 46049.9 18977.9 17004.3 17422 31287.8 5933.94 13660.8 8794.45 31186.4 13528.3 14762.1 4039.96 9898.02 3212.53 5120.57 7049.33 19288.2 9110.63 7523.96 9786.67 3343.54 2820.17 1893.98 2758.89 1881.12 7444.4 6565.44 4975.42 534.761 2249.65 5686.77 3822.8 2658.86 2383.45 5884.91 4290.45 7480.8 3360.58 7905.56 1973.56 1545.05 2719.02 1759.99 2396.54 1813.07 374.585 2245.77 6290.46 4571.14 669.703 383.983 1745.12 5833.07 6030.68 3680.66 7449.08 144.071 7305.01 4722.78 11898.3 13403.3 12857 1576.11 1314 2417.22 940.894 1565.68 4417.69 819.094 1152.62 1757.62 899.332 1381.12 5510.32 827.426 805.91 2690.88 2906.75 258.036 1161.69 348.245 960.092 4358.33 1571.43 216.648 1623.08 1534.09 1254.63 455.829 5583.84 886.02 1264.17 1255 3240.98 584.211 2502.37 230.521 1214.84 10157.6 4697.82 299.539 1565.17 1920.36 647.148 1220.23 1160.26 1114.26 234.626 431.951 5585.84 1601.21 457.391 570.376 1814.04 1125.9 198.216 963.99 3334.41 428.518 572.743
internal_count=3489191 1766738 1722453 734268 1032470 1026555 394868 604565 471204 339400 245753 427905 350365 508855 236842 337963 149115 265413 114519 219396 517700 461359 170587 245487 224881 76255 120839 122792 162492 158701 18315 217681 695898 72860 30411 137403 158879 51604 149761 77758 92724 302658 79150 378651 57940 133361 98268 200543 139049 138584 53981 14964 136092 122695 25773 67762 16952 47496 111295 665487 399054 76549 2469 74080 114087 66255 77863 75953 76344 70317 35369 64192 40294 92476 74857 21256 58802 59520 36001 77760 46017 44108 310889 78923 3830 119221 32873 43081 109317 102115 6966 14485 73118 63000 25048 101814 21307 36694 46917 40488 34911 193577 20504 81082 48023 80507 15569 75875 55899 19615 36345 33415 19482 4900 17980 34823 13982 11400 23777 49667 35252 2499 44792 32167 35093 23294
is_linear=0
shrinkage=0.03


Tree=4
num_leaves=127
num_cat=0
split_feature=130 31 25 15 15 130 130 57 57 122 130 8 8 8 15 8 8 8 42 124 130 72 124 8 122 124 72 8 8 42 61 61 81 110 90 26 130 8 47 108 31 131 62 8 72 122 26 8 72 8 130 138 26 131 8 8 31 130 137 8 145 72 72 8 124 72 21 8 72 61 66 75 122 8 139 117 8 130 110 31 124 130 82 26 130 145 87 139 26 26 131 110 130 110 2 72 15 31 137 110 130 61 26 53 57 15 61 72 137 61 130 8 8 8 72 24 7 85 53 145 31 31 138 57 72 107
split_gain=20492.6 5749.24 2370.65 1633.2 995.74 912.576 814.554 726.167 562.827 501.515 469.643 467.401 429.051 385.843 378.642 375.377 338.589 323.533 295.305 277.221 266.538 241.086 235.627 228.42 209.723 202.882 196.595 239.063 191.825 188.171 183.311 175.935 171.822 169.971 164.76 162.16 155.975 146.622 142.806 166.819 138.895 134.139 132.783 125.42 184.005 121.731 120.822 119.264 112.016 109.843 109.713 107.855 107.733 106.554 105.537 102.998 102.147 99.1389 109.715 96.9672 95.9949 95.3582 94.9391 92.8193 92.2808 89.7336 88.8988 85.8322 98.9876 93.2846 83.8151 82.9527 82.1535 78.0376 76.999 76.6306 77.0674 75.7662 74.8268 71.8514 71.6993 70.2234 85.5135 69.1122 68.7741 67.9948 83.9852 70.4862 67.8594 67.7955 67.69 78.638 67.5487 67.4494 66.2348 65.9698 64.8894 64.7789 64.3333 63.6807 63.2135 61.5492 61.1915 60.9344 60.8354 60.5557 60.0787 60.0169 59.941 59.6233 59.5477 59.3497 59.1955 58.6691 59.3554 58.5777 58.3592 57.9401 57.6343 57.5991 57.1022 56.9867 56.4877 56.1773 56.085 55.7687
threshold=0.16685744374990466 0.16823612153530124 -1.0000000180025095e-35 35.100000858306892 7.9499998092651376 0.17121382057666781 0.16343764215707782 -0.24499999731779096 -0.064999999478459344 4.7866666316986093 0.17254709452390674 0.17500000447034839 0.14500000327825549 0.19500000029802325 7.9499998092651376 0.21499999612569812 0.17500000447034839 0.15500000119209292 4.5000000000000009 0.32500000298023229 0.16392793506383899 0.15500000119209292 0.45000000298023229 0.12499999627470972 4.7866666316986093 0.30500000715255743 0.16499999910593036 0.15500000119209292 0.12499999627470972 3.5000000000000004 1.0625000000000002 1.0825000405311587 2.5000000000000004 -0.012125239241868256 6.6250000000000009 6.6849999427795419 0.17512644082307818 0.12499999627470972 11.250000000000002 0.012456498574465515 0.15674106776714328 0.0092981443740427511 6.6649999618530282 0.21499999612569812 0.18500000238418582 6.5083334445953378 0.014999999664723875 0.11499999836087228 0.14500000327825549 0.13499999791383746 0.17470248043537143 7.0000000000000009 -0.024999999441206452 0.0074110650457441815 0.074999999254941954 0.25499999523162847 0.16244971007108691 0.16570456326007846 5.5000000000000009 0.13499999791383746 0.51805788278579723 0.12499999627470972 0.14500000327825549 0.35500000417232519 0.37500000000000006 0.27500000596046453 1.2835430502891543 0.23499999940395358 0.17500000447034839 0.12083333358168603 39.404998779296882 -2.4999999999999996 6.6549999713897714 0.24499999731779101 4.5000000000000009 6.6050000190734872 0.064999999478459372 0.16088120639324191 0.0016358199063688519 0.16405387967824939 0.2650000005960465 0.16877806931734088 0.062318621203303344 1.0000000180025095e-35 0.16283433139324191 0.50841751694679271 -0.7560581862926482 4.5000000000000009 0.044999999925494201 1.0000000180025095e-35 0.0066486564464867124 0.00012558758317027244 0.16417900472879413 0.0077996237669140109 26.750000000000004 0.18500000238418582 11.250000000000002 0.16618663817644122 3.5000000000000004 -0.0073361406102776519 0.16259050369262698 2.2091666460037236 0.044999999925494201 0.53092890977859508 -2.4750000238418575 7.9499998092651376 2.2741667032241826 0.14500000327825549 5.5000000000000009 0.13750000298023227 0.16553353518247607 0.14500000327825549 0.24499999731779101 0.13499999791383746 0.11499999836087228 2.5000000000000004 6.8450000286102304 0.52261358499526989 1.0365145802497866 0.50666466355323803 0.17839655280113223 0.17770299315452578 105.00000000000001 1.4149999618530276 0.034999999217689044 12.502500057220461
decision_type=2 2 2 2 2 2 2 2 2 2 2 2 2 2 2 2 2 2 2 2 2 2 2 2 2 2 2 2 2 2 2 2 2 2 2 2 2 2 2 2 2 2 2 2 2 2 2 2 2 2 2 2 2 2 2 2 2 2 2 2 2 2 2 2 2 2 2 2 2 2 2 2 2 2 2 2 2 2 2 2 2 2 2 2 2 2 2 2 2 2 2 2 2 2 2 2 2 2 2 2 2 2 2 2 2 2 2 2 2 2 2 2 2 2 2 2 2 2 2 2 2 2 2 2 2 2
left_child=2 4 12 7 17 11 31 26 43 -9 16 18 20 24 37 19 51 21 25 32 35 70 23 38 -7 47 28 60 61 50 57 100 88 -20 40 77 59 -8 39 89 -14 45 55 44 113 -22 -34 65 112 -48 117 -11 84 97 -47 96 -19 58 102 124 -28 -3 108 71 67 104 75 69 -69 81 79 -50 -33 -38 125 76 -53 -1 119 -2 83 -13 -83 -23 -42 87 -87 -78 -10 -16 91 -51 -54 -60 -31 -29 -18 -17 120 -96 -4 -39 -25 -76 -5 -79 -74 -58 123 -64 -40 -46 -15 114 -6 -77 -89 -26 -106 -35 -61 -88 -41 -56 -12 -49
right_child=1 3 6 5 8 13 14 9 15 10 36 64 34 48 22 53 42 56 33 -21 41 80 -24 30 29 -27 27 95 -30 94 -32 72 46 78 -36 -37 73 101 110 122 52 -43 -44 -45 111 54 49 74 63 90 -52 66 92 -55 62 -57 107 -59 93 98 -62 -63 109 -65 -66 -67 -68 68 -70 -71 -72 -73 106 -75 103 115 85 105 -80 -81 -82 82 -84 -85 -86 86 121 116 -90 -91 -92 -93 -94 -95 99 -97 -98 -99 -100 -101 -102 -103 -104 -105 118 -107 -108 -109 -110 -111 -112 -113 -114 -115 -116 -117 -118 -119 -120 -121 -122 -123 -124 -125 -126 -127
leaf_value=-0.046189147175586726 -0.027077705535431276 -0.014653432822994415 -0.043451082729314229 -0.0023157510218058731 -0.026873644102216859 -0.052384412792551148 -0.014028241711466702 -0.053909733236109945 0.0068241992312968987 0.014653316211254491 -0.018767519569626155 -0.0041792855262566472 -0.050395413474400325 -0.0010324917450964955 0.0052030888017005322 -0.021242994124028421 -0.010593698915695763 -0.040721507415855666 -0.016587840894608196 -0.054042663705117969 -0.053520688388916424 0.010245790896123734 -0.054184851810988595 -0.023450452218883509 0.020475852774762653 -0.053240246354787246 0.0046156771959255929 -0.029756188239072154 -0.027894023258847617 0.00633955027120195 0.0090582281181325556 -0.052389926167164251 7.8998578248709405e-05 -0.0052666906224288802 -0.0063161914673176608 0.0097593675862166131 0.019640186451130678 -0.033773047966601848 -0.00375337012450424 -0.023931185401383573 -0.042286561347964859 -0.038075733797370136 0.017612967893217358 -0.042213841144831565 0.017727779818643031 -0.0023458458300535988 -0.0033247387314693567 0.0038936216671694606 -0.040782693697873969 -0.032645813308680854 0.024977789739606553 0.014399949314012846 -0.046092296593362052 -0.032106973166611985 -0.033588042190946403 -0.019165363734327773 -0.039249530985692921 -0.010420588684625115 -0.0031548227787063952 -0.0023667399213221974 0.030536307924194317 0.0054177014469383583 -0.014270092120989859 -0.036685399977434252 -0.054126190040840183 -0.018548663429050746 -0.0082891248648422917 -0.022771841104890642 -0.001515055397198693 0.020150195897276256 -0.031031176981915608 0.011064983732243284 -0.010000736709779075 -0.0060491002468412974 0.013809667779643658 0.0036201410634611421 0.0099771786288450504 -0.042042767087671913 0.011284396957068248 -0.0057296044953658552 -0.052213750358884037 0.0093670086455644348 -0.0013455173972491447 -0.0090811010121158737 -0.025404631656774604 -0.00097197143338919809 0.0072931717153709719 0.0012372302177072055 -0.0027574287645633711 -0.012917311558255621 -0.028305201952088525 -0.0027251534304531043 -0.037273926828450911 -0.022158045836713512 0.0085342175607344296 -0.0081024688053634147 -0.0011487641563177051 -0.0036889732671625745 0.010081334404309408 0.016852542308578265 -0.030941364982457413 0.019468420748778602 -0.043788249870279794 0.0069033726908289371 0.018119566809608492 -0.029772546437240463 0.031478135659251338 -0.021927124914827071 -0.0089041337981161754 0.020094689783019919 0.010010263566904877 -0.0090786682861978951 -0.031313271123636223 -0.032803647643661456 -0.0074546680251162097 -0.025143989910298748 -0.010373029558653787 0.015710532072446774 0.0098190138250235787 0.0059069798262316548 0.011429799477581458 0.017672914678000612 0.011167037115446709 0.0072763102952174601 0.01396164307121551 -0.034294974339351254
leaf_weight=715.66250740573741 255.83045472460799 612.65791112044826 921.89779875567183 150.17322370724287 327.41259180591442 36.604238136438653 614.88908686558716 125.93686296814121 2761.8813813289162 1014.5988316946896 47.157166504766792 1132.0797931505367 1578.5046335582156 376.89595485641621 615.74686165107414 386.99403751525097 1045.1650589959463 881.58494614763185 354.19682886078954 85.844121371163055 84.199010938405991 325.6124653890729 102.9832094872836 864.35275976546109 7543.3466876286548 40.36640303209424 419.42446628742618 154.83914237096906 771.54566508065909 770.79562222119421 303.08994118822739 29.773273536004126 2125.9691711751511 690.62884715711698 114.60632373881526 65.313288121949881 2174.4193173702806 972.61998789315112 425.10548462579027 518.53049307130277 332.6761743936222 385.11211214400828 209.2028851301875 246.55665579927154 120.53240566840395 362.42046956298873 851.51977471052669 894.5471667671809 27.002835198538378 105.99536380241625 3753.3985179362353 802.08773334417492 1977.8821543203667 383.17050600540824 587.95927457115613 524.29490842809901 245.88584685139358 1870.5142114369664 400.81852877337951 1139.8382927225903 184.96800943021663 325.40038364182692 501.55233236122876 36.641727469163015 26.257179528940469 65.458515909966081 475.78879457665607 243.45148424326908 1022.1118839972187 275.1475936351344 650.91978619329166 3673.0460564983077 115.47484896541573 111.28038274589926 3892.7742732584011 123.71561551548075 543.68139314826112 585.73396633681841 1162.3518197044032 319.6290359001141 23.165734625887126 1539.9228468183428 1186.2890510468278 338.71205401723273 655.50929400266614 947.31562308734283 2607.4544836899731 1272.9067173210206 875.07354473555461 264.95204887376167 366.03696109831799 304.60212511150166 1365.3845514655113 289.56888778787106 974.14858657855075 688.00960661668796 1752.3904757032869 371.20291118510067 1271.3394948624773 5721.7019800767303 629.05630662129261 19.262981966370717 159.30203483835794 1639.3953417104203 5466.293801599415 1009.226389223244 42.034549574367702 704.23981259507127 128.99865663331002 49.015199617599137 840.6587645879481 190.341357704252 67.761055839946494 471.77914129220881 251.83939464576542 129.57073995680548 560.20699874334969 3343.6046118545346 879.69268485507928 1037.5615731999278 352.66167210158892 583.251662138151 44.137169756228104 31.452082387404516 2406.1273021437228 34.785465895198286
leaf_count=86732 24000 30904 120913 2406 24603 3408 50587 12238 68518 13028 896 23666 206434 4285 24094 23326 36438 97087 16143 8032 7708 14999 10279 64532 29999 3828 15857 9765 47818 6533 5695 2981 65049 20220 3625 1396 19427 110664 18623 34074 38246 40559 2518 23993 4856 24912 33626 9024 377 6985 9920 13775 225293 27033 57533 19306 22264 86847 19234 21511 2778 11939 38850 910 2109 1222 14249 7057 17701 2128 57431 23931 4349 1995 31988 2994 12849 74961 18011 16508 2254 16439 15108 22882 60160 17843 45297 34280 33497 16470 23020 11004 136348 19739 13231 31616 37047 12830 14680 35571 66345 390 17151 16249 39018 96354 276 48067 8594 1077 20988 12274 1726 39317 15933 4962 18806 14736 8040 18751 2766 6411 1547 2006 24930 579
internal_value=3.09861e-05 0.00650594 -0.0268445 0.00994831 -0.0110929 0.013112 -0.0164148 0.00344407 -0.00624456 0.00553341 0.00590876 0.00856129 -0.0367897 0.0168684 -0.0125034 -0.00320253 0.00236782 -0.0243245 0.0110987 -0.000754854 -0.0297713 -0.0156829 -0.0093634 -0.00865512 0.0184469 0.0131106 -0.00993519 -0.00179358 -0.0168205 0.0185666 -0.0133144 -0.0350867 -0.000128307 0.00299622 -0.0420334 -0.0366871 0.0118499 -0.0255804 -0.00196538 -0.0084136 -0.0427244 -0.0220446 -0.005511 -0.0225301 -0.018936 -0.0184864 -0.00463026 0.0133205 0.00850599 -0.0107775 0.0205449 0.00543893 -0.0399171 -0.0192195 -0.0166779 -0.00697307 -0.0333387 -0.015209 -0.0204236 0.00898268 0.0125907 -0.00768946 -0.0206694 0.0102 0.000932737 0.0161714 0.00427494 0.00121104 -0.00562126 0.00330451 -0.0236498 0.0106749 -0.00755458 0.0183861 0.010423 0.00506598 0.00562826 -0.0380049 0.00540192 -0.015256 -0.00145295 0.0020975 0.00470566 0.000388447 -0.031128 0.00454581 0.00686819 0.000500078 0.00451785 -0.000253371 -0.0189303 -0.010517 -0.042504 -0.0111502 0.0146851 -0.0121146 -0.00468098 -0.0126689 0.00512474 0.0156443 -0.0384024 -0.0327175 -0.026658 0.0117652 0.0165245 -0.0343041 0.00117856 -0.0264497 -0.0276262 -0.0111744 0.00538608 0.00132866 -0.0057136 -0.0249283 -0.0184635 -0.0111236 -0.002313 0.0190142 0.0169711 0.0014395 0.000896695 0.00919644 -0.0211577 -0.0314998 0.0133239 0.00242565
internal_weight=105984 85408 20576 71435.7 13972.3 48058.4 10044.8 23377.2 10226.8 20220.4 20094.5 21733.5 10531.2 26324.9 8306.53 8618.29 12591.6 3745.58 16308.2 7476.92 4506.65 1913.87 6699.76 6596.78 22143.6 13063.5 3156.85 1447.24 1709.6 22107 3887.65 1738.24 7391.08 3244.74 6024.56 2375.94 7502.82 1606.77 2709.13 1443.37 5909.96 2130.71 3531.05 1608.46 1361.9 1745.6 3754.12 13023.1 4181.35 1628.15 14640.3 9060.58 4331.45 1141.37 1661.4 3321.85 1831.71 3584.56 1714.04 5217.12 604.392 938.058 1298.98 3736.69 5425.26 6561.62 8045.98 5399 1265.56 4133.44 1226.38 3700.05 187.283 2285.7 6461.5 7570.19 7316.9 2310.62 2890.54 575.459 687.49 3858.29 2726.21 664.325 988.185 6514.82 4138.02 2376.8 3636.95 880.699 776.634 410.597 3343.27 690.387 7466.65 842.849 2797.56 758.197 2763.84 6695.85 1550.95 991.883 1023.65 5532.17 6496.16 1594.96 157.509 950.126 748.41 550.568 1265.76 310.874 444.657 1051.03 579.252 253.286 1833.11 10887 6345.99 1728.19 1492.5 3190.71 562.668 619.411 2453.28 929.333
internal_count=3489191 1682625 1806566 943237 739388 414314 695778 528923 433896 378246 366008 269687 1110788 144627 500914 312920 279803 305492 185479 249731 440682 138074 339273 328994 113398 112354 150677 60016 90661 109990 213198 194864 241699 73125 670106 259443 86205 161641 115796 76185 666481 181239 95309 120976 96983 140680 139684 108526 31229 74635 54655 184494 460047 63189 132972 92791 167418 207503 120656 64783 18635 42843 108060 25218 84208 50686 171466 82099 24758 57341 97939 24308 7606 21422 57840 157217 149261 258047 56982 40508 40135 55213 31547 37881 98406 135486 69551 65935 102015 40564 41009 17989 361641 38973 55335 41381 73485 36156 38957 48802 187258 111054 81683 48237 49464 171315 4625 70331 68133 39927 39611 17130 6011 79853 40536 7956 53086 44735 47058 38971 24277 51708 35621 59539 25826 9603
is_linear=0
shrinkage=0.03


Tree=5
num_leaves=127
num_cat=0
split_feature=130 31 25 31 130 8 122 8 130 125 15 133 40 130 8 74 138 40 138 125 110 89 113 72 8 40 8 8 49 72 133 93 74 133 8 40 30 122 138 110 72 8 8 72 72 122 15 63 8 8 15 15 8 8 40 21 72 130 15 63 93 101 80 72 110 40 8 21 63 72 80 15 72 15 63 72 117 125 8 80 63 40 85 89 94 138 30 123 8 80 40 8 85 93 113 63 68 21 40 74 114 16 54 51 110 130 63 127 40 55 25 110 116 130 2 125 21 122 72 40 133 89 116 130 74 18
split_gain=17950.2 5271.64 1715.91 1589.28 1186.2 750.313 633.667 617.549 590.03 529.437 478.934 459.841 389.319 365.444 361.78 318.823 304.089 286.747 259.33 253.941 245.269 218.753 218.285 204.131 194.473 190.463 182.925 181.405 165.919 163.265 153.493 146.645 140.634 137.946 134.686 133.745 128.647 167.843 133.892 118.663 114.975 114.919 114.661 114.274 111.191 107.451 105.443 105.225 103.712 102.391 101.986 100.308 99.0466 98.6894 109.698 98.4293 94.8732 94.587 93.5193 90.5754 90.0242 90.0029 89.7656 89.7292 120.5 88.8432 87.4923 86.634 83.5337 82.431 82.148 80.4022 80.2215 79.9181 79.6123 79.3311 78.9297 78.5097 91.5064 86.8846 78.0719 76.4925 75.9745 73.4387 72.5403 71.2984 70.3974 107.582 69.3553 69.3296 69.2645 69.0553 68.2402 68.1982 67.8594 67.2974 67.1982 66.9303 66.0524 65.7183 64.7267 63.6294 63.2153 63.0849 62.4578 62.3199 61.4835 61.3097 61.2887 67.3801 60.569 60.3296 60.3207 60.0164 59.8656 59.4513 59.201 59.1814 58.9087 58.7292 58.6216 58.7013 58.1632 57.9385 58.0567 57.5406
threshold=0.16659535467624667 0.17160905897617343 -1.0000000180025095e-35 0.16281453520059588 0.16965173929929736 0.14500000327825549 4.7866666316986093 0.19500000029802325 0.16343764215707782 6.3650000095367441 11.250000000000002 0.15719961374998095 0.2650000005960465 0.17335470020771029 0.18500000238418582 5.5000000000000009 7.0000000000000009 0.22500000149011615 7.0000000000000009 6.3150000572204599 -0.018077988177537915 0.14500000327825549 1.0000000180025095e-35 0.14500000327825549 0.13499999791383746 0.14500000327825549 0.18500000238418582 0.22500000149011615 3.5000000000000004 0.20499999821186068 0.15678731352090838 1.2458333373069765 1.5000000000000002 0.15962271392345431 0.28499999642372137 0.25499999523162847 0.43500000238418585 6.6549999713897714 7.0000000000000009 -0.0071461696643382302 0.18500000238418582 0.16499999910593036 0.21499999612569812 0.14500000327825549 0.25499999523162847 6.5783333778381357 11.250000000000002 0.15356183052062991 0.17500000447034839 0.064999999478459372 35.100000858306892 11.250000000000002 0.23499999940395358 0.16499999910593036 0.14500000327825549 1.0514439940452578 0.14500000327825549 0.17300441861152652 7.9499998092651376 0.16059168428182605 1.1458333134651186 0.14500000327825549 0.16560107469558719 0.15500000119209292 0.0039044291479513053 0.10500000044703485 0.19500000029802325 -0.61996218562126149 0.17423467338085177 0.22500000149011615 -1.9013378620147703 11.250000000000002 0.17500000447034839 11.250000000000002 0.16843368113040927 0.13499999791383746 4.305000066757203 6.555000066757203 0.095000002533197417 0.14262916892766955 0.16127016395330432 0.22500000149011615 -0.10253315791487692 -2.0149999856948848 6.6250000000000009 19.000000000000004 6.5850000381469735 0.065063565969467177 0.33500000834465032 0.38661682605743414 0.36500000953674322 0.19500000029802325 -1.5504547357559202 1.1158333420753481 1.0000000180025095e-35 0.16320645809173587 5.1549999713897714 0.9445319175720216 0.12499999627470972 1.5000000000000002 5.8750000000000009 -0.1990861967206001 3.5000000000000004 -0.20124928653240201 -0.011366695631295441 0.16401570290327075 0.18266467750072482 0.80999487638473522 0.30500000715255743 -0.54548868536949147 0.50499999523162853 0.0011378799099475148 3.2849999666213994 0.16570456326007846 25.819999694824222 1.0000000180025095e-35 -0.70674359798431385 6.931666612625123 0.19500000029802325 0.074999999254941954 0.15956986695528033 0.90500000119209301 3.0249999761581425 0.16259050369262698 5.5000000000000009 1.4159774184226992
decision_type=2 2 2 2 2 2 2 2 2 2 2 2 2 2 2 2 2 2 2 2 2 2 2 2 2 2 2 2 2 2 2 2 2 2 2 2 2 2 2 2 2 2 2 2 2 2 2 2 2 2 2 2 2 2 2 2 2 2 2 2 2 2 2 2 2 2 2 2 2 2 2 2 2 2 2 2 2 2 2 2 2 2 2 2 2 2 2 2 2 2 2 2 2 2 2 2 2 2 2 2 2 2 2 2 2 2 2 2 2 2 2 2 2 2 2 2 2 2 2 2 2 2 2 2 2 2
left_child=2 3 11 14 12 9 -6 13 31 -5 29 66 16 17 23 26 -3 18 -8 -18 -12 28 41 33 45 52 36 43 49 39 -24 123 75 -2 57 46 38 -38 -10 -7 80 76 62 74 88 -13 56 -40 70 -11 116 -35 94 54 106 77 103 90 -49 -30 67 100 -31 64 92 -32 86 -47 -48 -14 -17 -16 -29 -28 -22 110 -21 -25 -79 -80 -19 113 -65 -45 105 -85 -1 122 -36 -74 99 101 -56 -78 -9 -81 -37 -51 -55 -27 -52 -67 -42 -23 -53 -26 -34 -103 -59 -110 -20 -102 -94 -60 -66 -72 -15 -64 -96 -86 -69 -122 -88 -4 -125 -82
right_child=1 4 8 5 6 10 7 25 15 21 20 24 69 50 71 48 19 40 32 22 27 35 30 55 84 34 73 72 59 42 65 -33 53 51 44 96 37 -39 47 -41 102 -43 -44 83 -46 60 68 58 -50 97 61 104 -54 98 63 -57 -58 108 81 -61 -62 -63 117 82 114 91 -68 120 -70 -71 115 -73 89 -75 -76 -77 93 78 79 95 125 -83 -84 85 119 -87 87 -89 -90 -91 -92 -93 112 -95 118 -97 -98 -99 -100 -101 111 107 -104 -105 -106 -107 -108 -109 109 -111 -112 -113 -114 -115 -116 -117 -118 -119 -120 -121 121 -123 -124 124 -126 -127
leaf_value=-0.040952292165059904 -0.034053984946487828 0.014442021224841598 -0.040776603634297616 -0.052870793251539157 -0.052883478624647373 -0.035823056541532582 0.01902690282888686 0.0063948556576451021 0.0091865134840710856 0.012597648692861377 -0.032959562889134403 -0.052213674781790911 -0.030875029359571544 0.01826189286298396 -0.041626449236248995 -0.030031230788512837 -0.052477828302574019 -0.035898936975116515 -0.04407427867774532 0.0019983636732488247 -0.021152576239431561 -0.017706890991745199 -0.01755589324768534 -0.051795432842429448 -0.041290747367267816 -0.01151911068830181 -0.038750042175355465 -0.029557979289855291 -0.029434273687660786 -0.014475583304472734 0.0082016339937252807 0.0077534640173379434 0.015047483257377373 -0.027751513246098015 -0.014936705489496266 0.0026831480167795437 -0.0521251530856413 0.010832252071477533 -0.036460108959671805 -0.019077937121864442 -0.0013111946685402573 -0.00096561322475028472 -0.020124499724977853 -0.025830193820633847 0.0037238559069147793 -0.010675290453077337 0.0076126314876169771 -0.026612286611942707 -0.015041207926773983 0.0013760789510544288 0.017518310615694567 -0.031642820593522601 -0.025316105172205533 -0.0038099640552015364 -0.033195688187319605 -0.027846168430991771 0.010154716850293006 0.01358017838975621 -0.016990383635062802 -0.0072373687964312431 0.01277412413862309 -0.0068477474083658398 0.010656707634419234 0.01828428231177107 -0.031878292591992631 0.0090678884773282096 -0.048155411780964504 -0.034137817581876777 0.01659298916270089 -0.010244726530240573 -0.05053377193445073 -0.026389749166343707 -0.018301328413677983 -0.022285839957379754 -0.0038589631526441898 0.0065465473758641833 0.0092272130403413307 0.0156110192516665 -0.023241178934621208 -0.035201365594624938 -0.00030748302039509907 -0.031528514307496064 0.0083947123547586534 0.0054475638953294676 -0.051421712006744738 -0.003926625099850767 -0.00316285747839026 -0.052171402559253913 -0.059253779206668168 -0.0022755633463757735 -0.031987430578873634 -0.014782918148311975 0.0013505493676875284 0.027732114365836422 -0.00387473769428818 0.0010760032838399187 -0.042812958674755479 -0.01086238869067826 0.0087304244995922535 0.0064369263159505261 0.018602944722066011 -0.030618986197602824 0.013375414919757323 0.00029187908659585596 -0.0028538314581765863 -0.031488598821485934 -0.012339124187347856 -0.0028706789342665536 -0.043512742299270137 0.0042487634928858146 -0.0069294764589835764 0.025089796684188145 -0.044004531615893551 -0.0051813763026081509 0.014531740098073877 0.00072934930921875044 0.010963532540951818 -0.028095100761491121 -0.030360294025208161 -0.007508078686737028 -0.022676929805447943 0.010384235921612457 -0.044070921226669231 -0.036628879174685221 -0.018069972759800063 -0.022092002648648967
leaf_weight=3099.9298712688033 691.75934654474258 1994.9247817054857 906.91103977139574 150.98324904101901 131.5677554088179 523.48845831339713 5000.2033384058159 394.3468811288476 163.74635702325031 659.27070173877291 252.22493997612037 96.885990185663104 303.53874508547597 1739.3560902068857 812.24859948386438 84.453877731808461 76.359767887508497 83.837031476432458 45.216300213010982 1499.0919765179278 312.34556265920401 276.41594183421694 605.11825062567368 29.682470628293231 1063.1914641621988 193.79728106595576 461.02741988631897 222.59311497211456 202.37221270916052 295.11912284977734 717.25024976208806 72.142066539730877 9151.5737591189099 382.9227769295685 217.76529202889651 49.653789875796065 42.829559959005564 290.98295728885569 269.85234287194908 1423.7638352084905 482.501641030889 1900.5207879386144 540.41777610708959 80.777522680466063 405.87053500930779 490.7927061917726 3149.3719629617408 626.20938231563196 686.15748888463713 2890.9050094892737 5192.6910183243454 79.66269251704216 213.85346086951904 454.61251316103153 56.052762645762414 189.29148857144173 537.36766095482744 2533.8604341989849 751.81495581346098 897.89996214560233 72.396199834300205 113.73971295333467 382.13695861061569 1270.3166735973209 24.802699009655043 408.85119429649785 1672.2576751312008 456.94373752968386 1327.1844426235184 412.78072416281793 19.609234790084884 521.45824002695736 447.34635797759984 643.60715695493855 1023.3825412088772 534.36659666919149 3182.8900791250635 191.81078200461343 225.09279191319365 48.783784885425121 486.15300817531534 180.34454219974577 1564.5927375273313 2696.1889015333727 32.954147899057716 1000.1182963142637 147.76544105843641 87.453914276789874 36.59615192306228 532.12542021973059 44.220046056667343 424.65862724371254 1210.4537320571253 189.48399651609361 265.09854824724607 607.17355263035279 69.201471164822578 466.11823914234992 2219.3825942047406 3144.0186280199559 2322.763943066122 74.272025352111086 579.49829129036516 474.98451467626728 429.85156932938844 1370.9060337136034 73.554447170114145 1518.3337532279547 32.165442712605 132.91490401746705 279.08101237285882 2977.1140265266877 25.977771130623296 802.45201682054903 868.27954887296073 1685.9352756422013 2380.682892608922 38.093201520154253 105.11817710730247 146.13575439725537 627.08203523117118 51.669419791549444 38.811399181839079 361.94706177106127 268.32385104428977 139.82830049237236
leaf_count=389814 67631 16126 124848 14993 12649 47165 25580 4439 4457 16610 21671 9520 12927 14028 94505 6173 7720 3662 3549 32820 14961 14497 32598 3056 131552 5833 56369 14667 18006 14143 16672 1362 77411 36440 4166 845 4820 6027 28927 86875 6375 41696 32451 4348 5024 40829 48148 75032 40463 92974 22234 7258 5214 6444 1127 17195 14403 18263 55260 45584 1848 769 12477 10250 371 6969 216838 50448 13781 11834 2151 41901 18106 46640 27800 11127 46317 8164 17226 5159 6251 13728 14820 51751 3195 29058 6137 8472 1752 15667 969 14417 14420 921 3898 33392 2241 21226 22594 34922 9552 3087 5377 19224 19288 144183 1998 43874 482 999 8678 7951 914 40142 7611 72215 26799 2301 1451 6730 59355 3252 2794 45258 23389 2348
internal_value=-0.000115082 0.00558335 -0.0275481 -0.00596362 0.0103851 -0.00257893 0.0126185 0.0128031 -0.0176061 0.00273846 -0.00864823 -0.0362917 0.00247538 0.0143277 -0.0227798 -0.0136884 0.00369996 0.0120851 0.0129893 0.00167624 -0.0040077 0.0035067 0.00207454 -0.0167789 -0.0291973 0.0050446 -0.0186899 -0.00284581 -0.00102948 -0.0181575 -0.00373262 -0.0339177 0.0112901 -0.0239949 0.0068401 0.00745114 -0.0149734 0.00261403 -0.0170756 -0.0235972 0.000457978 0.00528948 -0.00970793 -0.000378848 -0.0060194 -0.0215696 0.00810237 -0.0187143 -0.00513333 0.00179806 0.0180651 -0.016165 -0.00731752 0.0118911 0.0128842 -0.00791582 0.00053787 0.00823755 -0.01667 -0.0113458 -0.0197906 0.0196234 -0.00181733 0.00931051 0.00473742 -0.00106586 -0.0424825 -0.0212489 0.0102789 -0.0190218 -0.00132741 -0.0356956 -0.0133272 -0.0291888 -0.00791793 -0.000550171 0.00773011 -0.00446921 -0.00311004 -0.00720223 -0.00888065 -0.0130658 0.0128321 0.00228787 -0.0344277 0.00290998 -0.0396565 -0.0248911 -0.0215316 -0.00960914 0.00489143 -0.00380916 -0.00111708 0.0102758 -0.00225279 -0.00166687 -0.0239174 -0.000325051 0.00659665 0.00539034 0.0199112 -0.00147308 0.00670502 -0.00634003 -0.00741404 -0.0357865 0.0148275 -0.00418502 0.0124261 -0.00524533 -0.0122373 0.0222514 0.000360411 -0.0109027 0.0132053 0.000108935 0.0140491 0.00707844 -0.0114646 -0.0158459 -0.0258022 -0.0201442 -0.0118781 -0.0358791 -0.0287737 -0.00520585
internal_weight=103341 85567.5 17773.5 25131.6 60435.9 20921.9 47127.8 46996.3 8318.35 11151.7 9770.12 9455.18 13308.1 39276.6 4209.74 6709.02 12591.8 24550.3 22778.5 10596.8 6567.1 11000.7 10520.5 2876.03 4408.96 7719.63 4232.87 6314.88 5116.57 3203.02 3748.48 1609.32 17778.3 1584.2 6741.21 5884.18 3128.23 333.813 2794.42 1947.25 1771.82 6771.99 1255.77 5112.81 660.232 1795.77 5765.32 2630.67 2476.16 4016.29 14726.3 892.437 978.417 16919.6 14245.6 1291.83 1288.77 6080.98 2360.82 1100.27 1698.88 10606.3 715.349 5020.48 2185.57 3143.37 5046.22 1626.49 4476.56 716.319 1790 1333.71 1202.06 1104.63 1335.73 858.664 4871.47 1102.54 1072.86 881.05 709.818 1734.61 2834.91 3777.08 2613.19 3696.31 3373.96 274.031 254.361 979.472 3382.04 2426.12 1292.48 3372.37 764.564 655.957 118.855 3357.02 2674 3337.82 10492.6 2001.46 1062 751.4 509.514 2434.1 9225.13 1592.61 2698.94 165.08 324.297 5299.88 1236.43 1554.27 893.082 1705.54 4120.04 420.23 370.217 179.09 1135.7 678.751 186.577 1537.18 630.271 625.981
internal_count=3489695 1767467 1722228 1067188 700279 715973 412301 399652 647261 322532 393441 1074967 287978 312240 351215 452404 263217 230907 206894 247091 198029 307539 239371 214809 450912 87412 331402 176358 194400 195412 117617 194857 181314 130617 72410 113139 228393 10847 217546 134040 24013 121754 61372 127918 10942 165252 110053 213089 121002 130810 81333 62986 15002 157960 128922 84192 48124 61468 184162 63590 155732 40506 28921 49513 24443 85019 624055 153884 61929 24761 80539 136406 48440 103009 42761 23354 80058 66997 63941 55777 12261 109130 25070 85157 285660 80809 407217 17403 5918 33773 41724 68347 16461 47238 9788 38551 3086 114200 29038 40755 39737 53930 11752 33721 26546 275735 79409 46961 19744 1481 12227 17503 15334 95402 7982 74366 40827 14778 5349 9925 113055 62607 8931 193495 68647 8599
is_linear=0
shrinkage=0.03


Tree=6
num_leaves=127
num_cat=0
split_feature=31 0 57 57 31 136 8 33 122 95 147 57 0 124 8 31 117 80 122 8 40 40 108 80 8 8 40 31 48 0 136 0 124 8 95 124 122 8 64 21 8 57 40 8 40 113 53 40 124 31 95 62 31 8 40 80 40 117 81 132 31 8 65 21 57 8 110 40 0 85 147 54 112 21 62 21 62 33 31 85 122 132 112 48 8 0 90 8 80 90 90 40 95 55 71 139 31 0 40 95 21 8 108 131 21 40 131 95 30 106 53 62 81 57 40 40 75 40 119 23 50 95 62 80 132 31
split_gain=14698.2 2724.52 2550.24 2083.56 1591.51 901.096 631.526 572.185 503.805 427.996 431.486 357.382 351.303 345.882 334.123 333.566 305.916 264.639 236.687 218.92 208.765 198.349 194.675 188.899 178.292 175.293 162.825 161.473 158.326 158.127 157.005 140.37 136.456 135.532 129.868 129.774 129.411 144.623 123.607 120.179 111.545 110.838 108.04 120.228 103.139 101.316 100.148 97.9118 94.5657 93.1656 90.4754 89.7923 91.8777 85.6732 85.6748 84.6809 84.4707 83.5075 83.4727 83.7422 84.2388 81.8313 80.8057 80.0407 79.4113 79.0385 78.4439 77.5477 75.7239 75.6185 75.5046 75.2447 74.9767 83.5121 74.4974 82.2947 72.465 72.0712 71.9727 70.6089 79.3528 68.4406 81.6686 67.9237 67.8165 66.5085 66.4013 65.8241 69.8205 64.1981 64.1622 63.8588 63.3643 62.2949 61.2377 60.4391 59.9086 59.1061 58.7627 58.4327 58.1029 58.0846 58.0819 57.9794 57.8277 57.0642 56.463 56.4214 55.4251 73.2862 55.3169 58.2286 55.1324 58.8709 54.0595 53.8907 53.5685 53.3072 52.7832 52.3333 58.4978 52.0146 51.8618 51.8557 55.2447 51.8162
threshold=0.1678910776972771 1.5000000000000002 -1.0000000180025095e-35 -0.29500000178813929 0.15953718125820163 3.5000000000000004 0.17500000447034839 5.4149999618530282 4.7866666316986093 0.1529103368520737 0.17651288211345675 -1.5249999761581419 3.5000000000000004 0.32500000298023229 0.19500000029802325 0.16199871897697452 2.3549998998641972 0.5167537033557893 4.7866666316986093 0.19500000029802325 0.19500000029802325 0.27500000596046453 0.0056855457369238147 -0.79724809527397145 0.11499999836087228 0.16499999910593036 0.2950000017881394 0.17509892582893374 0.38419067859649664 3.5000000000000004 1.5000000000000002 3.5000000000000004 0.32500000298023229 0.14500000327825549 0.16585516929626468 0.2950000017881394 6.558333396911622 0.095000002533197417 3.5000000000000004 -0.29639860987663263 0.11499999836087228 0.6850000023841859 0.12499999627470972 0.15500000119209292 0.074999999254941954 -1.0000000180025095e-35 0.81202441453933727 0.38499999046325689 0.23499999940395358 0.18490201979875567 0.15532733500003817 6.6549999713897714 0.17420510947704318 0.18500000238418582 0.16499999910593036 -0.18105646222829816 0.22500000149011615 2.1750000715255742 3.5000000000000004 0.026411452330648903 0.17262550443410876 0.20499999821186068 4.3450000286102304 -0.43899409472942347 1.5349999666213991 0.18500000238418582 -0.008479367941617964 0.15500000119209292 3.5000000000000004 0.90126308798789989 0.17827176302671435 3.5000000000000004 1.0000000180025095e-35 -0.47669444978237147 6.6349999904632577 -0.18556222319602964 0.20499999821186068 5.8450000286102304 0.1730066388845444 1.1240252256393435 7.1483333110809335 0.011607062071561815 1.0000000180025095e-35 0.87604406476020824 0.23499999940395358 4.5000000000000009 6.6250000000000009 0.13499999791383746 -1.9013378620147703 0.27500000596046453 6.9049999713897714 0.14500000327825549 0.16158355027437213 1.1981876492500307 6.9349999427795419 4.5000000000000009 0.1722822040319443 4.5000000000000009 0.16499999910593036 0.16190807521343234 -0.9444734752178191 0.12499999627470972 -0.0035584175493568178 0.0071331579238176354 -1.5810484886169431 0.13499999791383746 0.0038708633510395889 0.17018124461174014 0.23499999940395358 -1.0000000180025095e-35 1.0208378434181216 0.095000002533197417 3.5000000000000004 -0.44499999284744257 0.14500000327825549 0.085000000894069686 -2.4999999999999996 0.35500000417232519 14.57992744445801 0.79737108945846569 0.72377920150756847 0.15952808409929278 6.5750000476837167 1.2098793983459475 0.0052863918244838723 0.1712806969881058
decision_type=2 2 2 2 2 2 2 2 2 2 2 2 2 2 2 2 2 2 2 2 2 2 2 2 2 2 2 2 2 2 2 2 2 2 2 2 2 2 2 2 2 2 2 2 2 2 2 2 2 2 2 2 2 2 2 2 2 2 2 2 2 2 2 2 2 2 2 2 2 2 2 2 2 2 2 2 2 2 2 2 2 2 2 2 2 2 2 2 2 2 2 2 2 2 2 2 2 2 2 2 2 2 2 2 2 2 2 2 2 2 2 2 2 2 2 2 2 2 2 2 2 2 2 2 2 2
left_child=2 5 15 11 29 14 13 16 -5 87 20 58 34 17 18 40 122 24 -2 39 30 35 33 -13 63 32 27 79 57 -4 68 76 38 48 62 42 -25 -38 83 116 -1 61 43 -18 -27 84 66 70 74 69 -30 52 65 54 104 -43 -14 -29 59 60 -3 77 -8 -6 -47 100 -44 125 92 -46 115 98 102 -74 75 -17 -26 -32 93 80 95 82 -41 -9 114 110 119 88 -10 -60 -42 -40 -11 103 -71 -20 101 121 -59 -68 -39 -83 -19 108 -31 -33 -101 -77 109 -22 -57 -112 113 -35 -36 -16 118 -69 -12 120 -79 -65 -7 124 -87 -21
right_child=1 3 4 8 6 7 12 25 9 10 19 23 56 -15 47 22 21 72 26 67 78 -23 -24 36 31 44 -28 28 50 53 41 105 -34 112 45 -37 37 51 91 81 90 55 46 -45 49 64 -48 -49 -50 -51 -52 -53 -54 -55 -56 85 -58 71 89 -61 -62 -63 -64 97 -66 -67 99 117 -70 94 -72 -73 73 -75 -76 107 -78 86 -80 -81 -82 96 -84 -85 -86 123 -88 -89 -90 -91 -92 -93 -94 -95 -96 -97 -98 -99 -100 106 -102 -103 -104 -105 -106 -107 -108 -109 -110 -111 111 -113 -114 -115 -116 -117 -118 -119 -120 -121 -122 -123 -124 -125 -126 -127
leaf_value=-0.031089435398064608 -0.05063056286973814 -0.027351995008354217 -0.022358661430454323 -0.050701093383734831 0.005235451026514109 -0.031806188785996725 -0.035545633510324096 0.011034657184596968 -0.037315214591953645 -0.0027001037008019739 -0.057674652601236095 -0.026890073367806005 -0.03435223130198669 -0.051825323956782382 -0.055108348434003605 -0.010518936023464253 0.011431785546060566 0.00905116815887398 0.0050244550443356998 -0.037594435472998164 -0.023491523923718765 -0.019832786228636774 -0.038355818163306105 -0.051854068856857852 -0.0095088344650568115 -0.026819125033758273 -0.021349003998134459 -0.014059386424561752 0.0046347783599522078 -0.0062162676481188556 -0.0006042943918381932 -0.029889667350736348 -0.05060296859534881 -0.030754158808346574 -0.013416167343415615 -0.048850262627516079 0.0048261748740010954 -0.00037223432719928117 0.010602101777092457 0.018653025167385855 -0.043554856032167598 -0.0029244786044809604 -0.0072562768222027224 -0.0073555112578465977 0.0046196987019325514 -0.02491010407361061 -0.0089367753497786046 -0.049432420729313802 -0.051270230023720317 0.014887939912120019 0.019928793726998493 0.011750261191867058 -0.005279899933762008 -0.045904665438837929 -0.020119298664868505 0.011271626382600585 -0.018669361921569892 0.013699742912009582 -0.03707098716107636 -0.034502328152051433 -0.0074855559698859689 -0.029390195363778147 -0.014734073342545805 -0.016738484270280379 -0.0020859291623373695 -0.029743850551264002 -0.0036095600719079765 0.0022830502423509379 0.00074154383693748839 -0.0025302993141108521 0.0093467233120375203 0.016642888752037739 0.0068557909655697072 -0.0094174694862719319 0.0086748304110771043 -0.031997209217802837 0.013535461364666991 -0.013370003894970181 -0.0013990570026070164 0.0024905319392103942 -0.057301656095782798 0.004287024711779136 0.0047128391125041266 0.017980476422061412 -0.01476541964562985 -0.034278422785105782 0.030107611299885723 -0.028702917697681053 -0.0027085463255436264 0.0065000783142239744 0.01411121175108755 0.0019012638322198408 0.013697912176162492 0.0017494624587847958 -0.027262800064633979 0.013694798357863839 0.0063658388600084034 -0.016933211481624317 0.0066918919741392356 -0.0041466562708068902 -0.017769184741566267 -0.011588177601146429 -0.0019227987604044238 -0.054615325443706987 -0.040333241159477458 -0.015758557698032426 0.0092899592482203041 -0.015872600374499397 0.007156168853786774 -0.0087378337366888492 -0.031397818839105945 0.0044343748534774428 -0.037281520361604176 -0.015085117899821353 0.0092495007472008922 0.0017668014313436597 0.013378954223908252 -0.02961894768166979 0.035211941618120558 -0.0025601621650284743 -0.037338096548173161 0.0003121485993939462 0.0032761254750612221 0.027728758599125165 -0.0019380964516376798 -0.0080075935936708541
