tree
version=v4
num_class=1
num_tree_per_iteration=1
label_index=0
max_feature_idx=182
objective=lambdarank
feature_names=Column_0 Column_1 Column_2 Column_3 Column_4 Column_5 Column_6 Column_7 Column_8 Column_9 Column_10 Column_11 Column_12 Column_13 Column_14 Column_15 Column_16 Column_17 Column_18 Column_19 Column_20 Column_21 Column_22 Column_23 Column_24 Column_25 Column_26 Column_27 Column_28 Column_29 Column_30 Column_31 Column_32 Column_33 Column_34 Column_35 Column_36 Column_37 Column_38 Column_39 Column_40 Column_41 Column_42 Column_43 Column_44 Column_45 Column_46 Column_47 Column_48 Column_49 Column_50 Column_51 Column_52 Column_53 Column_54 Column_55 Column_56 Column_57 Column_58 Column_59 Column_60 Column_61 Column_62 Column_63 Column_64 Column_65 Column_66 Column_67 Column_68 Column_69 Column_70 Column_71 Column_72 Column_73 Column_74 Column_75 Column_76 Column_77 Column_78 Column_79 Column_80 Column_81 Column_82 Column_83 Column_84 Column_85 Column_86 Column_87 Column_88 Column_89 Column_90 Column_91 Column_92 Column_93 Column_94 Column_95 Column_96 Column_97 Column_98 Column_99 Column_100 Column_101 Column_102 Column_103 Column_104 Column_105 Column_106 Column_107 Column_108 Column_109 Column_110 Column_111 Column_112 Column_113 Column_114 Column_115 Column_116 Column_117 Column_118 Column_119 Column_120 Column_121 Column_122 Column_123 Column_124 Column_125 Column_126 Column_127 Column_128 Column_129 Column_130 Column_131 Column_132 Column_133 Column_134 Column_135 Column_136 Column_137 Column_138 Column_139 Column_140 Column_141 Column_142 Column_143 Column_144 Column_145 Column_146 Column_147 Column_148 Column_149 Column_150 Column_151 Column_152 Column_153 Column_154 Column_155 Column_156 Column_157 Column_158 Column_159 Column_160 Column_161 Column_162 Column_163 Column_164 Column_165 Column_166 Column_167 Column_168 Column_169 Column_170 Column_171 Column_172 Column_173 Column_174 Column_175 Column_176 Column_177 Column_178 Column_179 Column_180 Column_181 Column_182
feature_infos=[1:6] [0:8.9899997711181641] [0:85] none [0:9.880000114440918] [0:90] none [0:7.9000000953674316] [0:0.97000002861022949] [0:8.5399999618530273] [1:6] [-5:5] [0:76.819999694824219] none none [1.7999999523162842:55.400001525878906] [-2.2302701473236084:2.229327917098999] [1:6] [-2.2242162227630615:2.2327311038970947] [-2.2316751480102539:2.2360680103302002] [-2.2316751480102539:2.2360680103302002] [-2.2360680103302002:2.2360680103302002] [1:6] [-2.2286059856414795:2.2360680103302002] [1:6] [-8.1599998474121094:7.4200000762939453] [-7.8299999237060547:7.6500000953674316] [-90:90] [-70:71.425003051757812] [-6.4366664886474609:3.5283334255218506] [0:7.8000001907348633] [0.13520847260951996:0.19877235591411591] [1:6] [0:8.9899997711181641] [0:85] none [0:9.880000114440918] [0:90] none [0:7.8499999046325684] [0:0.99000000953674316] [0:8.1999998092651367] [1:6] [-5:5] [0:76.819999694824219] none none [1.7999999523162842:55.400001525878906] [-2.234015941619873:2.232410192489624] [1:6] [-2.2242162227630615:2.2296857833862305] [-2.2265846729278564:2.2360680103302002] [-2.2265846729278564:2.2360680103302002] [-2.2360680103302002:2.2360680103302002] [1:6] [-2.2286059856414795:2.2360680103302002] [1:6] [-7.4200000762939453:7.179999828338623] [-7.2800002098083496:7.690000057220459] [-90:90] [-70:71.425003051757812] [-6.0900001525878906:3.5533332824707031] [0:7.8299999237060547] [0.13520847260951996:0.19877235591411591] [1:6] [0:8.9899997711181641] [0:85] none [0:9.880000114440918] [0:90] none [0:7.820000171661377] [0:0.97000002861022949] [0:8.1999998092651367] [1:6] [-5:5] [0:76.819999694824219] none none [1.7999999523162842:55.400001525878906] [-2.234015941619873:2.229327917098999] [1:6] [-2.2242162227630615:2.2303993701934814] [-2.2316751480102539:2.2360680103302002] [-2.2316751480102539:2.2360680103302002] [-2.2360680103302002:2.2360680103302002] [1:6] [-2.2286059856414795:2.2360680103302002] [1:6] [-8.1599998474121094:7.4200000762939453] [-7.8299999237060547:7.6999998092651367] [-90:90] [-70:71.425003051757812] [-6.4366664886474609:3.5533332824707031] [0:7.8000001907348633] [0.13520476222038269:0.19877235591411591] [-8.1599998474121094:7.4800000190734863] [-7.6100001335144043:8.1599998474121094] [-7.5100002288818359:7.820000171661377] [-7.690000057220459:7.6500000953674316] [-7.8000001907348633:7.6700000762939453] [-7.6999998092651367:7.8299999237060547] [-90:90] [-90:90] [-90:90] [-70:71.425003051757812] [-70.235000610351562:70] [-71.425003051757812:71.425003051757812] [-0.056050717830657959:0.057387363165616989] [-0.055217824876308441:0.057359881699085236] [-0.05691869929432869:0.05691869929432869] [-5:5] [-5:5] [-5:5] [1.4333332777023315:8.4033336639404297] [0:3.463437557220459] [0:8.1599998474121094] [0:8.0900001525878906] [0:77.089996337890625] [0:42.426406860351562] [0:90] [0:66.669998168945312] [0:7.8000001907348633] [0:3.6467001438140869] [0:7.8299999237060547] [0:7.7699999809265137] [0:61.685001373291016] [0:31.925870895385742] [0:71.425003051757812] [0:55.055000305175781] [0.15171094238758087:0.18196502327919006] [1.658483779465314e-05:0.02393888495862484] [3.674301115097478e-05:0.057387363165616989] [0.13520476222038269:0.17819687724113464] [123:654] [1:6] [1:6] [1:6] [6:120] [1:24] none [0:3] [0:14] [-6:6] [45.113887786865234:62.551200866699219] [0.45513281226158142:0.54589509963989258] [-0.056050717830657959:0.057387363165616989] [0.15379968285560608:0.19877235591411591] [0:1] none none none none none none none none none none none none none none none none none none none none none none none none none none none none none none none none none none
tree_sizes=10753 10791 10757 10774 10781 10783 10774 10815 10800 10744 10768 10810 10792 10802 10791 10794 10830 10805 10812 10798 10801 10778 10801 10779 10791 10794 10775 10762 10811 10813 10764 10781 10775 10781 10782 10779 10810 10805 10755 10797 10784 10793 10776 10808 10774 10776 10773 10768 10781 10746 10776 10778 10814 10762 10748 10759 10724 10732 10786 10778 10787 10761 10743 10791 10785 10778 10774 10795 10772 10745 10782 10836 10713 10770 10745 10723 10789 10740 10742 10756 10773 10811 10723 10799 10779 10776 10727 10749 10748 10797 10787 10728 10731 10742 10808 10740 10813 10757 10765 10762 10741 10698 10707 10729 10737 10749 10718 10729 10733 10737 10631 10728 10683 10738 10750 10742 10781 10784 10713 10750 10707 10733 10694 10756 10689 10762 10693 10687 10748 10701 10726 10646 10699 10700

Tree=0
num_leaves=95
num_cat=0
split_feature=130 31 25 125 134 130 130 8 8 133 134 58 132 148 148 8 133 94 8 57 63 123 130 122 110 8 8 125 57 8 130 57 74 57 94 8 109 110 134 133 130 110 134 8 111 134 33 134 134 148 110 74 31 31 57 33 63 134 134 26 134 42 47 130 110 8 134 63 132 66 15 89 48 57 42 8 21 134 74 8 130 8 8 21 134 16 61 109 19 134 64 16 110 57
split_gain=30048.8 9410.4 3246.63 1712.34 1568.75 1501.04 1445.84 698.297 632.255 559.075 501.494 472.207 452.345 424.067 404.797 373.308 307.417 300.278 286.557 264.46 231.673 227.406 210.623 204.956 204.472 197.775 180.657 174.33 168.535 159.829 152.929 148.964 146.879 146.283 137.057 133.037 129.002 126.621 122.949 118.232 112.383 109.409 106.642 104.306 103.945 102.632 106.532 102.602 96.9986 85.9148 79.4274 75.8738 75.3177 74.851 69.9267 69.6045 68.7647 91.4349 66.9288 65.8638 65.1833 84.8543 64.8291 63.0019 61.7788 61.3146 59.6527 59.2359 58.4868 58.1294 57.3461 56.1567 55.2032 54.8438 54.8242 52.9184 52.4249 52.2602 51.0667 50.6707 50.4495 50.1764 49.7922 49.7266 46.6921 46.4655 46.125 46.0377 45.4585 44.4029 43.2387 42.2274 41.8968 41.8067
threshold=0.16783811897039416 0.17070650309324267 -1.0000000180025095e-35 6.2950000762939462 318.50000000000006 0.165510930120945 0.17081400752067569 0.18500000238418582 0.19500000029802325 0.16356679797172549 522.00000000000011 6.6649999618530282 0.020165608264505867 1.0000000180025095e-35 1.0000000180025095e-35 0.18500000238418582 0.1582039073109627 6.5650000572204599 0.21499999612569812 -0.95499998331069935 0.15829096734523776 0.13395655900239947 0.16337607800960544 6.6050000190734872 -0.010124063584953545 0.18500000238418582 0.28499999642372137 6.4749999046325692 -0.1649999991059303 0.23499999940395358 0.17338638752698901 -0.024999999441206452 5.5000000000000009 1.0349999666213991 6.6749999523162851 0.10500000044703485 -0.015214938670396803 -0.01231872523203492 125.50000000000001 0.16552702337503436 0.16687040030956271 -0.014429527334868906 125.50000000000001 0.18500000238418582 -1.4999999999999998 125.50000000000001 5.0950000286102304 361.50000000000006 144.00000000000003 1.0000000180025095e-35 -0.015662531368434426 5.5000000000000009 0.1770611181855202 0.1683568358421326 -1.0000000180025095e-35 5.1749999523162851 0.17311377823352816 123.50000000000001 522.00000000000011 -1.0000000180025095e-35 125.50000000000001 4.5000000000000009 35.100000858306892 0.17294298857450488 0.0078439586795866507 0.21499999612569812 124.50000000000001 0.16296751797199252 0.022425241768360141 18.894999504089359 11.250000000000002 0.94499999284744274 1.388854503631592 -0.24499999731779096 4.5000000000000009 0.14500000327825549 -0.94104722142219532 223.50000000000003 4.5000000000000009 0.35500000417232519 0.16622411459684375 0.12499999627470972 0.11499999836087228 0.086508229374885573 125.50000000000001 1.4320701360702517 1.0825000405311587 0.0044023490045219668 0.95212450623512279 563.50000000000011 4.5000000000000009 1.6438308358192446 -0.004512394778430461 0.085000000894069686
decision_type=2 2 2 2 2 2 2 2 2 2 2 2 2 2 2 2 2 2 2 2 2 2 2 2 2 2 2 2 2 2 2 2 2 2 2 2 2 2 2 2 2 2 2 2 2 2 2 2 2 2 2 2 2 2 2 2 2 2 2 2 2 2 2 2 2 2 2 2 2 2 2 2 2 2 2 2 2 2 2 2 2 2 2 2 2 2 2 2 2 2 2 2 2 2
left_child=2 4 11 -3 12 17 7 14 13 25 15 16 18 19 28 21 58 22 27 -8 60 24 -4 -19 -7 36 37 -2 -5 41 42 -29 89 43 40 80 -6 -10 63 66 51 -9 55 53 -43 46 -22 54 -47 82 -14 81 -40 90 -37 -15 57 -21 73 -38 -16 -62 72 91 76 -52 -33 -50 -58 -46 -35 -59 78 -1 -44 -41 -34 -68 -20 -28 -18 83 -12 -26 92 -71 -17 -61 -56 93 -11 -39 -31 -24
right_child=1 3 5 6 9 10 8 29 26 33 49 -13 50 30 20 86 35 23 62 56 45 -23 32 -25 34 -27 79 31 -30 84 -32 39 64 70 -36 47 59 38 52 75 -42 44 74 -45 69 48 -48 -49 67 -51 65 -53 -54 -55 88 -57 68 71 -60 87 61 -63 -64 -65 -66 -67 77 -69 -70 85 -72 -73 -74 -75 -76 -77 -78 -79 -80 -81 -82 -83 -84 -85 -86 -87 -88 -89 -90 -91 -92 -93 -94 -95
leaf_value=-0.043451122694366309 -0.047401815870271334 -0.049586761064513409 -0.040769213018889659 -0.0078938481712306219 -0.03207006047369397 -0.017467900613881909 -0.005560866506011581 -0.026580893210538966 -0.0017658056278147913 -0.016944405227134585 -0.018928060667475849 0.039178884057513304 -0.032501548910291257 0.019929086667141806 -0.026599642364879047 -0.018685084576707901 -0.028195665071506712 -0.046875917239116924 -0.032862947490310532 -0.011599194866992388 0.0097299832860771197 -0.048590649168410029 -0.033644195824933686 0.013113888916050968 0.0041054858388934736 -0.039620758768665727 0.0014906487913271156 -0.010826486330389035 0.01249991974584273 -0.0021070436713890514 0.038027045149013491 -0.010103108011155547 0.0053120589019771871 -0.0037474967582963726 0.027484844995450453 -0.034293051749293785 -0.0073506198866093251 -0.00061479309051963669 0.017195446844933935 0.022701701968800968 0.0071670328482505907 0.01551770159913592 0.035764581559084817 -0.024784779824732754 -0.021116847488008572 0.030758389419629661 0.023455059316438962 -0.040472226358848389 0.012259384254162458 0.0034972455920017735 -0.007397960068518188 0.0044860681513522451 0.030247642813511683 0.00031573332011398773 -0.025088693178109883 0.030106284152329684 0.029215079601262295 0.012502194972641132 -0.046738944195541338 -0.026413143635977472 0.022030887384312622 -0.0063306672807522148 0.0026264769005714911 0.019519105961672268 -0.024646675699534298 -0.031799022195959772 0.014230788434374806 0.024644558904386694 0.012872533140010092 -0.00075555525010105812 0.015992751949764544 0.026688627880231821 0.00050034734565968875 -0.034969455035847724 0.026914375446346735 0.011909041102145473 -0.016152326226930372 0.00098059479635224196 -0.0036436936828885798 -0.029764251234936354 -0.013182689189481843 -0.01558706214907672 -0.035918092905285554 -0.014506772484874628 -0.0045902266732887964 0.017590228287974425 0.0053750208245192362 -0.0088977344180708115 -0.0023500579333710259 -0.04099325417484978 0.0017442014705707208 0.023422594899568411 -0.028695066572798113 -0.022438509252064191
leaf_weight=1499.7169873588864 30.252945857850136 198.14236889453605 1054.7377918874554 355.95160106816911 622.98830530582927 325.719991153921 191.29990168847144 57.293114478932694 162.09975262806984 545.56844294792973 157.96917096339166 46.462783229115303 140.39198590094747 681.69670552597381 42.50937133980915 945.77114342407731 466.00618617272994 44.322368002613075 151.16606577152561 56.52087358571589 538.41944997897372 57.037589187020785 559.03378391674778 157.95389735174831 255.64206053172529 719.19228126900271 205.23978862998774 170.04235402186168 866.47123837695108 55.167079320643097 3651.6245950943849 116.22974659828469 100.51102089966298 242.06798248225823 139.32403654314112 648.96879544583499 295.30962737486698 245.43198049184866 433.46207228857384 737.00732330251776 1310.5173531352048 602.62699457265262 2467.0987036800361 380.19665410369635 66.819837303642998 1692.7846124373027 1059.0610010509845 1474.0425125225447 326.43561852327548 47.643724547699094 423.35053085633263 458.86563231714536 820.3025996525248 331.40680438792333 214.50291962518531 1187.8501628511585 1544.1823649707803 297.71847915733815 2442.9019265258685 396.18057026620954 116.80663297897263 147.20569611119572 123.41151339374483 346.08731629117392 366.31774282544211 75.179516970427358 469.07855096965795 1016.8326744832884 155.76223949319683 367.12659287288261 146.05188298900612 445.62527100749139 66.420697411216679 792.17795841292536 573.34785105488845 477.94496492472535 233.22294250276173 310.17242667832761 50.837198474095203 36.899716778978473 209.02818098852003 333.62199611918186 404.26018487289548 136.10618308582343 378.62820390019624 110.98170136431872 51.43563331005862 127.27494729636237 75.152532888794667 280.99434691667557 88.979681032476947 54.452050383901224 117.01066516083665 365.51469113052008
leaf_count=206158 3655 16716 151037 26057 71317 32445 13786 5326 8030 55567 20643 5210 16548 5351 790 69564 55154 6693 10172 447 5485 6735 67984 9974 15304 89403 6637 14649 38895 469 35908 1052 6103 26919 3899 85869 27854 2402 19216 21986 65492 22067 45512 41696 3587 29895 7746 179917 20558 5432 34252 27088 17564 27344 30635 7252 37399 17070 321509 44777 3773 12812 10151 2266 36969 9114 18765 46193 6966 10514 11898 11611 2938 116366 20900 18646 21423 28319 2091 1802 21370 26217 60208 10998 23291 3988 2530 10854 7558 44328 7236 354 1544 41402
internal_value=-3.92198e-05 0.0150671 -0.027934 0.0233088 -0.00961447 -0.0164826 0.0239851 0.0154904 0.0289439 -0.0203924 -0.00739854 -0.0392591 0.00295077 0.0313887 0.0194523 -0.00418203 -0.0397334 -0.0297519 0.00742584 0.0226984 0.0226398 0.000201173 -0.0317645 -0.000242446 0.0011681 -0.0288762 0.0169874 0.0107799 0.00655303 0.00157459 0.0341149 0.0115857 -0.0267484 -0.00980118 0.00348403 -0.0335423 -0.0234757 0.0193855 0.0211943 0.0134015 0.00212495 0.00667656 0.0311932 -0.0136976 0.00837603 0.024032 0.0188473 -0.0363052 0.0267469 -0.0284944 -0.0159396 -0.00345049 0.025767 -0.00929431 -0.0296992 0.0264183 0.024866 0.0187194 -0.0437574 -0.0168806 0.00155625 0.00624262 -0.0123004 0.0122682 -0.0175538 -0.0111771 0.00648051 0.0216574 0.0277347 0.000443538 0.0036946 0.0210535 -0.0191675 -0.0405476 0.0341122 0.0184821 -0.00967066 0.00897831 -0.0256274 -0.00339544 -0.0235974 -0.00848033 -0.0312208 -0.00237262 -0.00955982 0.00352905 -0.0174304 -0.0222063 -0.0192573 -0.032053 -0.0143141 0.00381981 -0.020311 -0.0292657
internal_weight=44565.2 28909.7 15655.5 21673 7236.7 7786.52 21474.8 7918.13 13556.7 3895.22 4623.91 7868.96 3341.49 11252.7 6162.48 4014.04 7822.5 3162.61 2702.56 2691.11 4940.06 3016.83 2960.33 202.276 2959.8 2160.95 2303.98 2310.73 1222.42 1755.65 8561.62 2280.48 1905.59 1734.27 2634.08 3087.7 1441.75 2061.84 1899.74 2110.43 2494.75 1204.85 4909.99 1346.15 1147.56 4633.53 1597.48 2412.67 3036.05 609.873 638.922 1184.24 1253.76 965.955 938.624 1869.55 2499.81 799.865 4734.8 818.765 306.522 264.012 391.835 645.971 700.052 498.53 895.481 1343.27 1699.94 544.928 388.12 743.344 268.424 2291.89 3040.45 1214.95 333.734 779.251 202.003 242.14 675.034 725.37 562.229 391.748 550.806 478.108 997.207 523.456 289.655 1205.54 634.548 299.884 172.178 924.548
internal_count=2909596 1147382 1762214 540179 607203 732468 523463 262990 260473 414865 346555 1029746 192338 202202 192204 260272 1024536 385913 132424 87279 127252 188178 369246 16667 181443 244205 58271 107072 64952 70786 114923 103417 218209 170660 148998 380503 154802 49832 41802 88768 145099 45482 79015 131843 40156 109877 13231 303979 96646 86283 59914 79607 36780 90147 124062 12603 73493 29128 644033 83485 17375 16585 25352 5022 64495 43366 48136 66751 44365 18089 38817 28681 15201 322524 66412 40632 27526 47084 12263 8439 76524 52519 80851 26302 25304 14502 72094 55631 38193 153714 62803 2756 2013 109386
is_linear=0
shrinkage=0.025


Tree=1
num_leaves=95
num_cat=0
split_feature=134 145 134 109 145 145 145 133 112 109 134 90 145 48 122 133 124 26 21 48 63 26 63 58 124 64 63 25 148 145 109 89 131 30 145 72 89 112 109 72 134 89 145 21 63 124 147 108 145 138 32 95 26 133 114 21 94 145 134 145 108 145 11 134 72 112 72 145 133 122 148 30 21 72 134 21 25 71 133 57 139 145 26 108 145 73 0 145 50 16 0 76 63 54
split_gain=29033.8 10337.5 2988.9 2162.15 1906.95 1338.43 1258.96 1208.96 1046.08 781.338 599.44 423.934 417.507 414.407 410.297 400.673 388.678 351.476 314.255 310.727 308.35 299.527 287.004 284.42 280.542 272.569 266.494 263.467 249.746 242.415 240.469 233.989 229.055 218.93 217.436 211.906 207.495 201.703 197.286 196.433 172.113 166.813 162.458 162.308 160.132 155.744 146.299 187.417 145.609 145.027 144.509 138.851 128.967 126.884 126.361 118.886 117.737 117.647 116.444 115.066 113.856 111.125 108.077 104.509 104.329 101.773 112.052 99.0303 98.4436 97.1262 95.2457 96.6571 94.2948 94.2499 94.2242 93.0912 90.9813 89.341 89.1635 88.9177 87.7135 86.3684 85.9527 84.3961 82.579 81.4202 80.3647 79.3253 77.9114 96.7187 76.4139 76.3758 75.2924 74.5153
threshold=232.50000000000003 0.49983097612857824 125.50000000000001 -0.012946640141308306 0.51670885086059581 0.49197770655155187 0.51735711097717296 0.15368095040321353 -1.0000000180025095e-35 1.0000000180025095e-35 152.50000000000003 6.5200002193450937 0.52015706896781932 0.19373439997434619 6.5183334350585946 0.15977697819471362 0.33500000834465032 -0.014999999664723871 0.75484007596969616 0.38421238958835607 0.16010333597660067 6.6849999427795419 0.16807632893323901 0.24499999731779101 0.30500000715255743 3.5000000000000004 0.14951820671558383 -0.54500001668930043 1.0000000180025095e-35 0.48379766941070562 0.012388104572892191 -0.11499999836087225 0.0056197296362370261 0.25499999523162847 0.50777482986450206 0.19500000029802325 0.92500001192092907 -1.0000000180025095e-35 0.00034347211476415401 0.15500000119209292 164.50000000000003 1.3350000381469729 0.52505427598953258 0.44486244022846227 0.17105533182621005 0.38499999046325689 0.18174389004707339 -0.00025407140492461616 0.50777482986450206 105.00000000000001 4.5000000000000009 0.17678409814834598 0.014999999664723875 0.14420953392982486 5.0116667747497567 0.67615076899528515 6.5350000858306894 0.52505427598953258 518.50000000000011 0.50337886810302745 0.00011849452857859434 0.50890183448791515 1.0000000180025095e-35 149.00000000000003 0.2650000005960465 -1.0000000180025095e-35 0.16499999910593036 0.50808438658714306 0.15842764079570773 6.7583334445953378 1.0000000180025095e-35 0.014999999664723875 -0.34461778402328486 0.11499999836087228 144.00000000000003 -0.59334746003150929 -1.705000042915344 6.9949998855590829 0.16681949794292453 -0.93500000238418568 5.5000000000000009 0.50507235527038585 0.014999999664723875 -0.0031820192234590645 0.52623048424720775 6.9249999523162851 5.5000000000000009 0.49265807867050176 -0.036062849685549729 -1.1182780861854551 4.5000000000000009 20.060000419616703 0.1623647138476372 2.5000000000000004
decision_type=2 2 2 2 2 2 2 2 2 2 2 2 2 2 2 2 2 2 2 2 2 2 2 2 2 2 2 2 2 2 2 2 2 2 2 2 2 2 2 2 2 2 2 2 2 2 2 2 2 2 2 2 2 2 2 2 2 2 2 2 2 2 2 2 2 2 2 2 2 2 2 2 2 2 2 2 2 2 2 2 2 2 2 2 2 2 2 2 2 2 2 2 2 2
left_child=2 5 12 15 7 11 8 26 14 32 24 29 25 65 -5 86 18 61 33 57 -12 31 73 36 28 -1 -4 75 54 -2 59 49 41 39 91 44 48 -15 90 51 46 72 43 -39 78 52 47 -21 79 80 68 58 67 -28 87 88 64 74 -10 -30 -24 -16 -40 -55 93 85 -67 -29 -41 -45 71 -70 -7 92 -6 -22 -42 -71 -17 -19 -11 -73 -33 -23 -48 -8 -3 -9 -13 -90 -31 -27 -14 -32
right_child=1 3 4 6 19 9 13 10 16 21 20 55 22 37 17 35 -18 23 -20 40 27 83 60 -25 -26 34 53 45 30 38 56 82 -34 -35 -36 -37 -38 42 62 50 76 -43 -44 69 -46 -47 84 -49 -50 -51 -52 -53 -54 63 -56 -57 -58 -59 -60 -61 -62 -63 -64 -65 -66 66 -68 -69 70 77 -72 81 -74 -75 -76 -77 -78 -79 -80 -81 -82 -83 -84 -85 -86 -87 -88 -89 89 -91 -92 -93 -94 -95
leaf_value=0.033865969411973014 -0.043299683263227057 -0.027732987984498209 -0.038009785368763677 -0.048259274721498394 0.013851408286205527 -0.019271436656467279 0.0081362949189494691 -0.020889248722018906 -0.0094909963878534315 -0.013621109487411909 -0.0092648622441002786 -0.033548769150947587 -0.04012557298096199 0.016978408428181584 0.0026402328635089576 -0.02698556018625935 -0.048592438074706507 -0.028151223307969105 -0.019492620308824329 0.028804431377262314 0.002310114495686653 -0.042601564122557868 0.034702485516213362 0.031900169133873134 -0.042755291838826037 -0.026913406878188741 -0.030519568670843523 0.0036061716978806808 0.018284263703200933 -0.0340091126044611 0.0077837061064415965 -0.0033835898799921046 -0.036617556485931367 0.008521900617693522 0.026994352284599527 -0.0015440636888998426 0.0028417288638702015 0.006283918720072443 -0.03062409344344226 -0.02535543445018806 -0.010531290547559453 -0.006306356297274821 0.014090962520112511 0.0041302955322034462 -0.0072810070663439962 -0.046368112658214534 0.022213963061327373 0.014949247631571278 -0.0021992856064646754 -0.00060304568239326003 0.0015937511642559491 -0.029290837703287512 -0.0017842489152093952 -0.00091715055309505634 0.020330392372791634 0.021298003366304497 0.023406141688340692 0.019771867381109989 -0.019918967575532416 0.0034794353945075893 0.02026057245156521 0.011410218243829692 -0.0063099149914158581 -0.015177742041209592 -0.00029733159113097096 -0.014673883586293526 9.7373206484088973e-05 0.010409223900697026 0.0021928267797062468 -0.023416157165181556 -0.01605150438822198 -0.020711502730912955 -0.031709263913109256 0.011345879559861681 0.0064061203155795906 -0.014408537724853832 0.013686888474351689 0.012818953683513393 -0.0024558267866859065 -0.010407714659776239 -0.025077299279275753 -0.0055877891067070539 -0.015518160456445272 0.030398900183330264 0.030035545914650498 -0.020217519335005929 -0.039218138121874885 0.01078434785460233 -0.04639508888698933 0.015068581529299267 -0.04264815143737076 0.013866926128475227 -0.00061562621298615582 0.013175511883537548
leaf_weight=3030.5795554023935 2993.5237741457531 1202.6972947719623 254.76742424978875 107.45290577923879 2356.4655955838971 599.07555913028773 531.78936524107121 51.094760165433399 2531.7426457395195 551.92530669097323 1302.0817174279364 79.355471006070729 33.188721650047228 1723.732125566341 2024.5269102236198 1061.8237055822974 172.31856384209823 195.34608538006432 2109.7633551769541 775.50360469100997 316.30179623723961 9.4908444643951935 391.79354044375941 137.57062283420237 61.171942435437813 28.289160953601822 170.5772567569511 2343.187091523665 351.57431555516087 1157.6149577843025 2390.3934543627547 896.20969209104078 1960.2588156259153 436.27822131454013 2839.2880943357595 518.49617350730114 1732.1197548310738 1607.5788166778511 2603.8376394147053 207.64959162019659 103.26087245554663 273.79225765517913 1121.6410325753968 197.30118371872231 454.11357727204449 34.28376649110578 2576.7734698735876 2927.0224515354494 1690.8162669328158 206.9204599740915 1163.4305696764495 328.53516458917875 1124.8064885673812 685.23800333763938 2024.7080609297846 77.445022970670834 482.61076225154102 1068.4830129799666 915.03858509240672 4730.034457842703 2892.8123543848051 1634.5411471454427 121.24578891089186 605.3928614234319 505.66235382901505 674.7615534045035 608.9857739333529 3134.3954689030652 753.91113392659463 280.16944258700823 632.06511157110799 302.36930257687345 1118.0236928086379 804.55362541240174 1951.3574248688528 601.28775602544192 1309.3360008741729 48.817038150387816 102.54201513645239 1835.8076959238388 1849.1819666484371 1077.7486617013346 617.54469726420939 108.37048747413792 1299.9297764902003 70.262826383579522 587.78091782447882 812.93108869576827 19.416478722938336 66.552886810270138 1634.6211892011343 807.02586534258444 233.78831514157355 4967.0495191918453
leaf_count=20515 268984 83350 20438 8160 12289 42967 3476 3548 79032 32493 49234 2543 161 19049 56298 69208 13613 10655 97692 4865 8963 467 1705 1156 5201 1211 12000 54478 6249 96841 24029 44897 170992 10276 23735 23793 39828 26156 204945 11459 4005 17315 13120 4354 20769 3580 11391 13561 40921 10029 33848 17768 20562 19626 27930 931 2131 5316 48874 30251 6803 23271 7806 28849 6418 11029 7119 37348 24716 8561 7611 18952 89760 2166 17206 23397 15408 797 3564 69662 122179 36979 38545 980 4245 712 49227 19478 531 880 154723 15564 738 41139
internal_value=-1.52356e-05 -0.0141198 0.0128363 -0.00548644 0.00974537 -0.0298011 -0.00295162 0.00582279 -0.00612397 -0.0225273 0.00720401 -0.0366013 0.0243782 0.00628357 -2.73924e-05 -0.0228086 -0.0114892 0.000539773 -0.0108703 0.0171009 0.00196268 -0.0150611 0.018335 -0.00340106 0.0100375 0.0282982 -0.0144724 0.00390035 0.0102398 -0.0375305 0.00880216 -0.0161881 -0.030528 -0.0086874 0.0236923 -0.0154749 -0.00430138 0.0100632 -0.034388 -0.00963867 0.0199463 -0.0245054 0.00639328 0.00233652 -0.0199276 0.00563728 0.021442 0.0178638 -0.00762743 -0.0207275 -0.00586936 -0.0137633 0.00591893 -0.0103287 0.0169115 -0.00396566 0.0114132 0.0123362 -0.012269 0.00451029 0.0220006 0.00656299 -0.0295491 -0.00762199 0.0106719 -0.00369221 -0.0076689 0.00750218 -0.00879103 -0.00969044 -0.00753177 -0.00499535 -0.0273948 0.00707681 0.010484 -0.00864294 0.0119019 -0.0179829 -0.0248377 -0.0121374 -0.0224572 -0.00892555 -0.00834937 0.0239962 0.0248492 0.0047728 -0.0315372 0.00886969 -0.0159303 0.000543488 -0.0390894 0.0124311 -0.00575191 0.0114267
internal_weight=100105 47725.9 52379 30781.5 41317.7 16944.4 26854.1 26949.6 19989 8190.79 25233.6 8753.61 11061.3 6865.04 9358.18 3927.45 10630.9 9250.73 10458.5 14368.1 8856.34 4239.64 4356.14 5591.66 16377.2 6705.18 1715.98 7554.26 16316.1 8510.84 13427.3 4121.78 3951.15 8348.77 3674.6 2136.98 5454.09 4979.24 5517.32 7912.49 8991.83 1990.89 3255.51 2133.87 1618.48 6636.67 7579.23 3702.53 3721.97 2608.03 4137.17 3775.32 6602.39 1461.21 2888.73 242.77 8345.72 5376.31 3446.78 5081.61 3284.61 3659.07 2725.08 1290.63 7863.11 1885.8 1283.75 5477.58 2973.74 526.288 2766.09 2134.03 1717.1 1071.53 4307.82 917.59 1412.6 328.986 1164.37 2031.15 2401.11 1380.12 1513.75 117.861 3876.7 602.052 1790.48 864.026 165.325 85.9694 2792.24 835.315 266.977 7357.44
internal_count=2909596 2303863 605733 995055 533135 1308808 745144 444849 650771 570624 363936 738184 72598 94373 249951 249911 400820 241791 387207 88286 197562 249590 11573 162222 166374 61025 80913 148328 161173 733299 110217 248143 321034 289515 40510 117334 161066 72037 464315 279239 53475 150042 52988 39868 93541 115968 34062 18426 121238 164701 133565 145674 112388 60475 50956 4885 73717 34811 127906 36500 8508 79569 212751 48475 71586 22336 18148 91826 99717 13712 88258 80647 132727 3065 29495 32360 19413 9358 72772 80317 154672 55931 83442 1447 15636 4188 132577 23026 3954 1411 251564 16775 899 65168
is_linear=0
shrinkage=0.025


Tree=2
num_leaves=95
num_cat=0
split_feature=145 31 25 145 31 112 32 145 112 8 8 32 72 15 90 110 10 124 8 8 72 63 145 8 122 111 8 40 8 110 8 145 26 131 15 8 8 61 40 72 34 8 124 124 40 8 8 8 8 72 122 124 132 15 111 72 124 72 124 8 124 124 72 89 109 40 72 8 26 131 72 62 124 10 10 72 57 40 94 25 40 8 138 40 94 40 72 57 145 25 108 40 40 110
split_gain=23397.7 7325.44 2538.52 1963.79 1251.14 1100.79 804.23 791.026 640.424 636.111 626.2 618.705 519.197 500.27 459.406 405.16 386.55 381.446 375.179 358.122 347.757 319.705 314.92 314.663 272.304 260.931 252.965 247.017 239.466 225.184 225.008 213.663 202.789 200.115 197.233 192.014 191.752 183.124 177.336 175.445 173.614 169.071 168.883 161.223 160.772 160.726 158.674 150.095 149.035 158.459 147.981 136.944 136.726 133.571 124.625 121.295 120.393 120.368 118.437 119.924 117.213 115.886 114.081 113.929 111.123 118.262 110.697 116.999 108.311 108.235 155.678 104.939 104.767 103.726 103.724 100.128 99.9456 98.6615 97.5079 96.0679 95.5572 94.3274 94.2341 93.2875 108.029 96.0809 93.1265 90.3925 89.8397 100.135 87.9905 87.8648 86.7445 86.1501
threshold=0.50061076879501354 0.16792864352464679 -1.0000000180025095e-35 0.50994759798049938 0.17592280358076098 -1.0000000180025095e-35 3.5000000000000004 0.49027574062347418 -1.0000000180025095e-35 0.21499999612569812 0.16499999910593036 3.5000000000000004 0.18500000238418582 13.450000286102297 6.6250000000000009 -0.0043751278426498166 5.5000000000000009 0.38499999046325689 0.16499999910593036 0.22500000149011615 0.15500000119209292 0.1628895848989487 0.48695194721221929 0.10500000044703485 5.1066665649414071 -2.4999999999999996 0.19500000029802325 0.2950000017881394 0.2650000005960465 -0.018327143974602219 0.16499999910593036 0.52015706896781932 0.014999999664723875 0.0090697216801345366 11.250000000000002 0.16499999910593036 0.25499999523162847 1.1875000000000002 0.14500000327825549 0.16499999910593036 35.795000076293952 0.11499999836087228 0.30500000715255743 0.25499999523162847 0.074999999254941954 0.11499999836087228 0.15500000119209292 0.16499999910593036 0.12499999627470972 0.11499999836087228 6.5183334350585946 0.28499999642372137 0.023531951010227207 11.250000000000002 -1.4999999999999998 0.27500000596046453 0.27500000596046453 0.064999999478459372 0.2650000005960465 0.11499999836087228 0.2950000017881394 0.32500000298023229 0.16499999910593036 0.90500000119209301 -0.012424745131283997 0.27500000596046453 0.14500000327825549 0.2650000005960465 0.014999999664723875 0.0082246959209442156 0.17500000447034839 0.42499999701976782 0.24499999731779101 1.5000000000000002 3.5000000000000004 0.14500000327825549 1.5549999475479128 0.10500000044703485 1.0000000180025095e-35 0.46500000357627874 0.074999999254941954 0.074999999254941954 11.000000000000002 0.064999999478459372 6.6349999904632577 0.28499999642372137 0.2650000005960465 -0.22500000149011609 0.51639053225517284 -2.1550000905990596 -0.0072060152888298026 0.19500000029802325 0.22500000149011615 -0.017496161162853237
decision_type=2 2 2 2 2 2 2 2 2 2 2 2 2 2 2 2 2 2 2 2 2 2 2 2 2 2 2 2 2 2 2 2 2 2 2 2 2 2 2 2 2 2 2 2 2 2 2 2 2 2 2 2 2 2 2 2 2 2 2 2 2 2 2 2 2 2 2 2 2 2 2 2 2 2 2 2 2 2 2 2 2 2 2 2 2 2 2 2 2 2 2 2 2 2
left_child=2 5 14 11 10 18 19 37 25 12 17 13 23 58 16 38 22 29 42 24 -12 -8 -1 43 -6 40 32 31 45 62 61 34 50 53 -26 51 77 -4 -13 -21 -9 -10 88 57 -32 55 56 60 -31 78 -24 68 66 -25 -36 72 -14 -7 59 -3 71 -23 -5 -34 -11 -66 -20 82 -27 70 -46 91 92 -42 -51 -43 -55 -22 -50 -61 -49 -52 -68 -47 85 90 -48 -79 89 -2 -85 -17 -15 -40
right_child=1 3 7 4 6 9 21 8 41 64 20 15 46 28 -16 47 -18 -19 52 39 36 30 26 33 27 35 -28 -29 -30 48 44 -33 63 -35 54 -37 -38 -39 93 -41 73 75 -44 -45 69 83 86 80 49 74 81 -53 -54 76 -56 -57 -58 -59 -60 79 -62 -63 -64 -65 65 -67 67 -69 -70 -71 -72 -73 -74 -75 -76 -77 -78 87 -80 -81 -82 -83 -84 84 -86 -87 -88 -89 -90 -91 -92 -93 -94 -95
leaf_value=-0.038601723933078709 -0.02054328779996261 0.0053744581947881322 -0.03272350337551698 -0.020186826962888892 -0.046119014947121353 -0.022206747805728524 -0.00067373750861843393 -0.02010030142028435 -0.012632473596116226 -0.041173067203361884 -0.011862925706719025 -0.0029318694391789256 0.0097027957280986683 0.01625596845766427 0.00073191267428739093 0.005130353290462495 -0.042586382222383146 -0.046949114335042147 -0.021397510609258374 -0.014818432086459414 -0.018337153788084964 0.014668626075504027 -0.047069299805823639 -0.023605771722223185 0.0042346465616757934 0.0056558955074235131 -0.037022142314114902 -0.012294127348673113 -0.016818904369058189 0.013878419264337891 -0.028842224959761256 0.023171393629823553 -0.031766231936515087 -0.032316679948125086 0.022043399155251248 -0.01109219921763255 -0.0095782744451894958 0.0074769036469555326 -0.029145946980203025 0.0099930188855233883 0.00045884825262932104 -0.038197054905393039 -0.046308535709433815 -0.046683700964659763 -0.0078823304958894093 -0.024588480553384653 -0.013062208931580964 -0.043427630423747671 -0.023976532378722853 0.012440510833337247 -0.0027137490519109457 -0.045794974501624536 -0.02861730364699468 -0.014619859913964486 0.016136579573484071 -0.039193820477389479 -0.04516257475478342 -0.0028740819189508396 -0.045744458607597432 -0.016302569736152357 -0.044795993398730631 -0.044204386130223414 0.01131214072885846 -0.010678986203887932 -0.03120422330739971 -0.0033394632507320848 0.0067573222470840855 -0.023151113350369758 -0.0066313450993088427 0.012891406997878059 0.0080536551539892431 0.020960333574327941 -0.038616607225187255 -0.019264247478453879 0.0013883302449862077 -0.023619608397883293 0.0083753106451230092 -0.0072143229022005352 0.00097240285643963224 -0.002558616151934191 -0.0038055810269281018 -0.01917606631244792 -0.0079821723373768774 -0.020947211001399037 0.022944708050111704 -0.016641589124118183 0.0086602300925808697 0.0076489340542498889 0.013129486659862339 0.0022798714426278091 0.0080421213698969578 -0.006534880099734428 -0.021276225606402337 -0.013562656228502399
leaf_weight=2396.6962395342998 124.09032403700985 888.55396826728247 1510.2864734136965 216.27775859087706 37.999357583466917 248.43851979053579 1501.6111682833871 1203.6247182147345 615.72436888760421 633.91277160111349 1252.2042290073587 1014.7405310724862 645.69583495508414 2994.8273091431474 246.34240991482511 2897.4573770834832 2398.2800935653504 70.747934467042796 350.57994059217162 209.46173845755402 102.69794429070316 6263.0396266508615 107.02023743069731 1228.5188718680292 652.79035893338732 1621.8186849792255 1350.4761911735404 148.80234566773288 204.82473394402768 5884.8610969071742 77.913447386585176 7355.8688706136309 1869.5882304315455 991.83077075169422 3722.2593934054021 1141.318892104784 614.05041806644294 73.458707555895671 276.66744414228015 1140.3499264267739 585.13947565562557 450.86175012704916 42.592088401084766 64.631751228589565 543.89536924147978 54.027615022845566 642.71511525951792 37.474391921889037 115.48480210523121 2379.0204734904692 254.31449897075072 36.175869209226221 251.35169888753444 612.25245054764673 5715.79728769348 24.200271355686709 24.491199545213021 1044.2040774488123 37.93174591823481 419.940655829967 28.726179458200932 19.494944732403383 105.74776258016936 178.45002727257088 541.05431342555676 116.66779398499057 425.88653982663527 201.89312028430868 617.6537342768861 1236.4621916944161 1284.8144664773718 228.895796086872 20.835742562543601 231.09721608937252 685.53388113470282 909.11947003367823 144.7990591613343 278.15792821079958 596.94665697496384 1304.2412986428244 1713.553033653996 1572.4907172673848 738.83899019460659 64.904211212648079 283.43109718360938 102.98231761483476 151.01291326107457 2966.2420981839532 463.71325763559435 2753.9414211526746 4353.5677973043639 466.98547254339792 37.587333724368364 1160.7630486584967
leaf_count=229989 6364 24410 159612 10787 2732 15239 29159 70095 45232 54273 28678 34277 25920 24943 5082 52738 258605 5344 14557 2736 2775 41881 8479 86271 9184 51023 122003 1535 4809 65033 1200 29066 155797 74771 19937 56787 14168 1967 17113 9033 20710 45852 3260 5159 5691 1540 35433 1796 2772 22078 15578 3288 14861 30572 29222 746 1915 52404 3345 19923 2698 1486 2752 13131 38425 5152 7591 8187 32072 8862 9414 1787 1496 15837 14789 79577 4119 9263 9023 40809 39512 119374 26310 2299 1532 2053 5702 37956 7632 69162 50067 10514 652 40612
internal_value=-3.0248e-06 0.0062308 -0.0245379 0.00965332 0.012469 -0.0113148 0.0154416 -0.0148141 -0.0113815 -0.0177749 0.00664414 0.00281966 -0.0142318 0.00670032 -0.0329666 -0.00253148 -0.033787 0.0102894 -0.00275413 0.0185525 -0.00038576 0.0100346 -0.0310479 -0.018578 0.0195027 -0.0069463 -0.0276414 0.0196488 0.00977142 0.0107028 0.0117412 0.0199227 -0.0244452 -0.0231266 0.0175507 -0.00273039 0.00324364 -0.0308488 -0.010949 0.00612509 -0.0140673 -0.0235683 0.0022921 -0.00857982 0.00627162 0.0104617 -0.0013517 0.0013107 0.0113888 0.00750387 -0.0186016 0.00146461 -0.0114286 -0.0185113 0.0184701 0.014935 0.00759026 -0.00661694 -0.00272953 -0.00207628 0.00421652 0.0144742 -0.00981542 -0.0299417 -0.0336403 -0.0262918 -0.00888547 -0.00565032 0.00226152 0.0071803 0.0033073 0.00462896 0.0153856 -0.00514118 0.0099725 -0.0284946 -0.0102039 0.0056014 -0.00310318 -0.00592169 -0.00469427 -0.0168925 -0.00258443 0.00762313 0.00799445 0.00704832 -0.00891138 0.00636958 0.00293428 0.00128303 0.00760763 0.0035068 0.015778 -0.0165945
internal_weight=95608.7 76238.8 19369.9 63795.7 45178.5 12443.1 29910.6 8996.28 7412.53 7090.23 15268 18617.1 5798.59 10791.9 10373.7 7825.26 10127.3 10054.6 5352.89 18983.3 5213.35 10927.2 7729.04 4334.68 17633.5 5436.83 5332.34 17595.5 8141.19 9983.87 9425.62 17446.7 3981.86 2977.4 10090.8 3416.97 3961.15 1583.75 2452.17 1349.81 2019.86 1975.71 3384.34 1357.27 3143.09 7936.36 1463.92 5373.09 9661.85 3776.99 1933.83 2275.65 1968.55 1985.57 9438.06 3077.45 670.187 1292.64 2650.67 2612.74 3622.06 6282.53 322.026 2048.04 1291.63 657.722 1717.2 1366.62 2239.47 3065.17 1828.71 3593.34 3053.25 816.237 3064.55 1359.98 757.052 3347.1 712.431 1724.18 1751.03 1826.81 1164.73 4858.91 4804.89 4521.45 793.728 3244.4 3341.75 2878.03 4418.47 3364.44 3032.41 1437.43
internal_count=2909596 1399506 1510090 806227 426556 593279 201138 582052 420473 435355 225418 379671 337505 178624 928038 201047 922956 132578 157924 103445 92840 97693 664351 268535 91676 249812 434362 88944 90137 127234 68534 87409 312359 195733 58343 143170 64162 161579 92002 11769 106642 170661 86418 72802 25167 85328 68970 109045 113695 48662 143431 86383 71506 120962 49159 27837 27835 67643 88487 85142 67737 43367 13539 168928 97850 43577 56645 42088 83095 23967 15105 65039 27091 36547 36867 125429 34691 49994 11795 60732 41308 134952 33901 57491 55951 54419 41135 47219 83158 75526 52366 63252 25595 57725
is_linear=0
shrinkage=0.025


Tree=3
num_leaves=95
num_cat=0
split_feature=130 10 25 25 133 111 130 130 112 32 133 63 130 122 8 8 8 112 8 10 8 8 113 90 147 63 0 124 113 130 114 124 63 40 40 10 40 123 123 8 29 8 133 63 22 94 122 36 61 40 26 16 57 40 79 29 32 22 8 40 108 95 26 90 16 94 63 26 89 8 123 117 8 124 95 29 40 79 40 138 131 1 100 123 130 8 61 8 33 25 107 147 114 79
split_gain=19779.5 5912.88 2224.07 2052.83 992.771 893.75 723.351 684.889 590.118 567.693 483.244 446.64 426.139 377.067 352.578 340.886 332.151 294.692 290.9 255.547 246.059 238.534 238.501 212.703 211.845 187.69 190.072 174.973 172.542 169.194 165.208 162.925 159.264 158.99 155.445 150.083 179.96 148.746 147.292 145.741 144.212 139.884 136.694 131.884 128.268 128.025 123.31 123.174 120.841 117.813 116.22 114.134 111.852 109.614 104.987 104.979 103.542 101.865 97.4125 96.2901 97.4161 95.993 94.4104 94.0593 90.7159 89.4464 94.9328 88.6973 94.7789 88.4937 87.9431 85.8526 84.3446 84.0622 83.0986 83.0255 82.7919 82.1651 80.6354 78.8805 78.7216 80.5379 78.0474 77.0339 76.3648 76.1663 75.4516 75.1693 74.0293 71.9341 71.6283 71.376 70.7997 70.3036
threshold=0.16687040030956271 1.5000000000000002 -1.0000000180025095e-35 0.18500000238418582 0.16014975309371951 -2.4999999999999996 0.17142248898744586 0.16306395083665851 -1.0000000180025095e-35 1.5000000000000002 0.15753956884145739 0.1630518585443497 0.17166834324598315 6.5183334350585946 0.15500000119209292 0.23499999940395358 0.16499999910593036 -1.0000000180025095e-35 0.18500000238418582 3.5000000000000004 0.12499999627470972 0.12499999627470972 -1.0000000180025095e-35 6.6649999618530282 0.1764384135603905 0.16765375435352328 3.5000000000000004 0.28499999642372137 1.0000000180025095e-35 0.16567617654800418 5.7883334159851083 0.30500000715255743 0.15613073855638507 0.20499999821186068 0.22500000149011615 3.5000000000000004 0.17500000447034839 0.12270100414752962 0.12032362818717958 0.18500000238418582 -0.022499999962747094 0.11499999836087228 0.16495698690414431 0.16371731460094455 3.5000000000000004 6.6050000190734872 6.618333339691163 5.7750000953674325 1.0875000357627871 0.24499999731779101 6.6849999427795419 0.30825693905353552 0.60500001907348644 0.095000002533197417 11.250000000000002 -0.027500000782310959 1.5000000000000002 2.5000000000000004 0.19500000029802325 0.2650000005960465 0.0027135600103065376 0.16162016242742541 -0.024999999441206452 6.7449998855590829 -1.0650562047958372 0.25499999523162847 0.16978378593921664 0.024999999441206459 -0.74500000476837147 0.19500000029802325 0.081988908350467696 2.0349999666213994 0.18500000238418582 0.28499999642372137 0.15804520249366763 1.1025000214576723 0.13499999791383746 3.6499999761581425 0.22500000149011615 16.500000000000004 0.013483466114848854 5.5850000381469735 1.0000000180025095e-35 0.10354803875088693 0.16101276874542239 0.10500000044703485 0.019166666083037857 0.24499999731779101 5.6349999904632577 1.4249999523162844 -13.752500057220457 0.17674672603607181 7.1583333015441903 3.6499999761581425
decision_type=2 2 2 2 2 2 2 2 2 2 2 2 2 2 2 2 2 2 2 2 2 2 2 2 2 2 2 2 2 2 2 2 2 2 2 2 2 2 2 2 2 2 2 2 2 2 2 2 2 2 2 2 2 2 2 2 2 2 2 2 2 2 2 2 2 2 2 2 2 2 2 2 2 2 2 2 2 2 2 2 2 2 2 2 2 2 2 2 2 2 2 2 2 2
left_child=2 5 10 4 17 11 13 48 22 21 23 32 16 -5 28 24 31 58 27 43 46 37 29 69 85 -8 33 40 49 45 64 59 -2 56 83 51 -37 57 54 82 86 -10 61 75 -28 67 -12 78 -4 92 55 -23 -30 -18 -26 -48 74 -6 -3 60 -7 -20 93 -64 -14 66 -42 68 -9 84 -47 -62 -32 -31 -27 -16 -17 -45 -24 -49 81 -55 -19 -34 -1 -13 -11 -44 -56 -21 -79 -35 -15 -22
right_child=1 3 7 6 9 12 25 8 41 18 20 15 30 14 19 76 53 39 42 89 62 35 47 -25 38 26 44 -29 52 73 72 -33 34 91 -36 36 -38 -39 -40 -41 65 -43 87 77 -46 70 50 79 -50 -51 -52 -53 -54 80 88 -57 -58 -59 -60 -61 71 -63 63 -65 -66 -67 -68 -69 -70 -71 -72 -73 -74 -75 -76 -77 -78 90 -80 -81 -82 -83 -84 -85 -86 -87 -88 -89 -90 -91 -92 -93 -94 -95
leaf_value=-0.041104870350776146 -0.016157083329749654 -0.0084786649465245795 -0.034742977482845959 -0.04617290226695292 -0.0021474383646231401 0.0085019304333528705 -0.0018545233666408178 -0.017705110749502304 -0.013335347280841401 0.0046575885015058991 -0.04470528110612168 0.010388958882322996 -0.035610020801499352 0.0071770989981141294 -0.016868600053140014 -0.028070528465941314 -0.023459779838781059 -0.016273457229807754 0.0091998536016316048 -0.01836817788996668 -0.005997613927683592 -0.0048846962584671583 -0.016346748834701615 -0.0061923460627526135 0.0088461351505155997 -0.022305997972357411 -0.002158134662362934 -0.045877997999666659 -0.0081468479065188414 0.0019268405823557192 0.021663356589858563 -0.044545844925583368 0.0038206965234327873 -0.0075082720899692455 -0.013541566806198543 -0.021736345466490652 -0.00064929298179462291 -0.044707727139017842 -0.039911439348545213 -0.036584596140997648 -0.017163741717953745 -0.027925232280567633 -0.0070928854889669201 0.01025399151554289 0.0087958585848477155 0.015651599697320193 -0.0050656400277709736 0.011072764188222405 -0.0087210205301769591 -0.016498502720650791 0.023512561211629205 0.0082985355019266644 0.0023326851222444634 0.0027040576162109947 0.010572256242583964 -0.020933788891732686 0.010530966075723803 0.011758248295919963 -0.025906822534050217 -0.016455167102556716 -0.022582973714618051 -0.03171409894266243 -0.033379714941463294 -0.0011890264002780127 0.015055055906347562 0.0079808788608226166 -0.0064334257778381173 -0.02197870042239328 -0.003412812405466919 -0.042569971181657375 -0.037006115056667697 0.015552424057727124 0.013877636839058727 -0.044128417080585368 0.019873944407548094 0.024689158052912899 -0.0033120574100771842 -0.030476458604323731 -0.032793533826681348 -0.011148156969019021 -0.016767225925577497 0.010079016501170525 -0.028090713846639633 -0.038292927464606219 -0.032792986605782434 0.0019801440015763104 -0.0090937640255744339 -0.02935070815607381 0.016733334191536726 -0.0080396726004500936 -0.00070818400102514193 0.0080920892737542313 -0.014319467844823814 -0.025914151528650176
leaf_weight=1052.6067702847067 407.28223119489849 984.63645109347999 1047.5807283185422 115.14472769736312 435.74320752965286 1545.4530956924427 995.28972968470771 437.95281801256351 608.87556577473879 717.63918632932473 95.300296290777624 980.88528061797842 20.704794636461884 3853.151287849294 420.91176666691899 93.541897918330505 79.891535775037482 655.22081299207639 36.896112049929798 986.46710375556722 145.8800807944499 1086.0365552913863 820.35871150903404 137.84884292085189 3241.9963713025209 28.298224427271634 1067.3758120915154 74.750481938710436 1165.1215717701707 1938.1813987052301 5728.9141955608502 28.247281392337754 2150.0090878729243 259.61252985871397 405.57788523077033 546.00903313630261 471.72352363239042 32.176897222409025 32.268933301791549 724.77394757024013 1179.6352480147034 1306.6467658048496 387.33766036294401 459.58721456420608 1778.2411102256738 176.4307043752633 357.56985685019754 135.48423438263126 127.02963368524797 140.86638342728838 45.001155755133368 657.72383812011685 1398.2981711667962 1841.2892204722157 1907.6677907176781 984.73306138569023 1545.3814757838845 1329.7132803453133 252.1514612272149 62.73746806033887 35.651898128911853 683.88378632289823 2089.8640625006519 58.92616541380994 6564.6155231199227 141.40593103622086 924.1700639546616 382.07114552124403 860.78048027097248 1692.5489925907459 20.806339089991525 8042.1086831942666 1045.2360237506218 23.581792113371193 1913.1574759955984 30.901841172482818 772.82104218448512 50.559549477417022 245.10043651540764 365.73554868693464 92.219490800518543 1869.4266687320778 782.11246907652821 25.974427341949195 2327.9621688604821 2152.4574939031154 380.24250732164364 125.43217553733848 3480.1111836095806 747.82099117781036 1741.9558838239172 612.03279317985289 96.620904053677805 488.48771456535906
leaf_count=122328 18971 39517 129556 11193 13685 10793 21527 27739 47952 23714 8109 10848 266 79349 18429 2344 1822 43025 1188 56291 10077 34025 55567 3109 32234 638 20847 6279 47352 62538 17288 2531 45085 3362 11816 30651 17507 2646 2271 65574 67885 133496 16362 8312 22302 2521 24326 3670 5264 3496 358 10535 38879 20024 16954 82467 17169 26759 15655 1087 965 51738 199415 1003 29235 3450 38406 29792 39861 191366 1742 51363 4864 2123 14450 358 10215 1920 19119 21131 2257 15707 61881 1766 240307 27674 16704 7854 20994 29020 41528 5528 3091 45205
internal_value=1.53626e-05 0.00568611 -0.0235271 -0.00243182 -0.0102848 0.0117862 0.0026706 -0.0142339 -0.0113849 -0.00602049 -0.0318547 0.00703228 0.0145455 -0.00145721 -0.000986178 0.00908408 0.0114257 -0.0218305 -0.0121638 -0.00644306 -0.0255899 0.000247415 -0.0071547 -0.0369729 0.010196 0.00831288 0.00971871 -0.00839786 0.00265302 -0.00379524 0.0177185 0.0138964 -0.00165751 0.0130004 0.000635182 -0.00436385 -0.0119851 0.00733307 0.0122116 -0.0274009 -0.00753737 -0.0233056 -0.0225692 -0.00163332 0.00468547 -0.00915613 -0.017321 -0.0153722 -0.0319499 0.00583957 -0.0153882 8.64093e-05 -0.00242951 0.00523946 0.0124142 -0.0167227 0.0153876 0.00832295 -0.012065 0.0140745 0.0142769 -0.0295946 -0.0299804 -0.0325019 0.0148865 -0.0111663 -0.0124616 -0.0113943 -0.00825303 -0.0378057 0.00982167 0.015379 0.0204665 0.00133611 0.0192385 -0.0139374 -0.00603779 0.000839414 -0.020178 -0.00511161 0.00585335 0.00642409 -0.0227315 0.00328851 -0.0354004 0.00461861 -0.000104169 -0.0126218 0.0145568 -0.0139297 -0.00157679 0.00343214 0.00664411 -0.0213709
internal_weight=92596.6 74623.3 17973.3 32016.2 12609.4 42607.1 19406.8 8496.62 7322.01 9210.52 9476.73 15650.6 26956.5 11207.4 11092.3 12661.7 13597 3398.9 4651.39 4438.2 4265.76 4559.13 5406.48 5210.97 11795.4 8199.39 7204.1 3417.84 6654.06 3839.8 13359.5 9714.2 2988.84 4358.48 2581.56 2761.49 1017.73 1797.63 8662.04 2162.11 3343.09 1915.52 1233.55 2703.92 2845.62 1878.04 1482.6 1566.68 1174.61 4090.64 1387.3 1743.76 2563.42 3882.83 8629.78 1342.3 3486.84 1765.46 1236.79 9685.95 9623.21 720.78 2783.16 2148.79 6585.32 2245.21 2103.81 1680.8 1298.73 5073.12 197.237 8077.76 6774.15 1961.76 1941.46 451.814 866.363 2252.1 1065.46 501.22 3802.94 3710.72 1437.33 2175.98 3380.57 3133.34 1097.88 512.77 5387.78 1734.29 1792.52 871.645 3949.77 634.368
internal_count=2909596 1399455 1510141 1040081 595040 359374 445041 582071 447251 369388 928070 201172 158202 339218 328025 123534 106549 225652 233580 155858 370960 135808 265803 557110 110975 105823 84296 156438 172167 166316 51653 66739 77638 41147 58667 92718 48158 43090 72453 170480 150159 181448 77142 70547 43149 101655 115260 99487 134820 85936 107151 44560 86231 39810 70182 106793 32257 40444 55172 64208 63121 52926 255700 200418 29501 109741 106291 97392 67600 554001 4263 52328 22152 64661 15088 18787 12559 51760 74686 24801 37988 35731 104906 46851 362635 38522 40418 24216 37948 85311 43448 8890 82440 55282
is_linear=0
shrinkage=0.025


Tree=4
num_leaves=95
num_cat=0
split_feature=130 31 134 25 133 63 8 112 125 130 130 114 58 133 112 8 8 125 40 72 130 134 130 8 8 148 72 8 130 40 58 8 8 8 8 112 134 124 63 72 40 7 63 29 124 72 29 125 26 8 40 133 63 124 61 8 8 89 130 130 40 21 7 72 90 21 133 8 123 61 130 130 21 40 72 85 8 8 25 72 134 123 22 109 8 109 72 53 16 99 72 109 109 26
split_gain=17331.2 5746.97 2001.32 1502.07 1072.14 912.105 732.41 605.941 540.918 486.207 458.245 423.749 386.374 371.306 356.809 330.801 326.564 264.972 258.76 249.349 213.728 206.247 188.35 183.025 174.524 172.331 178.441 169.3 167.284 160.676 159.078 157.297 154.031 144.831 132.198 131.261 127.291 124.243 123.001 122.692 122.344 118.659 111.017 110.502 105.092 103.997 99.8835 98.7377 98.3644 98.2778 96.4663 93.4083 91.0883 90.7944 123.428 91.7443 90.128 88.9693 85.4697 82.8799 96.6838 82.4745 82.043 79.5704 90.9927 77.8455 84.5968 75.9501 75.5613 74.8247 74.4578 74.2362 73.0327 72.6541 72.1293 71.8607 71.2805 71.2668 70.5603 70.2358 69.6116 69.0384 68.9339 92.1603 70.2826 68.3864 66.7009 66.5558 66.1653 78.3443 65.7758 65.3619 65.2532 64.6248
threshold=0.16648297011852267 0.16792864352464679 153.50000000000003 -1.0000000180025095e-35 0.1595757678151131 0.1648463308811188 0.19500000029802325 -1.0000000180025095e-35 6.3849999904632577 0.16306395083665851 0.17338638752698901 5.4383332729339608 6.6649999618530282 0.1582039073109627 -1.0000000180025095e-35 0.21499999612569812 0.20499999821186068 6.4749999046325692 0.21499999612569812 0.15500000119209292 0.16930901259183886 144.00000000000003 0.16889280825853351 0.31499999761581426 0.19500000029802325 1.0000000180025095e-35 0.16499999910593036 0.18500000238418582 0.173917330801487 0.12499999627470972 0.034999999217689044 0.12499999627470972 0.18500000238418582 0.11499999836087228 0.12499999627470972 -1.0000000180025095e-35 363.00000000000006 0.28499999642372137 0.15544679015874865 0.25499999523162847 0.24499999731779101 6.7149999141693124 0.15800908952951434 1.1241666674613955 0.37500000000000006 0.17500000447034839 -0.0058333333581686011 6.555000066757203 0.014999999664723875 0.10500000044703485 0.16499999910593036 0.15577320009469989 0.17149563878774646 0.45000000298023229 2.2441666126251225 0.17500000447034839 0.19500000029802325 -3.4250000715255733 0.17323424667119983 0.17257087677717212 0.22500000149011615 -0.31920959055423731 6.805000066757203 0.10500000044703485 -0.03499999921768903 0.71823149919509899 0.16640822589397433 0.10500000044703485 0.12032362818717958 -1.3322676295501877e-15 0.161423534154892 0.16925828158855441 -1.513103663921356 0.2650000005960465 0.10500000044703485 0.85711154341697704 0.14500000327825549 0.10500000044703485 2.4550000429153447 0.21499999612569812 414.00000000000006 0.08819162100553514 3.5000000000000004 0.0017190053476952019 0.36500000953674322 -0.0041810912080109111 0.23499999940395358 0.87375158071517955 1.0391662120819094 -0.095000002533197389 0.14500000327825549 -0.00011463399641797876 0.016428352333605293 0.024999999441206459
decision_type=2 2 2 2 2 2 2 2 2 2 2 2 2 2 2 2 2 2 2 2 2 2 2 2 2 2 2 2 2 2 2 2 2 2 2 2 2 2 2 2 2 2 2 2 2 2 2 2 2 2 2 2 2 2 2 2 2 2 2 2 2 2 2 2 2 2 2 2 2 2 2 2 2 2 2 2 2 2 2 2 2 2 2 2 2 2 2 2 2 2 2 2 2 2
left_child=3 4 6 12 24 18 11 27 -7 43 16 22 13 56 21 19 30 -13 25 31 -8 39 73 29 35 26 85 37 40 -22 36 52 46 47 -16 -2 57 61 -23 -11 49 -32 -20 -5 59 72 69 -21 87 -19 -18 -27 93 54 55 75 70 -10 74 60 -24 -6 -35 64 92 -29 -67 -63 -53 -15 -1 -59 -37 81 -31 -40 91 -38 -57 -17 -33 -3 83 -52 -84 -4 -25 -12 89 -79 -44 -28 -51 -9
right_child=1 2 5 9 7 8 20 15 10 14 48 17 -14 32 34 79 50 28 42 33 23 38 44 86 -26 51 76 65 -30 58 41 80 -34 62 -36 45 77 -39 53 -41 -42 -43 90 -45 -46 -47 -48 -49 -50 63 82 68 -54 -55 -56 78 -58 71 -60 -61 -62 67 -64 -65 -66 66 -68 -69 -70 -71 -72 -73 -74 -75 -76 -77 -78 88 -80 -81 -82 -83 84 -85 -86 -87 -88 -89 -90 -91 -92 -93 -94 -95
leaf_value=-0.039308367949652048 -0.011255685319099692 0.0043110136854810624 -0.022378194333935977 -0.033383371338283806 0.007346562422215118 -0.045618710324978363 -0.0068250539316723454 -0.010142202896519931 -0.027193892756914525 0.0041682615584663534 0.015188955054906184 -0.044969927678568652 -0.00067427624119521779 -0.0072743142197060021 -0.013670943771197534 -0.034802719917040058 -0.016502190437351998 0.017113537671894288 -0.030045758576133438 -0.042774318024197983 -0.011930906153170539 -0.025299526073660816 0.010251872886889484 -0.041904975656536544 -0.036376745272036957 -0.013324568432930027 0.01594896381662014 -0.0054611464290499128 0.01941315208441436 -0.019582388140140468 0.0079618222919048895 -0.015439133743568005 -0.034130686542657267 -0.0019255257806977885 -0.028976654894033123 -0.004620360032497277 0.0072117246542955848 -0.043958327179128204 -0.0046339315929921103 -0.026525271032973658 4.7454526204863696e-05 -0.0049162090113559894 -0.028679605896389911 -0.0045470125595820695 -0.04289434811358557 -0.013472707661514607 -0.026684961985319302 0.01083309563121658 0.0068386539593186151 -0.020124923274346666 -0.027650634569846566 0.0027903691918335343 -0.0034458987448036226 -0.04255895130124427 0.029669806889467288 -0.01915062523902587 -0.041522358986030641 0.0035730421963449375 0.01273049336132112 0.014470638458474039 -0.0025270483522628097 0.0061161983511390239 -0.013687329551795281 0.013863565317010711 0.0098232604277848461 -0.029280418357958291 0.0057582212727696602 -0.0039256290712084514 -0.042930667144907675 -0.021560508127347378 -0.031356836064165228 0.0099270338547604343 -0.03239245982410343 -0.027361243684074457 0.0059262007784214657 -0.01580173105547561 -0.0062964088392031175 0.017509787968717445 0.01176602557139006 -0.019375263556094969 -0.028589605182059094 -0.030388339148900007 0.0015537447456196768 -0.0047665498902837843 -0.046049090767683251 -0.010078175085329984 -0.0083126579910930247 0.0061246004763098232 0.0035948725326137819 -0.0070784879276585321 -0.0093794889804032326 -0.01059474266427576 0.010916584751295796 -0.026342511699549927
leaf_weight=1200.6319501150865 554.38558647618629 2382.5354302533669 482.7454582285136 996.08907297160476 1399.7395733052399 128.80171419470571 1032.1687096550595 392.9318691076478 42.695069227484055 860.48597737040836 3211.4306951969629 43.91819620213937 247.61256484407932 389.306909176521 577.44517327426001 431.56648558564484 425.85743774252478 5690.2084229940083 288.84523681073915 21.030480467015877 270.26664080820046 381.69867724785581 5169.781838519033 55.800210303161293 680.85725883347914 263.38329093018547 239.27606187947094 839.36549483728595 5130.5199769670144 69.57522789388895 617.05604289262556 451.43486014544033 927.04656334081665 781.36642753321212 933.85323513415642 65.007376322988421 1140.3001767359674 34.59756465558894 1500.9149805018678 88.361635729204863 374.78243296756409 1611.1741026241798 128.71078730537556 91.824263140792027 21.038502068724483 312.08390767942183 1205.1031266455539 453.14836026448756 1955.793172347825 118.01155370264314 137.62813028995879 2306.3839149185224 666.22343206615187 51.918212159536779 47.730494535993785 768.71101144957356 1644.3489965719637 1521.7080935506383 1483.4291963295545 3071.8826252948493 396.9903025792446 713.62215394666418 707.62706413387787 7717.6647118239198 1113.8432770707877 190.71149764000438 54.499868474667892 1375.4204826331697 21.301820364315063 570.17798141110688 2155.3189919571159 4775.7100598702673 826.65746976435184 46.184974749106914 2656.6852929284796 474.78023039002437 400.00435191090219 86.819151825504377 47.801917319418862 340.69927974871825 598.73881865572184 34.853416147176176 1059.0665372291114 535.99836825905368 18.241381927859038 698.76330393971875 109.00123889930546 607.89903640677221 1179.9682559049688 965.53344560426194 772.0676219840534 74.855938297929242 64.004608746850863 257.7165490067564
leaf_count=148600 28064 33410 30476 131100 30228 12124 20459 24523 1934 25653 28219 3635 4653 28514 50685 40173 16604 32607 18980 2019 4275 32665 40735 1343 68278 13356 6115 32156 16055 1218 11005 27091 97682 36029 107228 4261 23328 3339 77056 4261 4266 40692 6906 3720 1867 23772 117698 14679 28238 1459 6075 53433 31531 4888 233 53422 200083 33540 7372 13721 5098 16302 41313 49241 7828 11557 1353 42151 2035 49861 236173 57953 78112 1673 22496 29866 18383 1570 1912 24751 51843 1748 22126 14451 851 32682 1395 6784 25081 34133 27198 3188 505 20252
internal_value=2.13891e-05 0.00495569 0.00800284 -0.0243531 -0.0107811 0.0026412 0.0117209 -0.00705589 0.00514918 -0.0156448 0.00548169 0.013216 -0.0314713 -0.0324124 -0.0127292 -0.0129893 0.00305353 0.0153701 -0.00620271 -0.0102916 0.00345483 -0.0089896 0.00929175 0.00574233 -0.0255961 -0.00344943 -0.00917473 -0.000481967 0.0155049 0.00669762 0.00467731 -0.0157537 -0.0255667 -0.003695 -0.0231529 -0.0213894 0.00605936 0.00217555 -0.0119633 0.00126467 0.0141729 -0.00134362 -0.0165631 -0.030966 0.0110271 -0.0260305 -0.0218743 0.00831238 0.0114139 0.0145324 -0.00584749 0.000739226 -0.00997043 -0.0101883 -0.00957171 -0.0102608 -0.0366347 0.00814685 0.00789919 0.0111667 0.00933877 0.0026539 -0.00752837 0.0128995 0.00714238 -0.00911323 -0.0214748 -0.000489801 0.00234136 -0.0157922 -0.0342201 0.00839406 -0.0303873 0.00318577 0.00526205 -0.00733142 0.000682081 0.00213104 -0.0173132 -0.0280571 -0.0229739 0.00378909 -0.0032399 -0.00950414 0.000677857 -0.0151321 -0.0200072 0.0137512 -0.000463984 -0.0050208 -0.0121887 0.00957969 -0.00916853 -0.0166163
internal_weight=90061.8 74900.6 62751.2 15161.2 12149.4 25698 37053.1 9710.44 20021.7 6821.61 19892.9 31376.2 8339.55 8091.93 5733.7 5102.48 14117.8 20253 5676.34 4330.22 5676.93 4222.4 11123.3 4644.76 2438.99 4486.71 1895.65 4607.96 20209 4479.96 11941 2367.05 3091.63 1963.17 1511.3 1758.13 9712.73 3523.38 3273.56 948.848 15078.5 2228.23 1189.62 1087.91 8659.69 1203.75 2164.59 474.179 5775.12 14703.7 2176.79 2591.07 1316.87 2891.86 2839.94 2792.21 5000.3 6340.11 4209.69 8638.65 5566.77 3488.78 1488.99 9013.52 1295.86 1084.58 245.211 2089.04 2327.69 959.485 3355.95 6297.42 891.665 2463.57 2726.26 1975.7 714.136 3372.62 816.513 772.266 1050.17 2417.39 1750.93 673.626 1077.31 1181.51 164.801 3819.33 2232.32 1052.35 900.778 314.132 182.016 650.648
internal_count=2909596 1503643 849866 1405953 653777 577460 272406 451290 364708 522689 352584 213848 883264 878611 387869 314204 289343 115596 212752 249280 58558 229956 98252 38099 202487 159668 90844 137086 111961 35361 229236 155240 293755 94040 157913 134209 177539 92020 200042 29914 95906 51697 53084 134820 61421 106145 196073 16698 63241 91640 60107 68824 76306 167377 162489 162256 584856 93427 31086 59554 45833 88681 77342 59033 9792 45066 12910 58453 55468 78375 384773 91493 82373 36831 23714 106922 27686 84112 55334 64924 78934 35158 43503 20526 22977 63158 2738 35003 60784 35703 34104 9303 1964 44775
is_linear=0
shrinkage=0.025


Tree=5
num_leaves=95
num_cat=0
split_feature=145 134 16 145 57 112 134 145 8 145 8 122 42 125 138 145 125 131 26 8 8 26 8 57 72 114 8 125 72 58 62 133 74 72 48 133 124 109 53 29 8 21 8 109 145 72 111 57 133 63 40 72 72 125 145 8 16 109 40 61 125 145 48 43 8 8 8 82 53 134 63 85 85 72 145 61 133 68 72 26 8 109 55 110 40 21 114 122 40 10 61 82 48 34
split_gain=15233 5419.19 1724.47 1249.52 866.766 832.258 813.256 721.985 502.229 461.012 460.046 331.168 274.747 261.776 251.406 248.131 244.178 236.624 235.898 214.114 213.566 206.655 199.811 190.625 186.083 183.261 177.917 175.026 171.558 160.608 148.107 154.927 160.964 135.756 133.759 132.901 132.35 124.338 123.432 119.167 118.328 116.474 112.107 107.116 103.695 100.692 99.3679 116.844 99.111 97.019 96.195 94.0422 93.9369 93.6677 92.9931 91.8333 91.4496 90.1858 89.8486 88.5357 87.9198 85.5856 81.5443 81.0197 80.7313 80.1448 78.452 78.0121 76.7366 75.6077 75.5913 75.5181 75.0441 74.7244 74.2748 74.0559 78.423 73.3646 73.048 72.9992 71.8096 71.727 71.0177 70.9822 69.4307 69.3119 69.2191 83.5188 68.8048 68.2822 67.3042 66.4648 65.3977 65.015
threshold=0.49905489385128027 214.50000000000003 0.29737249016761785 0.49042314291000372 -0.095000002533197389 -1.0000000180025095e-35 512.50000000000011 0.50924465060234081 0.15500000119209292 0.50808438658714306 0.20499999821186068 5.1066665649414071 4.5000000000000009 6.4049999713897714 7.0000000000000009 0.52505427598953258 6.4449999332427987 0.0076263069640845069 0.014999999664723875 0.21499999612569812 0.10500000044703485 6.7049999237060556 0.12499999627470972 -0.36500000953674311 0.13499999791383746 5.8883333206176767 0.20499999821186068 6.2950000762939462 0.18500000238418582 6.6549999713897714 0.28499999642372137 0.15168334543704989 5.5000000000000009 0.11499999836087228 0.61183536052703869 0.16271451860666278 0.38499999046325689 0.00067705757101066421 1.1921130418777468 -0.024166666902601715 0.31499999761581426 0.14832478016614917 0.15500000119209292 0.0083391047082841414 0.52505427598953258 0.28499999642372137 -1.0000000180025095e-35 0.60500001907348644 0.15988706052303317 0.16658090800046924 0.16499999910593036 0.20499999821186068 0.16499999910593036 6.5150001049041757 0.48303829133510595 0.11499999836087228 0.55654686689376842 0.0024296415504068141 0.22500000149011615 1.1025000214576723 6.5050001144409189 0.50994759798049938 0.24884401261806491 1.0000000180025095e-35 0.14500000327825549 0.15500000119209292 0.11499999836087228 0.30688300728797918 0.45508159697055822 238.50000000000003 0.16208627820014956 0.91349017620086681 0.81332632899284374 0.12499999627470972 0.51806476712226879 2.1750000715255742 0.15593969821929934 7.5950000286102304 0.13499999791383746 -1.0000000180025095e-35 0.064999999478459372 -0.0058210857678204766 -0.10703664273023604 -0.014720254112035034 0.22500000149011615 -0.48497618734836573 5.7583334445953378 6.9383332729339608 0.15500000119209292 4.5000000000000009 0.10750000178813936 0.68791604042053234 1.3178173899650576 39.815000534057624
decision_type=2 2 2 2 2 2 2 2 2 2 2 2 2 2 2 2 2 2 2 2 2 2 2 2 2 2 2 2 2 2 2 2 2 2 2 2 2 2 2 2 2 2 2 2 2 2 2 2 2 2 2 2 2 2 2 2 2 2 2 2 2 2 2 2 2 2 2 2 2 2 2 2 2 2 2 2 2 2 2 2 2 2 2 2 2 2 2 2 2 2 2 2 2 2
left_child=3 7 6 21 22 18 8 12 16 42 11 -9 19 -11 58 26 -3 41 27 36 53 37 24 52 -4 38 39 -5 81 -20 31 -29 65 62 86 55 45 -1 43 -15 56 -10 60 -16 71 75 47 51 -25 50 -27 -22 -18 -7 -39 78 88 73 63 66 -6 -30 -12 -13 -34 -33 -41 90 -23 -56 82 -45 -66 -55 -26 76 -2 -69 -8 83 -62 -24 -58 -19 -78 -64 -14 -88 91 -68 -50 -35 -43 -82
right_child=1 2 4 5 9 20 35 10 17 13 33 14 34 15 25 -17 23 79 29 -21 46 68 28 48 74 49 -28 30 61 -31 -32 32 64 40 -36 -37 -38 54 -40 59 -42 92 -44 44 -46 -47 -48 -49 67 -51 -52 -53 -54 57 69 -57 70 -59 -60 -61 80 -63 85 -65 72 -67 89 77 -70 -71 -72 -73 -74 -75 -76 -77 84 -79 -80 -81 93 -83 -84 -85 -86 -87 87 -89 -90 -91 -92 -93 -94 -95
leaf_value=-0.038090177669117722 0.00012946118917859281 -0.044379510402035909 -0.011240338130755832 -0.044559639232316185 -0.042754959685467296 -0.044607990479278825 -0.028234852137818674 -0.044283719185996537 -0.0058949209715173324 -0.044465500898117183 -0.042548572313539361 0.018136987490541094 -0.010542224852341218 0.0095514971447379637 0.0072250014068800123 0.014827164480473404 -0.020534930435316921 -0.034545526417481952 -0.02150649042740678 -0.0052563761996298327 -0.035891109310869959 -0.033205604793357622 -0.029225210795532877 -0.01012457035005259 0.0017379011629195962 0.013268280663258062 -0.0037258822090681511 -0.023126242577613851 -0.014475943315419305 0.0091302994697302214 0.010651287975710194 -0.007587541915541879 0.0049289039358017383 -0.0282320057660462 0.0048551975356289035 -0.016326401887702922 -0.042906718504483035 -0.036893046963805007 0.0023258266379973642 0.0065671411580390309 -0.015478509233294245 -0.021998132998046264 -0.0093445509653664795 0.012636644619516163 0.019592975494879331 -0.010434316541775691 -0.03560858196849858 -0.0082031943223602726 -0.0045727559169522732 0.015998092361286582 0.0022801603171896949 -0.015051209262094009 0.001645214566652369 -0.027386629440789029 -0.016004305553807486 -0.033420207990550892 0.0067780771052294714 0.00088679210809968596 0.0047923886374255731 0.017344700423865291 0.010153543872441764 0 0.0093998356503781563 -0.0029389534687648262 -0.002511301378522594 -0.019643353584310203 0.001635654162887897 0.0062379539698188087 0.0049013175660588253 -0.029405379609957441 0.010514976442984707 0.0061288932485541979 -0.023308840120826301 -0.0063187284400248586 0.021127340446033774 0.031483684993269111 0.0096435993329463815 -0.016870165025775374 -0.0064846194636326267 -0.030233904765619268 0.0013723925210185591 -0.016625799451218035 -0.021564303188813725 -0.0094405847388923936 -0.00098462454790970515 -0.027543430724978637 0.0027786402783641084 -0.032724938648220903 0.0034597820786034014 -0.0091511385926722529 0.017608104027111712 0.00042613415889547045 -0.0047208296143163653 -0.0074486512655565929
leaf_weight=2597.2366138549987 675.39921846950892 86.047535400022753 824.15101833350491 79.391031746519729 29.489309530006722 64.150399882579222 237.16758872312494 61.479632535716519 1136.5329332333058 63.453601635526866 52.509369814069942 6775.7079026148422 1074.3467004630947 3188.352905525011 3847.5370268723927 1649.6980873738648 467.23839046875946 96.228483789134771 1602.1004498070106 846.88510959816631 478.55547139653936 43.866164866834879 460.64337859128136 513.32652877725195 508.51638802431989 1778.6978488059249 1451.4714911929332 410.59939429769292 528.63186584482901 113.42480271263048 263.18968786415644 847.41237202927005 752.85678068688139 87.678255380131304 982.71885088190902 659.50857071159407 30.369765751063824 912.49866010434926 1247.9906431140844 1916.9123351873131 163.45911787007935 640.81066562654451 1591.3884256497258 4929.0821168994298 1069.102561510168 177.04955257824622 1527.9139957348816 204.22877981420606 1191.7195106601575 6763.8791760201566 694.75635951315053 195.04363644495606 159.00192218204029 274.8255223936867 331.92862201388925 1155.2552833070513 136.31995400087908 198.56325690541416 352.66844199900515 268.36220978270285 347.04053786105942 494.26051888649818 75.889678046340123 114.93168693501502 480.01084290305153 586.98009682400152 2543.8427641881863 1711.6201961917104 119.5876056717243 1458.3350957233924 2262.3607521627564 1452.4341286499985 139.17339374404401 173.44785150769167 162.16294134431519 85.926346399821341 6841.4526406077202 88.822620066115633 165.65066810371354 728.82327950291801 1338.2966068001697 767.97824039298575 90.605112862074748 263.59643857064657 405.37912105163559 52.233623526757583 548.21114375733305 43.283875423949212 1452.8999508786947 427.01336205075495 90.525134449824691 115.59214875125326 176.73895731894299 853.43571862578392
leaf_count=345070 14581 8317 40784 7706 3246 6065 21885 5739 52780 6278 1723 30853 41210 42991 30981 15453 35389 9621 140975 18812 55044 2028 34274 31042 18976 12881 37959 33778 28938 1391 5078 51885 30486 2077 19773 43985 3145 117388 12006 32529 3615 44122 72941 34759 3399 3764 193868 19422 47431 32533 7504 18597 7477 30997 31867 119309 1848 13167 2425 2482 9153 15039 921 786 24126 47622 44765 49356 1774 165631 14645 12076 9889 16807 2477 212 70430 3841 10876 61978 39725 39782 1998 15096 6812 1581 14765 2100 14240 18024 1485 1852 8907 32967
internal_value=8.47332e-05 0.00457414 -0.0038669 -0.0239785 0.000413932 -0.0179132 -0.0125524 0.00997631 -0.00854453 0.00299737 0.0118406 0.0129904 0.00462957 0.00557549 0.0131142 0.00585936 -0.00304886 -0.0163182 -0.0118536 0.00669964 -0.0281562 -0.0332858 -0.0103859 -0.00218932 -0.00328903 0.0117697 0.00434632 -0.00817409 -0.0150891 -0.0194703 -0.00732307 -0.00880019 -0.00669029 0.00438765 -0.00245045 -0.0258197 0.00793375 -0.0341398 0.00979775 0.00575174 0.00528098 -0.0110937 -0.00413353 0.010622 0.0123734 0.00813113 -0.0317203 -0.0248947 2.76014e-05 0.0144451 0.0101882 -0.0299148 -0.014901 -0.0160448 -0.0303219 -0.0298137 0.00610666 -0.0131038 0.0171534 0.00339857 -0.000898105 -0.00749854 -0.0167492 0.0177838 -0.000560595 -0.0125416 0.00262624 0.00172467 -0.00548894 -0.0269404 0.00913463 0.0111584 -0.00724306 -0.0192999 0.0064739 0.0085444 0.00828873 0.00508069 -0.0193663 -0.025661 -0.000384002 -0.0213856 -0.00457274 -0.0162907 0.00904795 -0.00574787 -0.00676521 9.17376e-05 0.00154682 7.88652e-05 -0.00298222 -0.0120148 -0.0182877 -0.00206175
internal_weight=88127.9 74272.6 28983.7 13855.3 19415.1 8391.87 9568.61 45288.8 7351.03 15668.8 33577.8 29088.3 11711 11509.1 29026.8 11445.7 4308.3 3042.73 5275.14 9062.46 3116.73 5463.45 3746.34 4222.25 1494.83 21783.5 9795.96 3559.61 2251.51 1715.53 3480.22 3217.03 2806.43 4489.55 2648.56 2217.58 8215.58 5300 12546.1 8344.48 4308.92 1954.08 4159.65 11298.2 7450.62 8185.21 2405.74 877.828 3596.01 9237.33 2473.45 673.599 626.24 710.987 2702.76 1558.07 4145.46 646.837 7243.31 5156.13 2568.26 1022.89 180.633 6890.64 1372.04 1434.39 4887.77 3082.69 163.454 1790.26 2489.29 6381.52 619.184 448.273 670.679 8008.16 7922.23 1800.44 402.818 1088.65 2538.77 1228.62 226.925 359.825 7246.83 128.123 1665.84 591.495 1656.17 2970.86 1282.24 203.27 817.55 2191.73
internal_count=2908387 1537726 1111680 1370661 538783 706903 572897 426046 376842 358513 230442 185942 195604 200481 180203 194203 184338 192504 352936 117756 353967 663758 180270 176021 62237 146139 178750 210570 118033 142366 202864 197786 164008 44500 77848 196055 98944 659956 93221 140791 40275 105809 158032 81215 50234 95799 286931 93063 133155 52918 20385 73641 42866 67036 314886 152070 36660 60971 34064 97800 85091 43977 4225 31639 64501 99507 95318 102113 3802 197498 18491 46835 34015 47804 21453 92035 91823 53197 32761 86695 81845 74056 3846 24717 77242 2502 58075 16865 18169 62789 48916 3929 53029 72692
is_linear=0
shrinkage=0.025


Tree=6
num_leaves=95
num_cat=0
split_feature=130 25 134 25 130 134 125 0 8 63 8 8 8 130 130 57 125 125 8 110 31 130 124 134 8 26 57 125 31 8 8 134 31 62 110 112 40 4 80 130 147 21 94 109 74 26 139 134 72 72 31 10 138 93 53 8 130 40 134 40 72 63 40 130 130 112 26 86 48 80 93 148 40 53 8 22 26 58 93 113 72 34 8 109 8 40 117 48 25 98 130 1 97 138
split_gain=13731.7 4425.42 1686 1556.37 975.539 756.65 504.003 479.055 469.065 415.081 393.106 368.457 326.805 291.299 286.359 270.466 246.428 199.214 194.594 176.366 175.666 174.416 172.781 169.669 167.495 150.885 147.855 142.646 140.139 133.862 131.42 127.162 124.278 122.368 118.445 117.16 115.142 111.33 110.2 109.235 108.067 102.204 101.069 100.138 97.8519 107.723 98.4233 96.3965 95.8902 95.1131 93.2745 90.6633 103.845 88.2384 86.741 85.543 85.2237 85.0799 84.7776 87.905 83.2878 80.9776 80.5632 80.1292 78.9576 79.2137 82.4191 77.9499 75.7827 75.4367 75.3428 82.1975 75.3421 74.4576 73.3472 72.2098 72.1251 74.6326 70.7903 67.5509 80.0745 74.0592 66.2039 65.3614 65.3539 63.5453 63.1126 63.0606 62.7659 61.732 61.481 60.8844 60.0982 65.1075
threshold=0.16665546596050265 -0.03499999921768903 144.00000000000003 -1.0000000180025095e-35 0.1719394847750664 518.50000000000011 6.3650000095367441 4.5000000000000009 0.12499999627470972 0.15589854866266253 0.20499999821186068 0.19500000029802325 0.14500000327825549 0.16889280825853351 0.17280872911214831 -0.38499999046325678 6.4549999237060556 6.4549999237060556 0.17500000447034839 -0.0052162967622280112 0.16646295785903933 0.16399270296096805 0.37500000000000006 412.50000000000006 0.15500000119209292 6.7049999237060556 -0.79500001668930043 6.3750000000000009 0.16415319591760638 0.15500000119209292 0.23499999940395358 144.00000000000003 0.18046731501817706 0.28499999642372137 -0.018724586814641949 1.0000000180025095e-35 0.25499999523162847 5.4649999141693124 -1.1551443338394163 0.16283760964870456 0.17801293730735782 0.44166806340217596 6.6849999427795419 -0.0090493611060082895 5.5000000000000009 -0.10500000044703482 6.5000000000000009 123.50000000000001 0.16499999910593036 0.15500000119209292 0.16348338872194293 4.5000000000000009 105.00000000000001 1.3991666436195376 0.7594975233078004 0.31499999761581426 0.16225221753120425 0.17500000447034839 518.50000000000011 0.14500000327825549 0.17500000447034839 0.14731965959072116 0.16499999910593036 0.17125702649354937 0.17541083693504336 1.0000000180025095e-35 -0.044999999925494187 3.5000000000000004 0.70540389418602001 0.5753651261329652 1.2125000357627871 1.0000000180025095e-35 0.28499999642372137 -1.2241396307945249 0.31499999761581426 3.5000000000000004 -0.024999999441206452 6.6449999809265146 1.1025000214576723 -1.4999999999999998 0.21499999612569812 33.225000381469734 0.21499999612569812 -0.0081692440435290319 0.085000000894069686 0.20499999821186068 4.0450000762939462 -0.27003696560859675 -2.3649998903274532 -0.51499998569488514 0.1730856075882912 3.935000061988831 -1.0750000476837156 105.00000000000001
decision_type=2 2 2 2 2 2 2 2 2 2 2 2 2 2 2 2 2 2 2 2 2 2 2 2 2 2 2 2 2 2 2 2 2 2 2 2 2 2 2 2 2 2 2 2 2 2 2 2 2 2 2 2 2 2 2 2 2 2 2 2 2 2 2 2 2 2 2 2 2 2 2 2 2 2 2 2 2 2 2 2 2 2 2 2 2 2 2 2 2 2 2 2 2 2
left_child=3 5 11 12 6 8 -4 9 16 61 13 14 21 33 22 60 -2 -6 27 54 30 25 37 42 36 -1 48 -11 -7 50 41 86 49 34 -8 57 64 67 -22 -14 -13 69 74 -41 45 -36 73 -16 -18 -26 -9 52 -23 56 -15 70 -33 -21 59 -48 -10 -5 79 88 65 -19 -67 -3 75 -17 71 -20 92 -47 91 -59 -45 -78 -63 -39 81 -81 -62 -25 -60 -56 -29 -64 -28 -75 -42 -12 -58 -94
right_child=1 2 4 7 17 28 10 29 15 18 23 40 39 19 47 20 26 24 55 35 38 51 -24 83 32 -27 63 31 -30 -31 -32 53 -34 -35 44 -37 -38 62 -40 43 90 -43 -44 76 -46 46 58 -49 -50 -51 -52 -53 -54 -55 85 -57 72 68 84 -61 82 78 87 -65 -66 66 -68 -69 -70 -71 -72 -73 -74 89 -76 -77 77 -79 -80 80 -82 -83 -84 -85 -86 -87 -88 -89 -90 -91 -92 -93 93 -95
leaf_value=-0.030317284069862366 -0.043413566710746303 0.0054353894390690881 -0.044005076730273596 -0.038771112267413255 -0.043983668077250321 -0.031747081806361453 -0.025036917824276875 -0.031288843881332039 -0.030333431813967016 -0.043401046310003071 -0.032304055855488671 -0.00061383039364603851 -0.038657654507686171 0.00072723792916222876 0.021605615976173231 -0.012914464147305269 -0.019934351762636523 0.01291098947342896 -0.01897935134217987 0.0092850398129725974 -0.024799113281074595 -0.014865045849666506 -0.042297851384812478 -0.035770177060181631 -0.0065174431942395267 0.007465552236851968 -0.027167166987068905 -0.0030546785450863956 -0.015739872927320799 -0.033109947788452006 -0.027948404201726441 -0.027950692483284568 0.011332438597741168 0.010815746563978802 0.012062465742084919 0.00048516015149673811 -0.0079168932220424013 0.010700434854846907 -0.0013762153704455521 -0.037759916541500904 0.0040919812503878794 -0.019139805833885942 0.016007328237862894 -0.017683622004592198 0.0027071677270665475 0.013006561522985223 -0.0021899921924249002 0.01469962465507812 0.0080553013587261833 0.0046442508026895172 -0.012789451270492899 -0.02647355226560183 0.020952598489827914 0.02658617874263703 -0.0065791680705953627 -0.043992850083423338 0.0088756926710262581 -0.010656782699744074 -0.00012662856971988913 -0.01173894751156894 -0.0094711321889317246 -0.023908388936336997 0.0036810877162221354 0.0075550160802470281 0.017783277285532421 0.014963104117583035 0.0025013656562781757 0.010697474211021582 0.0095506794642737335 -0.00064304666164276465 0.016532742366854491 -0.0040379814016746471 -0.038665924324410114 0.0055987498020832168 -0.024689213073626117 0.003116718451565336 -0.031286265363460443 -0.001096038837525497 0.0041818991438641769 0.010452778841026064 -0.0026543482196647919 0.018087869880219831 -0.028663866043807468 -0.015096394852047222 -0.024000787905197316 -0.028351745252649163 0.011964318461102004 0.011486463046299137 -6.852883530010875e-05 -0.0073343428503456088 0.011414331885464337 -0.004140649573644164 -0.0070238046525123001 0.010745591005901528
leaf_weight=1747.1816818199586 80.089251923840493 3506.9018204909516 162.59411777439527 225.78469805186614 42.810127607546747 1090.7946251900285 156.61414260312449 245.28195275855251 574.56937792687677 53.225780538516119 47.846711843740195 1616.5937908054329 1948.3124459930696 1702.5212135496549 1526.8174990522675 673.80433344165795 317.98426072625443 3511.6307597949635 825.02097521931864 4453.9379235659726 135.69512094068341 949.48779038479552 37.310984982876107 111.25592549191788 599.44932292215526 67.772835949202999 53.899764066562057 277.76240907213651 508.24499301449396 751.23682481714059 360.22502115624957 106.23161005694419 1435.3486310618464 386.19068228197284 219.25587371806614 1996.8415216442663 181.34681696631014 3146.8790775749367 1493.3327872705413 836.05149304703809 1573.2057477945928 702.7069141715765 136.99385270662606 406.03791208961047 1376.7470523007214 224.20953198266216 1305.2087308741175 7731.9607132866513 99.2262158280937 2309.7452382692136 573.00739313079976 456.87733031716198 51.98365529673174 50.886720756301656 473.58420016244054 59.572357906028628 189.57028449629433 346.42148931394331 92.436754141701385 1122.8345986173954 325.36933291179594 543.69239265401848 1055.6342035678681 1196.1366062823217 1276.9591159506235 469.83946418366395 1129.2285577484872 3560.0402053596918 644.5858327485621 586.53871949680615 48.63155756983906 322.16467660735361 39.730955722508952 350.58132264018059 122.75075778667815 749.91514395340346 1197.6574117478449 54.113326771883294 61.546569015132263 1078.1194004174322 145.26991119049489 3161.4224921709392 173.68563144176733 710.39520215184893 327.66120053338818 101.22004033718258 465.19335241662338 1691.5463379968423 1512.1660521215526 665.85762656957377 1326.0568939947989 1920.1610354501754 1857.5413234964944 136.83986184326932
leaf_count=218678 7588 28312 17961 33000 3779 113424 13019 35046 49978 5781 2105 20088 256214 51045 3890 38243 23250 26805 70170 59183 7695 81711 4000 12701 14177 1094 4433 11707 33459 97615 30487 15577 11427 6336 6251 58054 2306 22619 45662 113107 17838 49101 1710 39427 32989 6268 44312 28674 3416 30960 54305 54375 2202 278 16618 5960 8697 6185 4774 44319 18430 54093 11052 27287 7728 5498 22689 25518 7850 26346 633 17158 3454 12645 5151 9784 135453 841 2253 8263 1192 14193 14883 40053 27235 5100 9848 10980 60047 27436 6673 55399 116869 5968
internal_value=0.000108826 0.00459055 0.00706654 -0.0220403 0.00292463 -0.0109437 -0.0003723 -0.0133449 -0.0079008 -0.00972282 -9.32041e-06 0.011169 -0.029736 0.00149796 0.0122884 -0.0126901 -0.000511356 0.00891535 -0.00667566 0.00404488 -0.00965763 -0.023711 0.0103937 -0.00826136 0.00912955 -0.0288973 0.000586953 -0.00337655 -0.0266835 -0.0254657 -0.0140701 -0.00267167 0.00531526 -0.00278234 -0.00368517 0.00575577 0.0116493 0.0105111 -0.00335292 -0.0341645 0.00456099 -0.0115002 -0.0046694 -0.0306301 -0.00308917 -0.00494357 -0.00586142 0.0158426 -0.0132546 0.0023396 -0.0183909 -0.0172283 -0.0129698 -0.0054906 -0.00210579 -0.0150047 -0.00621105 0.00745296 -0.00842026 -0.00661346 -0.0238172 -0.0259249 0.0121743 0.00268639 0.0122077 0.0108083 0.00617816 0.00808898 0.00275753 -0.00721709 -0.013501 -0.0148006 -0.00515097 9.89456e-06 -0.0060383 -0.00123723 -0.0269991 -0.02999 -0.0210363 0.0135139 0.0155269 0.0161524 -0.0162316 -0.0179649 -0.0187845 -0.01049 0.00634438 0.00849354 -0.00103108 -0.00286453 0.00744781 -0.00485326 -0.00451171 -0.00579368
internal_weight=86455.6 71907.2 62022.7 14548.4 30865 9884.47 19908.6 6832.92 8285.43 5263.4 19746 31157.8 7715.48 16696.6 26641.9 5025.93 3259.5 10956.4 4432.37 10469 3952.3 3273.3 17383.1 3049.4 10913.5 1814.95 3179.41 3176.98 1599.04 1569.53 2323.27 3123.76 4344.54 6227.6 5841.41 8191.7 6569 17345.8 1629.03 4442.17 4515.86 1963.05 2227.75 2493.86 5684.79 4308.05 4088.79 9258.78 417.21 2909.19 818.289 1458.35 1001.47 2380.8 2277.33 1255.39 2329.91 6194.86 2848.14 2428.04 1073.62 831.024 10278.9 2762.2 6387.66 5110.7 1599.07 7066.94 1740.92 1260.34 1195.82 1147.19 2223.68 1240.65 2090.76 1096.34 1657.81 1251.77 605.239 7531.69 4384.81 4239.54 499.055 821.651 420.098 574.804 742.956 2747.18 1566.07 1016.44 2899.26 1968.01 2183.95 1994.38
internal_count=2908387 1456873 903144 1451514 699852 553729 574483 548412 406846 361446 556522 203292 903102 439403 158693 280825 126021 125369 272100 213819 197534 358060 126129 117119 121590 219772 118433 178179 146883 186966 144177 172398 56564 225584 219248 141056 65026 122129 53357 545042 44599 113690 64365 288828 206229 173240 166989 32564 26666 45137 89351 138288 83913 150843 72763 93921 150565 83002 120640 88631 83291 89346 68299 91767 62720 54992 28187 53830 23819 64589 87961 87328 134988 46349 62655 15969 175721 136294 56346 46267 23648 22456 33313 52754 32009 21718 21555 22032 64480 40081 24511 57504 131534 122837
is_linear=0
shrinkage=0.025


Tree=7
num_leaves=95
num_cat=0
split_feature=130 134 31 130 112 130 125 8 8 134 124 130 134 110 8 145 134 110 58 8 8 122 8 133 125 62 89 89 16 8 29 109 110 40 109 72 130 117 113 147 72 74 72 110 8 31 31 44 72 8 125 130 65 31 72 109 89 72 90 117 134 134 16 132 134 8 72 94 72 8 134 130 11 21 109 72 8 40 40 66 117 58 8 40 72 8 2 112 21 8 40 89 130 87
split_gain=12541.1 4350.46 1699.83 1091.54 711.172 694.446 607.171 571.681 452.598 377.18 362.107 340.131 337.462 294.261 226.02 213.21 203.478 200.365 199.809 185.778 169.509 168.97 168.621 150.23 146.846 178.152 169.885 138.609 128.225 127.684 123.537 115.352 109.823 105.734 104.595 101.524 100.347 93.6804 92.9435 134.374 91.1033 88.6693 88.2474 101.432 87.9771 87.6521 87.2097 83.7929 83.5857 78.4855 78.3054 77.5903 77.0996 76.7659 79.5868 74.1321 73.3699 72.7484 71.8051 70.6553 70.4403 69.9906 69.968 77.6874 69.9231 68.8263 67.9305 66.9898 66.3254 86.2616 65.7699 65.2202 63.3582 63.3292 62.9708 61.3665 61.0592 60.9768 60.5168 64.8739 60.3623 59.4775 58.8787 58.7506 62.258 59.65 75.5386 62.269 62.8066 58.1596 78.3871 63.7953 57.3853 62.4209
threshold=0.1663516312837601 234.50000000000003 0.16390831023454669 0.16347464174032214 -1.0000000180025095e-35 0.17203461378812793 6.4049999713897714 0.16499999910593036 0.20499999821186068 418.50000000000006 0.38499999046325689 0.17268849164247516 139.00000000000003 -0.010124063584953545 0.21499999612569812 0.509080469608307 142.50000000000003 -0.018327143974602219 6.7049999237060556 0.10500000044703485 0.11499999836087228 5.1066665649414071 0.085000000894069686 0.15656494349241259 1.0000000180025095e-35 0.28499999642372137 0.18500000238418582 -0.46500000357627863 0.35291491448879247 0.22500000149011615 -0.01916666608303785 -0.0086855329573154432 -0.014720254112035034 0.22500000149011615 0.0029139047255739574 0.16499999910593036 0.17469677329063418 6.2149999141693124 -1.4999999999999998 0.17257305979728702 0.24499999731779101 5.5000000000000009 0.14500000327825549 -0.014720254112035034 0.16499999910593036 0.15996874123811725 0.16298594325780871 26.187500000000004 0.13499999791383746 0.37500000000000006 6.5150001049041757 0.16101276874542239 4.3150000572204599 0.18081193417310717 0.19500000029802325 0.0024296415504068141 0.16499999910593036 0.21499999612569812 -0.085000000894069658 3.9750000238418584 124.50000000000001 451.50000000000006 0.62849375605583202 0.023206004872918132 518.50000000000011 0.23499999940395358 0.19500000029802325 0.32500000298023229 0.16499999910593036 0.18500000238418582 515.00000000000011 0.1681676581501961 1.0000000180025095e-35 0.97000184655189525 0.018716258928179744 0.12499999627470972 0.23499999940395358 0.2950000017881394 0.17500000447034839 57.045000076293952 6.6649999618530282 -0.054999999701976769 0.034999999217689044 0.14500000327825549 0.095000002533197417 0.12499999627470972 24.054999351501468 -2.4999999999999996 -0.51457297801971424 0.10500000044703485 0.085000000894069686 -0.22500000149011609 0.16869319975376132 -0.73693037033081044
decision_type=2 2 2 2 2 2 2 2 2 2 2 2 2 2 2 2 2 2 2 2 2 2 2 2 2 2 2 2 2 2 2 2 2 2 2 2 2 2 2 2 2 2 2 2 2 2 2 2 2 2 2 2 2 2 2 2 2 2 2 2 2 2 2 2 2 2 2 2 2 2 2 2 2 2 2 2 2 2 2 2 2 2 2 2 2 2 2 2 2 2 2 2 2 2
left_child=3 5 9 18 16 8 -4 11 10 29 12 17 38 40 21 27 59 48 34 50 35 -7 80 -14 -18 26 44 -15 -17 32 92 -23 -3 46 -1 -11 -33 73 52 -40 -9 -28 43 -13 61 -21 -25 -27 -8 62 -6 -36 66 54 -16 75 58 -22 -32 -5 -38 -26 63 -10 -30 -59 -2 -54 -47 -70 -63 -64 -53 77 -41 -52 -43 -29 79 -58 81 -19 -45 85 -85 -48 87 -87 -89 -34 -91 -92 -24 -94
right_child=1 2 6 4 19 14 7 13 49 20 -12 42 23 15 53 28 24 22 -20 45 57 31 30 33 25 47 41 37 64 -31 56 36 89 -35 51 -37 60 -39 39 74 -42 76 -44 82 -46 68 83 -49 -50 -51 55 72 67 -55 -56 -57 78 65 -60 -61 -62 70 71 -65 -66 -67 -68 -69 69 -71 -72 -73 -74 -75 -76 -77 -78 -79 -80 -81 -82 -83 -84 84 -86 86 -88 88 -90 90 91 -93 93 -95
leaf_value=-0.03599523333863397 0.0050902341116242809 -0.025069184674483554 -0.043503888445136599 -0.0090456838662137089 -0.042842087759566501 -0.042556906750576912 -0.026078670181231684 -0.022632274420981414 -0.0036933115933728724 -0.020605819248319456 -0.042676325935710656 -0.014996627936409294 -0.004884083317515631 -0.021545765201467351 -0.0126474602909264 -0.011366287324508858 -0.043241558301868842 0.017542573783867293 -0.0036654792875069004 -0.036951271356206822 -0.032356672829395104 -0.0022439072323459054 -0.0026220736636849802 -0.0086808190944772812 -0.016722566236842606 -0.039185782275392017 -0.013972606964996907 -0.0021286314321233243 0.0029016894442412343 -0.028468292110097299 0.011102876937464437 0.012048085151284275 0.0019865957116291799 -0.0036498042804792167 -0.035259234865622519 0.0013938534790324097 0.020773668828909089 -0.034923321490674765 0.0013664740941966924 0.011831221356475774 -0.0041821620231229277 0.00095687078232930623 0.012637783935333087 0.024425442664943304 -0.024395630501177368 -0.032183130645613144 0.010162824885334723 0.0077725951115607504 -0.0054635372408467532 -0.033790004313859937 -0.026169291040006138 -0.026151271407700429 0.0083375861693104243 0.008689731723299848 0.0034861462191474821 0.00043214183132068794 0.0030926407626430713 -0.011185777980674104 -0.0081234277958604478 0.0071211510018607321 0.014410808550847835 0.01169590517808388 -0.013627965761730254 -0.026804945595707799 -0.0076826965697191739 -0.033633234446250854 -0.011490280238088228 0.020334787301801285 -0.012030797206261282 -0.029343606889937597 -0.014024431550928293 0.0041099617096656046 -0.00099707926986667187 -0.019577566204408398 0.017669259016504572 -0.0064374856804762549 -0.025178390362628603 -0.024261884456651533 -0.0081483125175000944 -0.026033255419632112 -0.012348064289203682 0.0055533146662673644 0.0052930107079909566 -0.0086787552209934161 0.0046964892099695867 0.0041124922379857749 0.0063124346386290763 -0.0041325556207293052 -0.042405870315591267 -0.031880761598700576 -0.01681263899714238 -0.0025775771116174954 -0.0033325554238248997 0.0073605529038590356
leaf_weight=2716.6797309967224 570.9946327933576 206.74757325905375 209.92929217847995 266.29459876287729 57.013321880949661 32.702692417660728 247.17588749644347 848.38557437213603 2008.0300608479884 471.91175611154176 88.971652863547206 147.34083864255808 1040.2509922801983 565.3775902511552 263.68938317673746 606.02424079854973 98.26091509195976 298.89994140458293 153.71720624930458 800.72211609920487 1328.1045155577012 300.81651679170318 906.02383005071897 247.60593447519932 1308.1568572362885 24.055327762383968 617.18683787272312 1172.6629727624822 2491.3349250894971 215.85186016466469 126.79377987445332 12201.269918065402 436.8988338673953 788.36636330164038 712.70143937366083 180.20591163134668 1490.7777847205289 70.214977551018819 644.05554020381533 4346.5086324266158 210.52283725771122 686.59074703790247 1756.8219663256314 106.37520171818323 873.42081328155473 664.90196322230622 3141.8283354474697 331.3340246968437 247.27909763774369 47.211966658709571 248.19551732460968 1333.9080599625595 5237.3787893923 1097.5652045641327 681.8163752364926 191.78945782198571 1384.4657499385066 233.38363099913113 2231.4153788340045 455.84802541229874 4226.0011723791249 113.60968885524198 142.03582057938911 93.923387823160738 460.75811170425732 136.90911632217467 209.92783633014187 308.49307770654559 350.37415406526998 380.44732549507171 133.34425290860236 1319.6319107309682 66.440199611475691 176.25435775448568 1596.5250334136654 166.69568702578545 59.280452957144007 81.987809794722125 481.06539359409362 47.971809435170144 101.95178558607586 1926.1052417131141 1576.4127475505229 231.5363971425686 3218.3825662358431 106.50882328022271 1748.8498798038345 56.547245722496882 50.920231346273795 83.727514902711846 278.59091623814311 669.52423907048069 437.22277981904335 1526.7221685691038
leaf_count=393719 7697 19861 22363 12685 6065 2880 21953 61511 42669 41678 9834 8262 37124 36710 5351 31267 10370 6186 3784 117603 146639 6626 35927 11709 104392 1149 57414 50990 47433 21383 3461 68751 18509 17333 100755 9399 3539 5601 4665 25162 10061 39673 21083 934 85888 86695 44590 7666 14473 2163 30995 159675 43431 6729 6684 13165 39457 18391 94955 11570 18007 5026 5660 6345 13822 15167 4069 1243 36703 45909 11215 19194 5879 12136 8347 16805 5861 4040 14638 2590 4378 52531 26035 5454 52315 1998 28367 1117 1944 6932 18158 35999 11043 30773
internal_value=0.000124315 0.00416801 -0.00434635 -0.0226701 -0.0168398 0.00858937 -0.00135712 -0.00091627 0.00598041 -0.0187455 0.00723992 0.00203462 0.00743157 -0.00689909 0.0120907 -0.00461847 -0.0111137 -0.00034158 -0.0318184 -0.026771 -0.0254339 0.0129736 0.00046891 0.00413075 -0.0132001 -0.0124711 -0.0140575 -0.0110026 -0.000905505 -0.0104159 -0.00143477 0.0130772 -0.00806235 0.00510994 -0.0327115 -0.0145257 0.013335 -0.00700906 0.0101475 0.0122295 -0.0189824 -0.00697413 0.00863422 0.00477973 -0.0180234 -0.0302799 0.00589585 0.00442176 -0.0158318 -0.00226084 -0.0151052 -0.0284635 0.00797616 0.00419587 -0.0010183 -0.0123871 -0.00412996 -0.0296012 -0.00708011 0.00114277 0.0160764 -0.0144195 -0.00182699 -0.00474797 0.00124409 -0.0196077 0.000609986 0.00901161 -0.0264116 -0.0210953 -0.00216258 0.00236897 -0.0249655 -0.00559893 0.0134049 -0.0183112 -0.00115664 -0.00360819 -0.000487577 0.00208578 0.00631189 0.00717801 0.00652757 0.00632009 0.00379327 0.00802472 0.00459335 -0.00936819 -0.0226701 -0.00564015 -0.00887489 -0.00678821 0.00257426 0.00497546
internal_weight=85035.4 72224.5 24685.4 12811 7827.52 47539.1 20443.5 20233.6 27244.5 4241.86 23633.7 13550 23544.7 6683.52 20294.6 5624.61 4967.38 9963.09 4983.45 2860.14 2350.51 18251.6 9468.64 10630.8 4245.24 4146.98 3791.59 2066.5 3558.12 1891.34 7141.68 18218.9 1675.49 9590.55 4829.73 652.118 17918 1501.12 12913.9 6587.09 1058.91 1363.06 3586.95 1830.13 2428.53 2196.45 8802.18 355.389 494.455 3610.83 663.694 2113.05 6326.79 2043.07 945.506 606.681 4271.71 1698.4 2358.21 722.143 5716.78 1555.11 3563.62 2101.95 2952.09 370.293 780.922 5545.87 1395.72 730.821 246.954 1461.67 1400.35 1430.91 5943.03 414.891 745.871 1254.65 1913.5 1432.44 2326.96 2225.01 1682.79 8554.57 3449.92 5104.65 1962.83 213.976 107.467 1468.74 1031.84 948.115 2869.97 1963.94
internal_count=2908387 1537726 1036729 1370661 706849 500997 684613 662250 382430 352116 306399 388679 296565 273571 118567 201999 352909 332365 663812 353940 231274 99803 295939 201951 328654 318284 309469 109477 92522 120842 232844 96923 99459 164827 660028 51077 90297 72767 94614 38174 71572 102948 56314 35231 206521 286910 147494 8815 36426 76031 67030 266309 56440 18764 12035 60965 155101 180197 98416 24255 21546 120633 73868 49014 61255 33558 11766 44674 169307 82612 16241 24854 165554 67166 33509 47800 45534 55030 56685 42047 63095 58717 26969 135785 57769 78016 33426 5059 3061 79598 61089 54157 77743 41816
is_linear=0
shrinkage=0.025


Tree=8
num_leaves=95
num_cat=0
split_feature=145 25 145 25 134 134 112 57 8 145 133 8 125 122 112 145 63 133 10 125 145 40 8 40 8 40 8 8 8 42 133 109 21 8 26 8 72 40 72 40 8 40 61 133 133 124 80 93 36 124 26 93 125 61 26 89 40 111 148 8 89 72 26 72 113 134 61 18 10 100 51 10 8 72 2 147 133 42 57 8 93 125 123 123 133 57 109 8 147 53 59 117 145 40
split_gain=11478.3 3850.93 1497.06 1104.78 674.874 608.535 591.248 425.644 372.295 358.813 320.367 314.981 289.711 285.236 273.43 228.711 215.829 207.74 194.941 176.228 158.661 158.332 158.064 157.28 155.813 127.122 124.759 122.339 120.399 115.105 108.086 105.441 104.721 99.3022 95.7896 94.6709 103.741 94.5539 133.675 91.7197 89.4703 89.3831 88.2054 85.1822 84.0562 83.9252 81.7213 81.0488 80.8627 79.5534 103.447 99.3001 79.1394 93.8782 89.7133 77.9535 77.2289 76.9057 75.8439 94.6305 85.6674 75.6507 75.1882 73.8891 73.8149 72.8601 72.3538 71.8937 91.0382 69.0917 79.4067 68.6972 68.1141 66.7896 65.8294 65.0919 64.8417 62.5551 62.459 62.1768 61.6508 61.3009 60.2468 59.0689 58.9862 58.2702 57.4493 56.9793 56.9164 56.7608 56.2158 55.7892 55.5645 53.8484
threshold=0.49905489385128027 -0.03499999921768903 0.50994759798049938 -1.0000000180025095e-35 518.50000000000011 149.00000000000003 -1.0000000180025095e-35 -0.38499999046325678 0.21499999612569812 0.48919184505939489 0.15716546773910525 0.11499999836087228 6.4449999332427987 5.1066665649414071 -1.0000000180025095e-35 0.52015706896781932 0.16010333597660067 0.15941319614648822 4.5000000000000009 6.5150001049041757 0.52175077795982372 0.25499999523162847 0.17500000447034839 0.17500000447034839 0.15500000119209292 0.17500000447034839 0.085000000894069686 0.12499999627470972 0.2650000005960465 3.5000000000000004 0.16128017753362658 -0.0015393993235193191 0.9113464653491975 0.32500000298023229 6.7850000858306894 0.13499999791383746 0.16499999910593036 0.21499999612569812 0.15500000119209292 0.2650000005960465 0.14500000327825549 0.23499999940395358 1.1374999880790713 0.14420953392982486 0.15710022300481799 0.25499999523162847 1.0832186341285708 1.1175000071525576 6.3650000095367441 0.2950000017881394 -0.044999999925494187 1.1458333134651186 1.0000000180025095e-35 1.1758332848548891 0.014999999664723875 -0.67500001192092884 0.095000002533197417 -2.4999999999999996 1.0000000180025095e-35 0.21499999612569812 0.22500000149011615 0.18500000238418582 -0.03499999921768903 0.095000002533197417 -1.4999999999999998 214.50000000000003 0.11583333462476732 -0.10790807008743285 3.5000000000000004 0.054999999701976783 -0.36511765420436854 1.5000000000000002 0.11499999836087228 0.095000002533197417 13.059999942779543 0.18070114403963092 0.16271451860666278 4.5000000000000009 0.54500001668930065 0.20499999821186068 2.2708333730697636 6.4249999523162851 0.086216565221548094 0.049102935940027244 0.15825537592172625 -0.014999999664723871 -0.0020131530473008748 0.10500000044703485 0.17213185131549838 -0.18140906095504758 -16.574999809265133 6.2750000953674325 0.53027853369712841 0.11499999836087228
decision_type=2 2 2 2 2 2 2 2 2 2 2 2 2 2 2 2 2 2 2 2 2 2 2 2 2 2 2 2 2 2 2 2 2 2 2 2 2 2 2 2 2 2 2 2 2 2 2 2 2 2 2 2 2 2 2 2 2 2 2 2 2 2 2 2 2 2 2 2 2 2 2 2 2 2 2 2 2 2 2 2 2 2 2 2 2 2 2 2 2 2 2 2 2 2
left_child=3 4 5 10 7 22 8 35 13 47 34 19 -7 -4 25 21 41 -13 23 -9 27 29 39 58 49 43 -20 45 32 64 87 62 67 56 72 36 -2 77 -39 44 85 -14 73 -11 -3 -8 -23 -5 69 50 -12 78 -45 54 55 -54 -10 -27 59 60 -18 -37 -28 -29 -15 -34 74 68 -19 88 -71 -26 -1 84 -24 83 -21 92 -52 82 -42 -46 -22 -58 -25 -16 -81 -6 -31 -75 -91 -62 -17 -76
right_child=1 2 6 9 30 12 20 11 33 14 24 17 16 15 40 37 18 28 26 76 79 46 66 42 71 57 31 63 -30 48 -32 -33 65 -35 -36 61 -38 38 -40 -41 80 -43 -44 52 81 -47 -48 -49 -50 -51 51 -53 53 -55 -56 -57 75 -59 -60 -61 91 -63 -64 -65 -66 -67 -68 -69 -70 70 -72 -73 -74 89 93 -77 -78 -79 -80 86 -82 -83 -84 -85 -86 -87 -88 -89 -90 90 -92 -93 -94 -95
leaf_value=-0.027998988604171132 -0.017889421119967702 0.00010043582793233046 -0.041930592728955107 -0.030592420626696804 -0.018292645207942569 -0.041637874108832011 0.0048831871045860904 -0.041636975369334223 -0.030105258122219709 -0.029360864313543285 -0.0025312745061001041 -0.020171753276117151 -0.0091634514966429451 0.00960256817272611 -0.023733610702467284 0.014619173250204828 -0.0034867143553694181 -0.0024923890435231207 0.0050521670102214623 -0.0010640974320020983 0.010554697722171323 0.0011456496057463722 -0.030016537583711679 0.013118252905841741 0.017020522417296888 -0.021190145298837389 -0.0058320849742185127 -0.022382062618906174 -0.024754903527766048 -0.025805979502967515 -0.017416422983588763 -0.0063602918129325023 0.0041121380826445487 -0.018966017763064617 -0.0052419184538451073 -0.030497418523973831 0.0035156874679615211 -0.011050129384957537 0.011125971318311834 -0.023734413585408544 -0.029390222707267207 -0.026304396258106051 0.016264213884181002 -0.037983331491370398 -0.038560550439155628 -0.04107379925331231 -0.023647416263804313 -0.0053951975678762547 0.011292425542641045 -0.041959811167051747 -0.022886973736215503 0.010264802530440814 -0.009272726187701771 0.021547133119203421 -0.012871804700926076 0.0033134229882489348 0.002335496977904244 -0.0087407860600877529 0.0062983964764710262 -0.021891251752378934 0.0064874318090609347 -0.015939863621631935 -0.026013098209409759 -0.0034475110332801359 0.0133060241024682 -0.020407547665302159 0.014367288677246588 0.0012306889165348773 -0.015820601229088252 -0.021377505937353672 0.0023786589823484592 -0.029440381386576037 -0.036456657838676298 -0.0007767301739071916 -0.017938753186142999 0.0071785476168021367 0.007627365330888306 0.008423897195311494 -0.0045835350975332268 -0.021205610113646054 0.026459461475934549 0.0086876455062236332 -0.03107346782765329 -0.010263117313253937 -0.035439768718069579 -0.0076477599311655297 0.0046004002565255397 -0.034051907346743134 0.0065647822619798318 -0.03247510032077109 -0.0072928801068098932 -0.010185079752272482 0.02027970969722 -5.3811043835990925e-05
