tree
version=v4
num_class=1
num_tree_per_iteration=1
label_index=0
max_feature_idx=182
objective=lambdarank
feature_names=Column_0 Column_1 Column_2 Column_3 Column_4 Column_5 Column_6 Column_7 Column_8 Column_9 Column_10 Column_11 Column_12 Column_13 Column_14 Column_15 Column_16 Column_17 Column_18 Column_19 Column_20 Column_21 Column_22 Column_23 Column_24 Column_25 Column_26 Column_27 Column_28 Column_29 Column_30 Column_31 Column_32 Column_33 Column_34 Column_35 Column_36 Column_37 Column_38 Column_39 Column_40 Column_41 Column_42 Column_43 Column_44 Column_45 Column_46 Column_47 Column_48 Column_49 Column_50 Column_51 Column_52 Column_53 Column_54 Column_55 Column_56 Column_57 Column_58 Column_59 Column_60 Column_61 Column_62 Column_63 Column_64 Column_65 Column_66 Column_67 Column_68 Column_69 Column_70 Column_71 Column_72 Column_73 Column_74 Column_75 Column_76 Column_77 Column_78 Column_79 Column_80 Column_81 Column_82 Column_83 Column_84 Column_85 Column_86 Column_87 Column_88 Column_89 Column_90 Column_91 Column_92 Column_93 Column_94 Column_95 Column_96 Column_97 Column_98 Column_99 Column_100 Column_101 Column_102 Column_103 Column_104 Column_105 Column_106 Column_107 Column_108 Column_109 Column_110 Column_111 Column_112 Column_113 Column_114 Column_115 Column_116 Column_117 Column_118 Column_119 Column_120 Column_121 Column_122 Column_123 Column_124 Column_125 Column_126 Column_127 Column_128 Column_129 Column_130 Column_131 Column_132 Column_133 Column_134 Column_135 Column_136 Column_137 Column_138 Column_139 Column_140 Column_141 Column_142 Column_143 Column_144 Column_145 Column_146 Column_147 Column_148 Column_149 Column_150 Column_151 Column_152 Column_153 Column_154 Column_155 Column_156 Column_157 Column_158 Column_159 Column_160 Column_161 Column_162 Column_163 Column_164 Column_165 Column_166 Column_167 Column_168 Column_169 Column_170 Column_171 Column_172 Column_173 Column_174 Column_175 Column_176 Column_177 Column_178 Column_179 Column_180 Column_181 Column_182
feature_infos=[1:6] [0:8.880000114440918] [0:85] none [0:9.880000114440918] [0:90] none [0:7.8499999046325684] [0:0.97000002861022949] [0:8.5399999618530273] [1:6] [-5:5] [0:76.819999694824219] none none [1.7999999523162842:55.400001525878906] [-2.234015941619873:2.229327917098999] [1:6] [-2.228743314743042:2.2327311038970947] [-2.2265846729278564:2.2360680103302002] [-2.2265846729278564:2.2360680103302002] [-2.2360680103302002:2.2360680103302002] [1:6] [-2.2286059856414795:2.2360680103302002] [1:6] [-7.820000171661377:7.380000114440918] [-7.8299999237060547:7.690000057220459] [-90:90] [-70:71.425003051757812] [-6.4366664886474609:6.4083333015441895] [0:7.8299999237060547] [0.13520096242427826:0.19877235591411591] [1:6] [0:8.880000114440918] [0:85] none [0:9.880000114440918] [0:90] none [0:7.9000000953674316] [0:0.99000000953674316] [0:8.1999998092651367] [1:6] [-5:5] [0:75.644996643066406] none none [1.7999999523162842:55.400001525878906] [-2.2302701473236084:2.232410192489624] [1:6] [-2.2237255573272705:2.2296857833862305] [-2.2265846729278564:2.2360680103302002] [-2.2265846729278564:2.2360680103302002] [-2.2360680103302002:2.2360680103302002] [1:6] [-2.2269186973571777:2.2360680103302002] [1:6] [-7.2399997711181641:7.380000114440918] [-7.320000171661377:7.6999998092651367] [-90:90] [-70:68.69000244140625] [-6.0833334922790527:3.5233333110809326] [0:7.8299999237060547] [0.13520476222038269:0.19969405233860016] [1:6] [0:8.880000114440918] [0:85] none [0:9.880000114440918] [0:90] none [0:7.9000000953674316] [0:0.99000000953674316] [0:8.0200004577636719] [1:6] [-5:5] [0:76.819999694824219] none none [1.7999999523162842:55.400001525878906] [-2.234015941619873:2.232410192489624] [1:6] [-2.228743314743042:2.2327311038970947] [-2.2316751480102539:2.2360680103302002] [-2.2316751480102539:2.2360680103302002] [-2.2360680103302002:2.2360680103302002] [1:6] [-2.2286059856414795:2.2360680103302002] [1:6] [-8.1599998474121094:7.4200000762939453] [-7.8299999237060547:7.6999998092651367] [-90:90] [-70:71.425003051757812] [-6.4366664886474609:6.4083333015441895] [0:7.8299999237060547] [0.13428187370300293:0.19969405233860016] [-7.820000171661377:7.5100002288818359] [-7.5500001907348633:7.6100001335144043] [-7.6500000953674316:8.1599998474121094] [-7.8000001907348633:7.690000057220459] [-7.7699999809265137:7.8000001907348633] [-7.690000057220459:7.7699999809265137] [-90:90] [-90:90] [-90:90] [-70:70] [-67.724998474121094:70] [-68.69000244140625:68.69000244140625] [-0.057387363165616989:0.056210756301879883] [-0.05691869929432869:0.056210756301879883] [-0.05691869929432869:0.05691869929432869] [-5:5] [-5:5] [-5:5] [1.0900000333786011:8.443333625793457] [0.0047140452079474926:3.463437557220459] [0.0099999997764825821:8.1599998474121094] [0:8.1599998474121094] [0:76.753334045410156] [0:42.426406860351562] [0:90] [0:68.75] [0:7.8000001907348633] [0:3.6699047088623047] [0:7.8000001907348633] [0:7.7699999809265137] [0:66.111663818359375] [0:31.925870895385742] [0:70] [0:60] [0.15196625888347626:0.18104562163352966] [1.0626804396451917e-05:0.023517845198512077] [2.60085998888826e-05:0.057387363165616989] [0.13428187370300293:0.17823085188865662] [123:654] [1:6] [1:6] [1:6] [6:120] [1:24] none [0:3] [0:14] [-6:6] [45.113887786865234:62.551200866699219] [0.45589876174926758:0.54313689470291138] [-0.057387363165616989:0.056210756301879883] [0.1525329202413559:0.19969405233860016] [0:1] none none none none none none none none none none none none none none none none none none none none none none none none none none none none none none none none none none
tree_sizes=7186 7209 7230 7190 7210 7214 7192 7245 7206 7201 7219 7232 7227 7209 7212 7208 7221 7212 7225 7220 7230 7222 7227 7216 7207 7202 7233 7237 7219 7208 7232 7207 7229 7203 7228 7205 7238 7226 7216 7188 7253 7192 7200 7200 7248 7194 7219 7201 7194 7191 7208 7210 7167 7144 7217 7176 7181 7171 7139 7181 7227 7207 7210 7184 7180 7185 7148 7171 7202 7152 7178 7197 7188 7165 7144 7205 7172 7170 7142

Tree=0
num_leaves=63
num_cat=0
split_feature=145 31 145 112 125 112 145 131 148 130 148 112 148 40 132 57 26 31 57 125 63 94 124 130 134 40 72 134 145 26 134 114 131 57 57 58 134 125 40 57 134 57 72 63 145 31 124 62 42 134 114 74 98 134 114 138 134 48 57 72 134 134
split_gain=35880.4 11110.7 3822.31 2443.29 2010.17 1949.07 1659.3 744.412 712.948 597.267 590.306 438.735 423.092 389.313 380.396 316.577 273.913 265.704 258.97 258.327 227.689 225.738 237.734 223.15 210.471 187.773 181.091 178.694 177.405 161.005 158.507 158.215 148.367 173.965 145.873 144.74 142.664 136.142 129.917 129.812 120.881 130.842 119.031 111.872 110.008 104.807 104.344 114.744 103.218 162.639 102.147 90.3825 108.634 88.5781 84.9014 83.8212 82.4582 110.901 81.7189 78.0489 77.1034 74.0426
threshold=0.50352564454078685 0.17116679996252063 0.49660062789916998 -1.0000000180025095e-35 6.3150000572204599 -1.0000000180025095e-35 0.51364257931709301 0.0074587662238627681 1.0000000180025095e-35 0.16307650506496432 1.0000000180025095e-35 -1.0000000180025095e-35 1.0000000180025095e-35 0.23499999940395358 0.020214927382767204 -0.095000002533197389 6.5800001621246347 0.16118751466274264 -0.10500000044703482 6.4349999427795419 0.16155765205621722 6.6050000190734872 0.23499999940395358 0.17335470020771029 515.00000000000011 0.20499999821186068 0.21499999612569812 125.50000000000001 0.51015287637710582 0.014999999664723875 125.50000000000001 5.3350000381469735 0.0090110516175627726 -0.054999999701976769 1.325000047683716 6.6449999809265146 129.00000000000003 6.3150000572204599 0.22500000149011615 -1.0000000180025095e-35 124.50000000000001 -0.074999999254941926 0.18500000238418582 0.16209235787391665 0.50666466355323803 0.1657967492938042 0.32500000298023229 6.7149999141693124 4.5000000000000009 125.50000000000001 4.9649999141693124 5.5000000000000009 1.1050000190734866 518.50000000000011 4.8650000095367441 7.0000000000000009 123.50000000000001 1.1479809880256655 -1.6549999713897703 0.12499999627470972 124.50000000000001 358.50000000000006
decision_type=2 2 2 2 2 2 2 2 2 2 2 2 2 2 2 2 2 2 2 2 2 2 2 2 2 2 2 2 2 2 2 2 2 2 2 2 2 2 2 2 2 2 2 2 2 2 2 2 2 2 2 2 2 2 2 2 2 2 2 2 2 2
left_child=2 3 9 14 -3 12 8 24 18 16 15 21 32 20 19 59 -1 -7 -6 -2 48 29 -23 27 34 37 53 38 40 51 31 -22 33 -4 42 -13 -15 -14 -12 -19 -21 -42 55 -38 -32 -26 47 -35 49 -10 -39 -11 -53 -9 -20 -5 57 -17 -27 -8 -25 -41
right_child=1 4 5 7 6 17 10 26 13 11 23 35 25 36 -16 56 -18 39 54 28 30 22 -24 60 45 58 -28 -29 -30 -31 44 -33 -34 46 -36 -37 43 50 -40 61 41 -43 -44 -45 -46 -47 -48 -49 -50 -51 -52 52 -54 -55 -56 -57 -58 -59 -60 -61 -62 -63
leaf_value=-0.088461863065487478 -0.098937445429913923 -0.099782866871661879 -0.039098488534883714 -2.5137888124556441e-05 -0.019405159304982003 -0.08453583539956179 -0.020661014623758883 -0.057878167322269906 0.0076057313060865972 -0.057157245278293134 0.051559768629094206 -0.080655780483122941 -0.098199044676777758 -0.018939550168909615 -0.022257411166879709 -0.014718721102453834 0.070464076689147601 -0.065636631494574757 -0.0070592504784747351 -0.020985469221073368 0.018962799720736695 0.031244338437395047 -0.09891029265277658 0.06438445645539885 -0.063064703395853364 -0.065697449948231498 -0.028142165026242973 0.065402626958203716 0.030542581908677226 -0.071198083326794642 0.037782003434508368 0.046554715577802899 -0.052788320039373685 -0.01256285831333395 0.019221238270808565 0.076481143894784942 -0.011379598327116805 -0.0037169445177763095 0.01314157831051025 -0.006566242632788025 -0.035456096467445845 0.018137829202246523 0.0040921018030649669 0.039050708380280442 0.057625287858808452 -0.026524176830646496 -0.098521458292649702 0.048347058258077634 0.0059261283607307536 0.050021688378962564 0.021816637992148183 -0.024280905728878137 -0.060419971904529482 -0.079276459703184116 0.024888724427257512 -0.035080227319760279 0.051202198922292413 0.046607595337742683 -0.013404429235129193 0.019679428534379505 0.077125416289021087 -0.04504712623682984
leaf_weight=5030.9898958954291 46.556406708550639 229.77347499981988 821.94329826143803 215.47688359441236 635.37851549849438 997.94466078894038 174.03333849248884 1230.5999718003441 355.09277610294521 1009.3778451842372 1943.5311921266839 2465.6177958156331 27.263042955746641 316.72600531438366 723.59253684588475 116.20240597240627 26.912611226143781 876.36862171393295 253.92047434923006 297.15139920124784 802.3019121803809 148.56025165674509 45.383878939974238 1844.2728187022731 359.62483051372692 92.092373258958105 366.18411187431775 3542.7017845958908 1718.4438681008614 1019.76247893447 897.13172954130278 1479.1815745281056 394.15674904405023 1749.5814752906881 306.770827083732 14.372406065813264 158.11759582046943 584.2037527145294 248.60391347133555 152.23262204311322 123.39108157432929 1414.2143972901977 409.18958208503318 359.23850861769461 3221.7657215647341 434.08101791050285 33.317104888847098 80.40879613882862 461.59542165890161 622.1261122431024 1187.3336626300297 659.96897692173661 304.04548283544136 809.16876812884584 1143.5053484374948 816.95989131562237 2575.6791234017146 200.22293580509722 389.03378634626279 382.70997075717605 3463.420432674262 703.32205359893851
leaf_count=690801 5384 19093 74943 17430 45867 139922 11791 133848 3981 103499 12938 344729 2588 4349 60200 817 4565 110146 12157 2671 7793 8326 6667 8367 47077 7183 39788 79452 64443 141540 35294 10573 42042 129444 27629 2111 12054 25183 2362 18461 12589 82056 38747 15811 88083 46058 4385 2807 32525 16731 52104 55992 30238 91800 51377 86049 80019 808 21839 19643 47432 94813
internal_value=6.03232e-05 0.0302081 -0.0555399 -0.0166469 0.0472926 -0.0295873 0.0486357 -0.0406378 0.0337053 -0.075112 0.0596646 -0.0639514 -0.0120685 0.0399515 0.0108121 0.0415959 -0.0876094 -0.063972 0.00705133 0.0174616 0.0434067 -0.0516631 0.000611492 0.0653057 -0.0217641 0.00425813 -0.0605708 0.058452 0.0190004 -0.0550498 0.0474478 0.0368581 -0.0241551 -0.0199431 -0.0120645 -0.0797299 0.00747071 0.0116795 0.0472069 -0.052102 0.00818458 0.0138269 -0.0187262 0.0236418 0.0533084 -0.0431098 -0.0114851 -0.00987403 0.0254203 0.0346207 0.0133977 -0.0466891 -0.0357044 -0.0663841 0.0190831 -0.0277675 0.0482415 0.0240987 -0.0234717 0.00706212 0.0727048 -0.0382079
internal_weight=53512.8 34698.6 18814.2 9271.41 25427.2 8089.2 25197.5 4948.06 10706.1 10725 14491.4 5667.09 5359.33 8673.28 4323.35 3448.85 5057.9 2729.87 2032.8 3599.76 7839.2 3187.1 193.944 11042.5 2542.1 2279.93 2405.95 5734.84 3553.2 2993.15 6400.38 2281.48 3079.41 2685.25 1748.4 2479.99 834.082 1798.8 2192.14 1731.92 1834.76 1537.61 1441.63 517.356 4118.9 793.706 1863.31 1829.99 1438.81 977.219 1771.54 1973.39 964.014 2039.77 1397.43 1032.44 2892.1 316.425 481.126 556.743 5307.69 855.555
internal_count=3489414 1375086 2114328 755769 619317 725860 600224 528426 336595 1388468 263629 693102 362518 227194 227343 113078 695366 363342 109401 167143 194980 346262 14993 150551 262990 108897 265436 94752 161759 331269 141743 18366 253621 211579 169855 346840 32214 79875 15300 223420 97316 94645 142226 27865 123377 93135 136636 132251 53237 20712 77287 189729 86230 225648 63534 103479 81644 1625 29022 31434 55799 113274
is_linear=0
shrinkage=0.05


Tree=1
num_leaves=63
num_cat=0
split_feature=134 130 134 31 130 134 63 63 148 109 130 134 125 109 124 90 22 58 124 132 50 148 89 148 145 130 113 58 133 31 21 57 26 111 40 89 29 29 48 124 134 81 93 65 110 125 33 40 89 145 145 40 54 16 40 40 109 123 26 63 85 109
split_gain=24057.5 8561.72 6693.93 1990.36 1356.53 1237.34 1149.93 1052.99 994.071 890.007 576.647 494.282 447.042 445.662 441.976 407.303 385.679 360.888 288.323 274.987 268.685 268.465 266.263 261.586 259.876 249.185 248.411 240.334 234.842 231.511 231.081 229.318 222.785 214.703 211.887 209.053 188.216 172.855 171.85 171.208 164.019 160.495 157.382 151.061 145.887 142.915 141.588 141.412 140.17 145.577 136.054 132.09 143.29 131.567 128.516 127.926 127.285 126.348 137.725 121.734 118.509 117.893
threshold=234.50000000000003 0.16659535467624667 124.50000000000001 0.16388809680938723 0.16321313381195071 144.00000000000003 0.15986308455467227 0.17162506282329562 1.0000000180025095e-35 1.0000000180025095e-35 0.17203437536954883 418.50000000000006 6.4249999523162851 0.010486415587365629 0.33500000834465032 0.36500000953674322 3.5000000000000004 -0.014999999664723871 0.48499999940395361 0.017849086783826355 0.72377920150756847 1.0000000180025095e-35 -0.17500000447034833 1.0000000180025095e-35 0.51577508449554454 0.16599091887474063 1.5000000000000002 6.6449999809265146 0.14947943389415744 0.1626379266381264 -0.9444734752178191 -1.705000042915344 6.6250000000000009 2.5000000000000004 0.13499999791383746 1.325000047683716 -0.014166666660457848 1.0391666293144228 0.71660342812538158 0.37500000000000006 162.50000000000003 4.5000000000000009 1.0741667151451113 2.5249999761581425 -0.014865896664559839 6.4549999237060556 4.8350000381469735 0.32500000298023229 0.085000000894069686 0.51849859952926647 0.48375144600868231 0.16499999910593036 3.5000000000000004 0.32546131312847143 0.27500000596046453 0.27500000596046453 -0.0024261686485260721 0.11580634117126466 -1.0000000180025095e-35 0.16941177845001223 0.67659848928451549 0.01973156072199345
decision_type=2 2 2 2 2 2 2 2 2 2 2 2 2 2 2 2 2 2 2 2 2 2 2 2 2 2 2 2 2 2 2 2 2 2 2 2 2 2 2 2 2 2 2 2 2 2 2 2 2 2 2 2 2 2 2 2 2 2 2 2 2 2
left_child=2 4 45 11 27 8 28 12 25 19 18 44 -5 26 16 17 41 48 29 35 23 24 32 -12 -18 -4 54 50 -7 -8 -13 -19 57 -23 43 -6 -33 -38 47 42 -40 46 51 -31 -3 -1 -9 -36 49 -14 -2 -15 -53 -48 59 -30 -52 58 -11 -10 -29 -25
right_child=1 3 5 7 9 6 10 14 13 22 20 30 15 39 -16 -17 21 31 -20 -21 -22 33 -24 61 -26 -27 -28 60 55 34 -32 36 -34 -35 38 -37 37 -39 40 -41 -42 -43 -44 -45 -46 -47 53 -49 -50 -51 56 52 -54 -55 -56 -57 -58 -59 -60 -61 -62 -63
leaf_value=-0.091202788421308689 -0.083645024784827479 -0.054460548343034577 -0.00042436387678146197 -0.095441390013862953 -0.056608068877762707 -0.070684075320295095 -0.026806802456815767 -0.022118552619549744 0.008144622462489079 -0.025934944660300677 0.033294960318283703 -0.022480218064822834 -0.016481192283320824 0.02517738170333831 -0.095707648721242891 0.089268692118524617 0.0085658596556557106 -0.047995324539474131 -0.094269501042424361 -0.077829077251250267 0.030850997706139496 0.0089112782418404608 -0.014692875374106905 -0.00044852399848368933 0.030895186539817116 0.048964946663537824 -0.011965043388648788 -0.04539782443681345 -0.017311133148380311 -0.048621201378703599 -0.059438699083915802 -0.0098284401127605898 0.035534492591887484 -0.02721290293278052 -0.0045120086742935217 -0.018688567351208631 -0.026433756308006203 0.011566176027119554 0.020434204611993516 -0.092921340035714575 -0.0054328732898218509 -0.018131942376266693 0.045453192228291424 0.014158171551845154 -0.017988065327605801 0.063889288059107263 -0.011354062337720497 -0.066192913267100084 0.007938902881894196 0.015470768671267333 -0.080361746906296522 0.0077617829832488314 0.023155599049908437 0.011377243060287069 -0.029853722422539194 -0.064657543036501508 -0.060508420676767628 -0.094690037791232168 -0.04753108035108207 0.022933493169206814 0.041160494705759103 0.021379915924480981
leaf_weight=14.465714160818605 2807.5167488658335 313.47921394940931 275.23919978551567 169.83515171881299 2835.4530010113958 259.45646739040967 575.82812413136708 558.45327840611571 4046.8775707413442 1239.785050976323 1108.2511793511221 514.18327093415428 1894.7792412474519 10123.771147261723 107.71859289030544 94.44042259210255 2732.6793087052065 672.14586599625181 74.280377466406208 1470.372127647046 3564.7925926447497 1262.9836304261116 1861.7793671801919 2408.4108391765039 2491.0941565805115 3538.4986674772808 1299.9431908797706 116.28618450183421 2120.2014931149897 97.088515486684628 2404.7675717286183 4154.5003679140937 98.51710584317334 609.36788249551319 4545.4697121636127 417.6297335519921 4880.540971010807 318.54108764714329 1568.9057125739055 31.594233933778014 1005.1504187769024 1524.0825695854146 727.55805729224812 5354.0009550998802 2174.1782311496208 8030.9080569623038 876.05691400950309 94.3668156695785 1855.1754081304534 438.64781718724407 1379.4642336361576 2880.7923594092717 3182.0741050048964 2324.7821267528925 177.6140697770752 152.56505876407027 1980.1306428178214 104.43707733321935 1833.2346575963311 2120.9690492884256 59.326518354937434 831.82244449853897
leaf_count=1679 319577 26972 17898 16419 277311 24312 30485 11800 24912 89219 16167 37510 75166 66267 9411 1382 85518 44255 8412 162941 33133 8385 126235 14124 44181 50075 8385 3626 81806 6333 219313 116083 1513 3609 98095 37328 177602 6509 20130 3406 25071 53672 3141 88807 109439 56446 35504 3572 46964 8462 162987 26607 22937 43184 1793 9396 207933 9582 152848 7300 829 5456
internal_value=3.54479e-05 -0.0261421 0.0211548 -0.0112906 -0.0558114 0.0146072 0.00618747 -0.00573885 0.0216501 -0.0442048 0.0099866 -0.0389772 -0.0149144 0.0179659 0.00490016 -0.0139553 0.00577942 -0.0146443 0.00363342 -0.0598712 0.0206757 0.0133942 -0.0297973 0.0123317 0.0192161 0.0454009 0.0079441 -0.0738516 -0.0256575 0.00418619 -0.0529333 -0.0197936 -0.0383779 -0.00284968 0.00559632 -0.0517436 -0.0177646 -0.0241047 -2.56403e-05 0.022487 0.0103342 -0.00444826 0.0227053 0.0130357 -0.0225941 0.0636048 0.00110101 -0.0057735 -0.00231803 -0.0104727 -0.075494 0.0216815 0.0158424 0.00515497 0.0120233 -0.0205029 -0.068671 -0.0406748 -0.0388239 0.0132316 -0.0161223 0.00515764
internal_weight=108787 48576.4 60210.9 32372.4 16203.9 52165.5 23760.6 26965.8 28404.9 9861.21 21228.4 5406.61 14478.6 24591.2 12487.2 14308.8 12379.5 14214.3 13315.1 4723.45 7913.28 7096.12 5137.75 4348.48 5223.77 3813.74 7645.4 6342.72 2532.22 13240.8 2918.95 10025.7 3275.97 1872.35 12665 3253.08 9353.58 5199.08 7213.89 16945.8 2574.06 5283.37 16914.2 5451.09 2487.66 8045.37 3759.29 4639.84 4188.6 2333.43 6167.11 16186.6 6062.87 3200.84 6345.46 2272.77 3359.59 3177.46 3073.02 6167.85 175.613 3240.23
internal_count=3489414 2733269 756145 1181340 1551929 698020 465299 788106 232721 856977 349785 393234 492842 164748 295264 476423 285853 475041 280905 477580 68880 141693 379397 35747 129699 67973 42390 694952 115514 272493 256823 344449 253162 11994 242008 314639 300194 184111 146868 122358 45201 144160 118952 95140 136411 58125 90488 101667 130592 83628 690497 115811 49544 78688 34005 91202 370920 251649 242067 32212 4455 19580
is_linear=0
shrinkage=0.05


Tree=2
num_leaves=63
num_cat=0
split_feature=145 31 145 31 42 112 133 145 125 112 57 63 0 117 133 31 61 124 125 26 58 111 138 145 145 114 125 72 57 124 29 29 42 133 57 57 133 108 112 72 21 117 109 96 93 26 40 40 72 72 138 89 96 94 16 40 111 138 61 125 113 72
split_gain=19667.5 6684.99 2206.09 2031.76 1277.71 1142.41 1123.18 813.355 689.549 634.298 538.645 353.236 339.677 338.312 321.91 303.572 284.197 284.485 276.348 272.028 248.782 247.516 232.805 214.346 204.715 198.474 196.054 192.342 191.245 166.698 164.755 163.793 161.301 176.14 159.888 154.008 153.868 146.309 143.118 139.2 126.676 125.55 119.341 118.912 118.237 118.564 111.22 109.722 107.393 103.961 103.727 100.132 96.8564 96.6717 94.7691 92.2638 106.138 91.7205 90.7216 89.8699 89.3143 88.6541
threshold=0.50057229399681102 0.16797765344381335 0.49191269278526312 0.1761007830500603 4.5000000000000009 -1.0000000180025095e-35 0.15967295318841937 0.51849859952926647 6.3150000572204599 1.0000000180025095e-35 -1.0000000180025095e-35 0.16028036922216418 3.5000000000000004 4.8450000286102304 0.15967295318841937 0.16091074049472812 1.0991666913032534 0.21499999612569812 1.0000000180025095e-35 1.0000000180025095e-35 6.6549999713897714 -2.4999999999999996 7.0000000000000009 0.52537930011749279 0.48530715703964239 5.2550001144409189 6.4849998950958261 0.15500000119209292 -1.0000000180025095e-35 0.33500000834465032 -0.01916666608303785 -0.01916666608303785 3.5000000000000004 0.15610845386981967 -0.22500000149011609 -1.0000000180025095e-35 0.16490705311298373 0.0011361914221197369 -1.0000000180025095e-35 0.19500000029802325 -0.15059557557106015 5.2550001144409189 0.0019583645043894653 -1.1950000524520872 1.0975000262260439 1.0000000180025095e-35 0.13499999791383746 0.20499999821186068 0.15500000119209292 0.25499999523162847 19.000000000000004 -2.0149999856948848 0.66500002145767223 0.12499999627470972 0.84156545996665966 0.18500000238418582 1.5000000000000002 7.0000000000000009 2.2741667032241826 6.4049999713897714 -3.4999999999999996 0.27500000596046453
decision_type=2 2 2 2 2 2 2 2 2 2 2 2 2 2 2 2 2 2 2 2 2 2 2 2 2 2 2 2 2 2 2 2 2 2 2 2 2 2 2 2 2 2 2 2 2 2 2 2 2 2 2 2 2 2 2 2 2 2 2 2 2 2
left_child=2 6 16 8 7 18 38 13 -3 22 39 -6 26 29 -11 -7 24 42 -4 21 35 43 46 41 -1 51 -12 34 -17 32 -26 -14 33 61 -16 54 44 -23 -2 -8 -28 -9 -18 -20 45 -27 -10 52 -49 -39 -15 -24 -38 57 -21 56 -29 -36 -44 -13 -53 -5
right_child=1 3 5 4 11 15 10 23 9 14 12 59 31 50 27 28 17 -19 19 20 -22 37 25 -25 30 36 40 55 -30 -31 -32 -33 -34 -35 53 -37 47 49 -40 -41 -42 -43 58 -45 -46 -47 -48 48 -50 -51 -52 60 -54 -55 -56 -57 -58 -59 -60 -61 -62 -63
leaf_value=-0.077985213180842894 -0.032994075832018965 -0.090906468902730783 -0.09111426709588849 0.0045474830473683763 -0.01679976824175956 -0.070589756039512896 -0.046615214032383986 0.02807025257964757 0.031425532537772791 -0.037489211957590807 -0.093062247684240262 -0.088684136156555571 -0.0058517711961874816 0.030876362463687246 -0.033563428474544896 -0.054219112078813206 -0.044862286903745101 -0.090612698190913193 0.0026843847779064898 -0.062794269397841412 0.041150422018670127 -0.017786725004118969 -0.037557316016530645 0.044825209414323164 -0.046344889227238735 0.0085561377932695179 0.0068879452599947336 0.022534427814241881 -0.026690077792586947 -0.089812513251287432 -0.067661628146956004 -0.030314458380462279 0.0045424156645561256 0.021933351771819737 0.012475718833602103 -0.024784984524396717 0.017186114599611554 0.0084219374107048807 -0.058493058176369676 -0.015015083062011325 -0.0081006497884006309 0.0402802784069878 -0.011134005160377148 -0.031740047915347659 0.039695076049427465 -0.0098031279528647385 0.014616885859096516 -0.026608166572059264 0.010780345240985754 -0.030232648035330309 0.015576348172125215 0.018183760745921523 0.034489790099196033 0.016303669068043623 -0.030128244291920316 -0.0027965896731159436 -0.00061964530335221644 -0.014005751490565136 0.051820488504325246 0.010836653626072841 -0.00058677401584870232 -0.048962574075390952
leaf_weight=3076.9519714193884 784.18449918902479 179.50941021949984 132.62925554707181 1028.5844735651044 1491.7845703293569 1485.5150562496856 1424.8749144058675 6179.7166761785047 1880.1124051557854 695.15878194372635 58.292057386948727 22.2784613231197 999.15730671852361 7304.5495061274851 614.38119514402933 1442.3008854294894 197.9142075231066 164.90416359389201 298.8124892252963 611.61843016813509 110.23720337636769 1110.6081941059092 162.99028831860051 5299.4856873968383 1324.3957118079998 3654.9908048369689 2584.6769712143578 1214.5048877937952 1124.3023880994879 37.135665921494365 2910.8372102463618 2172.6471647337312 2515.2529400804779 7064.8367801001295 394.82037629990373 1367.5285900402814 5289.1305076004937 1842.296611194266 1864.2382984174183 462.10850937373471 3099.6035634936998 3200.6472938386723 219.8843556935899 1560.3136444009142 245.27709831343964 1157.5067873791559 2068.0209256401286 239.09414647798985 967.68825693114195 191.58209213591181 1307.7051385972882 744.05373647611123 955.07784203113988 433.55984554137103 350.90582287823781 1644.1130882013822 835.10629644826986 1893.0933915447677 76.804533567279577 5833.4073653984815 4257.6687282609055 83.200582117075101
leaf_count=402874 42576 18827 13620 17096 56990 188186 107771 36234 11104 43476 5222 2323 51413 45719 33887 147475 10674 15787 13622 57871 1532 66677 7284 23537 139111 63735 65703 29248 104477 3839 350638 146409 36680 65257 7311 98466 48715 63244 175312 27905 95861 13668 7742 89896 2082 35725 15878 3734 10804 9097 17369 14315 11283 9499 24841 49046 22567 61881 416 73649 69853 2381
internal_value=5.91352e-05 0.0105437 -0.0450571 0.0166749 0.0238258 -0.0311663 -0.0217735 0.0279094 0.00665548 0.0072538 -0.0146174 0.00491699 -0.00947912 0.0211731 -0.00504417 -0.0525946 -0.0653171 -0.0338433 -0.0197032 -0.0184248 -0.0321103 -0.0117477 0.0116475 0.0367836 -0.0681533 0.00919482 -0.00222487 -0.00183322 -0.0421675 0.0152472 -0.0610019 -0.0226105 0.0156163 0.0190223 -0.0105355 -0.0355844 0.0125994 -0.00319563 -0.0509506 -0.0388826 -0.00128524 0.0322383 -0.0148436 -0.0262079 0.0058678 0.00413979 0.0226242 0.0171681 0.00336478 0.00477432 0.0285542 0.000948644 0.0198353 -0.00533162 -0.0509071 0.00602626 0.0131025 -0.00943417 0.00522293 0.0104505 0.00220706 0.000522841
internal_weight=103945 84344.2 19600.3 70894.4 41368.6 11628.7 13449.8 34021.1 29525.9 29346.3 10801.4 7347.47 8914.38 19341.3 7724.74 4052.12 7971.69 659.507 7576.53 7443.9 2440.29 5003.61 21621.6 14679.8 7312.18 17673.5 5742.57 7029.58 2566.6 10729 4235.23 3171.8 10691.9 8176.62 3335.85 2330.05 12508.8 3144.49 2648.42 1886.98 5684.28 9380.36 494.603 1859.13 5057.77 4812.5 3948.13 7450.99 1206.78 2033.88 8612.25 5164.71 6244.21 2721.47 962.524 3693.72 2049.61 2287.91 296.689 5855.69 5001.72 1111.79
internal_count=3489414 1683168 1806246 964996 394742 879004 718172 261780 570254 551427 500284 132962 364608 188341 256915 440138 927242 34619 438866 425246 182710 242536 294512 73439 892623 267530 166786 213439 251952 125253 489749 197822 121414 84734 112578 181178 176078 139018 217888 135676 161564 49902 18832 103518 101542 99460 26982 74536 14538 72341 63088 91452 59998 78691 82712 100861 51815 69192 8158 75972 84168 19477
is_linear=0
shrinkage=0.05


Tree=3
num_leaves=63
num_cat=0
split_feature=25 130 133 8 134 32 130 112 8 8 72 130 8 8 134 8 125 124 72 57 40 72 57 8 117 130 109 89 134 109 8 72 10 40 117 125 109 8 72 33 8 33 8 72 40 134 40 125 26 40 125 26 134 8 72 145 8 98 29 139 134 31
split_gain=16585.9 5162.79 3053.48 1989.68 1682.58 1078.44 919.867 737.711 652.852 566.099 536.815 518.332 502.435 477.057 440.455 428.731 358.353 351.366 326.001 314.768 313.025 292.435 287.235 252.168 244.851 239.83 225.987 218.26 212.175 205.087 200.055 195.423 189.587 198.747 177.747 170.749 160.969 154.529 152.955 151.888 151.558 150.899 139.413 155.759 128.164 126.519 121.737 118.862 120.01 118.639 118.111 117.709 115.853 115.584 179.894 114.886 113.003 111.082 109.775 115.585 108.392 135.805
threshold=-1.0000000180025095e-35 0.16965173929929736 0.15962271392345431 0.20499999821186068 152.50000000000003 1.5000000000000002 0.16566344350576404 -1.0000000180025095e-35 0.19500000029802325 0.15500000119209292 0.15500000119209292 0.17405784875154498 0.12499999627470972 0.18500000238418582 518.50000000000011 0.30500000715255743 6.3150000572204599 0.37500000000000006 0.15500000119209292 -0.24499999731779096 0.14500000327825549 0.14500000327825549 -0.29500000178813929 0.12499999627470972 2.3549998998641972 0.16307650506496432 0.0072748938109725722 -0.014999999664723871 412.50000000000006 0.01214324636384845 0.21499999612569812 0.11499999836087228 3.5000000000000004 0.17500000447034839 6.5450000762939462 6.5150001049041757 0.0068567637354135522 0.12499999627470972 0.25499999523162847 5.5050001144409189 0.10500000044703485 5.1150000095367441 0.13499999791383746 0.18500000238418582 0.17500000447034839 363.00000000000006 0.18500000238418582 6.5850000381469735 -0.024999999441206452 0.18500000238418582 6.5450000762939462 0.27500000596046453 422.00000000000006 0.23499999940395358 0.20499999821186068 0.51764211058616649 0.064999999478459372 1.185000002384186 -0.059166666120290749 4.5000000000000009 135.50000000000003 0.17216592282056811
decision_type=2 2 2 2 2 2 2 2 2 2 2 2 2 2 2 2 2 2 2 2 2 2 2 2 2 2 2 2 2 2 2 2 2 2 2 2 2 2 2 2 2 2 2 2 2 2 2 2 2 2 2 2 2 2 2 2 2 2 2 2 2 2
left_child=2 4 14 7 8 12 25 11 24 18 29 16 35 17 19 20 -3 22 47 51 -12 40 -8 39 -2 -6 -22 -20 -15 -5 49 36 -14 -34 56 -4 -25 -27 -17 44 -9 -26 -23 -44 -18 -39 -10 -7 -49 -21 -29 -1 57 54 -11 -28 -24 -42 -58 -60 61 -33
right_child=1 3 5 10 6 9 13 21 46 53 15 -13 32 28 -16 38 23 -19 27 30 26 42 34 31 41 37 55 50 -30 -31 -32 60 33 -35 -36 -37 -38 45 -40 -41 52 -43 43 -45 -46 -47 -48 48 -50 -51 -52 -53 -54 -55 -56 -57 58 -59 59 -61 -62 -63
leaf_value=-0.063980354921236757 -0.029877390614349533 -0.087747244807100055 -0.088600741709889339 -0.049156896904496761 -0.059280691669298106 -0.080932152485535674 -0.020210240243116503 0.0092283430866926097 -0.036286083684499031 -0.053387112055911651 -0.030910483372982658 0.037289251486880177 -0.0061279689689669251 -0.01765976132686357 -0.072714183588564449 -0.073795913162168769 0.025007475431900412 -0.088081608537540504 -0.024977004692772399 -0.038457621068239453 -0.0025104072180640049 0.030183575763963882 0.021706935955107164 -0.015496169352525369 0.006815173502630275 -0.01632895747475498 0.0086907037767841519 -0.088359510401352162 -0.045081407838704901 -0.0075450479484131172 -0.066245422166185966 0.0027134028800108213 -0.051310517906543 -0.0079253814303078558 -0.028449400607175476 0.020083972712013232 0.014345895949433167 -0.026587924213578296 -0.018641815267115943 0.032737523968706772 -0.015071547293383645 0.020151676439422977 -0.0080156713148299575 0.020654653866510664 0.0022030924872175335 -0.053101851571604498 -0.0094309143388976811 -0.010679826943317183 -0.036091082376082682 -0.01053365725328357 0.022051402911231237 -0.0042832365880454693 -0.030761565534630959 -0.066676861534916324 -0.023632040038951817 0.027940340538919035 0.017999162393778596 0.02210984631019464 0.01251302125685381 -0.0056121106613201063 0.016968077148862004 0.02876219294906239
leaf_weight=2927.2889001008589 312.75866313220467 71.730164398672059 36.420098385540769 782.56716136413161 994.03952188324183 115.21788324951194 2041.4646763702622 1219.2485380058642 655.36072427150793 1675.724658458028 515.55273247032892 8962.7466046811314 1818.1603466849192 1986.6373250315664 3904.398686652421 211.51343448588159 4735.8366070245393 124.33189988078084 498.8674584768014 1820.9399338676594 2163.1715932234656 1381.598085346166 726.58330311230384 655.15847441041842 3418.211191647104 1128.5476677011466 1515.4718293910846 24.623465373413637 1094.3603668930009 476.48764642758761 548.15289957867935 551.16710844123736 611.88693183823489 464.33995640405919 477.99628061463591 1735.4769138633274 1453.5870604753727 896.60482683381997 309.95553401391953 8521.5631575877778 614.85710668680258 5591.6468891310506 774.46207807166502 1218.5718445624225 708.3781333710067 906.71892413427122 1184.917675799923 646.63380741630681 1655.1831787152914 481.3707170675043 685.13562074990477 85.047282114392146 633.52087174449116 768.25739559833892 730.62297373753972 1587.4982913499698 808.60036237246823 297.739461340243 1114.9373914290918 4159.6081612193957 6299.8311905575683 5439.1246170541272
leaf_count=330390 16333 7451 3254 18307 151380 10841 107287 30540 17321 139869 9241 37966 54376 83225 507911 5042 38741 14196 36868 147873 35749 23930 22025 8729 62024 97852 17821 2261 84185 5542 56822 3180 38011 21542 23615 48807 12615 81227 5254 55585 18467 65986 20631 22420 10003 113133 26947 40482 129822 37787 32191 2372 26815 68489 48541 8362 22452 4607 41415 172291 72878 28135
internal_value=6.31955e-05 0.0106408 -0.039153 0.0200549 -0.00677453 -0.0216522 -0.0169365 0.0241666 0.00821011 -0.0343535 -0.00361831 0.0268037 -0.00314059 -0.0103207 -0.0596966 0.00233638 0.0234982 -0.00475147 -0.02085 -0.051022 0.00625384 0.00810305 -0.00363626 0.0237811 0.0135825 -0.0380552 0.0098948 0.000352839 -0.0274056 -0.0334182 -0.039099 0.0191367 -0.0159767 -0.0326043 0.00100758 0.0178257 0.0050729 -0.0308499 -0.0410622 0.0285686 -0.00395087 0.0150927 0.0179798 0.00951459 0.0220407 -0.0399303 -0.0190018 -0.0314502 -0.0289563 -0.0326228 0.0181614 -0.0622959 -0.0143434 -0.04977 -0.0443596 0.0185418 0.00307719 -0.00293546 0.000850417 -0.00177998 0.0215495 0.0263659
internal_weight=99958.4 78724.7 21233.7 51101.3 27623.3 11466.6 16460.4 43539.1 11162.9 6800.27 7562.22 37399.1 4666.28 12534.5 9767.2 6303.16 28436.4 9453.52 3625.66 5862.8 5781.69 6140 9329.19 28364.6 9322.62 3925.91 5266.14 1208.63 3081 1259.05 2850.46 14398.9 2894.39 1076.23 7287.73 1771.9 2108.75 2931.87 521.469 13965.8 2765.37 9009.86 3374.63 1993.03 5444.21 1803.32 1840.28 2417.03 2301.82 2302.31 709.759 3012.34 1546.12 3174.61 2406.35 3102.97 6809.73 912.597 6083.15 5274.55 12290.1 5990.29
internal_count=3489414 1730905 1758509 528011 1202894 675354 1014283 422693 188611 509364 105318 275283 165990 570691 1083155 81469 237317 403281 252465 575244 71173 147410 389085 229866 144343 443592 61932 71320 167410 23849 242482 125537 113929 59553 281798 52061 21344 292212 10296 104329 80429 128010 66981 43051 48744 194360 44268 181145 170304 185660 34452 332762 49889 256899 188410 26183 258183 23074 236158 213706 104193 31315
is_linear=0
shrinkage=0.05


Tree=4
num_leaves=63
num_cat=0
split_feature=145 134 25 25 8 8 130 8 130 134 112 125 125 134 8 130 57 63 125 8 134 145 16 63 8 26 113 125 8 130 8 117 61 63 134 10 29 8 40 40 114 124 125 100 139 8 40 130 26 111 130 40 134 109 40 8 109 145 25 40 64 25
split_gain=14186.4 4613.69 1776.82 1760.46 1321.4 906.404 779.735 545.262 468.111 440.708 370.895 365.659 365.298 336.119 319.955 291.728 281.098 257.047 247.18 242.655 236.409 232.03 221.408 203.265 200.185 197.197 195.93 171.139 167.018 165.395 163.388 154.601 147.307 144.949 136.328 126.817 125.361 123.695 122.807 121.918 121.485 121.291 117.096 112.148 109.94 109.898 109.166 107.355 104.303 103.5 101.712 101.415 98.9496 97.9508 92.7279 106.257 90.6178 88.1517 87.4874 84.4499 84.3359 83.0128
threshold=0.50004893541336071 223.50000000000003 0.22500000149011615 -1.0000000180025095e-35 0.23499999940395358 0.17500000447034839 0.17203437536954883 0.16499999910593036 0.16343764215707782 142.50000000000003 -1.0000000180025095e-35 6.3150000572204599 6.4549999237060556 518.50000000000011 0.13499999791383746 0.17254709452390674 -0.38499999046325678 0.15798312425613406 6.4249999523162851 0.12499999627470972 142.50000000000003 0.51541298627853405 0.38289338350296026 0.1555823162198067 0.25499999523162847 6.6849999427795419 1.0000000180025095e-35 6.3650000095367441 0.11499999836087228 0.16460080444812777 0.16499999910593036 5.1749999523162851 1.1341666579246523 0.16783837229013446 428.50000000000006 5.5000000000000009 1.1408333182334902 0.17500000447034839 0.074999999254941954 0.13499999791383746 6.9716665744781503 0.33500000834465032 1.0000000180025095e-35 -0.03499999921768903 4.5000000000000009 0.12499999627470972 0.2650000005960465 0.16298091411590579 0.054999999701976783 -2.4999999999999996 0.17192494124174121 0.22500000149011615 124.50000000000001 -0.015394143760204313 0.19500000029802325 0.28499999642372137 -0.0011154290405102072 0.51764211058616649 -1.0349999666213987 0.2650000005960465 3.5000000000000004 -2.1049998998641963
decision_type=2 2 2 2 2 2 2 2 2 2 2 2 2 2 2 2 2 2 2 2 2 2 2 2 2 2 2 2 2 2 2 2 2 2 2 2 2 2 2 2 2 2 2 2 2 2 2 2 2 2 2 2 2 2 2 2 2 2 2 2 2 2
left_child=3 4 5 14 6 12 9 11 32 19 23 -4 -3 16 25 26 -14 -11 -8 41 31 34 51 -10 33 29 40 -19 -18 -1 42 52 -5 -9 58 47 37 46 -21 -35 -13 -2 -25 -28 -40 -12 61 -16 57 -44 -15 -6 60 -23 55 -24 -46 -30 -7 -33 -20 -29
right_child=1 2 7 8 22 21 18 24 10 17 45 15 13 50 35 -17 28 27 20 38 -22 53 54 30 -26 -27 43 36 48 -31 -32 59 -34 39 -36 -37 -38 -39 44 -41 -42 -43 49 -45 56 -47 -48 -49 -50 -51 -52 -53 -54 -55 -56 -57 -58 -59 -60 -61 -62 -63
leaf_value=-0.055760088793064377 0.025798749106772514 -0.086107975827109912 -0.085825251530413094 -0.057190769186206095 -0.040342914423080203 -0.058274376133972128 -0.089922559556851633 -0.018492718447622122 -0.043297053892158044 -0.023941497071319894 -0.022883915426253842 0.012715185294671215 -0.026466481787313652 -0.04405498771198442 -0.070236817862367656 0.022096368356310358 0.0096557733777731664 -0.08378524605886957 0.028072512949114038 -0.027895814262514196 0.019812639061462065 -0.0496520440636192 -0.010313413092473883 -0.085146462117650895 -0.032147690762915994 0.026687976051895247 0.0075839219575617985 -0.064114997475492305 -0.010072312727958494 -0.031627039415592605 -0.022651686399193471 0.037862109677491873 0.00023226230313971998 -0.021165779391028542 -0.064595482827524212 -0.077672019544921353 0.043186491632696222 -0.0028010448759063322 0.0010421003741576073 0.0036412264704260935 -0.032773974970922534 -0.086126719951151134 -0.014833519816192593 -0.010652490822385605 -0.0056774307134944014 -0.050401840677843701 -0.029931047788798668 -0.053801323094299275 -0.027784643578775831 0.005931846710621639 -0.0068527413881399758 -0.014392298455547179 0.031016769598069233 -0.014487542832363063 0.0056437641409776747 -0.076634479861693305 0.018024051435459983 0.015153901415611602 -0.032661747913112056 -0.016162266093112422 0.011925696771786959 0.011858308391020138
leaf_weight=1985.4539551010821 7948.3724261918105 167.15858596353792 101.27919959602877 1193.9160127777141 743.10422652040143 512.34567679977044 44.819906054763123 1644.3897245363332 467.36230611801147 660.58097578026354 578.93437418458052 4505.2730987753021 1372.0903567317873 896.42616118001752 1667.3405216380488 3239.6642851419747 2107.1078594276914 49.816297340439633 1552.9254393498413 175.56574383494444 7411.8793059758609 267.28144349856302 435.23448067088611 40.946695271646604 869.53604752209503 92.926937108975835 1304.7542356210761 35.634086991194636 1364.8216153574176 1109.1189901436446 1384.7255842683371 5652.1012864839286 123.20003386773169 594.89839010871947 1146.4956471021287 1435.8383194687776 255.8535635615699 2170.302665134077 1328.9744013345335 2945.2364139584824 151.247798687662 23.805255271028727 868.03051155991852 2380.4365513732191 427.72589016216807 977.74302705517039 161.77536356891505 2498.8410972161219 594.00686223176308 1940.8480874467641 231.31468800012954 764.32702338218223 4714.3920940809185 763.14566460228525 1323.308350112522 69.67024864256382 6994.6790845523356 463.52410112286452 963.24704185093287 73.017469412647188 1689.5279778949916 7766.5600656207534
leaf_count=258594 56973 16726 11548 189502 17875 44742 3419 71450 40252 30823 61366 112295 95338 92971 226452 37885 81370 5959 4881 3184 61386 21726 6605 4795 39399 1927 37219 2849 68309 108006 94395 17986 5182 23567 118323 219561 1924 47433 13609 73041 6597 2424 49124 96635 4907 129004 4828 272340 35726 89304 12997 13273 24955 30951 15965 1980 58578 12693 60105 541 6274 129366
internal_value=6.34802e-05 0.00863648 -0.00752522 -0.042399 0.0174407 -0.0234637 0.019508 0.00222419 -0.0247323 0.0140349 -0.0190277 0.00853494 -0.013166 -0.0114254 -0.0576236 0.00936379 -0.00664437 0.00629472 0.0267569 0.0191189 0.027007 -0.0437484 -0.0130111 -0.0120218 -0.00995351 -0.0449616 0.00441782 0.00820895 -0.000637478 -0.0471171 -0.00856526 0.0309034 -0.0518215 -0.00622841 -0.051649 -0.0648235 0.00865404 0.00778013 0.0134556 -0.000529842 0.0112343 0.0254592 -0.00171792 -0.00419567 0.0142867 -0.0401785 0.0106637 -0.0603866 -0.00959131 -0.000486793 -0.0364307 -0.0271941 0.0263912 -0.0236285 -0.00131246 -0.0195316 0.0166579 -0.00367454 -0.0415715 0.0371717 0.0196621 0.0115072
internal_weight=97424.9 81059.6 28585.7 16365.2 52474 10849 49138.3 17736.7 7575.71 27999.6 6258.59 11682.7 7196.45 7029.29 8789.52 11581.4 5901.55 11100.5 21138.7 16899.1 21093.8 3652.52 3335.64 4701.91 6054.06 3187.5 8341.71 10439.9 4529.46 3094.57 4234.55 13682 1317.12 5184.52 2622.09 5602.02 10390.1 10134.3 8926.95 3540.13 4656.52 7972.18 2849.83 3685.19 8751.38 1556.68 7963.97 4166.18 2422.35 2808.88 1127.74 1507.43 7956.85 1030.43 1828.21 504.905 7422.4 1828.35 1475.59 5725.12 3242.45 7802.19
internal_count=3489414 1739610 1201613 1749804 537997 691977 482299 509636 662924 362857 468240 302179 416130 399404 1086880 290631 293436 223182 119442 139675 116023 275847 55698 277870 207457 368527 252746 192359 198098 366600 237618 54637 194684 168058 223170 718353 186400 184476 80278 96608 118892 59397 143223 133854 77094 190370 137043 498792 116728 138428 105968 31148 36110 52677 24550 8585 63485 81002 104847 18527 11155 132215
is_linear=0
shrinkage=0.05


Tree=5
num_leaves=63
num_cat=0
split_feature=130 31 25 134 8 57 8 133 145 112 133 8 133 130 130 125 125 8 26 8 50 15 72 40 125 8 125 61 130 90 42 40 8 40 26 72 8 10 8 40 31 123 29 26 130 40 123 134 125 133 123 1 72 63 57 57 40 134 145 133 72 8
split_gain=11872.4 3887.61 1610.05 1562.38 780.518 754.369 687.735 457.548 427.283 426.379 397.093 326.85 320.425 309.938 301.521 233.058 231.193 224.567 220.283 217.446 203.714 201.103 196.737 177.249 159.698 149.909 147.187 147.699 145.987 143.795 142.304 139.436 138.353 144.595 138.036 132.39 127.637 126.253 122.899 121.484 112.534 109.422 120.447 127.551 106.79 105.043 102.528 102.114 99.5968 99.0832 98.5038 97.8748 95.8352 95.123 93.6116 90.0104 89.6978 88.4557 86.4835 86.4692 84.3424 83.0846
threshold=0.16676993668079379 0.16698485612869265 -1.0000000180025095e-35 153.50000000000003 0.21499999612569812 -1.0000000180025095e-35 0.16499999910593036 0.15989138931035998 0.51764211058616649 -1.0000000180025095e-35 0.15719961374998095 0.17500000447034839 0.14619981497526172 0.1707025691866875 0.16998402029275897 6.4049999713897714 6.4449999332427987 0.11499999836087228 1.0000000180025095e-35 0.15500000119209292 0.37436982989311224 11.250000000000002 0.10500000044703485 0.20499999821186068 6.5450000762939462 0.32500000298023229 1.0000000180025095e-35 1.1491666436195376 0.1757139936089516 6.6649999618530282 3.5000000000000004 0.19500000029802325 0.2650000005960465 0.095000002533197417 0.014999999664723875 0.15500000119209292 0.095000002533197417 3.5000000000000004 0.10500000044703485 0.22500000149011615 0.17628953605890277 0.13068196177482608 1.1274999976158144 -0.03499999921768903 0.16998402029275897 0.21499999612569812 0.11580634117126466 613.50000000000011 6.3849999904632577 0.16227846592664721 0.13507189601659778 5.8250000476837167 0.10500000044703485 0.16362378746271136 -0.40500000119209284 -0.39499999582767481 0.074999999254941954 462.50000000000006 0.51015287637710582 0.15557717531919482 0.28499999642372137 0.23499999940395358
decision_type=2 2 2 2 2 2 2 2 2 2 2 2 2 2 2 2 2 2 2 2 2 2 2 2 2 2 2 2 2 2 2 2 2 2 2 2 2 2 2 2 2 2 2 2 2 2 2 2 2 2 2 2 2 2 2 2 2 2 2 2 2 2
left_child=2 4 10 6 7 18 13 47 11 12 29 15 -4 30 32 -7 -9 54 24 41 45 35 61 26 -5 40 -14 34 48 -1 46 58 33 -8 59 -19 52 -13 -11 44 -24 42 43 -12 -17 -15 60 -2 -10 -6 51 -22 -20 -33 -18 -23 -42 -50 -26 -28 -3 -16
right_child=1 3 9 5 49 8 14 16 28 38 19 37 23 20 22 39 17 21 36 -21 50 55 25 -25 31 -27 27 -29 -30 -31 -32 53 -34 -35 -36 -37 -38 -39 -40 -41 56 -43 -44 -45 -46 -47 -48 -49 57 -51 -52 -53 -54 -55 -56 -57 -58 -59 -60 -61 -62 -63
leaf_value=-0.066502871565248423 -0.032385332221585315 0.020396754383452551 -0.053376506895531375 -0.075154597810352566 -0.065426237425322845 -0.081749239997878476 -0.059155679571884202 -0.08367775813626227 -0.084258671646285976 -0.020537890359209637 -0.0083620651246477783 -0.0040210092395702619 -0.080367468708667303 0.02177448074495791 -0.014446400218413959 0.0035035559633512154 -0.026755624638935591 -0.045284086399325234 -0.030121660787510541 -0.055504179838460545 0.025943049840515431 -0.035493144511248818 0.0046529380279267413 -0.029100902752347547 -0.008256200762605654 -0.041553688525258071 -0.016748399252443858 0.033636633547547021 0.030283857926570387 -0.0085386478098331952 0.0062820160621693683 -0.030768094927718165 -0.03691541757681828 0.00073445493820626143 -0.025855429719100226 -0.0157067503559391 -0.032521893917146258 -0.023464612443415297 -0.049889718678695974 -0.012075975078657462 -0.047942053101539477 -0.082620263129100674 0.021719466661094363 -0.039446998527444939 0.014112415186149444 -0.0026496538293339675 -0.076110797132384056 -0.063751582723260466 0.016067514681510409 -0.040652800288250857 -0.085701247817198817 0.035639255420661813 0.019853778390250088 -0.0028841275873548477 0.0074911482511619155 -0.0033186581668988948 0.018919168330298039 -0.0017301789786835411 0.0083574162616940947 0.0026341014499935678 -0.020821648126557877 -0.10325686492494379
leaf_weight=4239.1457274656277 1408.074895459984 7279.0944705370348 516.15651039464865 81.302185595501214 826.81468654284254 73.065405199769884 104.10278574028052 102.0892754944507 25.533057662425563 469.76112050260417 425.70599891268648 2686.2791351011256 66.733861855929717 7095.2356994274305 390.31242863181978 4516.9012939250097 219.72213383333292 709.85058412095532 162.40828755660914 1892.1304774072487 4794.1021376205608 240.20773135358468 1903.9144300927874 1177.6372620753245 1416.2123564368812 116.67986064543948 802.27666330034845 223.85118852742016 1601.3457614898216 109.92768572736531 2904.9591919005616 712.08751265471801 303.78250499465503 2758.6780246068956 847.0152160396101 811.23370926501229 1551.606559047359 1211.0608116696822 1493.8469602020923 730.58440058771521 50.078971595969051 101.79507205076516 108.02481196494773 1472.3622699528933 4996.0697993161157 469.22683568112552 27.551664317259565 318.6830515738111 5389.2226746232482 796.46455437177792 17.580594792263582 5717.0635339554865 232.82343221595511 536.05176204373129 2125.0908523584949 2244.1351166916429 6695.2819747850299 801.91359033191111 1751.6163142909063 2031.3435847396031 125.87989670108072 27.768217654665932
leaf_count=628825 125569 58128 69680 7488 91018 9368 3253 11142 2556 53764 40712 69215 8006 41500 4594 125901 19463 66105 10275 239397 21474 21005 15560 91709 62804 2188 59249 3072 15917 3436 48388 35016 7406 41570 78088 57119 93833 54052 216807 17648 1221 10949 3369 172124 87198 4969 2322 43251 64771 54848 1559 22487 8523 14928 81062 81983 43032 16405 41262 98610 1805 993
internal_value=-9.57773e-05 0.00784885 -0.0394058 0.0120201 -0.0216218 0.00303293 0.0182954 -0.0153344 0.00743418 -0.0227989 -0.0545774 0.00226993 -0.0158371 0.022575 0.00844353 0.00693005 -0.00921509 -0.00801151 -0.0120141 -0.0431963 0.0265213 -0.015205 0.0130307 -0.0120691 -0.00593044 0.0146291 -0.00701535 -0.00575152 0.0168226 -0.0650389 0.0156671 -0.00464759 -0.00486068 -0.00145335 -0.00815129 -0.0295201 -0.0260623 -0.0100652 -0.0428748 0.00756654 0.0153894 -0.0321376 -0.029556 -0.0324792 0.00907562 0.0202594 0.0193345 -0.0381909 0.013353 -0.0532874 0.031019 0.0312183 -0.000694199 -0.0187984 0.00427701 -0.00643608 0.0184193 0.0137623 0.000929987 -0.00285561 0.0196947 -0.0204613
internal_weight=95037.5 79059.7 15977.7 69257.4 9802.37 28476.1 40781.3 8179.09 22032 7628.62 8349.09 14214 5665.01 28430.7 12350.6 10316.6 6452.33 6350.24 6444.11 4000.02 18093.2 4005.43 9184.04 5148.86 4497.27 8765.96 3971.22 3904.49 7818.02 4349.07 10337.5 4415.97 3166.56 2862.78 3680.64 1521.08 1946.84 3897.34 1963.61 10243.6 8649.28 2107.89 2006.09 1898.07 9512.97 7564.46 7432.53 1726.76 6216.67 1623.28 10528.7 10511.2 395.232 1248.14 2344.81 2484.34 6745.36 6191.14 3167.83 2833.62 7404.97 418.081
internal_count=3489971 1712174 1777797 1059609 652565 737160 322449 506699 463031 678985 1098812 363382 408414 202632 119817 240115 337879 326737 274129 466551 91989 226212 67588 338734 161498 62001 247025 239019 99649 632261 110643 154010 52229 44823 235947 123224 112631 123267 270571 230747 59813 227154 216205 212836 213099 46469 62255 168820 83732 145866 45520 43961 18798 49944 100525 102988 44253 81176 104066 157859 59933 5587
is_linear=0
shrinkage=0.05


Tree=6
num_leaves=63
num_cat=0
split_feature=130 31 130 25 112 8 133 134 122 134 8 130 74 8 133 110 57 72 8 72 8 8 8 113 72 125 8 72 122 133 147 40 8 8 89 72 40 48 72 122 93 57 26 134 58 26 130 43 72 58 125 123 122 93 133 138 8 134 8 110 93 112
split_gain=10400 3615.22 1119.17 1073.47 970.775 633.624 547.953 525.89 425.683 383.733 363.192 318.649 281.499 278.827 277.746 244.123 221.269 218.818 179.135 217.108 177.634 171.021 167.315 165.869 157.14 156.897 155.362 149.487 146.761 144.752 144.279 142.524 135.65 127.05 123.155 120.514 126.268 106.591 105.437 105.128 140.489 120.406 104.043 102.114 101.324 105.45 100.546 100.543 99.6071 93.9882 90.2851 90.2581 90.1967 89.434 88.8163 84.772 83.8731 83.1098 82.9848 82.8609 81.3193 77.2585
threshold=0.1663337051868439 0.16947009414434436 0.16998402029275897 -1.0000000180025095e-35 -1.0000000180025095e-35 0.19500000029802325 0.16117701679468158 149.00000000000003 4.7866666316986093 139.00000000000003 0.19500000029802325 0.16307650506496432 5.5000000000000009 0.12499999627470972 0.15646826475858691 -0.0088914511725306494 -0.88499999046325672 0.15500000119209292 0.18500000238418582 0.14500000327825549 0.17500000447034839 0.16499999910593036 0.28499999642372137 -1.4999999999999998 0.15500000119209292 6.3650000095367441 0.2650000005960465 0.24499999731779101 6.558333396911622 0.16328711807727816 0.17572833597660067 0.2650000005960465 0.11499999836087228 0.15500000119209292 0.24499999731779101 0.16499999910593036 0.13499999791383746 0.2749317735433579 0.095000002533197417 6.5983333587646493 1.0875000357627871 -0.24499999731779096 1.0000000180025095e-35 234.50000000000003 6.6449999809265146 0.014999999664723875 0.17470248043537143 1.0000000180025095e-35 0.21499999612569812 6.6649999618530282 6.4349999427795419 0.10306365787982942 6.5916666984558114 1.219166696071625 0.14376738667488101 7.0000000000000009 0.064999999478459372 355.00000000000006 0.32500000298023229 -0.012397526297718285 1.263333320617676 -3.4999999999999996
decision_type=2 2 2 2 2 2 2 2 2 2 2 2 2 2 2 2 2 2 2 2 2 2 2 2 2 2 2 2 2 2 2 2 2 2 2 2 2 2 2 2 2 2 2 2 2 2 2 2 2 2 2 2 2 2 2 2 2 2 2 2 2 2
left_child=3 4 7 14 10 8 18 20 -4 23 25 60 33 24 49 35 -9 -15 19 -6 31 44 38 37 -8 -2 48 -24 -18 56 -17 51 -30 39 -12 36 -11 61 -7 -13 41 -41 -32 -34 45 50 59 -25 -19 -1 -16 55 -26 57 -14 -3 -27 -35 -36 -40 -5 -10
right_child=1 2 5 11 6 22 13 16 9 15 34 12 54 17 21 30 28 26 -20 -21 -22 -23 27 47 52 29 -28 -29 32 -31 42 -33 43 53 58 -37 -38 -39 46 40 -42 -43 -44 -45 -46 -47 -48 -49 -50 -51 -52 -53 -54 -55 -56 -57 -58 -59 -60 -61 -62 -63
leaf_value=-0.065401470863361663 -0.08021579541031551 0.023787860652738739 -0.081585053624496057 -0.054926185448831877 -0.050732178370223625 -0.037418162688541916 -0.012154911985605449 -0.025092703976987901 0.020087974656241847 0.0045372437898442645 -0.041676744420791556 -0.084145942882001001 -0.05295690412410662 -0.043253622342610099 -0.079614297408949056 0.0072384901184810654 -0.074577148807231985 -0.021363314531655315 -0.062759173478015476 -0.015458662643320501 -0.0028051254066461142 -0.057014477119359197 -0.05256759651726392 0.030183592583967335 -0.08121248905374312 0.021049766827834372 -0.055203744840705726 -0.0037115357971944755 0.0067068002896760104 0.0094884697028218661 0.020866016591527016 -0.057250654456941989 0.00075289885572522917 -0.03174848637386176 -0.0091648175394818242 0.013594213583308923 -0.024208103481106961 0.023886831502421674 -0.020946551485299295 -0.040050565729133278 0.024942412966670498 -0.011661113869016292 0.010316166411580025 -0.01428354285066997 0.017571735437764562 -0.049000692199924929 0.018667433150525763 0.0044064969107477777 0.0016657910953675741 -0.013153243262833993 -0.022968032647764598 -0.055420977194273857 0.02079143020657551 0.026931952171992315 -0.0027603868677921581 0.011403473729546306 -0.0091157901774575872 -0.057458310494750475 -0.077931188536621232 0.0048445144916022774 0.0098593602968633648 0.0044759945228089295
leaf_weight=3388.0380941345356 55.526609983760864 1908.3684054496698 104.6069292803295 918.32561489450745 1012.3589799408801 140.3708687328035 1471.0837569802534 1467.8640458525624 1567.5743555314839 821.91411865327973 596.17919240822084 62.760587770259008 92.082428104942665 1209.2550135010388 75.157362095080316 3367.1388130750274 71.922557246638462 1170.4445472717052 917.06430495588575 767.32099815038964 2140.677277107141 1608.2392691483255 236.74829365918413 9037.8019418644253 21.957019913708791 257.43443987960927 234.03698134724982 460.65910884016193 2367.0393567366991 4142.347927986295 11548.748807849712 69.707751385169104 1939.4956321321661 672.67856471647974 886.39806526061147 983.46530740009621 713.10435291589238 5073.9175235829316 331.65826542442665 628.72368621802889 167.61760293622501 920.45315354585182 2931.8635520825628 2701.602926021209 85.790707106003538 1060.5696112925652 1316.2355589021463 395.00746639561839 783.76091189449653 88.608664775034413 1023.981580206193 45.56067664292641 631.37116090452764 45.971087394980714 1830.9954901726451 5013.2477757448796 2162.1737632815493 594.31687017716467 45.67354116239585 4990.2697233007057 50.984814716968685 1602.8282946501859
leaf_count=547102 6786 12146 11680 161463 116135 4832 90686 87643 10229 23009 39573 7429 10396 107547 8609 48946 8336 78766 117888 72543 37668 221868 8256 35453 2553 8029 21686 6955 66990 90426 102831 2339 49131 60001 34891 19817 26282 22078 11356 65515 3826 85704 43728 111713 1311 141746 10981 2612 38458 2872 114956 2995 23101 1020 110715 65301 99665 92523 3225 59448 1095 7107
internal_value=-8.73682e-05 0.00674532 0.0121572 -0.0409909 -0.0142048 0.0162995 -0.0263282 0.00149503 0.018908 0.0191854 -0.00197198 -0.0252759 -0.0202003 -0.0173033 -0.0538188 0.0145063 -0.00742858 -0.0261867 -0.0448011 -0.0355324 0.00980638 -0.0445619 0.00298886 0.0245756 -0.00309343 0.00310216 -0.0167476 -0.0203224 -0.00376488 0.00381325 0.0165626 0.0136428 -0.00303288 -0.02954 -0.0239374 -6.64078e-05 -0.00882016 0.0193925 0.00538856 -0.0208252 -0.0184865 -0.023192 0.0187304 -0.00800047 -0.0356325 -0.0377495 0.0062965 0.0291044 -0.0121291 -0.0640719 -0.0268759 0.0143562 0.0173038 -0.0413395 -0.00517708 0.0148195 -0.00590264 -0.0438263 -0.0125745 0.00323542 -0.0515152 0.0121971
internal_weight=93029.1 79713.8 63349.4 13315.3 16364.4 45623.9 8218.65 17725.5 38148 38043.4 8145.73 5984.91 5015.6 5521.91 7330.39 20366.2 8547.92 3397.5 2696.74 1779.68 9177.56 3853.74 7475.94 17677.1 2124.41 6617.48 2188.24 697.407 7080.06 6561.96 17847.8 7036.88 7008.14 3092.52 1528.25 2518.48 1535.02 8244.32 6778.53 1779.56 1716.79 1549.18 14480.6 4641.1 2245.5 2159.71 6638.16 9432.81 1954.21 3476.65 1099.14 6967.18 653.328 1312.97 1923.08 6921.62 2419.61 1267 932.072 5321.93 969.31 3170.4
internal_count=3489971 1851820 899862 1638151 951958 455600 669363 444262 353772 342092 282595 599687 437129 362797 1038464 264613 323813 246457 306566 188678 120449 488490 101828 77479 116340 204906 138910 15211 236170 198120 195505 82781 227834 316018 77689 69108 49291 39414 86617 162474 155045 151219 146559 160844 266622 265311 81785 38065 117224 549974 123565 80442 25654 153544 121111 77447 107694 152524 38116 70804 162558 17336
is_linear=0
shrinkage=0.05


Tree=7
num_leaves=63
num_cat=0
split_feature=145 112 25 145 25 122 134 145 145 133 133 134 112 114 145 25 122 110 124 61 113 134 48 72 25 72 134 40 90 26 40 26 123 40 72 133 110 74 94 114 21 93 124 26 145 72 25 40 145 94 57 111 62 133 72 134 40 94 29 85 110 21
split_gain=9142.46 2838.28 1416.38 994.226 813.404 427.531 409.984 402.401 331.119 316.336 302.46 277.298 247.979 200.692 198.02 190.988 175.107 166.956 145.565 139.36 139.038 138.214 125.169 124.433 123.567 119.129 116.846 115.465 111.211 110.556 99.3578 96.6269 95.615 90.7873 125.486 89.8148 88.0719 87.3845 87.2698 86.1152 85.8686 92.1724 84.4797 82.6244 82.3408 79.2852 79.232 77.0916 76.7622 75.2539 73.1031 76.408 72.7779 72.3459 72.3367 72.1438 72.057 70.8224 68.9679 68.7316 68.6111 68.5054
threshold=0.50070038437843334 -1.0000000180025095e-35 -1.0000000180025095e-35 0.50803723931312572 0.064999999478459372 4.7866666316986093 139.00000000000003 0.49230207502841955 0.52006408572196972 0.1614596024155617 0.15719961374998095 149.00000000000003 -1.0000000180025095e-35 5.8450000286102304 0.51764211058616649 -0.55500000715255726 6.5083334445953378 -0.014538610354065893 0.33500000834465032 1.1308333277702334 -1.0000000180025095e-35 515.00000000000011 0.59737062454223644 0.23499999940395358 0.42499999701976782 0.14500000327825549 518.50000000000011 0.20499999821186068 6.6649999618530282 -0.024999999441206452 0.30500000715255743 1.0000000180025095e-35 0.078173078596591963 0.2650000005960465 0.19500000029802325 0.15972395241260531 -0.005032534943893551 5.5000000000000009 6.6250000000000009 5.3250000476837167 -1.0000000180025095e-35 0.11749999970197679 0.45000000298023229 0.22500000149011615 0.52136647701263439 0.18500000238418582 -1.5750000476837156 0.23499999940395358 0.52965325117111217 6.6050000190734872 0.085000000894069686 -1.0000000180025095e-35 0.074999999254941954 0.15356714278459552 0.2950000017881394 522.00000000000011 0.33500000834465032 6.6449999809265146 -0.029166666790843006 0.68828931450843822 -0.001147333125118166 0.69461452960968029
decision_type=2 2 2 2 2 2 2 2 2 2 2 2 2 2 2 2 2 2 2 2 2 2 2 2 2 2 2 2 2 2 2 2 2 2 2 2 2 2 2 2 2 2 2 2 2 2 2 2 2 2 2 2 2 2 2 2 2 2 2 2 2 2
left_child=2 3 10 11 9 -5 13 19 16 25 28 27 20 33 15 -8 -6 -17 24 37 42 35 45 40 31 -3 29 39 -1 -12 46 53 -21 49 -35 -18 -26 -4 -31 -2 60 -42 54 -33 -15 -11 -16 -22 -48 52 -14 -52 59 -13 -9 -27 61 -55 -24 -7 -19 -37
right_child=1 4 7 5 8 6 14 12 -10 22 26 18 50 44 30 17 21 23 -20 32 47 -23 58 -25 36 55 -28 -29 -30 38 -32 43 -34 34 -36 56 -38 -39 -40 -41 41 -43 -44 -45 -46 -47 48 -49 -50 -51 51 -53 -54 57 -56 -57 -58 -59 -60 -61 -62 -63
leaf_value=-0.061781625011665675 0.0033233353937782741 -0.05389469953722173 -0.05559022681363595 -0.080044915897084387 -0.078014690648907245 0.021954389076009481 -0.01445744154313049 -0.00010960928838200045 0.013253148738018592 -0.036723055693315562 -0.017818383562797847 -0.037412621640065348 -0.044733075798262037 0.022467670631801832 -0.016975195595725866 -0.027236383032168871 -0.023057829492376281 0.006622944849555318 -0.079017045422095783 0.014125919890564007 -0.016697029420087581 -0.018702184987165336 0.005606137749709343 -0.0037519875951591885 -0.021623827671065569 -0.022431813546024637 -0.053798645207071394 -0.0072654405424246926 -0.010960631392885702 -0.044292450866331406 -0.016435463168888949 -0.026645963632312183 -0.081949584910674889 -0.050781945339812389 0.0080282972229921232 0.0024668746094280371 0.0053542321528803616 -0.031945724841888422 -0.0077216687821742057 0.015816220525884134 0.0025384289140087182 0.025225662649246014 -0.079316995610707694 0.044287765500321194 0.032109756101662411 -0.012324978503018702 0.016064766342271577 -0.049906875323854231 0.030513405168835179 0.036284809513026164 -0.0032436836880884177 -0.036773992760538422 0.010676991593064906 -0.0069523511114683153 -0.034784451263301895 -0.047916381054720937 -0.056845959798278993 0.025983557599133785 -0.015093350529648376 0.011989573658224246 0.018018387125317319 -0.012982962996625366
leaf_weight=3760.1358531023143 2466.2999210894341 1042.1423451101873 931.60605820408091 116.58048937609419 88.848496407968923 5933.6367085555103 964.37938813021174 3039.7141451006173 2310.8336007911712 980.12294374505291 714.64265042461921 182.22172022145241 653.59514049033169 6601.2760112183169 168.16361415432766 315.59922644193284 518.290299203014 1812.2178613878787 68.618594738189131 165.01300456514582 1141.6128785141045 2018.8517880731961 561.19204044248909 1529.5736246069428 344.49034706444945 831.5120886368677 1141.6713714655489 1121.1224752751878 111.06528480199631 1743.0776909198612 226.77648865105584 1092.2364755010931 30.199905601562932 109.3493009400554 519.96265782485716 3788.5833022932056 2457.1735266782343 677.87516993959434 180.22865096665919 3130.5296958273975 3348.9108773273183 516.3021762445569 35.062565482454374 42.217037059599534 3339.1094418414868 505.24176228535362 8636.1743799869437 206.11564629012719 1029.1750590670854 497.77658763853833 315.3165176329203 368.19159824517556 3767.4698715412524 2703.9682127650594 157.73749352770392 418.00038222107105 56.852597239194438 173.21547350403853 1419.7828350720229 2445.9255365871359 4879.7677392070182 884.59105442627333
leaf_count=634652 37401 125343 165404 13676 10826 31640 45282 147498 36263 84825 73551 11794 91968 32043 7064 13010 31275 32220 8769 4201 79113 127766 23358 25648 16760 74084 165486 20636 3456 230716 2389 67480 3233 1899 4173 113300 68525 92628 8901 33649 61020 4183 4639 609 9420 30284 74230 18775 5235 1820 31812 54079 24090 100081 10388 54329 2512 2536 82548 15129 61210 39137
internal_value=-8.67009e-05 0.00702952 -0.0352506 0.0119079 -0.0121173 0.0153866 0.015626 -0.0201419 -0.00325536 -0.0269935 -0.0504977 0.000105745 -0.0138364 0.0203353 0.0109591 0.0069707 -0.00844192 0.00863742 -0.00681033 -0.0408072 -0.00830424 -0.00758601 -0.0174605 0.00957521 -0.00609646 -0.0414062 -0.0404254 0.00737818 -0.0603252 -0.0346285 0.0162578 -0.0115274 -0.000908581 0.016311 -0.00222278 -0.00330862 0.00203376 -0.0456447 -0.0408684 0.0103119 0.0115062 0.00557178 -0.00267804 -0.0239879 0.025708 -0.0284311 0.0170126 -0.0217926 0.0176048 0.0172335 -0.0327768 -0.0213194 0.0164513 -0.00690373 -0.00182537 -0.0309729 -0.0011424 -0.00496534 -0.00922944 0.0190466 0.0149332 -0.000458721
internal_weight=91337.9 75965.1 15372.9 60540.2 15424.8 46758.1 46641.5 7722.04 9666.85 5757.99 7650.82 13782.1 5917.35 23214.5 23427 13366.8 7356.02 12402.4 7064.14 1804.69 4580.24 7267.17 3466.34 12086.8 6995.52 2291.65 3779.62 6717.95 3871.2 2637.95 10060.3 4193.86 195.213 13274.1 629.312 5248.32 2801.66 1609.48 1923.31 5596.83 10557.2 3865.21 3232.51 1134.45 9940.39 1485.36 9833.51 1347.73 9665.35 12644.8 1337.1 683.508 12147 3059.41 3197.45 1249.51 4730.03 2877.18 1980.97 8379.56 6691.99 4673.17
internal_count=3489971 1669471 1820500 833621 835850 465381 451705 703738 361079 474771 1116762 368240 438272 120214 331491 242573 324816 197291 276554 265466 260413 313990 221015 184281 267785 253756 478654 91686 638108 313168 88918 182500 7434 78751 6072 186224 85285 258032 239617 71050 158633 65203 162525 68089 41463 115109 86529 97888 79465 72679 177859 85891 70859 114411 157886 128413 154949 102617 105906 46769 93430 152437
is_linear=0
shrinkage=0.05


Tree=8
num_leaves=63
num_cat=0
split_feature=145 134 25 25 145 134 40 145 15 125 57 63 138 114 145 133 134 134 125 122 125 29 89 110 134 72 94 133 110 145 125 94 26 133 72 110 29 74 145 72 30 53 40 74 108 124 145 58 26 114 133 1 16 133 95 94 139 2 139 61 26 40
split_gain=8211.69 2772.84 1038.26 860.753 551.055 445.957 394.345 385.641 345.249 327.922 291.278 278.816 221.429 212.176 206.784 164.335 144.163 143.512 140.946 138.39 132.835 131.923 123.73 121.007 114.195 112.213 111.981 120.515 108.477 101.995 100.336 95.2917 107.918 94.8043 92.4253 91.4154 90.6416 89.2989 88.771 88.4604 82.8627 83.4098 82.1259 81.3903 81.3209 80.8358 80.7064 77.3412 92.3664 77.2478 74.8525 70.6561 68.8469 68.4562 67.817 67.201 66.0965 65.7456 65.4823 75.1624 79.0237 63.8999
threshold=0.49900038540363317 238.50000000000003 0.22500000149011615 -0.46500000357627863 0.51721522212028515 518.50000000000011 0.22500000149011615 0.50995421409606945 7.9499998092651376 6.3150000572204599 -0.38499999046325678 0.15392252057790759 7.0000000000000009 5.805000066757203 0.51901397109031688 0.15646826475858691 144.00000000000003 139.00000000000003 6.4449999332427987 6.5083334445953378 6.4449999332427987 -0.030833332799375054 -2.0149999856948848 -0.01391983265057206 159.00000000000003 0.27500000596046453 6.6549999713897714 0.15726517885923388 -0.010415035299956797 0.5241074562072755 6.2950000762939462 0.38499999046325689 -0.014999999664723871 0.16413056850433352 0.14500000327825549 0.00051008246373385202 0.177499994635582 5.5000000000000009 0.52965325117111217 0.18500000238418582 0.074999999254941954 1.2232859730720522 0.37500000000000006 1.5000000000000002 -0.003695751191116869 0.39499999582767492 0.5082269310951234 6.7049999237060556 -1.0000000180025095e-35 7.0316667556762704 0.15726517885923388 6.4649999141693124 1.3187055587768557 0.1668265759944916 0.18377453833818438 0.17500000447034839 4.5000000000000009 22.954999923706058 4.5000000000000009 1.0741667151451113 -0.054999999701976769 0.16499999910593036
decision_type=2 2 2 2 2 2 2 2 2 2 2 2 2 2 2 2 2 2 2 2 2 2 2 2 2 2 2 2 2 2 2 2 2 2 2 2 2 2 2 2 2 2 2 2 2 2 2 2 2 2 2 2 2 2 2 2 2 2 2 2 2 2
left_child=3 4 5 15 6 10 9 18 52 -2 39 -10 25 26 20 -1 -13 38 -4 -9 -12 -22 -18 -8 -15 35 27 46 -20 43 -24 32 -32 -7 -25 -11 -23 40 54 53 41 -29 -36 55 -42 51 -14 48 -17 58 -26 -19 -5 -3 -6 -21 -34 -37 -30 60 -60 -45
right_child=1 2 7 8 17 33 23 19 11 12 14 16 13 24 -16 47 22 45 28 29 21 36 30 34 50 -27 -28 37 49 -31 31 -33 56 -35 42 57 -38 -39 -40 -41 44 -43 -44 61 -46 -47 -48 -49 -50 -51 -52 -53 -54 -55 -56 -57 -58 -59 59 -61 -62 -63
leaf_value=-0.061938570421224297 -0.078101449908314899 -0.045746417903387723 -0.07731696536127465 -0.049835947602377834 0.021372876349333214 -0.049240678351174225 -0.047473480036323047 -0.074973497326907654 -0.052061432855551384 0.012469353113351983 -0.078606566133750944 0.0029662933164225306 -0.018307525280718957 0.017225261663118954 0.0078974170659495153 -0.033188868222803522 -0.045146752651881582 0.011220363155623506 -0.026484519063862039 -0.0060071263867398673 0.00096700725144081888 -0.020949973471227346 -0.075834861347164911 -0.029138167913198804 -0.031195746296337191 -0.037250888487965254 0.023936962501651598 0.0077276934369348051 0.0051611768983486853 0.019315459323416474 -0.0037593412067300786 0.010937136692365563 -0.0063135505524280966 -0.022006433262398321 -0.00091370024150513049 0.0052177776265218507 0.010777892366556466 0.015974596492641428 0.035539306660226581 -0.017172983352563027 -0.030623933108332602 -0.0087674690207881819 -0.052789971555768436 0.01285517639247725 -0.0016725519048662861 -0.08022741261932928 0.0044934040446460502 0.0055673292416538378 -0.052913192403441181 -0.040440543095579595 0.0058572049488299803 0.02074681867031853 -0.023984227534332075 -0.0058800126271502575 -0.10035600733985102 0.026845445945165688 -0.029066084053484893 0.026203278196790161 0.0045096712185780452 0.019888811160541996 -0.013038272089001169 0.0020096222043853545
leaf_weight=2669.3763169780141 103.73124331934378 1033.1785718473839 74.531761398538947 1484.0378418480977 9968.9676263527945 1405.9144378534402 176.07311195414513 50.978727964451537 595.51258969726041 2968.8153152330196 80.359106060815975 843.60159054514952 998.74696809495799 6864.5239367187023 1239.2140059800586 932.37619757256471 429.69833748578094 5708.860117983073 731.8748439688934 1955.6290468021762 1121.3577065192512 3243.2342118791421 69.568858062848449 355.73399922717363 150.06561385677196 88.930418804520741 687.1364875161089 6375.1617702697404 1223.3567390621174 1466.8503906726837 901.05582319805399 311.39603144512512 398.03723160596564 415.09219974884763 2996.8332605212927 416.51785807637498 241.59351173404139 1611.2690977310995 1217.776922898367 548.1860966758104 280.21426534000784 870.66642755758949 77.786240830668248 3111.9179493470583 1784.6431982779177 22.10524955089204 634.2846041287994 75.298511563800275 1651.7480555379298 158.00222485209815 1438.4560737381689 2955.2806099274894 313.34999448247254 120.38092892523855 10.970113113988189 168.62379746604711 1617.7010249791201 3613.7086563048651 800.60626004659571 228.73332902800757 3224.8961093958933 2409.9031867738813
leaf_count=477254 13263 107633 10687 250778 40344 188352 10507 6086 93795 33876 9526 37745 40710 65735 40146 119213 56080 54140 59239 58101 53892 226883 9040 11045 7790 1647 5623 93272 49880 16267 81075 8334 40277 31204 54233 5955 7848 23395 3174 40677 9346 15953 2708 60612 29713 2249 12732 1775 246984 10932 34711 21354 39267 7071 253 2549 176447 26480 29451 4378 164451 45834
internal_value=-7.73077e-05 0.00594969 -0.00773071 -0.0380399 0.0124937 -0.0208113 0.00848154 0.0001893 -0.0264631 0.0104278 -0.0155018 -0.0198933 0.0107482 0.00824118 -0.0102641 -0.0531652 -0.0156972 0.0190497 -0.00918477 0.00677918 -0.0150667 -0.0139497 -0.019921 -0.00710686 0.0144298 0.0184206 0.0042903 0.00321412 -0.00838127 0.00724061 -0.0166277 -0.0153403 -0.018147 -0.0430405 -0.00502831 0.0191306 -0.0187491 0.0051084 0.0227913 -0.0337322 0.00322718 0.00574515 -0.00223451 0.00492301 -0.0056079 0.0142252 -0.00945277 -0.044349 -0.0458043 -0.00602812 0.00234815 0.0144708 -0.045337 -0.0415905 0.021234 -0.00339358 -0.0245759 0.0240354 -0.00503189 -0.00796329 -0.00954815 0.00812243
internal_weight=89724.4 77431.7 25054.4 12292.8 52377.3 9448.51 32493.3 15605.9 6963.96 28886.9 7627.5 5166.57 28783.1 21695.2 5925.76 5328.8 4571.06 19884 6442 9163.9 4686.54 4606.19 3727.46 3606.43 8453.05 7087.97 13242.1 12555 6367.47 9112.92 3297.76 3228.19 2916.79 1821.01 3430.35 6999.04 3484.83 10922 11197.7 1701.75 9310.69 7245.83 3074.62 7646.07 2064.86 8686.25 1633.03 2659.42 2584.12 5635.59 1588.52 8664.14 1797.39 1153.56 9979.94 2124.25 2015.74 4030.23 5477.59 4254.24 4025.5 5521.82
internal_count=3489971 1851907 1231699 1638064 620208 713232 498694 518467 792838 420201 493676 502793 406938 338980 338295 845226 408998 121514 329018 189449 298149 288623 371253 78493 108236 67958 230744 225121 318331 183363 315173 306133 297799 219556 67986 66311 234731 171679 43771 155381 148284 109225 56941 167096 39059 77743 53442 367972 366197 259092 42501 75494 290045 114704 40597 60650 216724 32435 248160 198280 193902 106446
is_linear=0
shrinkage=0.05


Tree=9
num_leaves=63
num_cat=0
split_feature=31 145 133 8 130 8 134 8 125 57 134 134 57 8 31 57 134 130 31 48 124 2 40 8 8 63 134 8 40 124 29 132 93 10 63 74 122 21 8 34 40 8 130 40 26 26 124 64 40 71 122 93 8 58 5 8 40 131 93 25 25 130
split_gain=7358.67 2270.79 1690.34 802.063 698.949 519.94 490.014 324.033 318.905 295.702 278.848 272.017 242.51 233.064 201.174 193.998 187.107 183.085 173.695 166.498 161.29 155.474 155.122 145.817 136.593 135.607 130.091 112.318 108.695 103.483 102.026 99.5824 96.1203 95.3342 94.3169 90.7785 86.4294 81.0666 80.1992 76.6464 73.0834 72.2389 67.3697 65.9436 65.456 65.1077 68.7435 64.0014 63.9708 61.8511 61.7156 60.9519 60.2477 66.9876 59.6452 59.0959 58.9289 58.4947 58.2857 70.618 58.1621 58.0027
threshold=0.16715701669454577 0.50666466355323803 0.15989138931035998 0.21499999612569812 0.16515050083398822 0.18500000238418582 144.00000000000003 0.19500000029802325 6.4049999713897714 -1.0000000180025095e-35 522.00000000000011 145.50000000000003 -0.38499999046325678 0.12499999627470972 0.17705376446247104 -1.0000000180025095e-35 358.50000000000006 0.16259050369262698 0.17377833276987079 0.40671683847904211 0.31499999761581426 30.695000648498539 0.20499999821186068 0.19500000029802325 0.10500000044703485 0.16320645809173587 348.50000000000006 0.33500000834465032 0.16499999910593036 0.39499999582767492 1.0158333182334902 0.02047680784016848 1.1308333277702334 3.5000000000000004 0.16999647766351703 5.5000000000000009 6.6050000190734872 1.0989337563514712 0.10500000044703485 35.020000457763679 0.15500000119209292 0.2650000005960465 0.17335470020771029 0.15500000119209292 0.044999999925494201 -0.03499999921768903 0.23499999940395358 4.5000000000000009 0.17500000447034839 6.5850000381469735 6.5083334445953378 1.1175000071525576 0.064999999478459372 0.034999999217689044 49.879999160766609 0.32500000298023229 0.17500000447034839 0.0098053403198719042 1.0691667199134829 -0.23499999940395352 -0.9750000238418578 0.17434149235486987
decision_type=2 2 2 2 2 2 2 2 2 2 2 2 2 2 2 2 2 2 2 2 2 2 2 2 2 2 2 2 2 2 2 2 2 2 2 2 2 2 2 2 2 2 2 2 2 2 2 2 2 2 2 2 2 2 2 2 2 2 2 2 2 2
left_child=2 4 10 6 17 9 19 11 -8 45 15 50 47 22 27 -1 41 -2 31 28 24 -21 34 43 -11 -20 -26 48 -3 32 35 33 52 -15 -10 -19 -32 56 -12 -24 -16 60 -23 44 57 46 -4 -13 54 -42 -6 -50 -14 -54 -5 58 -28 -17 59 -9 -7 -27
right_child=1 3 5 14 7 16 8 55 13 20 38 12 29 18 40 23 -18 30 25 21 -22 42 39 -25 26 61 37 -29 -30 -31 36 -33 -34 -35 -36 -37 -38 -39 -40 -41 49 -43 -44 -45 -46 -47 -48 -49 51 -51 -52 -53 53 -55 -56 -57 -58 -59 -60 -61 -62 -63
leaf_value=-0.05186523490622439 -0.053953273906412504 0.017584076499263298 -0.0026846378358254754 -0.031231078568780504 -0.079482104021585231 -0.035453723262066375 -0.075286188171034926 -0.061580449661461104 0.01011028365283566 0.0084852524027662635 -0.041939169168248025 -0.029555155526543697 0.014005020262649987 0.0043727047513988952 -0.018172374438324819 -0.0081626637011582362 -0.049757206795322959 -0.039042446219119821 -0.0078153990126311312 0.013127672858162354 -0.076296506787280061 0.021649915199596206 -0.024795291149678725 -0.051168560495518448 -0.0002451589599105073 0.008690949842485465 -0.022689637943913574 -0.061765297286593239 0.0076806241586725599 -0.074051935400342703 -0.075175163109848772 -0.025185442653672938 0.030255502273872234 -0.011575715396201182 0.02021145191029948 -0.016907298138935895 0.014898135985228237 -0.049238908822888755 -0.063224649759473325 0.0066547300991992749 -0.098837939047203893 -0.048875122138723609 0.029700998312324967 -0.0076961608253088704 -0.047341524689226672 -0.032958152199638102 -0.075351837394279392 -0.011094157951168818 -0.01070902957782857 0.0064745051299046133 0.0086767986604793859 0.033691344748535128 -0.00039917321718972157 -0.014716023930986222 0.028326976885475474 -0.056222348654797638 0.00043229879405250665 -0.039502658327608138 0.0081696125092098528 -0.01999420968250178 -0.010464217946005777 0.019257892428768273
leaf_weight=1751.2396977054887 709.45078420208301 8219.1243809715379 347.48841973079834 597.66556854627561 19.444076643558219 327.07235295482678 112.58522479259409 107.45310415397398 3869.0972349959193 1818.8585948108812 536.82249641790986 1195.6672344184481 499.20848320261575 2832.8055065876106 355.93836015136912 399.94307412742637 1226.339818149223 993.51038568327203 1045.5096183712594 3542.4613603127655 74.833546081325039 5840.9496854976751 340.15493296529166 557.4162195926765 2028.2986643522163 4765.0712145891739 838.0615612254478 124.89488210342824 4181.2392683706712 48.154857738409191 29.573908761842176 468.46360977820586 236.88848647358827 1399.5592168106232 5744.5570016484708 869.81663215090521 232.32418965408579 201.63358310621697 2639.4887863948243 448.78897316940129 13.516886361874638 221.72178344684653 4695.5619296960067 563.9411419890821 328.548380290973 1304.8826305443654 35.414086272474378 774.2757836523233 1929.1217676013475 2668.9756063537207 4513.8379798596725 80.042842864524573 2928.6119204186834 1132.6834560945863 44.834101861109957 117.32274221559055 410.40964146028273 237.01735322515015 170.96949826367199 1926.4926936371485 807.67529870022554 1785.7190264093224
leaf_count=280844 129622 51035 32704 22145 2210 29876 15183 12582 83852 84933 94143 100626 17014 60801 6666 41580 153113 135383 33622 19905 10837 32342 9928 79818 80628 65983 77501 5945 33240 7636 4196 25217 3050 54972 78091 81267 5555 25469 493392 7050 630 22022 14642 59637 41353 156270 4326 43755 46640 28172 68332 769 125258 57536 879 7654 29519 26792 4163 98613 48316 14737
internal_value=-6.34917e-05 0.00689913 -0.0299966 0.0117719 -0.00936925 -0.0164104 0.0138438 -0.00468353 0.00847247 -0.00938655 -0.0486709 -0.00120105 -0.00751407 0.00888954 -0.00579009 -0.0395912 -0.0356039 -0.0319626 0.00422949 0.018471 -0.00364986 0.0221923 0.0143978 -0.0292813 -0.00261649 0.0089039 -0.00842197 -0.0155175 0.0142452 -0.00149966 -0.0246106 -0.00332428 -0.000763761 -0.000901866 0.0161469 -0.0287169 0.00460306 -0.0198551 -0.0596344 -0.00691213 0.00310004 -0.0227947 0.0252391 -0.0212902 -0.0292222 -0.0276395 -0.00949502 -0.0223038 -0.013328 0.00592552 0.00828995 -0.00893223 -0.00237815 -0.00439342 -0.0270563 -0.0216985 -0.0150916 -0.0198463 -0.0198492 -0.0222058 -0.0176795 0.0115727
internal_weight=88269.4 71612.3 16657.1 55106.6 16505.7 9642.69 49291.6 13671 22812.3 7059.88 7014.42 11348.8 6815.49 22699.7 5814.99 3838.11 2582.81 2834.68 12297.1 26479.3 5372.1 14079 10402.6 2086.87 5297.26 7596.3 3478.4 2776.56 12400.4 4845.55 2125.23 4700.83 4797.39 4232.36 9613.65 1863.33 261.898 1450.1 3176.31 788.944 3038.43 1356.47 10536.5 1529.45 965.509 1687.79 382.903 1969.94 2651.66 2682.49 4533.28 2009.16 4560.5 4061.3 642.5 2322.24 1248.47 636.96 2204.92 2033.95 1134.75 6550.79
internal_count=3489971 1616898 1873073 712446 904452 755514 600600 548429 449436 502187 1117559 425417 354875 434253 111846 530024 253327 356023 255332 151164 308887 66889 178921 249180 298050 114342 213117 76378 84275 210494 226401 140990 202858 115773 161943 216650 9751 132489 587535 16978 35468 100214 46984 169362 109725 193300 37030 144381 70433 28802 70542 47409 199808 182794 23024 123012 107020 68372 115358 111195 78192 80720
is_linear=0
shrinkage=0.05


Tree=10
num_leaves=63
num_cat=0
split_feature=130 31 8 25 8 145 31 134 134 133 122 130 125 8 89 8 72 130 8 112 130 125 134 134 8 63 133 138 53 72 26 34 72 72 124 90 72 25 62 26 42 57 89 134 8 148 53 30 8 125 26 8 8 134 72 8 17 57 63 8 72 134
split_gain=6703.23 2437.8 853.058 734.261 692.83 481.529 389.537 370.408 294.522 257.287 227.32 224.357 211.224 197.52 190.574 182.672 172.841 162.763 161.362 140.592 139.373 131.922 124.573 124.44 123.76 120.342 112.858 107.504 112.625 98.0004 94.8035 90.0981 97.1815 89.174 88.6454 86.5745 86.2262 79.683 78.0935 91.6593 74.3295 87.4474 74.2631 73.3493 73.2067 71.5856 71.5815 71.5 70.8895 69.7 79.9099 69.0798 68.9139 68.5086 66.3858 64.4768 63.0251 57.851 57.3925 56.0096 55.9231 54.8652
threshold=0.1663337051868439 0.16901873052120212 0.16499999910593036 -1.0000000180025095e-35 0.18500000238418582 0.51187586784362804 0.17705376446247104 518.50000000000011 152.50000000000003 0.16353103518486026 4.7866666316986093 0.162742555141449 6.3650000095367441 0.14500000327825549 0.024999999441206459 0.25499999523162847 0.15500000119209292 0.17512644082307818 0.17500000447034839 -1.0000000180025095e-35 0.17159615457057956 6.4549999237060556 358.50000000000006 144.00000000000003 0.074999999254941954 0.15940837562084201 0.15439148247241977 19.000000000000004 1.0004805326461794 0.21499999612569812 1.0000000180025095e-35 25.090000152587894 0.21499999612569812 0.13499999791383746 0.45000000298023229 6.6250000000000009 0.18500000238418582 -0.21499999612569806 6.7750000953674325 -0.014999999664723871 3.5000000000000004 1.2749999761581423 1.2050000429153445 163.50000000000003 0.10500000044703485 1.0000000180025095e-35 0.77198943495750438 1.0000000180025095e-35 0.24499999731779101 6.5050001144409189 1.0000000180025095e-35 0.2650000005960465 0.10500000044703485 358.50000000000006 0.17500000447034839 0.36500000953674322 5.5000000000000009 -0.88499999046325672 0.15929580479860309 0.074999999254941954 0.085000000894069686 364.50000000000006
decision_type=2 2 2 2 2 2 2 2 2 2 2 2 2 2 2 2 2 2 2 2 2 2 2 2 2 2 2 2 2 2 2 2 2 2 2 2 2 2 2 2 2 2 2 2 2 2 2 2 2 2 2 2 2 2 2 2 2 2 2 2 2 2
left_child=3 4 5 13 7 8 15 12 31 29 -7 -5 -2 26 24 22 52 19 23 27 43 -10 40 -13 -14 -23 -1 -12 -29 -6 -26 -3 -33 -11 38 49 -32 -27 39 -25 54 -42 61 -8 -16 -20 -45 -21 -22 -28 59 -31 -9 57 -4 -17 -41 -15 -24 -51 -46 -35
right_child=1 2 6 11 9 10 20 16 21 33 17 18 14 53 44 55 -18 -19 45 47 48 25 58 34 30 37 35 28 -30 51 36 32 -34 42 -36 -37 -38 -39 -40 56 41 -43 -44 46 60 -47 -48 -49 -50 50 -52 -53 -54 -55 -56 -57 -58 -59 -60 -61 -62 -63
leaf_value=-0.053828073368042677 -0.074333562638025041 0.0020171476702460782 -0.0049118625828956678 -0.049291720909674965 -0.054473293394949718 -0.074136556575998769 0.0030613749162285812 -0.025858196342421091 -0.072373251082624754 -0.049399144306568436 0.019152684603208538 0.0083158213217309155 0.010600642516352357 -0.0568146323276503 0.014010610086260179 -0.022415470685488138 -0.0098923490670033681 0.02600409755107987 -0.039076910687091668 0.017752245594998863 0.013921149097329525 -0.018991381781732371 -0.059651479438284298 -0.0032306092317337396 -0.0042920902317131835 -0.029879657354809082 -0.073569381527797129 0.012759113635961756 -0.014914741273175623 -0.020247971920982297 -0.027379053740235776 0.016573249142566287 -0.0036278832417217808 -0.013110245042982901 -0.075303159440493081 0.018259107660990814 -0.0033414703677313085 0.00277841558131338 0.017042290605826346 -0.026588737997291848 -0.015924990284761551 0.0048076653669407825 0.0014417465993794955 -0.0070367137817761499 -0.024765095540210901 -0.012780124481349195 -0.047754176649278168 0.00031572474000500516 -0.00082526023476987343 0.0079089023504693347 -0.040295160489923522 -0.05459982827221687 -0.053490585211194236 -0.06024860290677353 0.0084546013036906186 -0.073552797877960527 0.016779438571758131 -0.034082609120286537 -0.014442212126330676 -0.025492872839111898 0.0023684806414789629 -0.037317066389197233
leaf_weight=731.3337704698788 101.96920188178774 1711.8000547201373 1518.5904562810902 671.97937120986171 1169.8305922833388 67.038241199683398 3270.0038996576332 371.74205466441344 64.59254038054496 207.40633216092829 15772.460478022927 598.16910396469757 622.73289796127938 551.45040474738926 1519.6026511084056 1114.3308924054727 693.25533235014882 4857.7604539553868 1052.0665407578927 834.20828249817714 5589.2305968622677 801.17815341881942 73.14499874424655 746.54951098572928 1520.1811368768103 192.75655608682428 99.595428382046521 2925.9036667746259 420.05029720545281 482.70223151682876 1408.6206017577206 6643.6129490353633 653.76902076671831 619.15973668289371 63.000979682779871 86.12987921340391 507.62670538737439 5571.8313963927794 171.85431563551538 1585.2327744029462 1374.502960520098 806.86314946995117 493.02441192953847 574.78312007302884 204.19261436723173 344.0276592586888 132.46778356155846 1988.7039065991994 954.02838703989983 160.337000497384 927.70301346213091 210.25472214934416 580.17350628739223 2386.4580356769729 2390.7749984634575 64.884957897942513 88.121989396866411 575.50253464933485 1531.5081986984005 573.92097483493853 2626.6258251224644 376.77778915886302
leaf_count=145898 13997 28223 25445 136869 150359 8753 55678 40988 9963 18335 95806 21956 30188 92804 41688 38506 63284 26771 138725 15716 38696 53739 8224 72402 82241 12873 13301 32293 6578 41929 110714 65025 9355 30640 9335 1447 26895 162285 4231 182777 45387 13018 17162 19043 10697 27699 7023 52569 9492 18751 152479 25462 82219 446941 31010 4014 5548 87749 64246 78524 91636 33358
internal_value=-0.000150977 0.00524018 0.00946614 -0.0358673 -0.0138315 0.013431 0.000776728 -0.00717851 0.00645566 -0.0328134 0.0174914 -0.0222939 -0.00297987 -0.0477193 -0.00211031 -0.00693817 -0.0288933 0.017722 -0.0183867 0.0158878 0.00728467 -0.0015425 -0.00412926 -0.0122809 -0.00990194 -0.000840228 -0.0371965 0.0174257 0.00928323 -0.0456413 -0.0136183 0.0123417 0.0147633 -0.0187178 -0.0169225 -0.0306007 -0.0210139 0.0016839 -0.0154891 -0.0178024 -0.000863481 -0.00825687 -0.0144289 -9.69469e-05 0.00515997 -0.0326037 -0.0146914 0.00547068 0.0117712 -0.0329942 -0.0305413 -0.0307028 -0.0427188 -0.0554372 0.00326244 -0.0252592 -0.0243006 -0.0452263 -0.0165209 -0.0181986 0.000407254 -0.0222822
internal_weight=87030.1 75616.7 61900.8 11413.4 13715.9 42505.7 19395.1 10156.7 15639.5 3559.16 26866.1 5321 8511.55 6092.43 8409.58 8874.6 1645.17 26799.1 4649.02 21941.3 10520.5 6630.36 7695.38 3252.93 4059.16 6565.77 2579.02 19118.4 3345.95 1862.79 3436.43 9009.18 7297.38 1696.37 2654.76 1847.69 1916.25 5764.59 2591.76 2419.9 6090.73 2181.37 1488.96 3977.25 4350.42 1396.09 707.251 2822.91 6543.26 1761.56 1661.96 692.957 951.916 3513.41 3909.37 1179.22 1673.35 1126.95 1604.65 734.258 2830.82 995.938
internal_count=3488959 1851523 939731 1637436 911792 579949 359782 594547 341463 317245 238486 599542 408056 1037894 394059 229850 186491 229733 462673 202962 129932 238860 187330 296249 250038 228897 410400 134677 38871 217750 219850 102603 74380 99495 274293 264502 137609 175158 264958 260727 114860 58405 81160 81744 144021 166424 26066 68285 48188 263055 249754 67391 123207 627494 56455 42520 188325 180553 72470 97275 102333 63998
is_linear=0
shrinkage=0.05


Tree=11
num_leaves=63
num_cat=0
split_feature=130 31 25 8 8 145 134 122 134 122 8 8 133 63 110 134 133 8 93 8 40 74 123 124 72 31 145 26 130 63 117 112 40 10 25 130 8 110 134 40 130 93 124 134 72 40 53 72 8 72 53 72 8 72 72 110 109 18 21 133 8 89
split_gain=6014.93 1743.91 1400.4 671.145 492.715 386.106 376.608 334.249 282.519 276.399 238.493 233.709 229.552 227.733 166.771 154.329 144.116 144.069 136.936 131.611 126.721 125.741 119.53 118.383 115.629 113.59 111.756 109.213 106.077 90.0031 102.339 89.5389 84.2027 81.0046 80.493 79.969 79.157 78.1905 73.4395 72.6899 72.3556 72.1251 70.935 70.4644 69.8319 69.2834 68.4822 68.2396 66.1111 66.0823 63.0171 62.8905 60.939 60.5611 60.4874 60.2752 59.8292 59.3529 59.255 60.2984 59.0535 58.2524
threshold=0.16755264252424243 0.17216592282056811 -0.20499999821186063 0.15500000119209292 0.19500000029802325 0.49507142603397375 412.50000000000006 4.7866666316986093 134.50000000000003 4.7866666316986093 0.13499999791383746 0.12499999627470972 0.16284271329641345 0.16278984397649768 -0.017185071483254429 364.50000000000006 0.15806566178798678 0.064999999478459372 1.0524999499320986 0.2650000005960465 0.21499999612569812 5.5000000000000009 0.097695257514715209 0.45000000298023229 0.064999999478459372 0.16388809680938723 0.51143109798431408 1.0000000180025095e-35 0.17356482893228534 0.16941177845001223 5.1749999523162851 -1.0000000180025095e-35 0.12499999627470972 5.5000000000000009 -1.7549999952316282 0.16259050369262698 0.31499999761581426 -0.021900323219597336 322.50000000000006 0.27500000596046453 0.1636636629700661 -0.017500000074505802 0.23499999940395358 348.50000000000006 0.17500000447034839 0.13499999791383746 1.470100522041321 0.15500000119209292 0.16499999910593036 0.085000000894069686 -0.59342557191848744 0.18500000238418582 0.085000000894069686 0.085000000894069686 0.20499999821186068 -0.011880374047905205 0.0010011437698267402 0.24951503425836566 0.72078537940979015 0.15935425460338595 0.23499999940395358 0.64499998092651378
decision_type=2 2 2 2 2 2 2 2 2 2 2 2 2 2 2 2 2 2 2 2 2 2 2 2 2 2 2 2 2 2 2 2 2 2 2 2 2 2 2 2 2 2 2 2 2 2 2 2 2 2 2 2 2 2 2 2 2 2 2 2 2 2
left_child=2 3 10 9 7 18 14 -3 29 -2 16 23 27 20 -5 39 -1 -14 21 34 46 -4 -20 37 -19 -8 43 52 31 45 57 41 50 40 -16 -23 55 -7 -26 61 -12 -15 44 60 -18 -9 -10 -40 -43 -36 -28 -27 -11 -47 -41 -34 -17 -31 59 -51 -6 -13
right_child=1 4 5 6 26 11 25 8 13 12 33 15 17 28 19 56 42 24 22 -21 -22 35 -24 -25 38 51 32 -29 -30 30 -32 -33 36 -35 49 -37 -38 -39 47 54 -42 48 -44 -45 -46 53 -48 -49 -50 58 -52 -53 -54 -55 -56 -57 -58 -59 -60 -61 -62 -63
leaf_value=-0.044601270087489708 -0.072459268511436983 -0.073318838926911545 -0.043719669676167978 -0.05022622961766228 -0.00011767690178478313 -0.067364316723922221 -0.048847080630121227 0.019741683485063454 0.0041617856062832765 0.01510660118264996 -0.056916636770756923 -0.01359438071678654 0.022255102212831192 0.017264651379519384 -0.035502452807991074 -0.045776400818885316 -0.023725499908155642 -0.021792884076619133 0.0087923431592729605 -0.03394057629307401 -0.026506543880719449 -0.046871352626946416 -0.070799328834692657 -0.073127391463516503 0.0095118773827333296 -0.03664998418914759 -0.056007535240366627 -0.019698480920120533 0.01741617506876381 0.0093128056055920474 0.028980170849108224 -9.1281708298871482e-05 -0.01462516432625096 -0.064775621736362587 -0.039954168380568006 -0.014643620606033331 -0.026771119222571738 0.0031616332284589905 -0.0090898961854427463 -0.084136572580866154 -0.041522534500513346 0.010848614208163182 -0.071000737061610419 -0.037845522767937879 0.0064794340292763757 -0.016057786702727211 -0.025301575023231992 0.007586782850042436 -0.00077599180702535937 -0.035466314153832355 -0.0075602497758536433 -0.017548759568279164 -0.0069592978600117889 0.012516910470053886 -0.023677243654896426 0.0075373014778207046 -0.022864576830075076 0.021835400693280653 -0.015056395792641411 0.0010135926139957349 -0.018350460796462263 0.0018283620613621034
leaf_weight=1217.6316701344913 124.5340976708103 109.97373938676901 1542.6191770792939 245.3957732222043 1184.0240361230681 39.310020801378414 808.54846310126595 4904.5169083753135 2600.2355801133672 447.64331752667204 1368.1712928947527 2044.130732402904 1242.1797418252099 3611.1346228281036 213.77229848294519 485.1178761018673 900.51671601517592 415.35760750377085 330.59367417392787 447.75086218700744 454.73320548201445 246.33905950095505 54.509439949761145 52.461654532235116 4083.244195534382 785.13203147047898 91.232947701821104 1419.282051665592 6576.2595346564194 1479.9956360633951 3484.5640908419155 1993.8437184210634 326.71181729575619 986.20216749922838 124.56492827960756 878.38726089103147 188.59209356771316 3072.2949770204723 1331.8901803368353 54.390732549829409 1750.6464579793392 7057.9153817491606 64.601104092551395 204.1263968013227 242.71586060803384 192.10443094233051 212.90661486331373 1136.2950602795463 1479.370272913482 116.7254664672073 250.92464763321914 958.56096224952489 1036.2244200663408 5033.3061352118384 170.81342889228836 4925.2724709182512 694.79174414055888 2628.8850318014156 833.29020229890011 3361.8420051339781 710.15159372380003 873.79701018740889
leaf_count=224068 18108 14948 285154 27926 24603 6083 113129 26129 73484 18052 260237 110211 25459 42444 18462 79178 114294 17130 11050 26609 20595 54299 7726 8251 72353 69868 3107 115472 49926 8183 10973 47432 9447 220530 7625 88300 4457 152191 71336 5887 249060 87519 9042 12239 22021 2072 8464 36072 22791 7868 4669 55385 57013 32138 10547 46847 64349 11896 33414 90143 18971 41723
internal_value=-0.000145314 0.00644343 -0.0267131 -0.00638366 0.0113812 -0.0154389 -0.0175549 0.0135423 0.0137722 0.00146641 -0.0449059 -0.00932722 0.00229812 0.0102346 -0.0100062 -0.0168841 -0.0324628 0.00657176 -0.0304257 -0.00806546 -0.00203235 -0.0344489 -0.00255066 0.000998661 0.00377402 -0.0333537 -8.67393e-05 -0.0097851 0.0121695 0.0185596 0.0226758 0.00972916 0.0034999 -0.0522532 -0.00557066 -0.0217199 0.00501358 0.00225997 0.00539649 -0.0110927 -0.0482837 0.0113409 -0.0202125 -0.00996967 -0.0173128 0.015473 0.00192781 -0.00141236 0.00883433 -0.00412454 -0.0205411 -0.0261575 -0.000299758 0.011465 -0.0384333 0.00615737 -0.0323001 0.0173265 -0.00308494 -0.000215434 -0.00695643 -0.00897639
internal_weight=85903.1 68833 17070 19132.2 49700.8 10539.6 7895.58 41819.7 41709.8 11236.7 6530.49 7487.11 11112.1 23986.4 5343.34 4323.04 2425.47 8208.97 3052.45 5097.95 3267.88 2667.35 385.103 3164.07 6966.79 2552.24 7881.04 2903.15 20718.5 17723.4 7593.44 14142.3 5782.73 4105.02 4650.19 1124.73 5440.58 3111.6 6551.43 3143.13 3118.82 12148.4 1207.83 2098.3 1143.23 10129.9 2813.14 2468.19 8537.29 4436.42 342.158 1743.69 1483.87 5225.41 225.204 5251.98 1179.91 4108.88 4311.86 3478.57 1894.18 2917.93
internal_count=3488959 1464758 2024201 881424 583334 924949 450429 458994 444046 430995 1099252 478420 412887 352655 212047 311895 369425 222350 446529 184121 102543 427753 18776 166525 196891 238382 124340 190537 250112 91391 31052 200186 68527 729827 157512 142599 60751 158274 179761 168368 509297 152754 145357 55813 136315 60339 81948 107408 110310 139050 7776 125253 75065 34210 16434 56294 143527 20079 131425 98011 43574 151934
is_linear=0
shrinkage=0.05


Tree=12
num_leaves=63
num_cat=0
split_feature=130 112 130 31 25 8 8 8 72 130 124 133 74 138 138 8 8 130 74 8 130 72 8 8 40 133 40 93 72 26 125 8 113 25 40 122 95 72 133 0 123 122 8 133 72 25 61 125 26 25 124 8 138 133 40 72 114 95 72 95 40 7
split_gain=5461.41 1970 714.91 682.048 616.133 375.01 371.213 294.159 265.087 228.251 217.015 213.437 187.566 167.773 159.152 144.309 140.313 137.159 128.751 124.4 123.764 113.821 112.777 106.579 103.078 100.824 98.6333 95.0911 90.202 89.4683 84.0419 81.3494 76.5447 76.5117 75.5255 72.7349 71.4638 70.8413 69.6837 69.0032 67.328 66.8542 69.818 66.4087 66.359 66.2454 65.9352 65.3606 65.7886 63.3277 63.0394 66.338 77.2744 61.8997 61.7646 74.7439 64.9253 62.3452 61.507 61.3178 61.2049 60.7732
threshold=0.1663337051868439 -1.0000000180025095e-35 0.16998402029275897 0.16840637475252154 -0.38499999046325678 0.16499999910593036 0.21499999612569812 0.17500000447034839 0.15500000119209292 0.16259050369262698 0.37500000000000006 0.15935425460338595 5.5000000000000009 19.000000000000004 19.000000000000004 0.19500000029802325 0.31499999761581426 0.17356482893228534 5.5000000000000009 0.11499999836087228 0.17283280938863757 0.28499999642372137 0.10500000044703485 0.12499999627470972 0.12499999627470972 0.15719961374998095 0.16499999910593036 1.1008333563804629 0.21499999612569812 0.054999999701976783 6.3150000572204599 0.27500000596046453 -1.0000000180025095e-35 0.62500000000000011 0.28499999642372137 6.5983333587646493 0.16257650405168536 0.19500000029802325 0.16005029529333117 4.5000000000000009 0.090614661574363722 6.5083334445953378 0.095000002533197417 0.15646826475858691 0.15500000119209292 -0.20499999821186063 1.1474999785423281 6.5050001144409189 -0.024999999441206452 -0.014999999664723871 0.37500000000000006 0.074999999254941954 7.0000000000000009 0.15344992280006411 0.22500000149011615 0.35500000417232519 5.305000066757203 0.15319991856813434 0.13499999791383746 0.16627539694309237 0.20499999821186068 6.8350000381469735
decision_type=2 2 2 2 2 2 2 2 2 2 2 2 2 2 2 2 2 2 2 2 2 2 2 2 2 2 2 2 2 2 2 2 2 2 2 2 2 2 2 2 2 2 2 2 2 2 2 2 2 2 2 2 2 2 2 2 2 2 2 2 2 2
left_child=4 2 6 7 19 14 10 8 22 -6 13 33 23 21 17 20 24 30 26 47 50 25 -3 35 -7 -2 45 39 -9 34 -4 -30 -16 -5 -26 -11 -10 -17 -24 -25 44 -38 -43 -21 -14 -15 -28 -1 -49 -8 51 -13 -53 -37 55 56 -32 -58 59 -54 -27 -44
right_child=1 3 5 11 9 16 49 28 36 12 -12 15 40 18 32 37 -18 -19 -20 43 -22 -23 38 27 29 60 46 -29 31 -31 54 -33 -34 -35 -36 53 41 -39 -40 -41 -42 42 61 -45 -46 -47 -48 48 -50 -51 -52 52 58 -55 -56 -57 57 -59 -60 -61 -62 -63
leaf_value=-0.070863258660493297 -0.0047719342615591678 -0.015168525156714277 -0.070071837268219833 -0.047861615869514741 -0.04833773630005201 -0.0080856057189438637 -0.042653212869825291 -0.047568890445492722 -0.044305849398879854 -0.072792564766162887 -0.071942616281558222 0.014019706134095589 0.0050868622026196035 -0.02143353195167659 0.011278864790854062 -0.030493878741053332 -0.035715196112525931 0.022751955738153338 0.0067671217071406569 -0.058737207451914568 0.011296327822123716 -0.028004277902436654 -0.055916723861688993 -0.030857957581152597 0.0095831066514819666 0.011356727463399156 -0.021323778239762583 -0.0017691619074834278 -0.016528723593926917 -0.013262196739742571 0.0098954967822369455 -0.057277846978533387 -0.0028997142871739754 -0.015139412841199063 -0.007041012003255096 -0.043381816006905521 -0.073001060345738361 -0.0067705143425590411 -0.030059712922324146 -0.052044228911809515 -0.062273135334829026 0.023642587960476961 0.0057350885261270483 -0.044898585380875211 -0.013559788513377897 0.00092732677428529085 0.029831838321953311 -0.0082628785522380621 -0.036619953639193618 -0.016196332021014944 -0.069545381922723012 0.01397297181191689 0.00063501510202404281 -0.0085327002131874875 -0.0016043779419937733 -0.066486568755028466 -0.056488791248326509 0.017756494043514159 -0.0031343150581490927 -0.028650108352006071 -0.0013480462840053801 -0.017380605236003818
leaf_weight=104.15976173384115 1342.1837510340847 1068.0067205533851 28.735124149243347 296.01804796117358 771.60383305896539 1176.9456666941405 259.88321226183325 1339.2504264928866 90.77115626540035 52.110776608227752 95.223405255819671 536.6196358317975 826.49454827432055 390.92916483513545 3568.5306566985673 465.57916535146069 204.59443843562622 7977.0754451451357 2157.6976863986347 1759.62852841313 2660.9318333009724 223.22053842106834 356.28316115750931 1226.8941331870155 9916.9595417351229 8202.7836224861676 1356.2986274139257 207.50349457922857 556.35686669719871 496.72065768809989 3721.5619226486888 156.83417996927164 1297.8770259103039 451.21582178457174 733.41033986827824 144.35708923847415 29.273287770687602 970.03230741340667 979.88316472514998 562.35886634304188 53.502725214813836 314.31611864920706 773.15587806375697 1735.3199426145293 1127.5859685364412 2153.1610442538513 65.632030016276985 274.66102496604435 804.59688126784749 1737.5461970396573 34.593507089884952 457.17611833801493 259.59709797950927 1062.7856240120018 552.19357638293877 27.309796744957566 27.878092257073149 10713.525230634667 1826.9064548325259 573.25050937896594 1071.7117431261577 449.08735823910683
leaf_count=15007 44827 92942 4265 29341 169006 22157 27508 183422 9011 8127 14584 16219 61504 30155 45646 27929 6973 37219 70044 385536 51088 6514 58115 157780 97638 121778 66294 9250 48596 14418 34580 21377 23231 31003 9104 22657 4101 30624 99976 120979 6976 14214 47666 293388 90446 75863 836 41680 144421 62987 5744 10519 11933 110679 7384 423 661 77461 61440 34644 22210 36859
internal_value=-0.000138007 0.00468378 0.00872723 -0.0117435 -0.0335065 0.0124893 0.00074278 -0.0244901 -0.0166891 -0.0229464 0.0031309 -0.00260951 -0.01922 0.00355443 0.0157149 -0.000158623 0.00530228 0.0174497 -0.00306113 -0.0471254 0.00307873 0.00729168 -0.0272918 -0.0266306 0.00598465 0.00803508 -0.00840832 -0.0338146 -0.0399165 0.00747053 0.0146425 -0.0255235 0.00749751 -0.0281257 0.00843805 -0.0152304 -0.00129827 -0.0144721 -0.0369727 -0.0375294 -0.00719727 0.00120822 0.00264528 -0.0518734 -0.00567375 -0.00251222 -0.0189529 -0.0330874 -0.0294105 -0.0196484 -0.00285085 -0.00220992 -0.00500586 -0.0127164 0.0148067 0.0154321 0.0155891 0.0175612 -0.00827008 -0.0195271 0.00988864 -0.00276192
internal_weight=84858.3 74144.7 59499.6 14645.1 10713.6 40443.3 19056.3 6113.22 4060.78 6035.2 17058.8 8531.92 5263.59 16963.6 27914.7 7784.69 12528.6 23048.3 6123.72 4678.37 6349.08 10839.9 2404.17 3256.01 12324 10616.7 3966.02 1996.76 2052.44 11147.1 15071.2 713.191 4866.41 747.234 10650.4 1259.25 1656.6 1435.61 1336.17 1789.25 2007.58 1565.83 1536.56 3494.95 1954.08 2544.09 1421.93 1183.42 1079.26 1997.43 3688.14 3653.55 3116.93 1207.14 15042.5 14490.3 14463 10741.4 2659.75 832.848 9274.5 1222.24
internal_count=3488959 1851523 924760 926763 1637436 381160 543600 616279 362884 757404 453105 310484 588398 438521 230870 250140 150290 161993 243192 880032 191587 195329 251033 429472 143317 188815 173148 288009 253395 121160 124774 69973 68877 60344 106742 141463 111851 58553 158091 278759 158926 102840 98739 678924 151950 106018 67130 201108 186101 90495 140499 134755 118536 133336 120509 113125 112702 78122 108017 46577 143988 84525
is_linear=0
shrinkage=0.05


Tree=13
num_leaves=63
num_cat=0
